{"learner":{"attributes":{"scikit_learn":"{\"_estimator_type\": \"regressor\"}"},"feature_names":["D05022100","D05022150","D05022200","D05022202","D05022400","D05022450","D05022700","D05022701","D05022900","D05023200","D05104101","D05104301","D05104401","D05105501","D05105701","D05105801","D05110150","D05110200","D05110250","D05110300","D05110350","D05110400","D05110450","D05110500","D05110550","D05110600","D05110650","D05110700","D05110750","D05110800","D05110850","D05110900","D05344200","D05350354","D05350456","D05482100","D05482200","D05486880","D05490200","D05490938","D05490940","D05490950","D05491000","D05491050","D05491100","D05491750","D05491800","D05491850","D05491900","D05491950","D05492500","D05492550","D05492600","D05492650","D05492700","D05492705","D05492706","D05500010","D05500011","D05500012","D05500014","D05500022","D05500023","D05500030","D05500031","D05500032","D05500033","D05500034","D05500355","D05500455","D05500514","D05500515","D05500520","D05500525","D05500530","D05500535","D05500540","D05500545","D05500546","D05500547","D05500548","D05500549","D05500765","D05500790","D05600150","D05600250","D05600300","D05600350","D05600400","YY1038430","YY1068313","#ProdVol","hora","#prod","Intervalo_7-8","Intervalo_8-9","Intervalo_9-10","Intervalo_10-11","Intervalo_11-12","Intervalo_12-13","Intervalo_13-14","Intervalo_14-15","Intervalo_15-16","Intervalo_16-17","Intervalo_17-18","Intervalo_18-19"],"feature_types":["float","float","float","float","float","float","float","float","float","float","float","float","float","float","float","float","float","float","float","float","float","float","float","float","float","float","float","float","float","float","float","float","float","float","float","float","float","float","float","float","float","float","float","float","float","float","float","float","float","float","float","float","float","float","float","float","float","float","float","float","float","float","float","float","float","float","float","float","float","float","float","float","float","float","float","float","float","float","float","float","float","float","float","float","float","float","float","float","float","float","float","float","float","int","i","i","i","i","i","i","i","i","i","i","i","i"],"gradient_booster":{"model":{"gbtree_model_param":{"num_parallel_tree":"1","num_trees":"200"},"iteration_indptr":[0,1,2,3,4,5,6,7,8,9,10,11,12,13,14,15,16,17,18,19,20,21,22,23,24,25,26,27,28,29,30,31,32,33,34,35,36,37,38,39,40,41,42,43,44,45,46,47,48,49,50,51,52,53,54,55,56,57,58,59,60,61,62,63,64,65,66,67,68,69,70,71,72,73,74,75,76,77,78,79,80,81,82,83,84,85,86,87,88,89,90,91,92,93,94,95,96,97,98,99,100,101,102,103,104,105,106,107,108,109,110,111,112,113,114,115,116,117,118,119,120,121,122,123,124,125,126,127,128,129,130,131,132,133,134,135,136,137,138,139,140,141,142,143,144,145,146,147,148,149,150,151,152,153,154,155,156,157,158,159,160,161,162,163,164,165,166,167,168,169,170,171,172,173,174,175,176,177,178,179,180,181,182,183,184,185,186,187,188,189,190,191,192,193,194,195,196,197,198,199,200],"tree_info":[0,0,0,0,0,0,0,0,0,0,0,0,0,0,0,0,0,0,0,0,0,0,0,0,0,0,0,0,0,0,0,0,0,0,0,0,0,0,0,0,0,0,0,0,0,0,0,0,0,0,0,0,0,0,0,0,0,0,0,0,0,0,0,0,0,0,0,0,0,0,0,0,0,0,0,0,0,0,0,0,0,0,0,0,0,0,0,0,0,0,0,0,0,0,0,0,0,0,0,0,0,0,0,0,0,0,0,0,0,0,0,0,0,0,0,0,0,0,0,0,0,0,0,0,0,0,0,0,0,0,0,0,0,0,0,0,0,0,0,0,0,0,0,0,0,0,0,0,0,0,0,0,0,0,0,0,0,0,0,0,0,0,0,0,0,0,0,0,0,0,0,0,0,0,0,0,0,0,0,0,0,0,0,0,0,0,0,0,0,0,0,0,0,0,0,0,0,0,0,0],"trees":[{"base_weights":[-2.3755047E0,-2.5550825E1,7.839003E1,-1.0224976E2,1.6098502E3,-1.1730585E2,2.326537E3,1.1601741E3,4.473537E1,-1.8669815E2,2.7235815E2,2.7846321E1,1.4043366E1,9.45012E2,3.656337E1,-1.283987E2,-3.674115E2,2.449462E2,1.53817005E1,1.1814143E3,1.307705E2,-1.3540599E0,1.3353368E1,-3.7526364E0,1.2591776E0,2.1862247E0,1.4413367E1,9.44296E0,2.3674702E1,2.057037E0,-1.6367954E-1],"categories":[],"categories_nodes":[],"categories_segments":[],"categories_sizes":[],"default_left":[0,0,0,0,0,0,0,0,0,0,0,0,0,0,0,0,0,0,0,0,0,0,0,0,0,0,0,0,0,0,0],"id":0,"left_children":[1,3,-1,5,7,9,11,13,-1,15,17,-1,-1,19,-1,21,23,25,-1,27,29,-1,-1,-1,-1,-1,-1,-1,-1,-1,-1],"loss_changes":[3.7001366E8,2.5479464E8,0E0,7.121489E7,1.1199352E8,5.221039E7,1.158904E6,3.9511064E7,0E0,1.7209952E7,9.755156E6,0E0,0E0,1.4282152E7,0E0,1.2899282E7,1.592856E6,8.723512E6,0E0,1.4076072E7,2.0182697E5,0E0,0E0,0E0,0E0,0E0,0E0,0E0,0E0,0E0,0E0],"parents":[2147483647,0,0,1,1,3,3,4,4,5,5,6,6,7,7,9,9,10,10,13,13,15,15,16,16,17,17,19,19,20,20],"right_children":[2,4,-1,6,8,10,12,14,-1,16,18,-1,-1,20,-1,22,24,26,-1,28,30,-1,-1,-1,-1,-1,-1,-1,-1,-1,-1],"split_conditions":[8E0,3E0,7.839003E1,5E2,1E0,2E0,6E2,2.5E2,4.473537E1,1E0,7.2E1,2.7846321E1,1.4043366E1,1E0,3.656337E1,5E1,5.5E2,5.8E1,1.53817005E1,1E0,1.1E2,-1.3540599E0,1.3353368E1,-3.7526364E0,1.2591776E0,2.1862247E0,1.4413367E1,9.44296E0,2.3674702E1,2.057037E0,-1.6367954E-1],"split_indices":[80,93,0,58,96,93,58,20,0,41,72,0,0,41,0,51,41,39,0,71,41,0,0,0,0,0,0,0,0,0,0],"split_type":[0,0,0,0,0,0,0,0,0,0,0,0,0,0,0,0,0,0,0,0,0,0,0,0,0,0,0,0,0,0,0],"sum_hessian":[2.034E3,2.029E3,5E0,1.939E3,9E1,1.928E3,1.1E1,7.9E1,1.1E1,1.637E3,2.91E2,6E0,5E0,7.4E1,5E0,1.239E3,3.98E2,2.86E2,5E0,5.7E1,1.7E1,1.234E3,5E0,3.92E2,6E0,2.81E2,5E0,4.9E1,8E0,1.1E1,6E0],"tree_param":{"num_deleted":"0","num_feature":"106","num_nodes":"31","size_leaf_vector":"1"}},{"base_weights":[5.4938227E-1,-3.857656E1,5.441627E3,-1.8020944E2,5.8368304E2,1.6850696E0,8.938317E1,-1.8813972E2,2.0901318E1,4.9120557E2,2.6973037E3,-1.9679253E2,1.1544165E1,2.7981833E2,1.2238694E3,3.36205E1,1.6123014E1,-2.0188773E2,1.2626601E1,2.1974373E2,2.6771574E1,9.2887463E2,3.873335E1,-2.0793738E0,4.4027324E0,3.0426838E0,-1.2982583E0,6.394221E0,1.895832E1],"categories":[],"categories_nodes":[],"categories_segments":[],"categories_sizes":[],"default_left":[0,0,0,0,0,0,0,0,0,0,0,0,0,0,0,0,0,0,0,0,0,0,0,0,0,0,0,0,0],"id":1,"left_children":[1,3,5,7,9,-1,-1,11,-1,13,15,17,-1,19,21,-1,-1,23,-1,25,-1,27,-1,-1,-1,-1,-1,-1,-1],"loss_changes":[4.4727325E8,1.8394939E8,2.750709E8,3.1000824E7,7.4318984E7,0E0,0E0,1.9917792E7,0E0,5.727133E7,6.119376E6,1.27849E7,0E0,4.1177292E7,6.1273136E7,0E0,0E0,6.618112E6,0E0,8.430922E6,0E0,2.0059272E7,0E0,0E0,0E0,0E0,0E0,0E0,0E0],"parents":[2147483647,0,0,1,1,2,2,3,3,4,4,7,7,9,9,10,10,11,11,13,13,14,14,17,17,19,19,21,21],"right_children":[2,4,6,8,10,-1,-1,12,-1,14,16,18,-1,20,22,-1,-1,24,-1,26,-1,28,-1,-1,-1,-1,-1,-1,-1],"split_conditions":[2.8E2,2E0,2E0,4E2,3.5E1,1.6850696E0,8.938317E1,1.2E2,2.0901318E1,3E0,3E1,4.4E1,1.1544165E1,1E1,1E0,3.36205E1,1.6123014E1,5E1,1.2626601E1,1E0,2.6771574E1,3E1,3.873335E1,-2.0793738E0,4.4027324E0,3.0426838E0,-1.2982583E0,6.394221E0,1.895832E1],"split_indices":[20,93,93,58,73,0,0,57,0,93,72,51,0,77,96,0,0,21,0,42,0,58,0,0,0,0,0,0,0],"split_type":[0,0,0,0,0,0,0,0,0,0,0,0,0,0,0,0,0,0,0,0,0,0,0,0,0,0,0,0,0],"sum_hessian":[2.099E3,2.085E3,1.4E1,1.699E3,3.86E2,6E0,8E0,1.694E3,5E0,3.71E2,1.5E1,1.684E3,1E1,2.89E2,8.2E1,8E0,7E0,1.679E3,5E0,2.83E2,6E0,7.5E1,7E0,1.664E3,1.5E1,2.28E2,5.5E1,5.9E1,1.6E1],"tree_param":{"num_deleted":"0","num_feature":"106","num_nodes":"29","size_leaf_vector":"1"}},{"base_weights":[-5.50366E-1,-3.7662483E1,5.0986914E3,-5.973437E1,6.447393E1,1.7116718E1,9.893942E1,-1.1994079E2,1.2715663E3,-1.8598878E2,2.9766327E2,8.589907E2,4.445014E1,-1.9483887E2,1.7090502E1,2.6156732E2,1.8362747E1,5.8568384E2,1.9156132E3,-1.3457636E0,-3.8173552E0,4.09225E0,-1.3787018E0,4.43952E0,1.9053879E1,1.0973485E1,2.4301138E1],"categories":[],"categories_nodes":[],"categories_segments":[],"categories_sizes":[],"default_left":[0,0,0,0,0,0,0,0,0,0,0,0,0,0,0,0,0,0,0,0,0,0,0,0,0,0,0],"id":2,"left_children":[1,3,5,7,-1,-1,-1,9,11,13,15,17,-1,19,-1,21,-1,23,25,-1,-1,-1,-1,-1,-1,-1,-1],"loss_changes":[3.928726E8,2.953913E8,2.2668886E8,1.6486661E8,0E0,0E0,0E0,5.4308984E7,1.1270832E8,2.8827316E7,1.445932E7,2.1980632E7,0E0,1.9005392E7,0E0,1.5627144E7,0E0,1.1311966E7,4.069284E6,0E0,0E0,0E0,0E0,0E0,0E0,0E0,0E0],"parents":[2147483647,0,0,1,1,2,2,3,3,7,7,8,8,9,9,10,10,11,11,13,13,15,15,17,17,18,18],"right_children":[2,4,6,8,-1,-1,-1,10,12,14,16,18,-1,20,-1,22,-1,24,26,-1,-1,-1,-1,-1,-1,-1,-1],"split_conditions":[2.8E2,6E0,1E0,3E0,6.447393E1,1.7116718E1,9.893942E1,2E0,1E0,4E2,1.1E2,3E1,4.445014E1,1E0,1.7090502E1,1E0,1.8362747E1,5.2E1,4E0,-1.3457636E0,-3.8173552E0,4.09225E0,-1.3787018E0,4.43952E0,1.9053879E1,1.0973485E1,2.4301138E1],"split_indices":[20,80,103,93,0,0,0,93,96,58,41,58,0,41,0,41,0,71,93,0,0,0,0,0,0,0,0],"split_type":[0,0,0,0,0,0,0,0,0,0,0,0,0,0,0,0,0,0,0,0,0,0,0,0,0,0,0],"sum_hessian":[2.074E3,2.06E3,1.4E1,2.054E3,6E0,9E0,5E0,1.966E3,8.8E1,1.698E3,2.68E2,7.9E1,9E0,1.691E3,7E0,2.63E2,5E0,6.4E1,1.5E1,1.28E3,4.11E2,1.92E2,7.1E1,5.9E1,5E0,7E0,8E0],"tree_param":{"num_deleted":"0","num_feature":"106","num_nodes":"27","size_leaf_vector":"1"}},{"base_weights":[9.84015E0,-2.43604E1,5.41277E3,-4.8350178E1,6.997844E1,1.5265985E0,8.681255E1,-6.7540665E1,6.49407E1,-1.8128288E2,4.8316458E2,-1.9038293E2,2.0390287E1,4.2162506E2,2.5333462E1,-1.9594908E0,1.40265255E1,3.4244027E0,2.0086636E1],"categories":[],"categories_nodes":[],"categories_segments":[],"categories_sizes":[],"default_left":[0,0,0,0,0,0,0,0,0,0,0,0,0,0,0,0,0,0,0],"id":3,"left_children":[1,3,5,7,-1,-1,-1,9,-1,11,13,15,-1,17,-1,-1,-1,-1,-1],"loss_changes":[3.8189386E8,3.4635754E8,2.2217853E8,2.5756958E8,0E0,0E0,0E0,1.2805791E8,0E0,3.4615412E7,4.30904E7,1.5242464E7,0E0,4.216539E7,0E0,0E0,0E0,0E0,0E0],"parents":[2147483647,0,0,1,1,2,2,3,3,7,7,9,9,10,10,11,11,13,13],"right_children":[2,4,6,8,-1,-1,-1,10,-1,12,14,16,-1,18,-1,-1,-1,-1,-1],"split_conditions":[2.8E2,6E0,2E0,3.3E1,6.997844E1,1.5265985E0,8.681255E1,2E0,6.49407E1,4E2,4E2,2E2,2.0390287E1,4.2E1,2.5333462E1,-1.9594908E0,1.40265255E1,3.4244027E0,2.0086636E1],"split_indices":[20,80,93,50,0,0,0,93,0,58,58,59,0,73,0,0,0,0,0],"split_type":[0,0,0,0,0,0,0,0,0,0,0,0,0,0,0,0,0,0,0],"sum_hessian":[2.065E3,2.053E3,1.2E1,2.047E3,6E0,5E0,7E0,2.042E3,5E0,1.693E3,3.49E2,1.687E3,6E0,3.4E2,9E0,1.682E3,5E0,3.25E2,1.5E1],"tree_param":{"num_deleted":"0","num_feature":"106","num_nodes":"19","size_leaf_vector":"1"}},{"base_weights":[-1.8062405E1,-4.1770622E1,8.1089645E1,-5.7462578E1,5.329224E1,-1.7129117E2,4.7055975E2,-1.8307962E2,1.825119E1,4.0433246E2,3.3671326E1,-1.2723631E2,-3.572945E2,3.2070398E2,1.5513148E3,-1.3344053E0,1.2051283E1,-3.678575E0,2.988581E0,2.788826E0,2.234519E1,3.5020054E1,7.0652866E0],"categories":[],"categories_nodes":[],"categories_segments":[],"categories_sizes":[],"default_left":[0,0,0,0,0,0,0,0,0,0,0,0,0,0,0,0,0,0,0,0,0,0,0],"id":4,"left_children":[1,3,-1,5,-1,7,9,11,-1,13,-1,15,17,19,21,-1,-1,-1,-1,-1,-1,-1,-1],"loss_changes":[3.974467E8,1.735888E8,0E0,1.2335398E8,0E0,4.006053E7,6.8465464E7,1.6289076E7,0E0,3.3746064E7,0E0,1.0683788E7,2.930836E6,2.6109648E7,3.7075732E7,0E0,0E0,0E0,0E0,0E0,0E0,0E0,0E0],"parents":[2147483647,0,0,1,1,3,3,5,5,6,6,7,7,9,9,11,11,12,12,13,13,14,14],"right_children":[2,4,-1,6,-1,8,10,12,-1,14,-1,16,18,20,22,-1,-1,-1,-1,-1,-1,-1,-1],"split_conditions":[8E0,4.1E2,8.1089645E1,2E0,5.329224E1,4E2,4.3E1,1E0,1.825119E1,2.2E1,3.3671326E1,1.4E2,7E2,4E2,3.9E1,-1.3344053E0,1.2051283E1,-3.678575E0,2.988581E0,2.788826E0,2.234519E1,3.5020054E1,7.0652866E0],"split_indices":[80,39,0,93,0,58,75,41,0,71,0,59,41,58,71,0,0,0,0,0,0,0,0],"split_type":[0,0,0,0,0,0,0,0,0,0,0,0,0,0,0,0,0,0,0,0,0,0,0],"sum_hessian":[2.06E3,2.055E3,5E0,2.05E3,5E0,1.687E3,3.63E2,1.678E3,9E0,3.56E2,7E0,1.272E3,4.06E2,3.33E2,2.3E1,1.267E3,5E0,4E2,6E0,3.27E2,6E0,6E0,1.7E1],"tree_param":{"num_deleted":"0","num_feature":"106","num_nodes":"23","size_leaf_vector":"1"}},{"base_weights":[3.1456645E0,-3.4688267E1,8.6415436E1,-5.590835E1,4.7955566E1,-1.7288985E2,5.1177878E2,-1.1144765E2,-3.613695E2,3.969664E2,2.3863345E3,-1.2066978E2,1.37226E1,-3.242386E2,-4.3099466E2,3.492713E2,2.5546728E1,5.291553E1,1.0651581E3,-8.0521315E-1,-3.6289015E0,-4.141803E0,-3.1673589E0,-4.9277005E0,-2.8220468E0,3.1022072E0,2.0789648E1,3.751452E0,1.622026E1],"categories":[],"categories_nodes":[],"categories_segments":[],"categories_sizes":[],"default_left":[0,0,0,0,0,0,0,0,0,0,0,0,0,0,0,0,0,0,0,0,0,0,0,0,0,0,0,0,0],"id":5,"left_children":[1,3,-1,5,-1,7,9,11,13,15,17,19,-1,21,23,25,-1,-1,27,-1,-1,-1,-1,-1,-1,-1,-1,-1,-1],"loss_changes":[6.745388E8,2.1090194E8,0E0,1.3602749E8,0E0,1.9623592E7,7.4380456E7,1.7707124E7,9.38304E5,3.3171616E7,7.112979E7,1.2369866E7,0E0,5.506E4,1.166142E6,2.1307344E7,0E0,0E0,5.155198E6,0E0,0E0,0E0,0E0,0E0,0E0,0E0,0E0,0E0,0E0],"parents":[2147483647,0,0,1,1,3,3,5,5,6,6,7,7,8,8,9,9,10,10,11,11,13,13,14,14,15,15,18,18],"right_children":[2,4,-1,6,-1,8,10,12,14,16,18,20,-1,22,24,26,-1,-1,28,-1,-1,-1,-1,-1,-1,-1,-1,-1,-1],"split_conditions":[2.8E2,7E1,8.6415436E1,2E0,4.7955566E1,1E0,2E1,4E2,1E2,4E2,1.1E1,1E0,1.37226E1,6E0,1.1E2,1.8E1,2.5546728E1,5.291553E1,1.4E1,-8.0521315E-1,-3.6289015E0,-4.141803E0,-3.1673589E0,-4.9277005E0,-2.8220468E0,3.1022072E0,2.0789648E1,3.751452E0,1.622026E1],"split_indices":[20,77,0,93,0,41,72,58,41,58,92,42,0,41,41,25,0,0,92,0,0,0,0,0,0,0,0,0,0],"split_type":[0,0,0,0,0,0,0,0,0,0,0,0,0,0,0,0,0,0,0,0,0,0,0,0,0,0,0,0,0],"sum_hessian":[2.062E3,2.054E3,8E0,2.046E3,8E0,1.697E3,3.49E2,1.281E3,4.16E2,3.3E2,1.9E1,1.274E3,7E0,2.75E2,1.41E2,3.24E2,6E0,5E0,1.4E1,1.094E3,1.8E2,1.7E1,2.58E2,9.8E1,4.3E1,3.18E2,6E0,7E0,7E0],"tree_param":{"num_deleted":"0","num_feature":"106","num_nodes":"29","size_leaf_vector":"1"}},{"base_weights":[-1.3672096E1,-9.04227E1,1.7482202E3,-1.0438135E2,2.227268E3,1.0352335E3,5.7271267E1,-1.7520003E2,3.1038995E2,2.6861715E1,1.3206692E1,6.4226416E2,1.710058E3,-1.8321223E2,1.0695079E1,2.5005814E2,3.1244204E1,8.803956E2,2.1993051E2,1.3721687E3,2.2333733E1,-1.291299E2,-3.4813895E2,3.463039E2,-2.0922302E2,1.1164305E3,2.7307913E0,3.2315778E2,-3.1959053E-2,8.5752295E2,2.3443142E1,-9.114566E-1,-3.5906124E0,-3.5833368E0,2.987153E0,4.238388E0,7.713354E-1,-1.4356897E0,-3.8504076E0,1.3855309E1,8.235511E0,1.1375904E0,4.863911E0,1.2622815E0,1.8115446E1],"categories":[],"categories_nodes":[],"categories_segments":[],"categories_sizes":[],"default_left":[0,0,0,0,0,0,0,0,0,0,0,0,0,0,0,0,0,0,0,0,0,0,0,0,0,0,0,0,0,0,0,0,0,0,0,0,0,0,0,0,0,0,0,0,0],"id":6,"left_children":[1,3,5,7,9,11,-1,13,15,-1,-1,17,19,21,-1,23,-1,25,27,29,-1,31,33,35,37,39,-1,41,-1,43,-1,-1,-1,-1,-1,-1,-1,-1,-1,-1,-1,-1,-1,-1,-1],"loss_changes":[2.8183446E8,6.483907E7,2.4088203E8,5.8390264E7,1.44496E6,1.87906E7,0E0,1.711988E7,4.845364E7,0E0,0E0,4.73435E6,1.70964E6,1.5002448E7,0E0,1.2670554E7,0E0,4.138914E6,4.3865456E5,7.4956E6,0E0,1.1076624E7,2.850356E6,4.892656E6,5.218775E5,5.9285E5,0E0,3.8901975E5,0E0,9.538726E6,0E0,0E0,0E0,0E0,0E0,0E0,0E0,0E0,0E0,0E0,0E0,0E0,0E0,0E0,0E0],"parents":[2147483647,0,0,1,1,2,2,3,3,4,4,5,5,7,7,8,8,11,11,12,12,13,13,15,15,17,17,18,18,19,19,21,21,22,22,23,23,24,24,25,25,27,27,29,29],"right_children":[2,4,6,8,10,12,-1,14,16,-1,-1,18,20,22,-1,24,-1,26,28,30,-1,32,34,36,38,40,-1,42,-1,44,-1,-1,-1,-1,-1,-1,-1,-1,-1,-1,-1,-1,-1,-1,-1],"split_conditions":[3E0,5E2,1E0,2E0,6E2,4E0,5.7271267E1,1.2E2,3.5E1,2.6861715E1,1.3206692E1,1E0,3E0,1E0,1.0695079E1,1E0,3.1244204E1,1E0,1.3E1,1.3E1,2.2333733E1,1E0,7E2,2.5E0,1E2,1.2E1,2.7307913E0,4E1,-3.1959053E-2,5E0,2.3443142E1,-9.114566E-1,-3.5906124E0,-3.5833368E0,2.987153E0,4.238388E0,7.713354E-1,-1.4356897E0,-3.8504076E0,1.3855309E1,8.235511E0,1.1375904E0,4.863911E0,1.2622815E0,1.8115446E1],"split_indices":[93,58,96,93,58,93,0,57,73,0,0,41,58,41,0,42,0,19,92,19,0,42,41,41,41,92,0,41,0,93,0,0,0,0,0,0,0,0,0,0,0,0,0,0,0],"split_type":[0,0,0,0,0,0,0,0,0,0,0,0,0,0,0,0,0,0,0,0,0,0,0,0,0,0,0,0,0,0,0,0,0,0,0,0,0,0,0,0,0,0,0,0,0],"sum_hessian":[2.082E3,1.996E3,8.6E1,1.985E3,1.1E1,7.4E1,1.2E1,1.696E3,2.89E2,6E0,5E0,4.8E1,2.6E1,1.686E3,1E1,2.84E2,5E0,3E1,1.8E1,1.8E1,8E0,1.271E3,4.15E2,2.35E2,4.9E1,2.1E1,9E0,1.2E1,6E0,1.3E1,5E0,1.092E3,1.79E2,4.09E2,6E0,1.82E2,5.3E1,3.7E1,1.2E1,9E0,1.2E1,6E0,6E0,8E0,5E0],"tree_param":{"num_deleted":"0","num_feature":"106","num_nodes":"45","size_leaf_vector":"1"}},{"base_weights":[2.8959627E0,-1.5226578E1,6.287914E1,-3.7016224E1,2.232047E3,-5.573806E1,2.0920488E3,5.0415806E1,9.594307E2,-6.606838E1,3.4658627E1,6.608508E1,-1.5339804E2,3.0823033E0,1.8848595E1,-8.29437E1,2.0738434E1,6.67984E-1,-4.2142696E0,-9.396695E-1,3.1083231E1],"categories":[],"categories_nodes":[],"categories_segments":[],"categories_sizes":[],"default_left":[0,0,0,0,0,0,0,0,0,0,0,0,0,0,0,0,0,0,0,0,0],"id":7,"left_children":[1,3,-1,5,7,9,11,-1,13,15,-1,-1,17,-1,-1,19,-1,-1,-1,-1,-1],"loss_changes":[2.376922E8,1.0198357E8,0E0,8.230794E7,6.667212E7,7.462462E7,1.8356022E8,0E0,8.458623E6,7.3839864E7,0E0,0E0,7.953979E5,0E0,0E0,7.152775E7,0E0,0E0,0E0,0E0,0E0],"parents":[2147483647,0,0,1,1,3,3,4,4,5,5,6,6,8,8,9,9,12,12,15,15],"right_children":[2,4,-1,6,8,10,12,-1,14,16,-1,-1,18,-1,-1,20,-1,-1,-1,-1,-1],"split_conditions":[8E0,4.2E1,6.287914E1,4.5E2,5E1,5.4E2,1.1E1,5.0415806E1,6E1,2.4E2,3.4658627E1,6.608508E1,7.7E2,3.0823033E0,1.8848595E1,1.5E2,2.0738434E1,6.67984E-1,-4.2142696E0,-9.396695E-1,3.1083231E1],"split_indices":[80,73,0,41,73,20,92,0,72,58,0,0,41,0,0,72,0,0,0,0,0],"split_type":[0,0,0,0,0,0,0,0,0,0,0,0,0,0,0,0,0,0,0,0,0],"sum_hessian":[2.085E3,2.08E3,5E0,2.061E3,1.9E1,2.044E3,1.7E1,5E0,1.4E1,2.039E3,5E0,5E0,1.2E1,9E0,5E0,2.024E3,1.5E1,7E0,5E0,2.018E3,6E0],"tree_param":{"num_deleted":"0","num_feature":"106","num_nodes":"21","size_leaf_vector":"1"}},{"base_weights":[1.5282989E1,-2.2203121E1,6.4803633E3,-4.543139E1,7.9758934E1,1.4385588E1,9.876144E1,-1.7543355E2,5.585279E2,-1.8318095E2,1.4860405E1,4.5146802E2,2.8722456E3,-1.2852325E2,-3.4646417E2,3.7875348E2,3.1725372E1,3.7948154E3,7.021604E0,-9.105357E-1,-3.5491717E0,-3.5367055E0,1.3335454E0,5.5902557E0,-1.0472295E0,4.5702827E1,2.3868786E1],"categories":[],"categories_nodes":[],"categories_segments":[],"categories_sizes":[],"default_left":[0,0,0,0,0,0,0,0,0,0,0,0,0,0,0,0,0,0,0,0,0,0,0,0,0,0,0],"id":8,"left_children":[1,3,5,7,-1,-1,-1,9,11,13,-1,15,17,19,21,23,-1,25,-1,-1,-1,-1,-1,-1,-1,-1,-1],"loss_changes":[5.044757E8,3.8493094E8,1.9124291E8,1.6223355E8,0E0,0E0,0E0,2.2154804E7,8.9363784E7,1.5064968E7,0E0,6.8247704E7,2.9368296E7,1.074098E7,1.513248E6,2.9953508E7,0E0,1.1012E6,0E0,0E0,0E0,0E0,0E0,0E0,0E0,0E0,0E0],"parents":[2147483647,0,0,1,1,2,2,3,3,7,7,8,8,9,9,11,11,12,12,13,13,14,14,15,15,17,17],"right_children":[2,4,6,8,-1,-1,-1,10,12,14,-1,16,18,20,22,24,-1,26,-1,-1,-1,-1,-1,-1,-1,-1,-1],"split_conditions":[2.8E2,8E0,1.3E1,2E0,7.9758934E1,1.4385588E1,9.876144E1,1.2E2,4.2E1,1E0,1.4860405E1,2.1E2,1.5E1,1E0,5.5E2,2.5E0,3.1725372E1,3E1,7.021604E0,-9.105357E-1,-3.5491717E0,-3.5367055E0,1.3335454E0,5.5902557E0,-1.0472295E0,4.5702827E1,2.3868786E1],"split_indices":[20,80,92,93,0,0,0,57,73,41,0,41,92,42,41,41,0,72,0,0,0,0,0,0,0,0,0],"split_type":[0,0,0,0,0,0,0,0,0,0,0,0,0,0,0,0,0,0,0,0,0,0,0,0,0,0,0],"sum_hessian":[2.08E3,2.069E3,1.1E1,2.064E3,5E0,5E0,6E0,1.699E3,3.65E2,1.692E3,7E0,3.5E2,1.5E1,1.269E3,4.23E2,3.42E2,8E0,1E1,5E0,1.09E3,1.79E2,4.17E2,6E0,2.49E2,9.3E1,5E0,5E0],"tree_param":{"num_deleted":"0","num_feature":"106","num_nodes":"27","size_leaf_vector":"1"}},{"base_weights":[-5.288162E0,-4.3266525E1,6.334374E3,-6.7000305E1,4.2607964E3,9.371467E1,2.8262411E1,-8.200879E1,4.916978E1,6.2763817E1,1.53507805E1,-1.01800934E2,2.528105E3,-1.7561658E2,2.7052316E2,9.555832E0,4.1887608E1,-1.1545042E0,-3.6059494E0,4.225787E0,-1.1661208E0],"categories":[],"categories_nodes":[],"categories_segments":[],"categories_sizes":[],"default_left":[0,0,0,0,0,0,0,0,0,0,0,0,0,0,0,0,0,0,0,0,0],"id":9,"left_children":[1,3,5,7,9,-1,-1,11,-1,-1,-1,13,15,17,19,-1,-1,-1,-1,-1,-1],"loss_changes":[4.8518483E8,2.048953E8,1.0136822E8,1.4948355E8,5.079835E7,0E0,0E0,1.0295694E8,0E0,0E0,0E0,5.4299628E7,3.516856E7,1.8299684E7,1.9298478E7,0E0,0E0,0E0,0E0,0E0,0E0],"parents":[2147483647,0,0,1,1,2,2,3,3,4,4,7,7,11,11,12,12,13,13,14,14],"right_children":[2,4,6,8,10,-1,-1,12,-1,-1,-1,14,16,18,20,-1,-1,-1,-1,-1,-1],"split_conditions":[2.8E2,6.4E1,3.4E2,1.6E2,9.9E1,9.371467E1,2.8262411E1,4.5E1,4.916978E1,6.2763817E1,1.53507805E1,2E0,2.2E1,1E0,1E0,9.555832E0,4.1887608E1,-1.1545042E0,-3.6059494E0,4.225787E0,-1.1661208E0],"split_indices":[20,77,20,39,77,0,0,73,0,0,0,93,71,41,41,0,0,0,0,0,0],"split_type":[0,0,0,0,0,0,0,0,0,0,0,0,0,0,0,0,0,0,0,0,0],"sum_hessian":[2.013E3,2.002E3,1.1E1,1.992E3,1E1,5E0,6E0,1.987E3,5E0,5E0,5E0,1.973E3,1.4E1,1.647E3,3.26E2,8E0,6E0,1.244E3,4.03E2,2.34E2,9.2E1],"tree_param":{"num_deleted":"0","num_feature":"106","num_nodes":"21","size_leaf_vector":"1"}},{"base_weights":[3.407451E0,-3.1435333E1,4.4783145E3,-9.27126E1,1.372607E3,1.3053288E1,9.549069E1,-1.6302399E2,3.3581223E2,8.7775397E2,4.3510548E1,-1.7087375E2,1.1751777E1,2.6410196E2,3.074295E1,6.9190656E2,2.0165716E1,-1.1727007E2,-3.4264838E2,2.0557254E2,2.8246443E1,4.6486722E2,2.0781704E1,-1.2478187E0,1.2719944E1,-3.5315325E0,4.060315E0,3.0724955E0,-2.6472979E0,3.6523633E0,1.267462E1],"categories":[],"categories_nodes":[],"categories_segments":[],"categories_sizes":[],"default_left":[0,0,0,0,0,0,0,0,0,0,0,0,0,0,0,0,0,0,0,0,0,0,0,0,0,0,0,0,0,0,0],"id":10,"left_children":[1,3,5,7,9,-1,-1,11,13,15,-1,17,-1,19,-1,21,-1,23,25,27,-1,29,-1,-1,-1,-1,-1,-1,-1,-1,-1],"loss_changes":[3.2289152E8,1.7693098E8,2.4496624E8,5.941119E7,1.2293573E8,0E0,0E0,1.7985028E7,5.3780976E7,1.4478192E7,0E0,1.5465672E7,0E0,4.0183172E7,0E0,1.9806536E7,0E0,1.3568808E7,3.289312E6,1.2848992E7,0E0,4.174944E6,0E0,0E0,0E0,0E0,0E0,0E0,0E0,0E0,0E0],"parents":[2147483647,0,0,1,1,2,2,3,3,4,4,7,7,8,8,9,9,11,11,13,13,15,15,17,17,18,18,19,19,21,21],"right_children":[2,4,6,8,10,-1,-1,12,14,16,-1,18,-1,20,-1,22,-1,24,26,28,-1,30,-1,-1,-1,-1,-1,-1,-1,-1,-1],"split_conditions":[2.5E2,3E0,1E0,2E0,1E0,1.3053288E1,9.549069E1,1.2E2,1.5E1,1E0,4.3510548E1,1E0,1.1751777E1,2.8E1,3.074295E1,2.5E1,2.0165716E1,1.4E2,7E2,1E0,2.8246443E1,5E0,2.0781704E1,-1.2478187E0,1.2719944E1,-3.5315325E0,4.060315E0,3.0724955E0,-2.6472979E0,3.6523633E0,1.267462E1],"split_indices":[20,93,103,93,96,0,0,57,73,71,0,41,0,77,0,57,0,59,41,42,0,93,0,0,0,0,0,0,0,0,0],"split_type":[0,0,0,0,0,0,0,0,0,0,0,0,0,0,0,0,0,0,0,0,0,0,0,0,0,0,0,0,0,0,0],"sum_hessian":[2.069E3,2.054E3,1.5E1,1.969E3,8.5E1,1E1,5E0,1.692E3,2.77E2,7.4E1,1.1E1,1.683E3,9E0,2.71E2,6E0,6.5E1,9E0,1.284E3,3.99E2,2.66E2,5E0,5.7E1,8E0,1.278E3,6E0,3.94E2,5E0,2.19E2,4.7E1,5.2E1,5E0],"tree_param":{"num_deleted":"0","num_feature":"106","num_nodes":"31","size_leaf_vector":"1"}},{"base_weights":[-1.112828E1,-3.4962288E1,5.5699142E1,-5.425863E1,6.7310165E1,-1.5928181E2,4.4597302E2,-1.6612999E2,1.845248E1,3.7062338E2,2.8371685E3,-1.7332224E2,1.2308407E1,2.327144E2,9.5995276E2,1.1890889E1,4.0123863E1,-1.2047096E0,-3.3725183E0,3.6165738E0,-1.2072947E0,1.1551027E1,2.0642586E0],"categories":[],"categories_nodes":[],"categories_segments":[],"categories_sizes":[],"default_left":[0,0,0,0,0,0,0,0,0,0,0,0,0,0,0,0,0,0,0,0,0,0,0],"id":11,"left_children":[1,3,-1,5,-1,7,9,11,-1,13,15,17,-1,19,21,-1,-1,-1,-1,-1,-1,-1,-1],"loss_changes":[2.8152912E8,2.754523E8,0E0,1.1050154E8,0E0,2.4164748E7,6.47126E7,1.7625376E7,0E0,2.8628808E7,1.6534296E7,1.4904576E7,0E0,1.321458E7,9.613964E6,0E0,0E0,0E0,0E0,0E0,0E0,0E0,0E0],"parents":[2147483647,0,0,1,1,3,3,5,5,6,6,7,7,9,9,10,10,11,11,13,13,14,14],"right_children":[2,4,-1,6,-1,8,10,12,-1,14,16,18,-1,20,22,-1,-1,-1,-1,-1,-1,-1,-1],"split_conditions":[2.4E2,6E0,5.5699142E1,2E0,6.7310165E1,4E2,4.5E1,1.2E2,1.845248E1,3E0,1E0,1E0,1.2308407E1,2.5E0,1.1E1,1.1890889E1,4.0123863E1,-1.2047096E0,-3.3725183E0,3.6165738E0,-1.2072947E0,1.1551027E1,2.0642586E0],"split_indices":[39,80,0,93,0,58,73,57,0,93,71,41,0,41,41,0,0,0,0,0,0,0,0],"split_type":[0,0,0,0,0,0,0,0,0,0,0,0,0,0,0,0,0,0,0,0,0,0,0],"sum_hessian":[2.114E3,2.106E3,8E0,2.101E3,5E0,1.737E3,3.64E2,1.732E3,5E0,3.54E2,1E1,1.724E3,8E0,2.88E2,6.6E1,5E0,5E0,1.305E3,4.19E2,2.11E2,7.7E1,5.2E1,1.4E1],"tree_param":{"num_deleted":"0","num_feature":"106","num_nodes":"23","size_leaf_vector":"1"}},{"base_weights":[1.6931139E1,-1.554784E1,5.720994E3,-3.5936016E1,7.1330986E1,-9.9516076E-1,1.155809E2,-6.044818E1,4.631327E3,-8.163766E1,2.256847E3,4.127479E0,8.078018E1,-9.686684E1,2.341396E1,6.4504944E2,4.9277782E1,-1.7197273E0,2.686961E0,2.9229653E0,1.0078784E1],"categories":[],"categories_nodes":[],"categories_segments":[],"categories_sizes":[],"default_left":[0,0,0,0,0,0,0,0,0,0,0,0,0,0,0,0,0,0,0,0,0],"id":12,"left_children":[1,3,5,7,-1,-1,-1,9,11,13,15,-1,-1,17,-1,19,-1,-1,-1,-1,-1],"loss_changes":[3.9265942E8,3.0749286E8,4.088488E8,2.4087309E8,0E0,0E0,0E0,1.0295528E8,1.5660734E8,7.6796E7,7.861636E7,0E0,0E0,5.6687796E7,0E0,1.369257E6,0E0,0E0,0E0,0E0,0E0],"parents":[2147483647,0,0,1,1,2,2,3,3,7,7,8,8,9,9,10,10,13,13,15,15],"right_children":[2,4,6,8,-1,-1,-1,10,12,14,16,-1,-1,18,-1,20,-1,-1,-1,-1,-1],"split_conditions":[2.8E2,6E0,2E0,1.6E2,7.1330986E1,-9.9516076E-1,1.155809E2,4.2E1,2E0,4E2,1E0,4.127479E0,8.078018E1,2E0,2.341396E1,8E1,4.9277782E1,-1.7197273E0,2.686961E0,2.9229653E0,1.0078784E1],"split_indices":[20,80,93,39,0,0,0,73,93,58,71,0,0,93,0,73,0,0,0,0,0],"split_type":[0,0,0,0,0,0,0,0,0,0,0,0,0,0,0,0,0,0,0,0,0],"sum_hessian":[2.118E3,2.107E3,1.1E1,2.102E3,5E0,6E0,5E0,2.092E3,1E1,2.074E3,1.8E1,5E0,5E0,2.062E3,1.2E1,1.2E1,6E0,1.711E3,3.51E2,7E0,5E0],"tree_param":{"num_deleted":"0","num_feature":"106","num_nodes":"21","size_leaf_vector":"1"}},{"base_weights":[1.063278E1,-2.6507372E1,5.0535566E3,-1.6256778E2,6.07759E2,-9.8663074E-1,8.499332E1,-1.6893654E2,1.3818774E1,5.105968E2,4.819068E1,-1.1457237E2,-3.381741E2,4.1823984E2,3.3440376E3,-1.207647E2,1.2069756E1,-3.0025433E2,-4.0655835E2,3.416935E2,3.5809055E1,4.178422E1,1.9523134E1,-1.2715279E0,8.964626E0,-3.2838702E0,-2.6297903E0,-4.261569E0,-1.0524131E0,1.6536126E0,1.0471861E1],"categories":[],"categories_nodes":[],"categories_segments":[],"categories_sizes":[],"default_left":[0,0,0,0,0,0,0,0,0,0,0,0,0,0,0,0,0,0,0,0,0,0,0,0,0,0,0,0,0,0,0],"id":13,"left_children":[1,3,5,7,9,-1,-1,11,-1,13,-1,15,17,19,21,23,-1,25,27,29,-1,-1,-1,-1,-1,-1,-1,-1,-1,-1,-1],"loss_changes":[3.842759E8,1.7588893E8,2.6713949E8,1.6738568E7,1.4484416E8,0E0,0E0,1.534442E7,0E0,9.097727E7,0E0,1.0514197E7,9.30732E5,8.181346E7,4.615976E6,8.314642E6,0E0,1.91534E5,7.93716E5,4.162561E7,0E0,0E0,0E0,0E0,0E0,0E0,0E0,0E0,0E0,0E0,0E0],"parents":[2147483647,0,0,1,1,2,2,3,3,4,4,7,7,9,9,11,11,12,12,13,13,14,14,15,15,17,17,18,18,19,19],"right_children":[2,4,6,8,10,-1,-1,12,-1,14,-1,16,18,20,22,24,-1,26,28,30,-1,-1,-1,-1,-1,-1,-1,-1,-1,-1,-1],"split_conditions":[2.8E2,2E0,2E0,1.2E2,7E1,-9.8663074E-1,8.499332E1,1E0,1.3818774E1,3.5E1,4.819068E1,3E2,1E2,2.1E2,5.2E1,5E1,1.2069756E1,3E1,3.3E2,3E0,3.5809055E1,4.178422E1,1.9523134E1,-1.2715279E0,8.964626E0,-3.2838702E0,-2.6297903E0,-4.261569E0,-1.0524131E0,1.6536126E0,1.0471861E1],"split_indices":[20,93,93,57,77,0,0,41,0,73,0,18,41,41,73,51,0,41,41,93,0,0,0,0,0,0,0,0,0,0,0],"split_type":[0,0,0,0,0,0,0,0,0,0,0,0,0,0,0,0,0,0,0,0,0,0,0,0,0,0,0,0,0,0,0],"sum_hessian":[2.05E3,2.036E3,1.4E1,1.677E3,3.59E2,6E0,8E0,1.671E3,6E0,3.52E2,7E0,1.266E3,4.05E2,3.42E2,1E1,1.261E3,5E0,2.64E2,1.41E2,3.35E2,7E0,5E0,5E0,1.254E3,7E0,1.46E2,1.18E2,1.32E2,9E0,2.69E2,6.6E1],"tree_param":{"num_deleted":"0","num_feature":"106","num_nodes":"31","size_leaf_vector":"1"}},{"base_weights":[-2.0591626E0,-3.825814E1,6.3088013E3,-9.473938E1,1.2964781E3,9.3854965E1,2.7703756E1,-1.6766814E2,3.177908E2,7.4673956E2,4.9268345E1,-1.77937E2,1.7894941E1,2.486775E2,3.1948975E1,9.568897E2,2.8103611E1,-1.25044235E2,-3.4392166E2,2.170138E2,1.3614442E1,7.425155E2,1.8053509E1,2.2659938E0,-4.0665455E0,-1.313689E0,1.2503274E1,-3.0561306E0,-4.1721387E0,1.9239427E0,1.3461693E1,5.686043E0,1.3465177E1],"categories":[],"categories_nodes":[],"categories_segments":[],"categories_sizes":[],"default_left":[0,0,0,0,0,0,0,0,0,0,0,0,0,0,0,0,0,0,0,0,0,0,0,0,0,0,0,0,0,0,0,0,0],"id":14,"left_children":[1,3,5,7,9,-1,-1,11,13,15,-1,17,-1,19,-1,21,23,25,27,29,-1,31,-1,-1,-1,-1,-1,-1,-1,-1,-1,-1,-1],"loss_changes":[4.8066474E8,1.5783362E8,1.0463859E8,6.0464584E7,1.6595942E8,0E0,0E0,3.4625404E7,5.9257104E7,1.1299716E7,0E0,1.4873172E7,0E0,1.0133908E7,0E0,9.209016E6,1.6455056E6,1.138565E7,1.023664E6,7.774996E6,0E0,4.276414E6,0E0,0E0,0E0,0E0,0E0,0E0,0E0,0E0,0E0,0E0,0E0],"parents":[2147483647,0,0,1,1,2,2,3,3,4,4,7,7,8,8,9,9,11,11,13,13,15,15,16,16,17,17,18,18,19,19,21,21],"right_children":[2,4,6,8,10,-1,-1,12,14,16,-1,18,-1,20,-1,22,24,26,28,30,-1,32,-1,-1,-1,-1,-1,-1,-1,-1,-1,-1,-1],"split_conditions":[2.8E2,3E0,4E2,2E0,1E0,9.3854965E1,2.7703756E1,2.4E2,4.2E1,1E0,4.9268345E1,1E0,1.7894941E1,3E0,3.1948975E1,1E0,3.5E1,4.4E1,1E2,4.7E1,1.3614442E1,1E0,1.8053509E1,2.2659938E0,-4.0665455E0,-1.313689E0,1.2503274E1,-3.0561306E0,-4.1721387E0,1.9239427E0,1.3461693E1,5.686043E0,1.3465177E1],"split_indices":[20,93,20,93,96,0,0,58,73,41,0,41,0,59,0,97,45,51,41,39,0,103,0,0,0,0,0,0,0,0,0,0,0],"split_type":[0,0,0,0,0,0,0,0,0,0,0,0,0,0,0,0,0,0,0,0,0,0,0,0,0,0,0,0,0,0,0,0,0],"sum_hessian":[2.102E3,2.091E3,1.1E1,2.007E3,8.4E1,5E0,6E0,1.706E3,3.01E2,7.4E1,1E1,1.698E3,8E0,2.95E2,6E0,5.7E1,1.7E1,1.289E3,4.09E2,2.88E2,7E0,4.7E1,1E1,1.2E1,5E0,1.284E3,5E0,2.72E2,1.37E2,2.83E2,5E0,3.8E1,9E0],"tree_param":{"num_deleted":"0","num_feature":"106","num_nodes":"33","size_leaf_vector":"1"}},{"base_weights":[4.653519E0,-1.8205315E1,7.8368385E1,-3.2187172E1,4.7642937E1,-4.5198E1,3.296103E1,-6.0555775E1,2.5604313E1,-6.998348E1,3.1361E1,5.0798833E-2,-2.8937578E0],"categories":[],"categories_nodes":[],"categories_segments":[],"categories_sizes":[],"default_left":[0,0,0,0,0,0,0,0,0,0,0,0,0],"id":15,"left_children":[1,3,-1,5,-1,7,-1,9,-1,11,-1,-1,-1],"loss_changes":[3.6913302E8,1.3763443E8,0E0,8.89651E7,0E0,8.194912E7,0E0,6.148824E7,0E0,3.339923E7,0E0,0E0,0E0],"parents":[2147483647,0,0,1,1,3,3,5,5,7,7,9,9],"right_children":[2,4,-1,6,-1,8,-1,10,-1,12,-1,-1,-1],"split_conditions":[8E0,4E2,7.8368385E1,4.3E1,4.7642937E1,4E2,3.296103E1,5.4E2,2.5604313E1,1E0,3.1361E1,5.0798833E-2,-2.8937578E0],"split_indices":[80,39,0,75,0,58,0,20,0,41,0,0,0],"split_type":[0,0,0,0,0,0,0,0,0,0,0,0,0],"sum_hessian":[2.06E3,2.055E3,5E0,2.05E3,5E0,2.043E3,7E0,2.032E3,1.1E1,2.027E3,5E0,1.511E3,5.16E2],"tree_param":{"num_deleted":"0","num_feature":"106","num_nodes":"13","size_leaf_vector":"1"}},{"base_weights":[1.3068079E1,-2.1026985E1,5.5800493E3,-4.3092293E1,7.771532E1,-2.3092666E0,9.2407745E1,-6.694438E1,4.9916214E1,-1.5720004E2,3.840113E2,-1.02381546E2,-3.2267566E2,3.3231595E2,3.309723E1,-5.789906E-1,-3.5017743E0,-3.3185773E0,2.8877492E0,4.9527836E0,-1.247569E0],"categories":[],"categories_nodes":[],"categories_segments":[],"categories_sizes":[],"default_left":[0,0,0,0,0,0,0,0,0,0,0,0,0,0,0,0,0,0,0,0,0],"id":16,"left_children":[1,3,5,7,-1,-1,-1,9,-1,11,13,15,17,19,-1,-1,-1,-1,-1,-1,-1],"loss_changes":[4.053544E8,3.6537456E8,2.7867494E8,2.5468142E8,0E0,0E0,0E0,8.58994E7,0E0,1.5913996E7,5.21386E7,1.455157E7,2.54932E6,2.5908328E7,0E0,0E0,0E0,0E0,0E0,0E0,0E0],"parents":[2147483647,0,0,1,1,2,2,3,3,7,7,9,9,10,10,11,11,12,12,13,13],"right_children":[2,4,6,8,-1,-1,-1,10,-1,12,14,16,18,20,-1,-1,-1,-1,-1,-1,-1],"split_conditions":[2.8E2,8E0,2E0,1.6E2,7.771532E1,-2.3092666E0,9.2407745E1,2E0,4.9916214E1,1E0,1.2E2,1E0,7E2,2.5E0,3.309723E1,-5.789906E-1,-3.5017743E0,-3.3185773E0,2.8877492E0,4.9527836E0,-1.247569E0],"split_indices":[20,80,93,39,0,0,0,93,0,41,72,42,41,41,0,0,0,0,0,0,0],"split_type":[0,0,0,0,0,0,0,0,0,0,0,0,0,0,0,0,0,0,0,0,0],"sum_hessian":[2.134E3,2.122E3,1.2E1,2.117E3,5E0,5E0,7E0,2.108E3,9E0,1.757E3,3.51E2,1.321E3,4.36E2,3.46E2,5E0,1.121E3,2E2,4.3E2,6E0,2.55E2,9.1E1],"tree_param":{"num_deleted":"0","num_feature":"106","num_nodes":"21","size_leaf_vector":"1"}},{"base_weights":[-1.8967394E1,-5.4965534E1,5.320397E3,-1.6376352E2,4.7293616E2,-1.3226702E0,8.364352E1,-1.7389636E2,1.7841743E1,2.9100156E2,1.2095127E3,-1.8184105E2,1.0726183E1,2.366126E2,2.4249887E1,7.36325E2,4.7846767E1,-1.8724713E2,1.37928705E1,1.5392065E2,1.3644377E3,4.8035132E2,1.3495731E3,-1.9217353E0,1.234848E1,1.2080464E0,1.5467361E1,2.4259209E1,6.8791313E0,3.6897752E0,9.6325445E0,8.803264E0,1.9612E1],"categories":[],"categories_nodes":[],"categories_segments":[],"categories_sizes":[],"default_left":[0,0,0,0,0,0,0,0,0,0,0,0,0,0,0,0,0,0,0,0,0,0,0,0,0,0,0,0,0,0,0,0,0],"id":17,"left_children":[1,3,5,7,9,-1,-1,11,-1,13,15,17,-1,19,-1,21,-1,23,-1,25,27,29,31,-1,-1,-1,-1,-1,-1,-1,-1,-1,-1],"loss_changes":[4.0181325E8,1.1931178E8,2.3347357E8,3.4299316E7,4.7221136E7,0E0,0E0,1.71691E7,0E0,3.262091E7,1.14897576E8,1.4639324E7,0E0,2.5903358E7,0E0,9.241184E6,0E0,1.2140176E7,0E0,1.1897764E7,1.1975444E7,2.118587E6,3.439572E6,0E0,0E0,0E0,0E0,0E0,0E0,0E0,0E0,0E0,0E0],"parents":[2147483647,0,0,1,1,2,2,3,3,4,4,7,7,9,9,10,10,11,11,13,13,15,15,17,17,19,19,20,20,21,21,22,22],"right_children":[2,4,6,8,10,-1,-1,12,-1,14,16,18,-1,20,-1,22,-1,24,-1,26,28,30,32,-1,-1,-1,-1,-1,-1,-1,-1,-1,-1],"split_conditions":[2.5E2,2E0,2E0,4E2,3E0,-1.3226702E0,8.364352E1,1.2E2,1.7841743E1,2.8E1,1E0,2E2,1.0726183E1,2.2E1,2.4249887E1,4E0,4.7846767E1,5E1,1.37928705E1,2.5E2,4.1666668E1,1E0,3E0,-1.9217353E0,1.234848E1,1.2080464E0,1.5467361E1,2.4259209E1,6.8791313E0,3.6897752E0,9.6325445E0,8.803264E0,1.9612E1],"split_indices":[20,93,93,58,93,0,0,57,0,77,96,59,0,71,0,93,0,51,0,58,71,71,58,0,0,0,0,0,0,0,0,0,0],"split_type":[0,0,0,0,0,0,0,0,0,0,0,0,0,0,0,0,0,0,0,0,0,0,0,0,0,0,0,0,0,0,0,0,0],"sum_hessian":[2.088E3,2.075E3,1.3E1,1.721E3,3.54E2,5E0,8E0,1.713E3,8E0,2.85E2,6.9E1,1.703E3,1E1,2.79E2,6E0,6.2E1,7E0,1.698E3,5E0,2.61E2,1.8E1,4.5E1,1.7E1,1.693E3,5E0,2.56E2,5E0,6E0,1.2E1,3.8E1,7E0,1.1E1,6E0],"tree_param":{"num_deleted":"0","num_feature":"106","num_nodes":"33","size_leaf_vector":"1"}},{"base_weights":[2.5549788E1,-7.9997463E0,4.7073613E3,-2.999803E1,6.554917E1,-1.6574476E0,7.974515E1,-4.9071587E1,4.93526E1,-1.4946684E2,4.1406955E2,-1.6004465E2,1.2444683E3,3.2677573E2,2.6167214E3,-1.0379777E0,-3.2683434E0,2.2823446E1,3.105024E0,2.7002904E0,2.4972815E1,3.5089676E1,8.422315E0],"categories":[],"categories_nodes":[],"categories_segments":[],"categories_sizes":[],"default_left":[0,0,0,0,0,0,0,0,0,0,0,0,0,0,0,0,0,0,0,0,0,0,0],"id":18,"left_children":[1,3,5,7,-1,-1,-1,9,-1,11,13,15,17,19,21,-1,-1,-1,-1,-1,-1,-1,-1],"loss_changes":[3.311467E8,3.0251347E8,2.4013949E8,1.9798648E8,0E0,0E0,0E0,9.682251E7,0E0,2.5427476E7,7.048003E7,1.5905072E7,1.189276E7,4.3420144E7,1.9210584E7,0E0,0E0,0E0,0E0,0E0,0E0,0E0,0E0],"parents":[2147483647,0,0,1,1,2,2,3,3,7,7,9,9,10,10,11,11,12,12,13,13,14,14],"right_children":[2,4,6,8,-1,-1,-1,10,-1,12,14,16,18,20,22,-1,-1,-1,-1,-1,-1,-1,-1],"split_conditions":[2.8E2,6E0,2E0,2.4E2,6.554917E1,-1.6574476E0,7.974515E1,2E0,4.93526E1,2E2,4.2E1,1E0,1.1E1,4E2,8E1,-1.0379777E0,-3.2683434E0,2.2823446E1,3.105024E0,2.7002904E0,2.4972815E1,3.5089676E1,8.422315E0],"split_indices":[20,80,93,39,0,0,0,93,0,58,73,41,92,58,72,0,0,0,0,0,0,0,0],"split_type":[0,0,0,0,0,0,0,0,0,0,0,0,0,0,0,0,0,0,0,0,0,0,0],"sum_hessian":[2.107E3,2.093E3,1.4E1,2.087E3,6E0,6E0,8E0,2.08E3,7E0,1.71E3,3.7E2,1.698E3,1.2E1,3.57E2,1.3E1,1.271E3,4.27E2,5E0,7E0,3.49E2,8E0,8E0,5E0],"tree_param":{"num_deleted":"0","num_feature":"106","num_nodes":"23","size_leaf_vector":"1"}},{"base_weights":[3.0302893E1,-1.5114114E2,8.637001E2,-1.5935773E2,9.3875397E2,7.7350037E2,6.2670334E1,-1.1044212E2,-3.1223285E2,4.812698E0,1.26213045E1,6.49113E2,4.129869E3,-7.3280075E1,-3.41517E2,-2.7761E2,-3.7635385E2,5.4695905E2,3.8125946E1,7.549098E1,1.0492136E1,-8.00892E1,1.199756E1,-3.0789432E2,-4.0807968E2,-3.7252812E0,-2.690093E2,-4.0537268E2,-1.7907048E2,3.881705E2,2.153056E3,-8.5417926E-1,9.155212E0,-3.4476116E0,-2.6205974E0,-4.5833926E0,-3.0728765E0,-2.7500176E0,-2.207262E0,-4.3111835E0,-3.15059E0,-2.4382486E0,-1.0392373E0,1.9602911E0,1.1597242E1,3.111381E1,1.2779334E0],"categories":[],"categories_nodes":[],"categories_segments":[],"categories_sizes":[],"default_left":[0,0,0,0,0,0,0,0,0,0,0,0,0,0,0,0,0,0,0,0,0,0,0,0,0,0,0,0,0,0,0,0,0,0,0,0,0,0,0,0,0,0,0,0,0,0,0],"id":19,"left_children":[1,3,5,7,9,11,-1,13,15,-1,-1,17,19,21,23,25,27,29,-1,-1,-1,31,-1,33,35,-1,37,39,41,43,45,-1,-1,-1,-1,-1,-1,-1,-1,-1,-1,-1,-1,-1,-1,-1,-1],"loss_changes":[3.16321E8,1.553466E7,1.7743226E8,1.2722948E7,1.31579E6,1.5137307E8,0E0,1.1086831E7,8.124E5,0E0,0E0,1.1328354E8,1.2901445E8,9.769865E6,2.74958E5,1.21838E5,7.40348E5,8.765957E7,0E0,0E0,0E0,5.972432E6,0E0,1.17494E5,1.47908E5,0E0,1.25E4,1.5017E5,7.198244E4,4.676709E7,5.9769056E7,0E0,0E0,0E0,0E0,0E0,0E0,0E0,0E0,0E0,0E0,0E0,0E0,0E0,0E0,0E0,0E0],"parents":[2147483647,0,0,1,1,2,2,3,3,4,4,5,5,7,7,8,8,11,11,12,12,13,13,14,14,15,15,16,16,17,17,21,21,23,23,24,24,26,26,27,27,28,28,29,29,30,30],"right_children":[2,4,6,8,10,12,-1,14,16,-1,-1,18,20,22,24,26,28,30,-1,-1,-1,32,-1,34,36,-1,38,40,42,44,46,-1,-1,-1,-1,-1,-1,-1,-1,-1,-1,-1,-1,-1,-1,-1,-1],"split_conditions":[2E0,2E2,2E1,1E0,5E2,9E0,6.2670334E1,1E0,7.6E1,4.812698E0,1.26213045E1,4.2E1,9.2E1,5E1,1E2,6E0,2.1E2,1E0,3.8125946E1,7.549098E1,1.0492136E1,5.5E1,1.199756E1,2.1E1,1.02E2,-3.7252812E0,1E0,1.1E2,3.3E2,3E0,1E0,-8.5417926E-1,9.155212E0,-3.4476116E0,-2.6205974E0,-4.5833926E0,-3.0728765E0,-2.7500176E0,-2.207262E0,-4.3111835E0,-3.15059E0,-2.4382486E0,-1.0392373E0,1.9602911E0,1.1597242E1,3.111381E1,1.2779334E0],"split_indices":[93,58,50,41,58,77,0,42,41,0,0,73,77,51,42,41,41,103,0,0,0,72,0,42,42,0,101,41,41,93,42,0,0,0,0,0,0,0,0,0,0,0,0,0,0,0,0],"split_type":[0,0,0,0,0,0,0,0,0,0,0,0,0,0,0,0,0,0,0,0,0,0,0,0,0,0,0,0,0,0,0,0,0,0,0,0,0,0,0,0,0,0,0,0,0,0,0],"sum_hessian":[2.09E3,1.717E3,3.73E2,1.705E3,1.2E1,3.68E2,5E0,1.293E3,4.12E2,6E0,6E0,3.56E2,1.2E1,1.115E3,1.78E2,2.71E2,1.41E2,3.46E2,1E1,5E0,7E0,1.11E3,5E0,1.22E2,5.6E1,1.9E1,2.52E2,1.22E2,1.9E1,3.16E2,3E1,1.105E3,5E0,6.4E1,5.8E1,3.5E1,2.1E1,2.2E2,3.2E1,9.2E1,3E1,9E0,1E1,2.54E2,6.2E1,2E1,1E1],"tree_param":{"num_deleted":"0","num_feature":"106","num_nodes":"47","size_leaf_vector":"1"}},{"base_weights":[2.2120693E1,-1.2863338E1,4.489948E3,-1.5105063E2,6.253391E2,1.5374125E3,9.154605E1,-1.5957144E2,2.2542725E1,1.8092446E3,4.1327414E2,-1.9941712E-2,2.8205837E1,-1.6368852E2,1.0136306E1,1.1348394E3,3.38218E1,2.917415E2,2.259288E3,-1.6943855E2,5.28972E2,1.8887503E1,3.6278875E0,2.3641904E2,2.5103813E1,3.0910334E3,3.9186254E0,-1.7300448E0,8.412123E0,2.7384224E0,6.86089E0,3.14975E0,-9.184609E-1,4.4410908E1,1.692111E1],"categories":[],"categories_nodes":[],"categories_segments":[],"categories_sizes":[],"default_left":[0,0,0,0,0,0,0,0,0,0,0,0,0,0,0,0,0,0,0,0,0,0,0,0,0,0,0,0,0,0,0,0,0,0,0],"id":20,"left_children":[1,3,5,7,9,11,-1,13,-1,15,17,-1,-1,19,-1,21,-1,23,25,27,29,-1,-1,31,-1,33,-1,-1,-1,-1,-1,-1,-1,-1,-1],"loss_changes":[3.2188486E8,1.8035782E8,2.0628666E8,3.4812348E7,9.06399E7,2.1734172E7,0E0,8.261284E6,0E0,5.4505536E7,6.888968E7,0E0,0E0,6.744924E6,0E0,2.259708E7,0E0,3.524675E7,2.8299968E7,6.1208E6,3.7331275E5,0E0,0E0,7.404065E6,0E0,1.7037312E7,0E0,0E0,0E0,0E0,0E0,0E0,0E0,0E0,0E0],"parents":[2147483647,0,0,1,1,2,2,3,3,4,4,5,5,7,7,9,9,10,10,13,13,15,15,17,17,18,18,19,19,20,20,23,23,25,25],"right_children":[2,4,6,8,10,12,-1,14,-1,16,18,-1,-1,20,-1,22,-1,24,26,28,30,-1,-1,32,-1,34,-1,-1,-1,-1,-1,-1,-1,-1,-1],"split_conditions":[2.8E2,2E0,1.6E1,5E2,1E1,3E0,9.154605E1,2.95E2,2.2542725E1,3E0,2E1,-1.9941712E-2,2.8205837E1,5.7E1,1.0136306E1,9E0,3.38218E1,4E2,1E0,1.2E2,2E2,1.8887503E1,3.6278875E0,6E0,2.5103813E1,3.9E1,3.9186254E0,-1.7300448E0,8.412123E0,2.7384224E0,6.86089E0,3.14975E0,-9.184609E-1,4.4410908E1,1.692111E1],"split_indices":[20,93,92,58,92,93,0,18,0,93,71,0,0,21,0,92,0,58,100,59,21,0,0,42,0,71,0,0,0,0,0,0,0,0,0],"split_type":[0,0,0,0,0,0,0,0,0,0,0,0,0,0,0,0,0,0,0,0,0,0,0,0,0,0,0,0,0,0,0,0,0,0,0],"sum_hessian":[2.058E3,2.043E3,1.5E1,1.68E3,3.63E2,1E1,5E0,1.675E3,5E0,5.4E1,3.09E2,5E0,5E0,1.67E3,5E0,3.9E1,1.5E1,2.91E2,1.8E1,1.657E3,1.3E1,1.9E1,2E1,2.85E2,6E0,1.2E1,6E0,1.652E3,5E0,6E0,7E0,2.3E2,5.5E1,5E0,7E0],"tree_param":{"num_deleted":"0","num_feature":"106","num_nodes":"35","size_leaf_vector":"1"}},{"base_weights":[4.759319E0,-2.6751825E1,4.627554E3,-5.0552685E1,5.386949E1,1.1462064E1,9.078317E1,-1.5947527E2,4.432682E2,-1.6431891E2,1.2168663E1,3.4667337E2,2.428639E3,-1.711293E2,7.920468E0,3.0209198E2,2.8820448E1,7.7172284E0,4.196204E1,-1.503267E0,-3.3729842E0,2.593409E0,2.7028044E1],"categories":[],"categories_nodes":[],"categories_segments":[],"categories_sizes":[],"default_left":[0,0,0,0,0,0,0,0,0,0,0,0,0,0,0,0,0,0,0,0,0,0,0],"id":21,"left_children":[1,3,5,7,-1,-1,-1,9,11,13,-1,15,17,19,-1,21,-1,-1,-1,-1,-1,-1,-1],"loss_changes":[3.0122275E8,2.6493173E8,2.0651955E8,1.1012144E8,0E0,0E0,0E0,1.1379692E7,7.0115384E7,1.102566E7,0E0,3.914211E7,4.654972E7,5.69096E6,0E0,3.5117976E7,0E0,0E0,0E0,0E0,0E0,0E0,0E0],"parents":[2147483647,0,0,1,1,2,2,3,3,7,7,8,8,9,9,11,11,12,12,13,13,15,15],"right_children":[2,4,6,8,-1,-1,-1,10,12,14,-1,16,18,20,-1,22,-1,-1,-1,-1,-1,-1,-1],"split_conditions":[2.8E2,2.4E2,1.6E1,2E0,5.386949E1,1.1462064E1,9.078317E1,5E1,3.5E1,2E2,1.2168663E1,4E2,2.2E1,1E0,7.920468E0,3.1333334E1,2.8820448E1,7.7172284E0,4.196204E1,-1.503267E0,-3.3729842E0,2.593409E0,2.7028044E1],"split_indices":[20,39,92,93,0,0,0,51,73,58,0,58,71,42,0,78,0,0,0,0,0,0,0],"split_type":[0,0,0,0,0,0,0,0,0,0,0,0,0,0,0,0,0,0,0,0,0,0,0],"sum_hessian":[2.066E3,2.053E3,1.3E1,2.045E3,8E0,8E0,5E0,1.676E3,3.69E2,1.671E3,5E0,3.53E2,1.6E1,1.66E3,1.1E1,3.48E2,5E0,9E0,7E0,1.477E3,1.83E2,3.43E2,5E0],"tree_param":{"num_deleted":"0","num_feature":"106","num_nodes":"23","size_leaf_vector":"1"}},{"base_weights":[3.130013E1,-3.9816477E0,5.132322E3,-2.641627E1,6.467373E1,1.9173445E1,9.0994E1,-4.9594357E1,5.806174E1,-1.6114378E2,4.575851E2,-1.689283E2,1.4577445E1,3.5622235E2,2.3805813E3,-1.7559204E0,1.2149223E1,3.1128092E0,2.8510227E1,3.3783092E1,7.111329E0],"categories":[],"categories_nodes":[],"categories_segments":[],"categories_sizes":[],"default_left":[0,0,0,0,0,0,0,0,0,0,0,0,0,0,0,0,0,0,0,0,0],"id":22,"left_children":[1,3,5,7,-1,-1,-1,9,-1,11,13,15,-1,17,19,-1,-1,-1,-1,-1,-1],"loss_changes":[3.668056E8,2.9416522E8,1.6111024E8,2.732331E8,0E0,0E0,0E0,1.139038E8,0E0,2.1039988E7,6.9908024E7,1.5364456E7,0E0,3.790601E7,2.7579368E7,0E0,0E0,0E0,0E0,0E0,0E0],"parents":[2147483647,0,0,1,1,2,2,3,3,7,7,9,9,10,10,11,11,13,13,14,14],"right_children":[2,4,6,8,-1,-1,-1,10,-1,12,14,16,-1,18,20,-1,-1,-1,-1,-1,-1],"split_conditions":[2.8E2,6E0,1.6E1,2E2,6.467373E1,1.9173445E1,9.0994E1,2E0,5.806174E1,1.2E2,4.2E1,2E2,1.4577445E1,2E1,1.5E1,-1.7559204E0,1.2149223E1,3.1128092E0,2.8510227E1,3.3783092E1,7.111329E0],"split_indices":[20,80,92,39,0,0,0,93,0,57,73,58,0,78,92,0,0,0,0,0,0],"split_type":[0,0,0,0,0,0,0,0,0,0,0,0,0,0,0,0,0,0,0,0,0],"sum_hessian":[2.037E3,2.024E3,1.3E1,2.018E3,6E0,8E0,5E0,2.011E3,7E0,1.649E3,3.62E2,1.642E3,7E0,3.45E2,1.7E1,1.635E3,7E0,3.4E2,5E0,1E1,7E0],"tree_param":{"num_deleted":"0","num_feature":"106","num_nodes":"21","size_leaf_vector":"1"}},{"base_weights":[-3.065709E1,-4.8068443E1,5.1349445E1,-8.9480606E1,9.5954034E2,-1.4318459E2,2.2403775E2,7.4482086E2,2.6183956E1,-1.5040532E2,1.0943251E1,1.919124E2,1.5045822E1,5.249362E2,2.7744404E1,-1.577557E2,9.885473E0,1.6157278E2,1.5808326E1,4.0503665E2,1.6963924E1,-1.1101377E0,-3.0272696E0,2.6099617E0,-6.312989E-1,5.85473E0,4.2156374E-1],"categories":[],"categories_nodes":[],"categories_segments":[],"categories_sizes":[],"default_left":[0,0,0,0,0,0,0,0,0,0,0,0,0,0,0,0,0,0,0,0,0,0,0,0,0,0,0],"id":23,"left_children":[1,3,-1,5,7,9,11,13,-1,15,-1,17,-1,19,-1,21,-1,23,-1,25,-1,-1,-1,-1,-1,-1,-1],"loss_changes":[1.8741222E8,8.666993E7,0E0,3.3605424E7,2.7257224E7,1.538212E7,1.1723529E7,3.1568476E7,0E0,1.4337708E7,0E0,1.1796426E7,0E0,8.863982E6,0E0,1.137758E7,0E0,6.294214E6,0E0,4.10036E6,0E0,0E0,0E0,0E0,0E0,0E0,0E0],"parents":[2147483647,0,0,1,1,3,3,4,4,5,5,6,6,7,7,9,9,11,11,13,13,15,15,17,17,19,19],"right_children":[2,4,-1,6,8,10,12,14,-1,16,-1,18,-1,20,-1,22,-1,24,-1,26,-1,-1,-1,-1,-1,-1,-1],"split_conditions":[4.5E1,3E0,5.1349445E1,2E0,1.5E1,2E2,7.2E1,1.5E2,2.6183956E1,1.2E2,1.0943251E1,3E0,1.5045822E1,2.4E2,2.7744404E1,1E0,9.885473E0,1E0,1.5808326E1,1E0,1.6963924E1,-1.1101377E0,-3.0272696E0,2.6099617E0,-6.312989E-1,5.85473E0,4.2156374E-1],"split_indices":[50,93,0,93,72,58,72,19,0,57,0,59,0,58,0,41,0,41,0,41,0,0,0,0,0,0,0],"split_type":[0,0,0,0,0,0,0,0,0,0,0,0,0,0,0,0,0,0,0,0,0,0,0,0,0,0,0],"sum_hessian":[2.08E3,2.074E3,6E0,1.993E3,8.1E1,1.702E3,2.91E2,7.3E1,8E0,1.693E3,9E0,2.85E2,6E0,6.7E1,6E0,1.683E3,1E1,2.8E2,5E0,6.2E1,5E0,1.274E3,4.09E2,1.94E2,8.6E1,4.1E1,2.1E1],"tree_param":{"num_deleted":"0","num_feature":"106","num_nodes":"27","size_leaf_vector":"1"}},{"base_weights":[1.8693712E1,-1.5066543E1,5.8661E3,-3.6677082E1,7.4574875E1,1.100449E1,9.1129295E1,-6.4448364E1,2.442599E3,-7.346083E1,3.0210453E1,4.552822E1,1.6034915E3,-8.825136E1,1.6978932E3,1.0743811E3,2.4826487E1,-9.947196E-1,1.1721127E1,4.03398E1,3.8835847E0,2.2911234E0,1.7661669E1],"categories":[],"categories_nodes":[],"categories_segments":[],"categories_sizes":[],"default_left":[0,0,0,0,0,0,0,0,0,0,0,0,0,0,0,0,0,0,0,0,0,0,0],"id":24,"left_children":[1,3,5,7,-1,-1,-1,9,11,13,-1,-1,15,17,19,21,-1,-1,-1,-1,-1,-1,-1],"loss_changes":[4.1267517E8,3.3600272E8,1.7565072E8,1.4295789E8,0E0,0E0,0E0,5.7283744E7,3.3425792E7,5.3779716E7,0E0,0E0,5.705768E6,2.8839096E7,5.0439548E7,7.197035E6,0E0,0E0,0E0,0E0,0E0,0E0,0E0],"parents":[2147483647,0,0,1,1,2,2,3,3,7,7,8,8,9,9,12,12,13,13,14,14,15,15],"right_children":[2,4,6,8,-1,-1,-1,10,12,14,-1,-1,16,18,20,22,-1,-1,-1,-1,-1,-1,-1],"split_conditions":[2.5E2,9.5E0,1.3E1,4E0,7.4574875E1,1.100449E1,9.1129295E1,1.8E2,1.1E1,4.2E1,3.0210453E1,4.552822E1,3E0,2.5E2,5.2E1,1.4E1,2.4826487E1,-9.947196E-1,1.1721127E1,4.03398E1,3.8835847E0,2.2911234E0,1.7661669E1],"split_indices":[20,80,92,93,0,0,0,72,92,73,0,0,58,58,73,92,0,0,0,0,0,0,0],"split_type":[0,0,0,0,0,0,0,0,0,0,0,0,0,0,0,0,0,0,0,0,0,0,0],"sum_hessian":[2.089E3,2.078E3,1.1E1,2.073E3,5E0,5E0,6E0,2.051E3,2.2E1,2.046E3,5E0,5E0,1.7E1,2.03E3,1.6E1,1.2E1,5E0,2.013E3,1.7E1,5E0,1.1E1,6E0,6E0],"tree_param":{"num_deleted":"0","num_feature":"106","num_nodes":"23","size_leaf_vector":"1"}},{"base_weights":[2.3696275E0,-2.8893034E1,5.3298506E3,-5.0714855E1,7.3953415E1,1.4682905E1,8.946695E1,-1.3764275E2,3.5808505E2,-1.4563152E2,1.5532097E1,2.799524E2,2.4100706E3,-9.369586E1,-3.0171133E2,2.3435155E2,2.8249416E1,3.523715E1,5.235326E0,-5.3360945E-1,-3.3208783E0,-3.1119146E0,2.993631E0,1.9138638E0,2.257063E1],"categories":[],"categories_nodes":[],"categories_segments":[],"categories_sizes":[],"default_left":[0,0,0,0,0,0,0,0,0,0,0,0,0,0,0,0,0,0,0,0,0,0,0,0,0],"id":25,"left_children":[1,3,5,7,-1,-1,-1,9,11,13,-1,15,17,19,21,23,-1,-1,-1,-1,-1,-1,-1,-1,-1],"loss_changes":[3.425833E8,3.3168618E8,1.5446365E8,7.254296E7,0E0,0E0,0E0,2.2959876E7,5.6722384E7,1.3557568E7,0E0,3.9492536E7,2.5467352E7,1.2088219E7,2.475028E6,2.920302E7,0E0,0E0,0E0,0E0,0E0,0E0,0E0,0E0,0E0],"parents":[2147483647,0,0,1,1,2,2,3,3,7,7,8,8,9,9,11,11,12,12,13,13,14,14,15,15],"right_children":[2,4,6,8,-1,-1,-1,10,12,14,-1,16,18,20,22,24,-1,-1,-1,-1,-1,-1,-1,-1,-1],"split_conditions":[2.8E2,9.5E0,1.5E1,2E0,7.3953415E1,1.4682905E1,8.946695E1,1.2E2,4.2E1,1E0,1.5532097E1,6E0,1.5E1,1E0,7E2,3.5E0,2.8249416E1,3.523715E1,5.235326E0,-5.3360945E-1,-3.3208783E0,-3.1119146E0,2.993631E0,1.9138638E0,2.257063E1],"split_indices":[20,80,92,93,0,0,0,57,73,41,0,78,92,42,41,26,0,0,0,0,0,0,0,0,0],"split_type":[0,0,0,0,0,0,0,0,0,0,0,0,0,0,0,0,0,0,0,0,0,0,0,0,0],"sum_hessian":[2.055E3,2.044E3,1.1E1,2.039E3,5E0,6E0,5E0,1.682E3,3.57E2,1.675E3,7E0,3.45E2,1.2E1,1.258E3,4.17E2,3.4E2,5E0,7E0,5E0,1.077E3,1.81E2,4.11E2,6E0,3.34E2,6E0],"tree_param":{"num_deleted":"0","num_feature":"106","num_nodes":"25","size_leaf_vector":"1"}},{"base_weights":[8.782424E0,-1.9888996E1,5.3643267E3,-3.750627E1,6.002662E1,9.013617E1,8.209814E0,-5.320776E1,2.4268887E1,-7.241723E1,1.8886489E3,-7.997513E1,2.476587E1,3.5793617E1,4.6322687E2,-9.054383E-1,9.782513E0,1.0878557E-1,9.137621E0],"categories":[],"categories_nodes":[],"categories_segments":[],"categories_sizes":[],"default_left":[0,0,0,0,0,0,0,0,0,0,0,0,0,0,0,0,0,0,0],"id":26,"left_children":[1,3,5,7,-1,-1,-1,9,-1,11,13,15,-1,-1,17,-1,-1,-1,-1],"loss_changes":[3.1718963E8,2.1826258E8,1.7497984E8,7.945318E7,0E0,0E0,0E0,7.615834E7,0E0,3.9094332E7,4.6541536E7,2.26133E7,0E0,0E0,2.4356458E6,0E0,0E0,0E0,0E0],"parents":[2147483647,0,0,1,1,2,2,3,3,7,7,9,9,10,10,11,11,14,14],"right_children":[2,4,6,8,-1,-1,-1,10,-1,12,14,16,-1,-1,18,-1,-1,-1,-1],"split_conditions":[2.8E2,5E1,3.4E2,5E2,6.002662E1,9.013617E1,8.209814E0,3.5E1,2.4268887E1,2.5E1,1.2E1,1.9E1,2.476587E1,3.5793617E1,9.6E1,-9.054383E-1,9.782513E0,1.0878557E-1,9.137621E0],"split_indices":[20,50,20,58,0,0,0,73,0,75,92,59,0,0,73,0,0,0,0],"split_type":[0,0,0,0,0,0,0,0,0,0,0,0,0,0,0,0,0,0,0],"sum_hessian":[2.064E3,2.054E3,1E1,2.049E3,5E0,5E0,5E0,2.037E3,1.2E1,2.018E3,1.9E1,2.013E3,5E0,8E0,1.1E1,1.994E3,1.9E1,6E0,5E0],"tree_param":{"num_deleted":"0","num_feature":"106","num_nodes":"19","size_leaf_vector":"1"}},{"base_weights":[1.11338E1,-1.163917E1,6.67877E1,-4.0112995E1,5.270019E3,-6.330836E1,2.1929705E3,9.110035E0,8.750698E1,-1.4404224E2,3.0685965E2,3.3409272E3,5.9612536E0,-9.568716E1,-2.965027E2,4.642653E2,-1.27952324E2,4.3621574E1,1.9883112E1,-5.799005E-1,-3.188585E0,-3.0632973E0,2.9757318E0,3.2783566E0,9.587557E0,-6.2664765E-1,-2.526717E0],"categories":[],"categories_nodes":[],"categories_segments":[],"categories_sizes":[],"default_left":[0,0,0,0,0,0,0,0,0,0,0,0,0,0,0,0,0,0,0,0,0,0,0,0,0,0,0],"id":27,"left_children":[1,3,-1,5,7,9,11,-1,-1,13,15,17,-1,19,21,23,25,-1,-1,-1,-1,-1,-1,-1,-1,-1,-1],"loss_changes":[3.122646E8,3.0850886E8,0E0,1.05805096E8,1.5892374E8,6.0412104E7,3.650368E7,0E0,0E0,1.2202168E7,2.4835356E7,7.902664E6,0E0,1.0590193E7,2.420524E6,1.763088E7,7.740009E5,0E0,0E0,0E0,0E0,0E0,0E0,0E0,0E0,0E0,0E0],"parents":[2147483647,0,0,1,1,3,3,4,4,5,5,6,6,9,9,10,10,11,11,13,13,14,14,15,15,16,16],"right_children":[2,4,-1,6,8,10,12,-1,-1,14,16,18,-1,20,22,24,26,-1,-1,-1,-1,-1,-1,-1,-1,-1,-1],"split_conditions":[2.4E2,2.8E2,6.67877E1,4.2E1,1.3E1,2E0,1.5E1,9.110035E0,8.750698E1,1E0,2.5E0,9.6E1,5.9612536E0,1E0,7E2,3E0,1E0,4.3621574E1,1.9883112E1,-5.799005E-1,-3.188585E0,-3.0632973E0,2.9757318E0,3.2783566E0,9.587557E0,-6.2664765E-1,-2.526717E0],"split_indices":[39,20,0,73,92,93,92,0,0,41,41,73,0,42,41,93,42,0,0,0,0,0,0,0,0,0,0],"split_type":[0,0,0,0,0,0,0,0,0,0,0,0,0,0,0,0,0,0,0,0,0,0,0,0,0,0,0],"sum_hessian":[2.055E3,2.049E3,6E0,2.039E3,1E1,2.019E3,2E1,5E0,5E0,1.658E3,3.61E2,1.1E1,9E0,1.26E3,3.98E2,2.65E2,9.6E1,5E0,6E0,1.079E3,1.81E2,3.92E2,6E0,2.09E2,5.6E1,6.4E1,3.2E1],"tree_param":{"num_deleted":"0","num_feature":"106","num_nodes":"27","size_leaf_vector":"1"}},{"base_weights":[-2.8043722E1,-5.599828E1,2.2093994E3,-7.447165E1,2.1901804E3,3.726572E1,1.4543055E3,-8.4412575E1,2.858798E1,4.526333E1,8.3958905E2,1.06950865E1,2.1097807E1,-9.365153E1,2.0293953E1,2.8578136E0,1.19434E1,-1.4769418E2,1.8149022E2,-1.5579497E0,9.242458E0,1.4456577E0,1.6819374E1],"categories":[],"categories_nodes":[],"categories_segments":[],"categories_sizes":[],"default_left":[0,0,0,0,0,0,0,0,0,0,0,0,0,0,0,0,0,0,0,0,0,0,0],"id":28,"left_children":[1,3,5,7,9,-1,11,13,-1,-1,15,-1,-1,17,-1,-1,-1,19,21,-1,-1,-1,-1],"loss_changes":[1.3178459E8,8.647165E7,2.4366232E7,6.0426336E7,4.983793E7,0E0,2.53584E6,4.038151E7,0E0,0E0,2.016246E6,0E0,0E0,3.050906E7,0E0,0E0,0E0,1.50276E7,1.8427724E7,0E0,0E0,0E0,0E0],"parents":[2147483647,0,0,1,1,2,2,3,3,4,4,6,6,7,7,10,10,13,13,17,17,18,18],"right_children":[2,4,6,8,10,-1,12,14,-1,-1,16,-1,-1,18,-1,-1,-1,20,22,-1,-1,-1,-1],"split_conditions":[4E0,4.2E1,1.1E1,1.5E2,5E1,3.726572E1,5E0,5E1,2.858798E1,4.526333E1,1.2E2,1.06950865E1,2.1097807E1,2E0,2.0293953E1,2.8578136E0,1.19434E1,2E2,1.7E1,-1.5579497E0,9.242458E0,1.4456577E0,1.6819374E1],"split_indices":[93,73,92,72,73,0,93,77,0,0,73,0,0,93,0,0,0,58,25,0,0,0,0],"split_type":[0,0,0,0,0,0,0,0,0,0,0,0,0,0,0,0,0,0,0,0,0,0,0],"sum_hessian":[2.104E3,2.079E3,2.5E1,2.063E3,1.6E1,7E0,1.8E1,2.057E3,6E0,5E0,1.1E1,1.3E1,5E0,2.049E3,8E0,5E0,6E0,1.713E3,3.36E2,1.701E3,1.2E1,3.29E2,7E0],"tree_param":{"num_deleted":"0","num_feature":"106","num_nodes":"23","size_leaf_vector":"1"}},{"base_weights":[2.8881317E1,7.762129E0,7.317227E1,-1.79298E1,4.8231255E3,-3.9772602E1,4.9690754E1,8.8386826E1,3.713847E-2,-7.9445015E1,9.798612E2,-9.2136185E1,2.0074692E3,7.720656E2,3.310098E1,-1.048388E0,1.986068E1,3.0201962E1,4.9137616E0,8.732045E0,-2.918248E0],"categories":[],"categories_nodes":[],"categories_segments":[],"categories_sizes":[],"default_left":[0,0,0,0,0,0,0,0,0,0,0,0,0,0,0,0,0,0,0,0,0],"id":29,"left_children":[1,3,-1,5,7,9,-1,-1,-1,11,13,15,17,19,-1,-1,-1,-1,-1,-1,-1],"loss_changes":[3.1964326E8,2.5642597E8,0E0,2.2481165E8,2.1284603E8,8.316489E7,0E0,0E0,0E0,5.257304E7,3.4728776E7,5.2134324E7,1.6940608E7,8.002076E6,0E0,0E0,0E0,0E0,0E0,0E0,0E0],"parents":[2147483647,0,0,1,1,3,3,4,4,5,5,9,9,10,10,11,11,12,12,13,13],"right_children":[2,4,-1,6,8,10,-1,-1,-1,12,14,16,18,20,-1,-1,-1,-1,-1,-1,-1],"split_conditions":[9.5E0,2.8E2,7.317227E1,2.4E2,3.4E2,3E0,4.9690754E1,8.8386826E1,3.713847E-2,4.5E1,2.5E1,5E2,1.6E2,5E0,3.310098E1,-1.048388E0,1.986068E1,3.0201962E1,4.9137616E0,8.732045E0,-2.918248E0],"split_indices":[80,20,0,39,20,93,0,0,0,73,75,58,73,45,0,0,0,0,0,0,0],"split_type":[0,0,0,0,0,0,0,0,0,0,0,0,0,0,0,0,0,0,0,0,0],"sum_hessian":[2.076E3,2.071E3,5E0,2.061E3,1E1,2.053E3,8E0,5E0,5E0,1.977E3,7.6E1,1.966E3,1.1E1,7.1E1,5E0,1.955E3,1.1E1,6E0,5E0,6.5E1,6E0],"tree_param":{"num_deleted":"0","num_feature":"106","num_nodes":"21","size_leaf_vector":"1"}},{"base_weights":[3.1836107E0,-2.972203E1,4.7648726E3,-1.4213771E2,4.6884436E2,-5.590778E0,8.827721E1,-1.5193872E2,1.8934113E1,3.8436386E2,2.6077114E3,-1.0525666E2,-3.021287E2,5.825899E2,-1.6682643E2,3.941956E1,1.4284694E1,-6.987196E1,-3.167835E2,-2.530453E2,-3.824253E2,1.8287362E3,3.9745386E2,-1.2184096E2,-2.8325497E2,-7.5661737E-1,9.781423E0,-2.9139931E0,-3.6644766E0,-2.8285687E0,-2.2015696E0,-4.201834E0,-2.9395218E0,2.3185808E1,-5.308168E-1,3.1363244E0,1.3765731E1,-1.6024357E0,-2.277548E-1,-3.2390053E0,-9.378635E-1],"categories":[],"categories_nodes":[],"categories_segments":[],"categories_sizes":[],"default_left":[0,0,0,0,0,0,0,0,0,0,0,0,0,0,0,0,0,0,0,0,0,0,0,0,0,0,0,0,0,0,0,0,0,0,0,0,0,0,0,0,0],"id":30,"left_children":[1,3,5,7,9,-1,-1,11,-1,13,15,17,19,21,23,-1,-1,25,27,29,31,33,35,37,39,-1,-1,-1,-1,-1,-1,-1,-1,-1,-1,-1,-1,-1,-1,-1,-1],"loss_changes":[3.1962525E8,1.1361722E8,3.07761E8,3.3285686E7,6.639603E7,0E0,0E0,1.1515612E7,0E0,3.9430896E7,1.6396608E7,9.393762E6,1.440308E6,6.0410416E7,4.68297E5,0E0,0E0,6.621123E6,1.2014E5,1.77938E5,3.64212E5,3.1464224E7,1.8608772E7,2.6646088E5,1.6985012E5,0E0,0E0,0E0,0E0,0E0,0E0,0E0,0E0,0E0,0E0,0E0,0E0,0E0,0E0,0E0,0E0],"parents":[2147483647,0,0,1,1,2,2,3,3,4,4,7,7,9,9,10,10,11,11,12,12,13,13,14,14,17,17,18,18,19,19,20,20,21,21,22,22,23,23,24,24],"right_children":[2,4,6,8,10,-1,-1,12,-1,14,16,18,20,22,24,-1,-1,26,28,30,32,34,36,38,40,-1,-1,-1,-1,-1,-1,-1,-1,-1,-1,-1,-1,-1,-1,-1,-1],"split_conditions":[2.8E2,2E0,2E0,5E2,4.2E1,-5.590778E0,8.827721E1,1E0,1.8934113E1,2.5E0,3E1,1E0,1E2,1E1,2.1E1,3.941956E1,1.4284694E1,3E2,1E2,3E1,1.1E2,2E0,4E0,1.4E1,3E0,-7.5661737E-1,9.781423E0,-2.9139931E0,-3.6644766E0,-2.8285687E0,-2.2015696E0,-4.201834E0,-2.9395218E0,2.3185808E1,-5.308168E-1,3.1363244E0,1.3765731E1,-1.6024357E0,-2.277548E-1,-3.2390053E0,-9.378635E-1],"split_indices":[20,93,93,58,73,0,0,41,0,41,72,42,41,92,42,0,0,57,42,41,41,18,93,92,93,0,0,0,0,0,0,0,0,0,0,0,0,0,0,0,0],"split_type":[0,0,0,0,0,0,0,0,0,0,0,0,0,0,0,0,0,0,0,0,0,0,0,0,0,0,0,0,0,0,0,0,0,0,0,0,0,0,0,0,0],"sum_hessian":[2.038E3,2.025E3,1.3E1,1.653E3,3.72E2,6E0,7E0,1.646E3,7E0,3.59E2,1.3E1,1.257E3,3.89E2,2.64E2,9.5E1,5E0,8E0,1.078E3,1.79E2,2.44E2,1.45E2,3.3E1,2.31E2,7E1,2.5E1,1.073E3,5E0,1.23E2,5.6E1,1.24E2,1.2E2,9.9E1,4.6E1,2.6E1,7E0,2.14E2,1.7E1,5E1,2E1,2E1,5E0],"tree_param":{"num_deleted":"0","num_feature":"106","num_nodes":"41","size_leaf_vector":"1"}},{"base_weights":[-1.4306705E1,-3.8916336E1,4.573334E3,-6.544138E1,1.8789083E3,-4.4969068E0,8.834136E1,-7.943609E1,2.1044653E1,2.17935E3,6.66247E0,-1.554458E2,2.731564E2,2.560479E1,1.1923152E1,-1.1005422E2,-2.9256766E2,2.2752249E2,2.2354946E1,-7.292736E-1,-3.1329203E0,-3.0208328E0,2.9977617E0,1.8625257E0,1.2046968E1],"categories":[],"categories_nodes":[],"categories_segments":[],"categories_sizes":[],"default_left":[0,0,0,0,0,0,0,0,0,0,0,0,0,0,0,0,0,0,0,0,0,0,0,0,0],"id":31,"left_children":[1,3,5,7,9,-1,-1,11,-1,13,-1,15,17,-1,-1,19,21,23,-1,-1,-1,-1,-1,-1,-1],"loss_changes":[2.3275227E8,1.0440726E8,2.3939592E8,6.160001E7,8.749376E6,0E0,0E0,5.3938172E7,0E0,5.223208E6,0E0,1.0268816E7,3.1460418E7,0E0,0E0,9.371401E6,2.407176E6,1.3890392E7,0E0,0E0,0E0,0E0,0E0,0E0,0E0],"parents":[2147483647,0,0,1,1,2,2,3,3,4,4,7,7,9,9,11,11,12,12,15,15,16,16,17,17],"right_children":[2,4,6,8,10,-1,-1,12,-1,14,-1,16,18,-1,-1,20,22,24,-1,-1,-1,-1,-1,-1,-1],"split_conditions":[2.8E2,4E0,2E0,5E2,1E0,-4.4969068E0,8.834136E1,2E0,2.1044653E1,5E0,6.66247E0,1E0,3E0,2.560479E1,1.1923152E1,1E0,7E2,4.2E1,2.2354946E1,-7.292736E-1,-3.1329203E0,-3.0208328E0,2.9977617E0,1.8625257E0,1.2046968E1],"split_indices":[20,93,93,58,99,0,0,93,0,93,0,41,77,0,0,42,41,73,0,0,0,0,0,0,0],"split_type":[0,0,0,0,0,0,0,0,0,0,0,0,0,0,0,0,0,0,0,0,0,0,0,0,0],"sum_hessian":[2.059E3,2.049E3,1E1,2.022E3,2.7E1,5E0,5E0,2.01E3,1.2E1,2.1E1,6E0,1.654E3,3.56E2,1.4E1,7E0,1.244E3,4.1E2,3.49E2,7E0,1.053E3,1.91E2,4.04E2,6E0,3.36E2,1.3E1],"tree_param":{"num_deleted":"0","num_feature":"106","num_nodes":"25","size_leaf_vector":"1"}},{"base_weights":[2.3322397E1,-7.6154113E0,5.412292E3,-2.9750654E1,6.586612E1,7.5341916E0,8.6324265E1,-4.9541496E1,6.836033E1,-7.0767136E1,2.3859048E3,-1.0308598E2,9.0868475E2,4.4329212E1,1.2575967E3,-1.4822601E0,1.643623E0,2.3538445E1,6.392061E0,1.6710272E0,2.5019892E1],"categories":[],"categories_nodes":[],"categories_segments":[],"categories_sizes":[],"default_left":[0,0,0,0,0,0,0,0,0,0,0,0,0,0,0,0,0,0,0,0,0],"id":32,"left_children":[1,3,5,7,-1,-1,-1,9,-1,11,13,15,17,-1,19,-1,-1,-1,-1,-1,-1],"loss_changes":[3.5049277E8,3.0540842E8,1.7352256E8,2.836477E8,0E0,0E0,0E0,1.0769216E8,0E0,6.539743E7,3.599913E7,2.414547E7,2.4198428E7,0E0,1.7222946E7,0E0,0E0,0E0,0E0,0E0,0E0],"parents":[2147483647,0,0,1,1,2,2,3,3,7,7,9,9,10,10,11,11,12,12,14,14],"right_children":[2,4,6,8,-1,-1,-1,10,-1,12,14,16,18,-1,20,-1,-1,-1,-1,-1,-1],"split_conditions":[2.5E2,1.6E2,1.3E1,3E0,6.586612E1,7.5341916E0,8.6324265E1,4.2E1,6.836033E1,3E0,5E1,2E0,1E1,4.4329212E1,9.6E1,-1.4822601E0,1.643623E0,2.3538445E1,6.392061E0,1.6710272E0,2.5019892E1],"split_indices":[20,39,92,80,0,0,0,73,0,93,73,93,92,0,73,0,0,0,0,0,0],"split_type":[0,0,0,0,0,0,0,0,0,0,0,0,0,0,0,0,0,0,0,0,0],"sum_hessian":[2.101E3,2.09E3,1.1E1,2.084E3,6E0,5E0,6E0,2.079E3,5E0,2.062E3,1.7E1,1.997E3,6.5E1,5E0,1.2E1,1.709E3,2.88E2,9E0,5.6E1,7E0,5E0],"tree_param":{"num_deleted":"0","num_feature":"106","num_nodes":"21","size_leaf_vector":"1"}},{"base_weights":[3.4078945E1,2.9858537E0,5.771896E3,-1.4092773E1,4.943162E1,2.1284243E1,8.4533844E1,-3.500934E1,3.8187227E3,-5.765628E1,2.0192185E3,5.8893932E1,1.1115979E1,-7.5449265E1,2.294861E1,4.3959805E1,1.0615839E3,-8.367503E-1,2.6447744E1,-1.3258561E0,1.910761E1],"categories":[],"categories_nodes":[],"categories_segments":[],"categories_sizes":[],"default_left":[0,0,0,0,0,0,0,0,0,0,0,0,0,0,0,0,0,0,0,0,0],"id":33,"left_children":[1,3,5,7,-1,-1,-1,9,11,13,15,-1,-1,17,-1,-1,19,-1,-1,-1,-1],"loss_changes":[3.6411034E8,1.7142803E8,8.947686E7,1.6247659E8,0E0,0E0,0E0,9.385821E7,5.5114576E7,8.363859E7,4.5406816E7,0E0,0E0,4.452564E7,0E0,0E0,1.7492386E7,0E0,0E0,0E0,0E0],"parents":[2147483647,0,0,1,1,2,2,3,3,7,7,8,8,9,9,10,10,13,13,16,16],"right_children":[2,4,6,8,-1,-1,-1,10,12,14,16,-1,-1,18,-1,-1,20,-1,-1,-1,-1],"split_conditions":[2.8E2,5E1,1.6E1,6.4E1,4.943162E1,2.1284243E1,8.4533844E1,4.2E1,9.2E1,5E2,5E1,5.8893932E1,1.1115979E1,1.3E2,2.294861E1,4.3959805E1,9.6E1,-8.367503E-1,2.6447744E1,-1.3258561E0,1.910761E1],"split_indices":[20,50,92,77,0,0,0,73,77,58,73,0,0,72,0,0,73,0,0,0,0],"split_type":[0,0,0,0,0,0,0,0,0,0,0,0,0,0,0,0,0,0,0,0,0],"sum_hessian":[2.04E3,2.03E3,1E1,2.024E3,6E0,5E0,5E0,2.014E3,1E1,1.993E3,2.1E1,5E0,5E0,1.979E3,1.4E1,5E0,1.6E1,1.974E3,5E0,7E0,9E0],"tree_param":{"num_deleted":"0","num_feature":"106","num_nodes":"21","size_leaf_vector":"1"}},{"base_weights":[1.4371905E1,-6.1089363E0,7.166617E1,-2.768094E1,4.0852827E3,-1.434818E2,5.0451834E2,7.754449E-1,7.412141E1,-1.4817413E2,1.2169682E1,3.5087726E2,2.2494521E3,-1.0291739E2,-2.8213052E2,2.5912027E2,2.215701E3,3.0945395E1,-6.6256064E-1,-1.0877128E0,1.1572106E1,-2.465003E0,-3.4999428E0,2.2080872E0,1.9899069E1,-4.3913493E-1,3.2467903E1],"categories":[],"categories_nodes":[],"categories_segments":[],"categories_sizes":[],"default_left":[0,0,0,0,0,0,0,0,0,0,0,0,0,0,0,0,0,0,0,0,0,0,0,0,0,0,0],"id":34,"left_children":[1,3,-1,5,7,9,11,-1,-1,13,-1,15,17,19,21,23,25,-1,-1,-1,-1,-1,-1,-1,-1,-1,-1],"loss_changes":[3.0780666E8,1.8510502E8,0E0,1.2863075E8,1.4609013E8,1.1121984E7,9.920962E7,0E0,0E0,1.0331652E7,0E0,5.8287916E7,5.8914304E7,9.560601E6,9.55888E5,2.1376304E7,3.742041E7,0E0,0E0,0E0,0E0,0E0,0E0,0E0,0E0,0E0,0E0],"parents":[2147483647,0,0,1,1,3,3,4,4,5,5,6,6,9,9,11,11,12,12,13,13,14,14,15,15,16,16],"right_children":[2,4,-1,6,8,10,12,-1,-1,14,-1,16,18,20,22,24,26,-1,-1,-1,-1,-1,-1,-1,-1,-1,-1],"split_conditions":[8E0,2.4E2,7.166617E1,2E0,2E0,4.4E1,1E0,7.754449E-1,7.412141E1,1E0,1.2169682E1,4.2E1,1E0,1.2E2,1E2,1.7E1,1E0,3.0945395E1,-6.6256064E-1,-1.0877128E0,1.1572106E1,-2.465003E0,-3.4999428E0,2.2080872E0,1.9899069E1,-4.3913493E-1,3.2467903E1],"split_indices":[80,39,0,93,93,51,103,0,0,41,0,73,41,57,41,25,71,0,0,0,0,0,0,0,0,0,0],"split_type":[0,0,0,0,0,0,0,0,0,0,0,0,0,0,0,0,0,0,0,0,0,0,0,0,0,0,0],"sum_hessian":[2.1E3,2.095E3,5E0,2.085E3,1E1,1.713E3,3.72E2,5E0,5E0,1.708E3,5E0,3.43E2,2.9E1,1.278E3,4.3E2,3.28E2,1.5E1,2.1E1,8E0,1.273E3,5E0,2.85E2,1.45E2,3.22E2,6E0,5E0,1E1],"tree_param":{"num_deleted":"0","num_feature":"106","num_nodes":"27","size_leaf_vector":"1"}},{"base_weights":[-7.09499E0,-3.8948566E1,5.041017E3,-1.2658793E2,3.551819E2,7.316038E0,7.64295E1,-1.350373E2,1.9193417E1,3.0516812E2,2.9408815E1,-8.604263E1,-2.8906726E2,4.4828436E2,-5.893632E1,-9.498447E1,8.6374567E2,-2.478533E2,-3.597159E2,4.0264273E2,1.4655865E1,-1.367122E2,1.0494563E1,-1.0110227E0,1.2055852E1,1.6756569E1,4.4429523E-1,-2.7390218E0,-2.1338007E0,-3.858484E0,-1.5460731E-2,3.5860763E0,1.5664241E1,-9.97367E-1,-3.5408227E0],"categories":[],"categories_nodes":[],"categories_segments":[],"categories_sizes":[],"default_left":[0,0,0,0,0,0,0,0,0,0,0,0,0,0,0,0,0,0,0,0,0,0,0,0,0,0,0,0,0,0,0,0,0,0,0],"id":35,"left_children":[1,3,5,7,9,-1,-1,11,-1,13,-1,15,17,19,21,23,25,27,29,31,-1,33,-1,-1,-1,-1,-1,-1,-1,-1,-1,-1,-1,-1,-1],"loss_changes":[3.3337482E8,7.1200136E7,1.4017485E8,2.9404708E7,4.759776E7,0E0,0E0,1.265349E7,0E0,1.9254732E7,0E0,1.0918915E7,1.090088E6,1.1714188E7,9.195127E6,1.0187025E7,7.908095E6,1.74134E5,1.375306E6,1.250632E7,0E0,7.6038425E5,0E0,0E0,0E0,0E0,0E0,0E0,0E0,0E0,0E0,0E0,0E0,0E0,0E0],"parents":[2147483647,0,0,1,1,2,2,3,3,4,4,7,7,9,9,11,11,12,12,13,13,14,14,15,15,16,16,17,17,18,18,19,19,21,21],"right_children":[2,4,6,8,10,-1,-1,12,-1,14,-1,16,18,20,22,24,26,28,30,32,-1,34,-1,-1,-1,-1,-1,-1,-1,-1,-1,-1,-1,-1,-1],"split_conditions":[2.8E2,2E0,1.3E1,4E2,1.2E2,7.316038E0,7.64295E1,1E0,1.9193417E1,2.5E0,2.9408815E1,1.2E2,8E1,7.45E1,2.1E2,2.6E2,1.1E1,3E1,3.3E2,2.5E2,1.4655865E1,7.5E1,1.0494563E1,-1.0110227E0,1.2055852E1,1.6756569E1,4.4429523E-1,-2.7390218E0,-2.1338007E0,-3.858484E0,-1.5460731E-2,3.5860763E0,1.5664241E1,-9.97367E-1,-3.5408227E0],"split_indices":[20,93,92,58,72,0,0,41,0,41,0,57,41,71,41,18,92,41,41,58,0,42,0,0,0,0,0,0,0,0,0,0,0,0,0],"split_type":[0,0,0,0,0,0,0,0,0,0,0,0,0,0,0,0,0,0,0,0,0,0,0,0,0,0,0,0,0,0,0,0,0,0,0],"sum_hessian":[2.071E3,2.059E3,1.2E1,1.685E3,3.74E2,5E0,7E0,1.679E3,6E0,3.68E2,6E0,1.275E3,4.04E2,2.64E2,1.04E2,1.264E3,1.1E1,2.58E2,1.46E2,2.54E2,1E1,9.8E1,6E0,1.259E3,5E0,5E0,6E0,1.43E2,1.15E2,1.36E2,1E1,2.46E2,8E0,8.5E1,1.3E1],"tree_param":{"num_deleted":"0","num_feature":"106","num_nodes":"35","size_leaf_vector":"1"}},{"base_weights":[-1.9628542E1,-4.1663322E1,4.475226E1,-5.7137146E1,1.6064558E3,-6.563104E1,2.8063347E1,4.0849814E2,3.2025852E1,-8.289381E1,1.3124915E3,1.0407408E0,6.9557652E0,-9.178918E1,1.6893478E1,2.2677176E1,7.295781E0,-9.734336E-1,1.489983E1],"categories":[],"categories_nodes":[],"categories_segments":[],"categories_sizes":[],"default_left":[0,0,0,0,0,0,0,0,0,0,0,0,0,0,0,0,0,0,0],"id":36,"left_children":[1,3,-1,5,7,9,-1,11,-1,13,15,-1,-1,17,-1,-1,-1,-1,-1],"loss_changes":[2.0302677E8,5.209181E7,0E0,4.933901E7,3.502157E7,4.8069856E7,0E0,9.763314E5,0E0,3.1558444E7,1.2265872E7,0E0,0E0,1.7566586E7,0E0,0E0,0E0,0E0,0E0],"parents":[2147483647,0,0,1,1,3,3,4,4,5,5,7,7,9,9,10,10,13,13],"right_children":[2,4,-1,6,8,10,-1,12,-1,14,16,-1,-1,18,-1,-1,-1,-1,-1],"split_conditions":[2.4E2,3.5E1,4.475226E1,3E2,1E0,2E2,2.8063347E1,8E1,3.2025852E1,1.7E1,1.1E1,1.0407408E0,6.9557652E0,2E1,1.6893478E1,2.2677176E1,7.295781E0,-9.734336E-1,1.489983E1],"split_indices":[39,73,0,21,71,58,0,73,0,25,92,0,0,66,0,0,0,0,0],"split_type":[0,0,0,0,0,0,0,0,0,0,0,0,0,0,0,0,0,0,0],"sum_hessian":[2.047E3,2.038E3,9E0,2.02E3,1.8E1,2.015E3,5E0,1.1E1,7E0,1.991E3,2.4E1,6E0,5E0,1.982E3,9E0,8E0,1.6E1,1.976E3,6E0],"tree_param":{"num_deleted":"0","num_feature":"106","num_nodes":"19","size_leaf_vector":"1"}},{"base_weights":[4.817243E0,-2.652848E1,5.46902E3,-4.33513E1,3.4803177E1,8.158122E0,8.676195E1,-5.740732E1,3.6096043E1,-1.4221138E2,3.1663095E2,-9.429361E1,-2.872234E2,2.564225E2,1.7806644E3,-1.0032163E0,1.1963498E1,-2.4885085E0,-3.5981314E0,2.2137065E0,2.3460043E1,4.3080315E1,8.6177504E-1],"categories":[],"categories_nodes":[],"categories_segments":[],"categories_sizes":[],"default_left":[0,0,0,0,0,0,0,0,0,0,0,0,0,0,0,0,0,0,0,0,0,0,0],"id":37,"left_children":[1,3,5,7,-1,-1,-1,9,-1,11,13,15,17,19,21,-1,-1,-1,-1,-1,-1,-1,-1],"loss_changes":[3.6034566E8,1.235685E8,1.720057E8,1.0716096E8,0E0,0E0,0E0,6.589568E7,0E0,1.1736984E7,3.3391924E7,1.0031784E7,1.080352E6,2.6580818E7,6.386762E7,0E0,0E0,0E0,0E0,0E0,0E0,0E0,0E0],"parents":[2147483647,0,0,1,1,2,2,3,3,7,7,9,9,10,10,11,11,12,12,13,13,14,14],"right_children":[2,4,6,8,-1,-1,-1,10,-1,12,14,16,18,20,22,-1,-1,-1,-1,-1,-1,-1,-1],"split_conditions":[2.8E2,7E1,1.3E1,1E2,3.4803177E1,8.158122E0,8.676195E1,2E0,3.6096043E1,1E0,4.2E1,3.25E2,1E2,8E0,5E1,-1.0032163E0,1.1963498E1,-2.4885085E0,-3.5981314E0,2.2137065E0,2.3460043E1,4.3080315E1,8.6177504E-1],"split_indices":[20,77,92,51,0,0,0,93,0,41,73,18,41,78,73,0,0,0,0,0,0,0,0],"split_type":[0,0,0,0,0,0,0,0,0,0,0,0,0,0,0,0,0,0,0,0,0,0,0],"sum_hessian":[2.102E3,2.091E3,1.1E1,2.082E3,9E0,5E0,6E0,2.075E3,7E0,1.692E3,3.83E2,1.273E3,4.19E2,3.69E2,1.4E1,1.268E3,5E0,2.77E2,1.42E2,3.64E2,5E0,5E0,9E0],"tree_param":{"num_deleted":"0","num_feature":"106","num_nodes":"23","size_leaf_vector":"1"}},{"base_weights":[1.3012104E1,-1.701995E1,3.848794E3,-3.3861984E1,5.7093006E1,-7.431692E0,6.678288E1,-1.2761017E2,3.865838E2,-1.3610033E2,1.6511106E1,3.232199E2,2.2605657E3,-1.4336963E2,1.0783971E1,2.8239938E2,2.0891256E1,2.926276E1,1.1071424E1,-1.471169E0,7.5825725E0,2.5258322E0,1.9696402E1],"categories":[],"categories_nodes":[],"categories_segments":[],"categories_sizes":[],"default_left":[0,0,0,0,0,0,0,0,0,0,0,0,0,0,0,0,0,0,0,0,0,0,0],"id":38,"left_children":[1,3,5,7,-1,-1,-1,9,11,13,-1,15,17,19,-1,21,-1,-1,-1,-1,-1,-1,-1],"loss_changes":[2.3725491E8,1.973226E8,2.128501E8,8.0418616E7,0E0,0E0,0E0,2.5414232E7,4.3441656E7,1.4818814E7,0E0,2.5432792E7,5.974348E6,5.693076E6,0E0,1.7311204E7,0E0,0E0,0E0,0E0,0E0,0E0,0E0],"parents":[2147483647,0,0,1,1,2,2,3,3,7,7,8,8,9,9,11,11,12,12,13,13,15,15],"right_children":[2,4,6,8,-1,-1,-1,10,12,14,-1,16,18,20,-1,22,-1,-1,-1,-1,-1,-1,-1],"split_conditions":[2.8E2,4.5E1,2E0,2E0,5.7093006E1,-7.431692E0,6.678288E1,4E2,4.5E1,1.2E2,1.6511106E1,1.8E1,3E0,1.5E2,1.0783971E1,3E0,2.0891256E1,2.926276E1,1.1071424E1,-1.471169E0,7.5825725E0,2.5258322E0,1.9696402E1],"split_indices":[20,50,93,93,0,0,0,58,73,57,0,25,93,21,0,80,0,0,0,0,0,0,0],"split_type":[0,0,0,0,0,0,0,0,0,0,0,0,0,0,0,0,0,0,0,0,0,0,0],"sum_hessian":[2.058E3,2.043E3,1.5E1,2.038E3,5E0,6E0,9E0,1.667E3,3.71E2,1.66E3,7E0,3.6E2,1.1E1,1.651E3,9E0,3.53E2,7E0,6E0,5E0,1.645E3,6E0,3.48E2,5E0],"tree_param":{"num_deleted":"0","num_feature":"106","num_nodes":"23","size_leaf_vector":"1"}},{"base_weights":[1.8918274E1,-2.6133072E-1,6.680678E1,-2.6259274E1,3.847453E3,-4.777176E1,4.414392E1,8.341911E1,4.2365246E0,-8.502068E1,9.012557E2,-9.671086E1,1.8460728E3,6.736712E2,3.1133734E1,-1.0347486E0,1.8197216E1,2.9191685E1,6.625519E0,4.177964E0,1.7038813E1],"categories":[],"categories_nodes":[],"categories_segments":[],"categories_sizes":[],"default_left":[0,0,0,0,0,0,0,0,0,0,0,0,0,0,0,0,0,0,0,0,0],"id":39,"left_children":[1,3,-1,5,7,9,-1,-1,-1,11,13,15,17,19,-1,-1,-1,-1,-1,-1,-1],"loss_changes":[2.6704088E8,2.086691E8,0E0,1.981479E8,2.1189973E8,7.30042E7,0E0,0E0,0E0,4.5012144E7,3.717121E7,2.578973E7,1.3306272E7,1.8267668E7,0E0,0E0,0E0,0E0,0E0,0E0,0E0],"parents":[2147483647,0,0,1,1,3,3,4,4,5,5,9,9,10,10,11,11,12,12,13,13],"right_children":[2,4,-1,6,8,10,-1,-1,-1,12,14,16,18,20,-1,-1,-1,-1,-1,-1,-1],"split_conditions":[8E0,2.5E2,6.680678E1,1.6E2,3.2E2,3E0,4.414392E1,8.341911E1,4.2365246E0,4.5E1,5.5E1,5E2,1.2E1,3E1,3.1133734E1,-1.0347486E0,1.8197216E1,2.9191685E1,6.625519E0,4.177964E0,1.7038813E1],"split_indices":[80,20,0,39,20,93,0,0,0,73,72,58,92,58,0,0,0,0,0,0,0],"split_type":[0,0,0,0,0,0,0,0,0,0,0,0,0,0,0,0,0,0,0,0,0],"sum_hessian":[2.089E3,2.084E3,5E0,2.071E3,1.3E1,2.062E3,9E0,5E0,8E0,1.985E3,7.7E1,1.974E3,1.1E1,7.1E1,6E0,1.968E3,6E0,5E0,6E0,5.8E1,1.3E1],"tree_param":{"num_deleted":"0","num_feature":"106","num_nodes":"21","size_leaf_vector":"1"}},{"base_weights":[2.4338552E1,-5.4685597E0,4.4574727E3,-2.2534916E1,5.9060905E1,-7.8793893E0,7.459139E1,-3.8050095E1,5.341715E1,-1.3202927E2,3.8645706E2,-8.5049385E1,-2.7036752E2,3.066351E2,2.2870635E3,-4.5414507E-1,-3.071397E0,-2.7925818E0,4.0444746E0,2.6669576E0,2.631919E1,3.927556E0,4.395879E1],"categories":[],"categories_nodes":[],"categories_segments":[],"categories_sizes":[],"default_left":[0,0,0,0,0,0,0,0,0,0,0,0,0,0,0,0,0,0,0,0,0,0,0],"id":40,"left_children":[1,3,5,7,-1,-1,-1,9,-1,11,13,15,17,19,21,-1,-1,-1,-1,-1,-1,-1,-1],"loss_changes":[2.769876E8,2.1028442E8,2.26307E8,1.7314958E8,0E0,0E0,0E0,8.2753016E7,0E0,1.1012504E7,5.6341724E7,1.1156451E7,2.692744E6,3.2917116E7,5.8194696E7,0E0,0E0,0E0,0E0,0E0,0E0,0E0,0E0],"parents":[2147483647,0,0,1,1,2,2,3,3,7,7,9,9,10,10,11,11,12,12,13,13,14,14],"right_children":[2,4,6,8,-1,-1,-1,10,-1,12,14,16,18,20,22,-1,-1,-1,-1,-1,-1,-1,-1],"split_conditions":[2.8E2,4.5E1,2E0,8E0,5.9060905E1,-7.8793893E0,7.459139E1,2E0,5.341715E1,1E0,4.2E1,1E0,5.5E2,2.5E1,2.2E1,-4.5414507E-1,-3.071397E0,-2.7925818E0,4.0444746E0,2.6669576E0,2.631919E1,3.927556E0,4.395879E1],"split_indices":[20,50,93,80,0,0,0,93,0,41,73,42,41,75,71,0,0,0,0,0,0,0,0],"split_type":[0,0,0,0,0,0,0,0,0,0,0,0,0,0,0,0,0,0,0,0,0,0,0],"sum_hessian":[2.095E3,2.082E3,1.3E1,2.077E3,5E0,5E0,8E0,2.072E3,5E0,1.697E3,3.75E2,1.268E3,4.29E2,3.61E2,1.4E1,1.077E3,1.91E2,4.24E2,5E0,3.56E2,5E0,8E0,6E0],"tree_param":{"num_deleted":"0","num_feature":"106","num_nodes":"23","size_leaf_vector":"1"}},{"base_weights":[-2.7777025E1,-1.27678535E2,4.5652686E2,-1.3347514E2,1.5417681E1,2.8755792E2,2.3344019E3,-1.408752E2,1.13566265E1,2.4909193E2,2.2911507E1,2.9981726E1,2.172323E0,-1.4454378E2,9.171446E0,2.1473161E2,2.0114937E1,-1.4807874E2,8.734556E0,1.7800542E2,1.805255E1,-1.2751069E0,-3.1042485E0,1.4817244E0,1.6598755E1],"categories":[],"categories_nodes":[],"categories_segments":[],"categories_sizes":[],"default_left":[0,0,0,0,0,0,0,0,0,0,0,0,0,0,0,0,0,0,0,0,0,0,0,0,0],"id":41,"left_children":[1,3,5,7,-1,9,11,13,-1,15,-1,-1,-1,17,-1,19,-1,21,-1,23,-1,-1,-1,-1,-1],"loss_changes":[9.9871784E7,1.6763332E7,1.1133653E8,1.618222E7,0E0,2.4477096E7,4.010285E7,6.71936E6,0E0,1.894621E7,0E0,0E0,0E0,6.218124E6,0E0,1.8079026E7,0E0,5.593548E6,0E0,1.341451E7,0E0,0E0,0E0,0E0,0E0],"parents":[2147483647,0,0,1,1,2,2,3,3,5,5,6,6,7,7,9,9,13,13,15,15,17,17,19,19],"right_children":[2,4,6,8,-1,10,12,14,-1,16,-1,-1,-1,18,-1,20,-1,22,-1,24,-1,-1,-1,-1,-1],"split_conditions":[2E0,4E2,1E0,1.2E2,1.5417681E1,2.8E1,1E0,2E2,1.13566265E1,4E2,2.2911507E1,2.9981726E1,2.172323E0,1.25E2,9.171446E0,1.7E1,2.0114937E1,1E0,8.734556E0,1.8E2,1.805255E1,-1.2751069E0,-3.1042485E0,1.4817244E0,1.6598755E1],"split_indices":[93,58,103,57,0,77,42,59,0,58,0,0,0,72,0,25,0,42,0,19,0,0,0,0,0],"split_type":[0,0,0,0,0,0,0,0,0,0,0,0,0,0,0,0,0,0,0,0,0,0,0,0,0],"sum_hessian":[2.062E3,1.71E3,3.52E2,1.705E3,5E0,3.24E2,2.8E1,1.696E3,9E0,3.19E2,5E0,2.1E1,7E0,1.691E3,5E0,3.14E2,5E0,1.686E3,5E0,3.08E2,6E0,1.498E3,1.88E2,3.03E2,5E0],"tree_param":{"num_deleted":"0","num_feature":"106","num_nodes":"25","size_leaf_vector":"1"}},{"base_weights":[1.0035996E1,-1.840544E1,3.69613E3,-3.899097E1,4.2343468E1,-7.665192E0,6.4503716E1,-8.1519E1,1.0454283E3,-8.718066E1,1.8032465E1,5.304223E2,4.134063E1,-2.9943697E1,-2.5113463E2,3.0874323E2,1.5391961E1,-7.452404E-1,2.6388936E0,-2.5868878E0,4.3030624E0,4.158703E0,-5.1586018E0],"categories":[],"categories_nodes":[],"categories_segments":[],"categories_sizes":[],"default_left":[0,0,0,0,0,0,0,0,0,0,0,0,0,0,0,0,0,0,0,0,0,0,0],"id":42,"left_children":[1,3,5,7,-1,-1,-1,9,11,13,-1,15,-1,17,19,21,-1,-1,-1,-1,-1,-1,-1],"loss_changes":[2.1907422E8,1.8173374E8,2.0160373E8,9.531934E7,0E0,0E0,0E0,2.1370966E7,1.21879096E8,1.8601402E7,0E0,1.4731222E7,0E0,1.9288556E7,2.752088E6,5.2497595E6,0E0,0E0,0E0,0E0,0E0,0E0,0E0],"parents":[2147483647,0,0,1,1,2,2,3,3,7,7,8,8,9,9,11,11,13,13,14,14,15,15],"right_children":[2,4,6,8,-1,-1,-1,10,12,14,-1,16,-1,18,20,22,-1,-1,-1,-1,-1,-1,-1],"split_conditions":[2.8E2,7E1,2E0,3E0,4.2343468E1,-7.665192E0,6.4503716E1,2.9E2,1E0,1E0,1.8032465E1,1E0,4.134063E1,2E0,7E2,5E0,1.5391961E1,-7.452404E-1,2.6388936E0,-2.5868878E0,4.3030624E0,4.158703E0,-5.1586018E0],"split_indices":[20,77,93,93,0,0,0,59,96,41,0,97,0,93,41,45,0,0,0,0,0,0,0],"split_type":[0,0,0,0,0,0,0,0,0,0,0,0,0,0,0,0,0,0,0,0,0,0,0],"sum_hessian":[2.088E3,2.073E3,1.5E1,2.064E3,9E0,6E0,9E0,1.987E3,7.7E1,1.982E3,5E0,6.7E1,1E1,1.47E3,5.12E2,5.6E1,1.1E1,1.277E3,1.93E2,5.07E2,5E0,5E1,6E0],"tree_param":{"num_deleted":"0","num_feature":"106","num_nodes":"23","size_leaf_vector":"1"}},{"base_weights":[6.8681197E0,-1.8730558E1,4.0568384E3,-4.2198555E1,4.350153E3,3.1361272E0,8.371666E1,-5.9584114E1,2.168405E3,7.255883E1,7.1939754E0,-7.369453E1,2.1375403E3,5.178389E0,3.754241E1,-8.390993E1,2.8759497E1,2.5666874E1,1.2090873E1,-3.0263197E-1,-2.4164138E0],"categories":[],"categories_nodes":[],"categories_segments":[],"categories_sizes":[],"default_left":[0,0,0,0,0,0,0,0,0,0,0,0,0,0,0,0,0,0,0,0,0],"id":43,"left_children":[1,3,5,7,9,-1,-1,11,13,-1,-1,15,17,-1,-1,19,-1,-1,-1,-1,-1],"loss_changes":[2.1457725E8,2.1108562E8,2.073424E8,7.8800696E7,1.1083005E8,0E0,0E0,6.3154264E7,3.9936344E7,0E0,0E0,6.1107544E7,2.076412E6,0E0,0E0,1.7034704E7,0E0,0E0,0E0,0E0,0E0],"parents":[2147483647,0,0,1,1,2,2,3,3,4,4,7,7,8,8,11,11,12,12,15,15],"right_children":[2,4,6,8,10,-1,-1,12,14,-1,-1,16,18,-1,-1,20,-1,-1,-1,-1,-1],"split_conditions":[2.8E2,5E1,1.3E1,3.5E1,9.2E1,3.1361272E0,8.371666E1,4E2,2.2E1,7.255883E1,7.1939754E0,1.6E2,1.4E1,5.178389E0,3.754241E1,1E0,2.8759497E1,2.5666874E1,1.2090873E1,-3.0263197E-1,-2.4164138E0],"split_indices":[20,77,92,73,77,0,0,58,71,0,0,39,92,0,0,41,0,0,0,0,0],"split_type":[0,0,0,0,0,0,0,0,0,0,0,0,0,0,0,0,0,0,0,0,0],"sum_hessian":[2.068E3,2.056E3,1.2E1,2.046E3,1E1,7E0,5E0,2.031E3,1.5E1,5E0,5E0,2.019E3,1.2E1,8E0,7E0,2.013E3,6E0,7E0,5E0,1.503E3,5.1E2],"tree_param":{"num_deleted":"0","num_feature":"106","num_nodes":"21","size_leaf_vector":"1"}},{"base_weights":[1.0535327E1,-8.559651E0,6.539262E1,-1.3514859E2,5.6162256E2,-9.18792E1,-2.6556503E2,5.031141E2,4.0565376E1,-5.5449364E1,-2.9605374E2,-2.7653958E2,2.745418E1,3.6462646E2,1.7701495E3,-6.2214478E1,9.836684E0,-2.6951797E2,-3.4568967E2,-2.3382594E2,-3.6344254E2,-4.5293087E1,1.5624847E0,3.092605E2,2.8989174E1,2.3176782E3,-1.2995625E0,-6.838466E-1,1.0402773E1,-3.1039007E0,-2.2315736E0,-3.9660814E0,-2.8033483E0,-2.596366E0,-2.0023863E0,-3.9102864E0,-2.57535E0,5.2218974E-1,-1.352563E0,2.308376E0,1.6426958E1,2.9096577E1,-3.3785665E0],"categories":[],"categories_nodes":[],"categories_segments":[],"categories_sizes":[],"default_left":[0,0,0,0,0,0,0,0,0,0,0,0,0,0,0,0,0,0,0,0,0,0,0,0,0,0,0,0,0,0,0,0,0,0,0,0,0,0,0,0,0,0,0],"id":44,"left_children":[1,3,-1,5,7,9,11,13,-1,15,17,19,21,23,25,27,-1,29,31,33,35,37,-1,39,-1,41,-1,-1,-1,-1,-1,-1,-1,-1,-1,-1,-1,-1,-1,-1,-1,-1,-1],"loss_changes":[2.564937E8,1.481867E8,0E0,9.455904E6,7.423092E7,9.377836E6,1.35178E6,6.3927064E7,0E0,7.604119E6,1.58402E5,1.410926E6,1.569879E5,4.5827852E7,3.7754256E7,7.32949E6,0E0,1.7517E5,9.8466E4,1.84677E5,2.82026E5,1.0356043E5,0E0,3.38158E7,0E0,4.4999664E7,0E0,0E0,0E0,0E0,0E0,0E0,0E0,0E0,0E0,0E0,0E0,0E0,0E0,0E0,0E0,0E0,0E0],"parents":[2147483647,0,0,1,1,3,3,4,4,5,5,6,6,7,7,9,9,10,10,11,11,12,12,13,13,14,14,15,15,17,17,18,18,19,19,20,20,21,21,23,23,25,25],"right_children":[2,4,-1,6,8,10,12,14,-1,16,18,20,22,24,26,28,-1,30,32,34,36,38,-1,40,-1,42,-1,-1,-1,-1,-1,-1,-1,-1,-1,-1,-1,-1,-1,-1,-1,-1,-1],"split_conditions":[8E0,2E0,6.539262E1,1E0,1.5E2,1E0,2.1E2,1E0,4.0565376E1,5E1,1E2,1E2,1.3E1,4.3E1,1E0,3E2,9.836684E0,2.1E1,1.02E2,3E1,1.1E2,1.1E1,1.5624847E0,2.2E1,2.8989174E1,1E0,-1.2995625E0,-6.838466E-1,1.0402773E1,-3.1039007E0,-2.2315736E0,-3.9660814E0,-2.8033483E0,-2.596366E0,-2.0023863E0,-3.9102864E0,-2.57535E0,5.2218974E-1,-1.352563E0,2.308376E0,1.6426958E1,2.9096577E1,-3.3785665E0],"split_indices":[80,93,0,41,39,42,41,103,0,51,42,41,92,75,41,18,0,42,42,41,41,92,0,71,0,19,0,0,0,0,0,0,0,0,0,0,0,0,0,0,0,0,0],"split_type":[0,0,0,0,0,0,0,0,0,0,0,0,0,0,0,0,0,0,0,0,0,0,0,0,0,0,0,0,0,0,0,0,0,0,0,0,0,0,0,0,0,0,0],"sum_hessian":[2.056E3,2.051E3,5E0,1.679E3,3.72E2,1.262E3,4.17E2,3.67E2,5E0,1.072E3,1.9E2,4.02E2,1.5E1,3.32E2,3.5E1,1.066E3,6E0,1.28E2,6.2E1,2.72E2,1.3E2,1E1,5E0,3.26E2,6E0,2.7E1,8E0,1.061E3,5E0,6.5E1,6.3E1,3.2E1,3E1,1.5E2,1.22E2,1.01E2,2.9E1,5E0,5E0,3.09E2,1.7E1,2.2E1,5E0],"tree_param":{"num_deleted":"0","num_feature":"106","num_nodes":"43","size_leaf_vector":"1"}},{"base_weights":[1.0963061E1,-9.05669E0,6.87591E1,-3.351086E1,3.84035E3,-1.2148947E2,3.537763E2,-8.08097E0,7.940176E1,-1.267443E2,1.3552226E1,2.934113E2,4.0575672E1,-7.772484E1,-2.7117294E2,2.268431E2,1.6779994E3,-8.3315605E-1,1.0887909E1,-2.783454E0,2.7131395E0,1.8998209E0,1.8157637E1,2.6604746E1,5.0907984E0],"categories":[],"categories_nodes":[],"categories_segments":[],"categories_sizes":[],"default_left":[0,0,0,0,0,0,0,0,0,0,0,0,0,0,0,0,0,0,0,0,0,0,0,0,0],"id":45,"left_children":[1,3,-1,5,7,9,11,-1,-1,13,-1,15,-1,17,19,21,23,-1,-1,-1,-1,-1,-1,-1,-1],"loss_changes":[2.8358976E8,1.9385658E8,0E0,6.975631E7,2.5416814E8,1.3115232E7,8.35461E7,0E0,0E0,1.1752654E7,0E0,3.409075E7,0E0,8.1972085E6,1.713618E6,2.0622808E7,1.8168992E7,0E0,0E0,0E0,0E0,0E0,0E0,0E0,0E0],"parents":[2147483647,0,0,1,1,3,3,4,4,5,5,6,6,9,9,11,11,13,13,14,14,15,15,16,16],"right_children":[2,4,-1,6,8,10,12,-1,-1,14,-1,16,-1,18,20,22,24,-1,-1,-1,-1,-1,-1,-1,-1],"split_conditions":[9.5E0,2.8E2,6.87591E1,2E0,2E0,2E2,1.2E2,-8.08097E0,7.940176E1,1E0,1.3552226E1,4.2E1,4.0575672E1,4E2,5.5E2,1.8E1,1.2E1,-8.3315605E-1,1.0887909E1,-2.783454E0,2.7131395E0,1.8998209E0,1.8157637E1,2.6604746E1,5.0907984E0],"split_indices":[80,20,0,93,93,59,39,0,0,41,0,73,0,58,41,25,92,0,0,0,0,0,0,0,0],"split_type":[0,0,0,0,0,0,0,0,0,0,0,0,0,0,0,0,0,0,0,0,0,0,0,0,0],"sum_hessian":[2.062E3,2.057E3,5E0,2.045E3,1.2E1,1.667E3,3.78E2,6E0,6E0,1.662E3,5E0,3.73E2,5E0,1.242E3,4.2E2,3.57E2,1.6E1,1.237E3,5E0,4.15E2,5E0,3.5E2,7E0,8E0,8E0],"tree_param":{"num_deleted":"0","num_feature":"106","num_nodes":"25","size_leaf_vector":"1"}},{"base_weights":[6.3147264E0,-2.0000723E1,4.953045E3,-3.823655E1,6.2534172E1,8.285259E1,7.95323E0,-5.443279E1,5.523447E1,-6.38946E1,3.1921553E1,-9.1159584E1,6.369726E2,-9.7268695E-1,1.9318943E1,4.2773094E0,1.7347206E1],"categories":[],"categories_nodes":[],"categories_segments":[],"categories_sizes":[],"default_left":[0,0,0,0,0,0,0,0,0,0,0,0,0,0,0,0,0],"id":46,"left_children":[1,3,5,7,-1,-1,-1,9,-1,11,-1,13,15,-1,-1,-1,-1],"loss_changes":[2.7060362E8,2.3682027E8,1.4580918E8,1.8613237E8,0E0,0E0,0E0,6.3422844E7,0E0,3.9289124E7,0E0,2.4621772E7,1.694449E7,0E0,0E0,0E0,0E0],"parents":[2147483647,0,0,1,1,2,2,3,3,7,7,9,9,11,11,12,12],"right_children":[2,4,6,8,-1,-1,-1,10,-1,12,-1,14,16,-1,-1,-1,-1],"split_conditions":[2.8E2,3E0,3.4E2,5E1,6.2534172E1,8.285259E1,7.95323E0,4.6E2,5.523447E1,3E0,3.1921553E1,2.9E2,1E0,-9.7268695E-1,1.9318943E1,4.2773094E0,1.7347206E1],"split_indices":[20,80,20,50,0,0,0,72,0,93,0,59,71,0,0,0,0],"split_type":[0,0,0,0,0,0,0,0,0,0,0,0,0,0,0,0,0],"sum_hessian":[2.077E3,2.067E3,1E1,2.062E3,5E0,5E0,5E0,2.057E3,5E0,2.052E3,5E0,1.976E3,7.6E1,1.971E3,5E0,6.5E1,1.1E1],"tree_param":{"num_deleted":"0","num_feature":"106","num_nodes":"17","size_leaf_vector":"1"}},{"base_weights":[-1.9479683E1,-4.567283E1,4.474268E3,-5.986313E1,1.891037E3,-5.4348E0,9.582596E1,-6.771286E1,2.6177137E1,5.102037E0,3.877253E1,-1.2376376E2,2.1077295E2,-1.2885909E2,1.3345937E1,3.732765E2,-1.6469937E2,-8.811543E-1,-2.553263E0,3.3357222E0,1.85953E1,-1.9402052E0,3.4654949E0],"categories":[],"categories_nodes":[],"categories_segments":[],"categories_sizes":[],"default_left":[0,0,0,0,0,0,0,0,0,0,0,0,0,0,0,0,0,0,0,0,0,0,0],"id":47,"left_children":[1,3,5,7,9,-1,-1,11,-1,-1,-1,13,15,17,-1,19,21,-1,-1,-1,-1,-1,-1],"loss_changes":[2.4373678E8,5.6672176E7,3.127956E8,4.313857E7,3.9161304E7,0E0,0E0,3.1853612E7,0E0,0E0,0E0,1.2789474E7,2.0928812E7,8.701086E6,0E0,1.3483246E7,1.6262395E6,0E0,0E0,0E0,0E0,0E0,0E0],"parents":[2147483647,0,0,1,1,2,2,3,3,4,4,7,7,11,11,12,12,13,13,15,15,16,16],"right_children":[2,4,6,8,10,-1,-1,12,-1,-1,-1,14,16,18,-1,20,22,-1,-1,-1,-1,-1,-1],"split_conditions":[2.8E2,4.2E1,1.3E1,5E2,1E0,-5.4348E0,9.582596E1,2E0,2.6177137E1,5.102037E0,3.877253E1,1.4E2,2.5E0,1E0,1.3345937E1,9E0,5E0,-8.811543E-1,-2.553263E0,3.3357222E0,1.85953E1,-1.9402052E0,3.4654949E0],"split_indices":[20,73,92,57,71,0,0,93,0,0,0,59,41,41,0,77,17,0,0,0,0,0,0],"split_type":[0,0,0,0,0,0,0,0,0,0,0,0,0,0,0,0,0,0,0,0,0,0,0],"sum_hessian":[2.068E3,2.057E3,1.1E1,2.043E3,1.4E1,6E0,5E0,2.038E3,5E0,9E0,5E0,1.697E3,3.41E2,1.692E3,5E0,2.38E2,1.03E2,1.281E3,4.11E2,2.33E2,5E0,9.8E1,5E0],"tree_param":{"num_deleted":"0","num_feature":"106","num_nodes":"23","size_leaf_vector":"1"}},{"base_weights":[-2.2987108E0,-3.1604359E1,4.9871797E3,-5.200327E1,6.9024925E1,4.0052304E0,8.2061455E1,-6.1468754E1,3.1638857E1,-6.958583E1,2.6923475E1,-8.276695E1,1.4069047E3,-8.9040184E-1,1.3225708E1,3.281081E1,-8.403318E-1],"categories":[],"categories_nodes":[],"categories_segments":[],"categories_sizes":[],"default_left":[0,0,0,0,0,0,0,0,0,0,0,0,0,0,0,0,0],"id":48,"left_children":[1,3,5,7,-1,-1,-1,9,-1,11,-1,13,15,-1,-1,-1,-1],"loss_changes":[3.0049328E8,2.893373E8,1.7388477E8,6.2231092E7,0E0,0E0,0E0,4.5630864E7,0E0,3.9584988E7,0E0,1.7846744E7,5.0572772E7,0E0,0E0,0E0,0E0],"parents":[2147483647,0,0,1,1,2,2,3,3,7,7,9,9,11,11,12,12],"right_children":[2,4,6,8,-1,-1,-1,10,-1,12,-1,14,16,-1,-1,-1,-1],"split_conditions":[2.8E2,8E0,1.3E1,4.6E2,6.9024925E1,4.0052304E0,8.2061455E1,5E2,3.1638857E1,4.2E1,2.6923475E1,2.8E2,1.2E1,-8.9040184E-1,1.3225708E1,3.281081E1,-8.403318E-1],"split_indices":[20,80,92,72,0,0,0,57,0,73,0,17,92,0,0,0,0],"split_type":[0,0,0,0,0,0,0,0,0,0,0,0,0,0,0,0,0],"sum_hessian":[2.053E3,2.042E3,1.1E1,2.037E3,5E0,5E0,6E0,2.032E3,5E0,2.027E3,5E0,2.01E3,1.7E1,2.002E3,8E0,7E0,1E1],"tree_param":{"num_deleted":"0","num_feature":"106","num_nodes":"17","size_leaf_vector":"1"}},{"base_weights":[1.6245018E1,-2.9354084E0,6.701112E1,-3.080674E1,4.4567036E3,-7.207425E1,9.3861383E2,-8.639674E0,7.8901184E1,-8.344106E1,1.814192E3,4.979837E2,3.5776154E1,-9.2860344E1,1.0124419E3,1.0684525E0,3.0184618E1,3.3447638E2,2.0151999E1,-9.7816247E-1,1.5448484E1,1.5759805E1,3.364097E0,2.004849E0,1.31435175E1],"categories":[],"categories_nodes":[],"categories_segments":[],"categories_sizes":[],"default_left":[0,0,0,0,0,0,0,0,0,0,0,0,0,0,0,0,0,0,0,0,0,0,0,0,0],"id":49,"left_children":[1,3,-1,5,7,9,11,-1,-1,13,15,17,-1,19,21,-1,-1,23,-1,-1,-1,-1,-1,-1,-1],"loss_changes":[2.6889408E8,2.6016469E8,0E0,8.327924E7,2.4430174E8,4.2947284E7,9.705842E7,0E0,0E0,2.0584044E7,2.4350768E7,1.7683582E7,0E0,1.6132156E7,5.94632E6,0E0,0E0,8.664549E6,0E0,0E0,0E0,0E0,0E0,0E0,0E0],"parents":[2147483647,0,0,1,1,3,3,4,4,5,5,6,6,9,9,10,10,11,11,13,13,14,14,17,17],"right_children":[2,4,-1,6,8,10,12,-1,-1,14,16,18,-1,20,22,-1,-1,24,-1,-1,-1,-1,-1,-1,-1],"split_conditions":[8E0,2.5E2,6.701112E1,3E0,2E0,4.5E1,1E0,-8.639674E0,7.8901184E1,2E2,2E0,2.4E2,3.5776154E1,8E1,1.2E1,1.0684525E0,3.0184618E1,1E0,2.0151999E1,-9.7816247E-1,1.5448484E1,1.5759805E1,3.364097E0,2.004849E0,1.31435175E1],"split_indices":[80,20,0,93,93,73,96,0,0,58,93,58,0,51,92,0,0,71,0,0,0,0,0,0,0],"split_type":[0,0,0,0,0,0,0,0,0,0,0,0,0,0,0,0,0,0,0,0,0,0,0,0,0],"sum_hessian":[2.096E3,2.091E3,5E0,2.079E3,1.2E1,1.995E3,8.4E1,5E0,7E0,1.984E3,1.1E1,7.3E1,1.1E1,1.968E3,1.6E1,5E0,6E0,6.7E1,6E0,1.963E3,5E0,8E0,8E0,6E1,7E0],"tree_param":{"num_deleted":"0","num_feature":"106","num_nodes":"25","size_leaf_vector":"1"}},{"base_weights":[-3.32494E0,-1.21378716E2,5.242172E2,-7.678782E1,-2.6045898E2,3.8192728E2,1.8811729E3,-3.8633224E1,-2.9292917E2,-2.6672125E2,2.0982702E0,3.1744736E2,3.993628E1,2.5667402E3,-1.5797669E0,-4.5082928E1,1.1459514E1,-2.6881293E2,-3.4355423E2,-2.2358104E2,-3.4540454E2,2.3089864E2,2.4900344E3,3.4212607E3,1.0959649E0,-5.0999405E1,1.0382435E1,-3.0905614E0,-2.2874872E2,-3.9637814E0,-2.612632E2,-2.3739157E2,-1.760665E2,-3.7906795E0,-2.6104672E2,1.8881514E2,2.4719381E1,5.8223505E0,3.60963E1,4.4220127E1,9.310052E0,-5.984818E-1,6.8737183E0,-2.3567939E0,-1.5404736E0,-1.5168039E0,-3.4435704E0,-3.022995E0,-2.2909129E0,-1.8923514E0,-9.5414394E-1,-7.1690774E-1,-2.890584E0,1.4988164E0,1.9360971E1],"categories":[],"categories_nodes":[],"categories_segments":[],"categories_sizes":[],"default_left":[0,0,0,0,0,0,0,0,0,0,0,0,0,0,0,0,0,0,0,0,0,0,0,0,0,0,0,0,0,0,0,0,0,0,0,0,0,0,0,0,0,0,0,0,0,0,0,0,0,0,0,0,0,0,0],"id":50,"left_children":[1,3,5,7,9,11,13,15,17,19,-1,21,-1,23,-1,25,-1,27,29,31,33,35,37,39,-1,41,-1,-1,43,-1,45,47,49,-1,51,53,-1,-1,-1,-1,-1,-1,-1,-1,-1,-1,-1,-1,-1,-1,-1,-1,-1,-1,-1],"loss_changes":[1.30100824E8,1.0566324E7,7.303854E7,1.0660024E7,1.275214E6,7.954235E7,5.073255E7,8.463545E6,1.44501E5,1.311086E6,0E0,6.3732908E7,0E0,5.6316416E7,0E0,7.0777345E6,0E0,1.48578E5,1.5291E5,1.33409E5,3.07134E5,3.0655816E7,2.5665864E7,4.572563E7,0E0,7.1693835E6,0E0,0E0,9.705E2,0E0,1.8451488E5,4.0652E4,4.9917375E4,0E0,2.1266125E5,2.1818856E7,0E0,0E0,0E0,0E0,0E0,0E0,0E0,0E0,0E0,0E0,0E0,0E0,0E0,0E0,0E0,0E0,0E0,0E0,0E0],"parents":[2147483647,0,0,1,1,2,2,3,3,4,4,5,5,6,6,7,7,8,8,9,9,11,11,13,13,15,15,17,17,18,18,19,19,20,20,21,21,22,22,23,23,25,25,28,28,30,30,31,31,32,32,34,34,35,35],"right_children":[2,4,6,8,10,12,14,16,18,20,-1,22,-1,24,-1,26,-1,28,30,32,34,36,38,40,-1,42,-1,-1,44,-1,46,48,50,-1,52,54,-1,-1,-1,-1,-1,-1,-1,-1,-1,-1,-1,-1,-1,-1,-1,-1,-1,-1,-1],"split_conditions":[2E0,1E0,1E0,1E0,5.5E2,1.2E2,1E0,1.4E2,1E2,1E2,2.0982702E0,4.2E1,3.993628E1,1E0,-1.5797669E0,3.25E2,1.1459514E1,2.1E1,1.02E2,5E1,1.1E2,2.5E1,2.2E1,3E0,1.0959649E0,2E2,1.0382435E1,-3.0905614E0,6.5E1,-3.9637814E0,1.9E2,6E0,1E0,-3.7906795E0,2E2,2.4E2,2.4719381E1,5.8223505E0,3.60963E1,4.4220127E1,9.310052E0,-5.984818E-1,6.8737183E0,-2.3567939E0,-1.5404736E0,-1.5168039E0,-3.4435704E0,-3.022995E0,-2.2909129E0,-1.8923514E0,-9.5414394E-1,-7.1690774E-1,-2.890584E0,1.4988164E0,1.9360971E1],"split_indices":[93,41,103,42,41,39,41,59,42,41,0,73,0,42,0,18,0,42,42,41,41,75,71,93,0,58,0,0,42,0,42,41,99,0,41,19,0,0,0,0,0,0,0,0,0,0,0,0,0,0,0,0,0,0,0],"split_type":[0,0,0,0,0,0,0,0,0,0,0,0,0,0,0,0,0,0,0,0,0,0,0,0,0,0,0,0,0,0,0,0,0,0,0,0,0,0,0,0,0,0,0,0,0,0,0,0,0,0,0,0,0,0,0],"sum_hessian":[2.087E3,1.706E3,3.81E2,1.293E3,4.13E2,3.46E2,3.5E1,1.1E3,1.93E2,4.08E2,5E0,3.41E2,5E0,2.6E1,9E0,1.095E3,5E0,1.35E2,5.8E1,2.66E2,1.42E2,3.29E2,1.2E1,1.9E1,7E0,1.09E3,5E0,6.4E1,7.1E1,3.3E1,2.5E1,2.03E2,6.3E1,9.9E1,4.3E1,3.24E2,5E0,5E0,7E0,1.3E1,6E0,1.078E3,1.2E1,6.3E1,8E0,1.2E1,1.3E1,1.9E1,1.84E2,5.3E1,1E1,6E0,3.7E1,3.18E2,6E0],"tree_param":{"num_deleted":"0","num_feature":"106","num_nodes":"55","size_leaf_vector":"1"}},{"base_weights":[2.935558E1,4.938068E-1,5.4789385E3,-1.9197803E1,4.0746384E1,7.969352E1,2.0753681E1,-4.0234684E1,3.0715898E3,-5.1386715E1,2.5019423E1,4.9293972E1,5.095826E0,-6.546641E1,1.2482008E3,-1.01344325E-1,-2.2213402E0,7.1476226E0,1.7166609E1],"categories":[],"categories_nodes":[],"categories_segments":[],"categories_sizes":[],"default_left":[0,0,0,0,0,0,0,0,0,0,0,0,0,0,0,0,0,0,0],"id":51,"left_children":[1,3,5,7,-1,-1,-1,9,11,13,-1,-1,-1,15,17,-1,-1,-1,-1],"loss_changes":[3.2840758E8,1.6678882E8,7.669994E7,1.3465107E8,0E0,0E0,0E0,5.841706E7,6.4124104E7,3.7555604E7,0E0,0E0,0E0,1.7569262E7,4.27068E6,0E0,0E0,0E0,0E0],"parents":[2147483647,0,0,1,1,2,2,3,3,7,7,8,8,9,9,13,13,14,14],"right_children":[2,4,6,8,-1,-1,-1,10,12,14,-1,-1,-1,16,18,-1,-1,-1,-1],"split_conditions":[2.8E2,2E2,4E2,5E1,4.0746384E1,7.969352E1,2.0753681E1,4.3E1,8.8E1,2E2,2.5019423E1,4.9293972E1,5.095826E0,1E0,5E2,-1.01344325E-1,-2.2213402E0,7.1476226E0,1.7166609E1],"split_indices":[20,39,20,77,0,0,0,75,77,58,0,0,0,41,58,0,0,0,0],"split_type":[0,0,0,0,0,0,0,0,0,0,0,0,0,0,0,0,0,0,0],"sum_hessian":[2.087E3,2.077E3,1E1,2.068E3,9E0,5E0,5E0,2.055E3,1.3E1,2.047E3,8E0,7E0,6E0,2.026E3,2.1E1,1.498E3,5.28E2,1.1E1,1E1],"tree_param":{"num_deleted":"0","num_feature":"106","num_nodes":"19","size_leaf_vector":"1"}},{"base_weights":[2.3189629E1,-2.6222122E0,4.7845396E3,-2.22187E1,3.5962441E3,7.939836E1,8.318192E0,-3.411119E1,3.9753784E1,5.5395233E1,1.0535906E1,-1.1741282E2,3.5047073E2,-1.22920944E2,1.1984906E1,2.6665494E2,2.5607488E3,-8.025024E-1,-2.506354E0,2.2444339E0,2.6282701E1,6.709516E0,4.0847248E1],"categories":[],"categories_nodes":[],"categories_segments":[],"categories_sizes":[],"default_left":[0,0,0,0,0,0,0,0,0,0,0,0,0,0,0,0,0,0,0,0,0,0,0],"id":52,"left_children":[1,3,5,7,9,-1,-1,11,-1,-1,-1,13,15,17,-1,19,21,-1,-1,-1,-1,-1,-1],"loss_changes":[2.5072693E8,1.4324594E8,1.3058757E8,9.61692E7,4.8515584E7,0E0,0E0,6.4594296E7,0E0,0E0,0E0,1.2157514E7,6.5824156E7,8.977284E6,0E0,3.400164E7,3.4699424E7,0E0,0E0,0E0,0E0,0E0,0E0],"parents":[2147483647,0,0,1,1,2,2,3,3,4,4,7,7,11,11,12,12,13,13,15,15,16,16],"right_children":[2,4,6,8,10,-1,-1,12,-1,-1,-1,14,16,18,-1,20,22,-1,-1,-1,-1,-1,-1],"split_conditions":[2.8E2,6.4E1,3.4E2,4E2,9.2E1,7.939836E1,8.318192E0,2E0,3.9753784E1,5.5395233E1,1.0535906E1,2E2,4.2E1,1E0,1.1984906E1,7E1,1E0,-8.025024E-1,-2.506354E0,2.2444339E0,2.6282701E1,6.709516E0,4.0847248E1],"split_indices":[20,77,20,39,77,0,0,93,0,0,0,59,73,41,0,72,71,0,0,0,0,0,0],"split_type":[0,0,0,0,0,0,0,0,0,0,0,0,0,0,0,0,0,0,0,0,0,0,0],"sum_hessian":[2.039E3,2.029E3,1E1,2.019E3,1E1,5E0,5E0,2.014E3,5E0,5E0,5E0,1.656E3,3.58E2,1.65E3,6E0,3.46E2,1.2E1,1.238E3,4.12E2,3.41E2,5E0,6E0,6E0],"tree_param":{"num_deleted":"0","num_feature":"106","num_nodes":"23","size_leaf_vector":"1"}},{"base_weights":[2.5107779E1,-2.4017565E0,5.22963E3,-2.0424618E1,6.236912E1,1.86154E1,7.726115E1,-3.1889688E1,3.9422504E1,-5.0114967E1,1.8405298E3,-5.8320927E1,2.3567007E1,3.3738846E1,1.1044858E3,-6.989733E-1,1.6277315E1,2.3058782E0,1.6614635E1],"categories":[],"categories_nodes":[],"categories_segments":[],"categories_sizes":[],"default_left":[0,0,0,0,0,0,0,0,0,0,0,0,0,0,0,0,0,0,0],"id":53,"left_children":[1,3,5,7,-1,-1,-1,9,-1,11,13,15,-1,-1,17,-1,-1,-1,-1],"loss_changes":[2.9953254E8,2.3424888E8,7.810976E7,9.448871E7,0E0,0E0,0E0,7.08E7,0E0,4.0684656E7,1.8845928E7,4.0068004E7,0E0,0E0,6.918014E6,0E0,0E0,0E0,0E0],"parents":[2147483647,0,0,1,1,2,2,3,3,7,7,9,9,10,10,11,11,14,14],"right_children":[2,4,6,8,-1,-1,-1,10,-1,12,14,16,-1,-1,18,-1,-1,-1,-1],"split_conditions":[2.8E2,6E0,1.6E1,4E2,6.236912E1,1.86154E1,7.726115E1,3.5E1,3.9422504E1,4.3E1,5.2E1,5E2,2.3567007E1,3.3738846E1,1.2E2,-6.989733E-1,1.6277315E1,2.3058782E0,1.6614635E1],"split_indices":[20,80,92,39,0,0,0,73,0,75,73,58,0,0,73,0,0,0,0],"split_type":[0,0,0,0,0,0,0,0,0,0,0,0,0,0,0,0,0,0,0],"sum_hessian":[2.091E3,2.081E3,1E1,2.076E3,5E0,5E0,5E0,2.071E3,5E0,2.052E3,1.9E1,2.046E3,6E0,5E0,1.4E1,2.033E3,1.3E1,6E0,8E0],"tree_param":{"num_deleted":"0","num_feature":"106","num_nodes":"19","size_leaf_vector":"1"}},{"base_weights":[1.9121017E1,-5.241003E0,5.0869453E1,-2.1507895E1,3.0578477E3,-3.9986473E1,1.7842573E3,5.473836E1,1.3221769E0,-5.446549E1,2.0706003E1,5.279962E2,3.113345E1,-6.582892E1,2.5146713E1,-1.1437895E0,1.1894345E1,-7.4295884E-1,2.802744E1],"categories":[],"categories_nodes":[],"categories_segments":[],"categories_sizes":[],"default_left":[0,0,0,0,0,0,0,0,0,0,0,0,0,0,0,0,0,0,0],"id":54,"left_children":[1,3,-1,5,7,9,11,-1,-1,13,-1,15,-1,17,-1,-1,-1,-1,-1],"loss_changes":[2.5806317E8,1.0375562E8,0E0,6.9176424E7,7.702744E7,6.278973E7,3.3419464E7,0E0,0E0,5.966334E7,0E0,5.234745E6,0E0,4.9513096E7,0E0,0E0,0E0,0E0,0E0],"parents":[2147483647,0,0,1,1,3,3,4,4,5,5,6,6,9,9,11,11,13,13],"right_children":[2,4,-1,6,8,10,12,-1,-1,14,-1,16,-1,18,-1,-1,-1,-1,-1],"split_conditions":[2.8E2,6.4E1,5.0869453E1,4.2E1,1.2E1,5E2,2.2E1,5.473836E1,1.3221769E0,1.6E2,2.0706003E1,9.6E1,3.113345E1,2.75E2,2.5146713E1,-1.1437895E0,1.1894345E1,-7.4295884E-1,2.802744E1],"split_indices":[20,77,0,73,92,58,71,0,0,39,0,73,0,72,0,0,0,0,0],"split_type":[0,0,0,0,0,0,0,0,0,0,0,0,0,0,0,0,0,0,0],"sum_hessian":[2.089E3,2.08E3,9E0,2.07E3,1E1,2.05E3,2E1,5E0,5E0,2.037E3,1.3E1,1.1E1,9E0,2.029E3,8E0,6E0,5E0,2.024E3,5E0],"tree_param":{"num_deleted":"0","num_feature":"106","num_nodes":"19","size_leaf_vector":"1"}},{"base_weights":[1.9217554E1,-8.197126E0,5.206322E3,-2.4113192E1,4.713224E1,1.7450823E1,7.799841E1,-4.0873295E1,4.3134834E1,-4.992913E1,3.0811459E1,-6.500173E1,1.6669346E3,-7.601727E-1,1.6643538E1,3.4910138E0,4.2444176E1],"categories":[],"categories_nodes":[],"categories_segments":[],"categories_sizes":[],"default_left":[0,0,0,0,0,0,0,0,0,0,0,0,0,0,0,0,0],"id":55,"left_children":[1,3,5,7,-1,-1,-1,9,-1,11,-1,13,15,-1,-1,-1,-1],"loss_changes":[2.9753098E8,1.5656856E8,8.513331E7,1.5109854E8,0E0,0E0,0E0,5.8649628E7,0E0,5.3519732E7,0E0,3.912142E7,5.9658744E7,0E0,0E0,0E0,0E0],"parents":[2147483647,0,0,1,1,2,2,3,3,7,7,9,9,11,11,12,12],"right_children":[2,4,6,8,-1,-1,-1,10,-1,12,-1,14,16,-1,-1,-1,-1],"split_conditions":[2.8E2,6E0,1.4E1,1.6E2,4.713224E1,1.7450823E1,7.799841E1,4.6E2,4.3134834E1,3.5E1,3.0811459E1,5E2,2.2E1,-7.601727E-1,1.6643538E1,3.4910138E0,4.2444176E1],"split_indices":[20,80,92,39,0,0,0,72,0,73,0,58,71,0,0,0,0],"split_type":[0,0,0,0,0,0,0,0,0,0,0,0,0,0,0,0,0],"sum_hessian":[2.091E3,2.081E3,1E1,2.075E3,6E0,5E0,5E0,2.068E3,7E0,2.063E3,5E0,2.046E3,1.7E1,2.034E3,1.2E1,1.2E1,5E0],"tree_param":{"num_deleted":"0","num_feature":"106","num_nodes":"17","size_leaf_vector":"1"}},{"base_weights":[2.9849718E0,-2.1100412E1,4.541714E3,-3.680209E1,5.394261E1,7.869444E1,4.5703115E0,-5.024639E1,1.8066244E3,-1.0905046E2,2.4756488E2,2.4247871E1,9.626336E0,-1.1567175E2,9.2776624E2,3.9642554E2,-1.5640259E2,-1.2045025E0,1.2583089E1,1.6361662E1,6.4738494E-1,3.525475E0,1.8567196E1,-1.202975E0,-3.8707838E0],"categories":[],"categories_nodes":[],"categories_segments":[],"categories_sizes":[],"default_left":[0,0,0,0,0,0,0,0,0,0,0,0,0,0,0,0,0,0,0,0,0,0,0,0,0],"id":56,"left_children":[1,3,5,7,-1,-1,-1,9,11,13,15,-1,-1,17,19,21,23,-1,-1,-1,-1,-1,-1,-1,-1],"loss_changes":[2.278032E8,1.7646624E8,1.4592338E8,5.1343224E7,0E0,0E0,0E0,3.5997704E7,5.491672E6,1.188778E7,2.044772E7,0E0,0E0,1.1352396E7,6.619134E6,1.523598E7,7.1966375E5,0E0,0E0,0E0,0E0,0E0,0E0,0E0,0E0],"parents":[2147483647,0,0,1,1,2,2,3,3,7,7,8,8,9,9,10,10,13,13,14,14,15,15,16,16],"right_children":[2,4,6,8,-1,-1,-1,10,12,14,16,-1,-1,18,20,22,24,-1,-1,-1,-1,-1,-1,-1,-1],"split_conditions":[2.8E2,5E1,3.4E2,5E2,5.394261E1,7.869444E1,4.5703115E0,2E0,1.2E1,1.2E2,2.5E0,2.4247871E1,9.626336E0,4.4E1,1.1E1,3.3E1,7.5E1,-1.2045025E0,1.2583089E1,1.6361662E1,6.4738494E-1,3.525475E0,1.8567196E1,-1.202975E0,-3.8707838E0],"split_indices":[20,50,20,58,0,0,0,93,92,57,41,0,0,51,92,25,42,0,0,0,0,0,0,0,0],"split_type":[0,0,0,0,0,0,0,0,0,0,0,0,0,0,0,0,0,0,0,0,0,0,0,0,0],"sum_hessian":[2.082E3,2.072E3,1E1,2.067E3,5E0,5E0,5E0,2.053E3,1.4E1,1.715E3,3.38E2,7E0,7E0,1.705E3,1E1,2.47E2,9.1E1,1.7E3,5E0,5E0,5E0,2.41E2,6E0,8E1,1.1E1],"tree_param":{"num_deleted":"0","num_feature":"106","num_nodes":"25","size_leaf_vector":"1"}},{"base_weights":[-1.6954199E1,-3.5532093E1,4.836318E1,-7.04416E1,7.8833954E2,-8.003581E1,1.676004E3,6.021729E2,2.5049215E1,-8.7104836E1,1.9400097E1,2.7154518E1,3.5722215E0,4.0873346E2,1.1813412E3,-9.4594E1,1.779223E1,2.6834845E2,1.433313E1,1.488952E1,8.2226495E2,-1.013671E0,1.0257719E1,1.6431452E0,1.073234E1,4.342934E0,1.0731924E1],"categories":[],"categories_nodes":[],"categories_segments":[],"categories_sizes":[],"default_left":[0,0,0,0,0,0,0,0,0,0,0,0,0,0,0,0,0,0,0,0,0,0,0,0,0,0,0],"id":57,"left_children":[1,3,-1,5,7,9,11,13,-1,15,-1,-1,-1,17,19,21,-1,23,-1,-1,25,-1,-1,-1,-1,-1,-1],"loss_changes":[1.8915472E8,6.0137164E7,0E0,3.372947E7,2.5655076E7,2.8657076E7,1.4108834E7,8.255796E6,0E0,2.7969018E7,0E0,0E0,0E0,8.245509E6,8.74348E5,1.5144108E7,0E0,4.345363E6,0E0,0E0,6.047985E5,0E0,0E0,0E0,0E0,0E0,0E0],"parents":[2147483647,0,0,1,1,3,3,4,4,5,5,6,6,7,7,9,9,13,13,14,14,15,15,17,17,20,20],"right_children":[2,4,-1,6,8,10,12,14,-1,16,-1,-1,-1,18,20,22,-1,24,-1,-1,26,-1,-1,-1,-1,-1,-1],"split_conditions":[2.4E2,3E0,4.836318E1,4.5E1,2.5E1,2.9E2,9.6E1,4E0,2.5049215E1,5E1,1.9400097E1,2.7154518E1,3.5722215E0,1.7E1,1.3E1,2.2E2,1.779223E1,5E0,1.433313E1,1.488952E1,1.5E1,-1.013671E0,1.0257719E1,1.6431452E0,1.073234E1,4.342934E0,1.0731924E1],"split_indices":[39,93,0,73,75,59,73,93,0,77,0,0,0,21,92,18,0,17,0,0,92,0,0,0,0,0,0],"split_type":[0,0,0,0,0,0,0,0,0,0,0,0,0,0,0,0,0,0,0,0,0,0,0,0,0,0,0],"sum_hessian":[2.095E3,2.088E3,7E0,2.004E3,8.4E1,1.994E3,1E1,7.7E1,7E0,1.988E3,6E0,5E0,5E0,5.9E1,1.8E1,1.981E3,7E0,5.3E1,6E0,8E0,1E1,1.97E3,1.1E1,4.8E1,5E0,5E0,5E0],"tree_param":{"num_deleted":"0","num_feature":"106","num_nodes":"27","size_leaf_vector":"1"}},{"base_weights":[2.778542E1,1.2138392E0,5.042457E3,-1.9122587E1,5.2631123E1,7.805074E1,1.4394296E1,-4.074581E1,3.4054707E3,-5.7963776E1,1.6321571E3,5.4993515E1,8.250941E0,-7.054783E1,2.0725227E1,5.822719E2,2.7288034E1,-1.1726661E0,1.483251E0,-1.6299542E0,1.1378907E1],"categories":[],"categories_nodes":[],"categories_segments":[],"categories_sizes":[],"default_left":[0,0,0,0,0,0,0,0,0,0,0,0,0,0,0,0,0,0,0,0,0],"id":58,"left_children":[1,3,5,7,-1,-1,-1,9,11,13,15,-1,-1,17,-1,19,-1,-1,-1,-1,-1],"loss_changes":[2.7808195E8,2.2235672E8,9.825677E7,1.534238E8,0E0,0E0,0E0,5.9373204E7,6.570152E7,5.4785304E7,2.2589508E7,0E0,0E0,2.0744436E7,0E0,5.154486E6,0E0,0E0,0E0,0E0,0E0],"parents":[2147483647,0,0,1,1,2,2,3,3,7,7,8,8,9,9,10,10,13,13,15,15],"right_children":[2,4,6,8,-1,-1,-1,10,12,14,16,-1,-1,18,-1,20,-1,-1,-1,-1,-1],"split_conditions":[2.8E2,2.4E2,3.4E2,5E1,5.2631123E1,7.805074E1,1.4394296E1,3.5E1,8.8E1,5E2,2.2E1,5.4993515E1,8.250941E0,2E0,2.0725227E1,2E0,2.7288034E1,-1.1726661E0,1.483251E0,-1.6299542E0,1.1378907E1],"split_indices":[20,39,20,77,0,0,0,73,77,58,71,0,0,93,0,93,0,0,0,0,0],"split_type":[0,0,0,0,0,0,0,0,0,0,0,0,0,0,0,0,0,0,0,0,0],"sum_hessian":[2.086E3,2.076E3,1E1,2.069E3,7E0,5E0,5E0,2.057E3,1.2E1,2.037E3,2E1,6E0,6E0,2.026E3,1.1E1,1.1E1,9E0,1.67E3,3.56E2,5E0,6E0],"tree_param":{"num_deleted":"0","num_feature":"106","num_nodes":"21","size_leaf_vector":"1"}},{"base_weights":[-2.8634058E1,-4.7026176E1,6.486948E1,-8.697373E1,9.006493E2,-9.552769E1,1.3658931E3,6.002551E2,3.7544598E1,-1.0371446E2,1.01005164E3,1.747385E1,6.9317026E0,3.3780838E2,1.2245686E3,-9.829012E1,-1.3012157E1,4.8554077E0,1.3057765E1,1.9392119E2,1.5285293E1,6.6740125E2,2.0171177E1,-1.2855085E0,9.2654914E-1,1.0310156E0,6.8054137E0,4.854129E0,8.594817E0],"categories":[],"categories_nodes":[],"categories_segments":[],"categories_sizes":[],"default_left":[0,0,0,0,0,0,0,0,0,0,0,0,0,0,0,0,0,0,0,0,0,0,0,0,0,0,0,0,0],"id":59,"left_children":[1,3,-1,5,7,9,11,13,-1,15,17,-1,-1,19,21,23,-1,-1,-1,25,-1,27,-1,-1,-1,-1,-1,-1,-1],"loss_changes":[2.554345E8,8.048727E7,0E0,2.5470688E7,7.147141E7,1.8460444E7,1.868424E6,1.2530408E7,0E0,1.2954352E7,1.692655E6,0E0,0E0,9.469366E6,8.810176E6,1.1602856E7,0E0,0E0,0E0,2.2279575E6,0E0,1.071425E5,0E0,0E0,0E0,0E0,0E0,0E0,0E0],"parents":[2147483647,0,0,1,1,3,3,4,4,5,5,6,6,7,7,9,9,10,10,13,13,14,14,15,15,19,19,21,21],"right_children":[2,4,-1,6,8,10,12,14,-1,16,18,-1,-1,20,22,24,-1,-1,-1,26,-1,28,-1,-1,-1,-1,-1,-1,-1],