{"learner":{"attributes":{"scikit_learn":"{\"_estimator_type\": \"regressor\"}"},"feature_names":["1","A60309051","A62050157","A62100595","A62100615","A62100835","A62300051","A70052971","A72050092","A82602000","A82603000","A83550157","A84300260","B10422060","C20760645","C20760650","C20850602","C50020400","C50030023","C50030025","C50030027","C50030029","C50030031","C50030035","C50050155","C50050700","C50051450","C50055000","C50055300","C50055400","C50055500","C50055550","C50106100","C50106150","C50106200","C50106300","C50300050","C50300402","C50306200","C50306300","C50307000","C50307050","C50709003","C50950103","D05040650","D05040750","D05040850","D05040950","D05041050","D05041150","D05041250","D05041350","D05041450","D05041550","D05104100","D05104200","D05104300","D05104400","D05104500","D05104600","D05104700","D05104800","D05104900","D05105000","D05105100","D05105200","D05105300","D05105400","D05105500","D05106100","D05106200","D05106300","D05106400","D05106500","D05222201","D05222202","D05222207","D05222208","D05222210","D05222211","D05300200","D05300600","D05344250","D05487038","D05487042","D05487044","D05487054","D05487056","D05487057","D05487058","D05487059","D05487063","D05487064","D05487070","D05490938","D05491750","D05500050","D05500100","D05500150","D05500200","D05500250","D05500300","D05500350","D05500400","D05500450","D05500500","D05500501","D05500502","D05500503","D05500504","D05500505","D05500506","D05500507","D05500508","D05500509","D05500510","F30050160","F30050320","F30050610","F40100920","F60170089","G18100550","G18101100","G18101200","G20050100","G20050200","G20050300","G24100115","G24100215","G24100320","G24100520","G24100720","G24101105","G24101220","G24103000","G24103007","H25100110","H25100801","H25101111","H25101501","H25101550","H25101852","H25102299","H25109930","H25109931","H40102401","H40102501","H75100165","H90150100","I60100810","I80101012","I80101512","I80102012","I80102512","I80103012","I80103512","I80104012","I80105012","I80105230","I80105512","I80106012","I80106512","I80200512","I80202012","I80203012","I80204512","I80205012","I80205512","I80206012","I80207012","I80207512","I80208012","J20056002","K20102172","K60403000","K60405071","K60405170","K60405200","K60405400","K60405770","P25100100","R30100100","R39100050","R50100200","S20102300","S40100260","S40100700","S50102200","T20100804","T30101100","T40104100","T50057110","T50105000","T80150100","T80150200","T80150205","T80150300","T80150305","T80150405","T80150500","T80150505","T80201800","T80201850","T80201900","T80203050","T80203051","T80203100","T80203101","T80203200","T80203205","T80203206","T80203300","T80203305","T80203400","T80203500","T80203600","T80203700","T80203800","T80203900","T80205000","T80205010","T80205030","T80205505","T80205520","T80230075","T80230080","T80230085","T80231100","T80300400","T80350535","T80350540","T80350545","T80350550","T80403000","T80403005","T80403007","T80403008","T80403009","V00611707","V00611708","V00611709","V00636207","V00666488","W10202520","W10209910","YY1014070","YY1017600","YY1067380","YY1069400","YY1910211","YY1910312","YY1911382","YY1911583","YY1911603","YY1912064","YY1912894","YY1913244","YY1913342","YY1913343","YY1913357","YY1913359","YY1913360","YY1913361","YY1913362","YY1913367","YZ1052030","YZ1053290","YZ1061090","i80202012","t80150105","#ProdVol","hora","#prod","Intervalo_7-8","Intervalo_8-9","Intervalo_9-10","Intervalo_10-11","Intervalo_11-12","Intervalo_12-13","Intervalo_13-14","Intervalo_14-15","Intervalo_15-16","Intervalo_16-17","Intervalo_17-18","Intervalo_18-19"],"feature_types":["float","float","float","float","float","float","float","float","float","float","float","float","float","float","float","float","float","float","float","float","float","float","float","float","float","float","float","float","float","float","float","float","float","float","float","float","float","float","float","float","float","float","float","float","float","float","float","float","float","float","float","float","float","float","float","float","float","float","float","float","float","float","float","float","float","float","float","float","float","float","float","float","float","float","float","float","float","float","float","float","float","float","float","float","float","float","float","float","float","float","float","float","float","float","float","float","float","float","float","float","float","float","float","float","float","float","float","float","float","float","float","float","float","float","float","float","float","float","float","float","float","float","float","float","float","float","float","float","float","float","float","float","float","float","float","float","float","float","float","float","float","float","float","float","float","float","float","float","float","float","float","float","float","float","float","float","float","float","float","float","float","float","float","float","float","float","float","float","float","float","float","float","float","float","float","float","float","float","float","float","float","float","float","float","float","float","float","float","float","float","float","float","float","float","float","float","float","float","float","float","float","float","float","float","float","float","float","float","float","float","float","float","float","float","float","float","float","float","float","float","float","float","float","float","float","float","float","float","float","float","float","float","float","float","float","float","float","float","float","float","float","float","float","float","float","float","float","float","float","float","float","float","float","float","float","float","float","float","float","float","float","float","float","float","float","float","float","float","float","float","float","float","int","i","i","i","i","i","i","i","i","i","i","i","i"],"gradient_booster":{"model":{"gbtree_model_param":{"num_parallel_tree":"1","num_trees":"300"},"iteration_indptr":[0,1,2,3,4,5,6,7,8,9,10,11,12,13,14,15,16,17,18,19,20,21,22,23,24,25,26,27,28,29,30,31,32,33,34,35,36,37,38,39,40,41,42,43,44,45,46,47,48,49,50,51,52,53,54,55,56,57,58,59,60,61,62,63,64,65,66,67,68,69,70,71,72,73,74,75,76,77,78,79,80,81,82,83,84,85,86,87,88,89,90,91,92,93,94,95,96,97,98,99,100,101,102,103,104,105,106,107,108,109,110,111,112,113,114,115,116,117,118,119,120,121,122,123,124,125,126,127,128,129,130,131,132,133,134,135,136,137,138,139,140,141,142,143,144,145,146,147,148,149,150,151,152,153,154,155,156,157,158,159,160,161,162,163,164,165,166,167,168,169,170,171,172,173,174,175,176,177,178,179,180,181,182,183,184,185,186,187,188,189,190,191,192,193,194,195,196,197,198,199,200,201,202,203,204,205,206,207,208,209,210,211,212,213,214,215,216,217,218,219,220,221,222,223,224,225,226,227,228,229,230,231,232,233,234,235,236,237,238,239,240,241,242,243,244,245,246,247,248,249,250,251,252,253,254,255,256,257,258,259,260,261,262,263,264,265,266,267,268,269,270,271,272,273,274,275,276,277,278,279,280,281,282,283,284,285,286,287,288,289,290,291,292,293,294,295,296,297,298,299,300],"tree_info":[0,0,0,0,0,0,0,0,0,0,0,0,0,0,0,0,0,0,0,0,0,0,0,0,0,0,0,0,0,0,0,0,0,0,0,0,0,0,0,0,0,0,0,0,0,0,0,0,0,0,0,0,0,0,0,0,0,0,0,0,0,0,0,0,0,0,0,0,0,0,0,0,0,0,0,0,0,0,0,0,0,0,0,0,0,0,0,0,0,0,0,0,0,0,0,0,0,0,0,0,0,0,0,0,0,0,0,0,0,0,0,0,0,0,0,0,0,0,0,0,0,0,0,0,0,0,0,0,0,0,0,0,0,0,0,0,0,0,0,0,0,0,0,0,0,0,0,0,0,0,0,0,0,0,0,0,0,0,0,0,0,0,0,0,0,0,0,0,0,0,0,0,0,0,0,0,0,0,0,0,0,0,0,0,0,0,0,0,0,0,0,0,0,0,0,0,0,0,0,0,0,0,0,0,0,0,0,0,0,0,0,0,0,0,0,0,0,0,0,0,0,0,0,0,0,0,0,0,0,0,0,0,0,0,0,0,0,0,0,0,0,0,0,0,0,0,0,0,0,0,0,0,0,0,0,0,0,0,0,0,0,0,0,0,0,0,0,0,0,0,0,0,0,0,0,0,0,0,0,0,0,0,0,0,0,0,0,0,0,0,0,0,0,0,0,0,0,0,0,0],"trees":[{"base_weights":[-2.3178308E0,-4.3983284E1,1.542784E2,-7.106368E1,6.0898094E1,2.3532324E1,3.1242868E2,-8.26878E1,-9.651658E0,4.4092705E1,4.300482E2,1.5566488E1,7.086348E1,2.951501E2,7.3120557E2,-8.557518E0,5.4044604E0,-1.9519936E0,2.8728394E1,3.8810315E0,9.638034E1,2.709651E1,8.847171E1,-4.7664495E0,9.7403755E0,2.8451542E1,9.1966774E1,5.7271637E1,9.116677E1],"categories":[],"categories_nodes":[],"categories_segments":[],"categories_sizes":[],"default_left":[0,0,0,0,0,0,0,0,0,0,0,0,0,0,0,0,0,0,0,0,0,0,0,0,0,0,0,0,0],"id":0,"left_children":[1,3,5,7,9,11,13,15,17,19,21,23,-1,25,27,-1,-1,-1,-1,-1,-1,-1,-1,-1,-1,-1,-1,-1,-1],"loss_changes":[4.4459244E7,1.5290441E7,2.9602868E7,3.053098E6,6.8361395E6,4.273039E6,4.47304E6,1.424716E6,2.0040332E6,5.1026455E6,3.232119E6,4.0253462E6,0E0,3.88266E6,1.92906E5,0E0,0E0,0E0,0E0,0E0,0E0,0E0,0E0,0E0,0E0,0E0,0E0,0E0,0E0],"parents":[2147483647,0,0,1,1,2,2,3,3,4,4,5,5,6,6,7,7,8,8,9,9,10,10,11,11,13,13,14,14],"right_children":[2,4,6,8,10,12,14,16,18,20,22,24,-1,26,28,-1,-1,-1,-1,-1,-1,-1,-1,-1,-1,-1,-1,-1,-1],"split_conditions":[2.1E1,4E0,3E0,6E0,5E1,3E0,2E0,3E1,4E0,2.7E3,5E1,2E0,7.086348E1,1.1E3,6E0,-8.557518E0,5.4044604E0,-1.9519936E0,2.8728394E1,3.8810315E0,9.638034E1,2.709651E1,8.847171E1,-4.7664495E0,9.7403755E0,2.8451542E1,9.1966774E1,5.7271637E1,9.116677E1],"split_indices":[270,272,272,270,113,213,214,148,213,99,108,272,0,105,214,0,0,0,0,0,0,0,0,0,0,0,0,0,0],"split_type":[0,0,0,0,0,0,0,0,0,0,0,0,0,0,0,0,0,0,0,0,0,0,0,0,0,0,0,0,0],"sum_hessian":[6.812E3,5.381E3,1.431E3,4.277E3,1.104E3,7.84E2,6.47E2,3.596E3,6.81E2,1.057E3,4.7E1,7.76E2,8E0,6.23E2,2.4E1,3.522E3,7.4E1,6.6E2,2.1E1,1.052E3,5E0,3.6E1,1.1E1,4.38E2,3.38E2,6.14E2,9E0,1.5E1,9E0],"tree_param":{"num_deleted":"0","num_feature":"285","num_nodes":"29","size_leaf_vector":"1"}},{"base_weights":[3.1085244E-1,-1.6656006E1,2.3521907E2,-3.7440704E1,1.5187941E2,2.256269E2,8.305887E1,-4.286594E1,5.233219E2,1.25326E2,3.473253E2,2.18786E2,7.0565094E1,-4.7449355E0,2.9114904E1,4.375459E1,9.131162E1,1.1758625E1,9.0292206E1,3.0919952E1,7.9142715E1,2.086153E1,4.679613E1],"categories":[],"categories_nodes":[],"categories_segments":[],"categories_sizes":[],"default_left":[0,0,0,0,0,0,0,0,0,0,0,0,0,0,0,0,0,0,0,0,0,0,0],"id":1,"left_children":[1,3,5,7,9,11,-1,13,15,17,19,21,-1,-1,-1,-1,-1,-1,-1,-1,-1,-1,-1],"loss_changes":[2.7512906E7,2.2557728E7,2.468158E6,1.7460726E7,3.625627E6,1.352876E6,0E0,8.70643E6,1.439394E6,3.649309E6,1.177557E6,1.052944E6,0E0,0E0,0E0,0E0,0E0,0E0,0E0,0E0,0E0,0E0,0E0],"parents":[2147483647,0,0,1,1,2,2,3,3,4,4,5,5,7,7,8,8,9,9,10,10,11,11],"right_children":[2,4,6,8,10,12,-1,14,16,18,20,22,-1,-1,-1,-1,-1,-1,-1,-1,-1,-1,-1],"split_conditions":[1E1,1E1,3E2,4E0,3.4E1,4E0,8.305887E1,5E1,5E0,6E2,3E2,1E0,7.0565094E1,-4.7449355E0,2.9114904E1,4.375459E1,9.131162E1,1.1758625E1,9.0292206E1,3.0919952E1,7.9142715E1,2.086153E1,4.679613E1],"split_indices":[116,204,116,213,136,214,0,113,214,99,102,136,0,0,0,0,0,0,0,0,0,0,0],"split_type":[0,0,0,0,0,0,0,0,0,0,0,0,0,0,0,0,0,0,0,0,0,0,0],"sum_hessian":[6.901E3,6.437E3,4.64E2,5.731E3,7.06E2,4.58E2,6E0,5.677E3,5.4E1,6.23E2,8.3E1,4.53E2,5E0,5.601E3,7.6E1,4.6E1,8E0,6.18E2,5E0,7.8E1,5E0,4.37E2,1.6E1],"tree_param":{"num_deleted":"0","num_feature":"285","num_nodes":"23","size_leaf_vector":"1"}},{"base_weights":[1.5439032E0,-3.818722E1,1.3607423E2,-4.918706E1,2.5250906E2,6.457932E1,3.0880353E2,-8.608449E1,2.6716635E1,1.2647064E2,3.4253265E2,3.1312498E1,2.2479562E2,2.7485962E2,6.2116675E2,-9.403742E0,3.546933E1,-4.8472753E0,1.0816192E1,1.723223E1,-7.343759E0,2.7305033E1,4.4370876E1,2.391402E0,6.3850403E1,1.7429182E1,4.2222424E1,2.6537064E1,8.758813E1,4.9907085E1,9.420845E1],"categories":[],"categories_nodes":[],"categories_segments":[],"categories_sizes":[],"default_left":[0,0,0,0,0,0,0,0,0,0,0,0,0,0,0,0,0,0,0,0,0,0,0,0,0,0,0,0,0,0,0],"id":2,"left_children":[1,3,5,7,9,11,13,15,17,19,21,23,25,27,29,-1,-1,-1,-1,-1,-1,-1,-1,-1,-1,-1,-1,-1,-1,-1,-1],"loss_changes":[3.6618724E7,1.6924596E7,1.9269612E7,1.4277218E7,2.146541E6,5.887816E6,4.674764E6,1.2057126E7,1.0219775E7,7.642771E5,6.66199E5,4.1041635E6,1.82088E6,2.12864E6,1.253876E6,0E0,0E0,0E0,0E0,0E0,0E0,0E0,0E0,0E0,0E0,0E0,0E0,0E0,0E0,0E0,0E0],"parents":[2147483647,0,0,1,1,2,2,3,3,4,4,5,5,6,6,7,7,8,8,9,9,10,10,11,11,12,12,13,13,14,14],"right_children":[2,4,6,8,10,12,14,16,18,20,22,24,26,28,30,-1,-1,-1,-1,-1,-1,-1,-1,-1,-1,-1,-1,-1,-1,-1,-1],"split_conditions":[4E0,1E0,2.1E1,6E0,2E0,8E0,1E0,1.5E1,2E0,2.25E1,3E0,1E1,1.1E1,5E2,1.1E1,-9.403742E0,3.546933E1,-4.8472753E0,1.0816192E1,1.723223E1,-7.343759E0,2.7305033E1,4.4370876E1,2.391402E0,6.3850403E1,1.7429182E1,4.2222424E1,2.6537064E1,8.758813E1,4.9907085E1,9.420845E1],"split_indices":[272,118,270,270,272,272,118,117,272,118,272,117,272,145,209,0,0,0,0,0,0,0,0,0,0,0,0,0,0,0,0],"split_type":[0,0,0,0,0,0,0,0,0,0,0,0,0,0,0,0,0,0,0,0,0,0,0,0,0,0,0,0,0,0,0],"sum_hessian":[6.849E3,5.288E3,1.561E3,5.096E3,1.92E2,1.105E3,4.56E2,3.429E3,1.667E3,8.1E1,1.11E2,9.16E2,1.89E2,4.13E2,4.3E1,3.369E3,6E1,8.67E2,8E2,6.6E1,1.5E1,6.8E1,4.3E1,9.06E2,1E1,1.52E2,3.7E1,4.08E2,5E0,3.3E1,1E1],"tree_param":{"num_deleted":"0","num_feature":"285","num_nodes":"31","size_leaf_vector":"1"}},{"base_weights":[1.877433E0,-3.9464092E1,1.0720345E2,-5.7867706E1,1.7481659E2,1.1785567E1,2.3429968E2,-7.494976E1,9.444932E1,1.503083E2,4.4813535E2,-2.6630096E1,6.757597E1,2.0529941E2,5.769137E2,-8.105574E0,1.1833896E1,8.27502E0,8.464138E1,1.3872951E1,8.180554E1,5.9119656E1,3.3273884E1,-1.5222977E0,-1.011219E1,6.180324E0,4.9119267E1,1.889654E1,6.3490242E1,4.681393E1,8.8077644E1],"categories":[],"categories_nodes":[],"categories_segments":[],"categories_sizes":[],"default_left":[0,0,0,0,0,0,0,0,0,0,0,0,0,0,0,0,0,0,0,0,0,0,0,0,0,0,0,0,0,0,0],"id":3,"left_children":[1,3,5,7,9,11,13,15,17,19,21,23,25,27,29,-1,-1,-1,-1,-1,-1,-1,-1,-1,-1,-1,-1,-1,-1,-1,-1],"loss_changes":[3.0262526E7,1.969232E7,2.3754528E7,1.1967957E7,2.578579E6,2.402212E6,8.227716E6,4.888602E6,4.0119195E6,2.700855E6,3.315665E5,5.62686E5,1.0872025E6,5.325328E6,1.736086E6,0E0,0E0,0E0,0E0,0E0,0E0,0E0,0E0,0E0,0E0,0E0,0E0,0E0,0E0,0E0,0E0],"parents":[2147483647,0,0,1,1,2,2,3,3,4,4,5,5,6,6,7,7,8,8,9,9,10,10,11,11,12,12,13,13,14,14],"right_children":[2,4,6,8,10,12,14,16,18,20,22,24,26,28,30,-1,-1,-1,-1,-1,-1,-1,-1,-1,-1,-1,-1,-1,-1,-1,-1],"split_conditions":[1.1E1,3E0,3E0,6E0,3E0,2E0,2E0,1E0,2.8E3,2.13E2,1E1,4.4E1,3.4E1,3E0,1E0,-8.105574E0,1.1833896E1,8.27502E0,8.464138E1,1.3872951E1,8.180554E1,5.9119656E1,3.3273884E1,-1.5222977E0,-1.011219E1,6.180324E0,4.9119267E1,1.889654E1,6.3490242E1,4.681393E1,8.8077644E1],"split_indices":[270,116,272,272,118,272,118,118,102,116,271,204,195,214,209,0,0,0,0,0,0,0,0,0,0,0,0,0,0,0,0],"split_type":[0,0,0,0,0,0,0,0,0,0,0,0,0,0,0,0,0,0,0,0,0,0,0,0,0,0,0,0,0,0,0],"sum_hessian":[6.948E3,4.99E3,1.958E3,4.596E3,3.94E2,1.119E3,8.39E2,4.133E3,4.63E2,3.63E2,3.1E1,6.63E2,4.56E2,7.75E2,6.4E1,4.007E3,1.26E2,4.57E2,6E0,3.58E2,5E0,1.2E1,1.9E1,5.76E2,8.7E1,4.51E2,5E0,7.48E2,2.7E1,4.9E1,1.5E1],"tree_param":{"num_deleted":"0","num_feature":"285","num_nodes":"31","size_leaf_vector":"1"}},{"base_weights":[-1.2361838E0,-3.1458591E1,1.0221748E2,-3.7025593E1,3.2879172E2,9.1489334E1,6.832514E2,-6.4472916E1,4.8514137E0,2.3471312E2,4.2408887E2,1.5138153E2,3.56459E1,5.4518627E1,1.09862564E2,-6.6520195E0,4.3671566E1,2.2755723E0,-1.1745669E1,1.4412755E1,3.5251934E1,1.4071401E1,4.713475E1,1.4620232E1,7.5715256E1,-2.361625E0,1.7511248E1],"categories":[],"categories_nodes":[],"categories_segments":[],"categories_sizes":[],"default_left":[0,0,0,0,0,0,0,0,0,0,0,0,0,0,0,0,0,0,0,0,0,0,0,0,0,0,0],"id":4,"left_children":[1,3,5,7,9,11,13,15,17,19,21,23,25,-1,-1,-1,-1,-1,-1,-1,-1,-1,-1,-1,-1,-1,-1],"loss_changes":[2.1476834E7,1.0673485E7,9.617996E6,6.018633E6,6.2666E5,5.098442E6,1.006807E6,3.274519E6,4.5444055E6,4.0806875E5,4.5596E5,2.198444E6,6.541821E6,0E0,0E0,0E0,0E0,0E0,0E0,0E0,0E0,0E0,0E0,0E0,0E0,0E0,0E0],"parents":[2147483647,0,0,1,1,2,2,3,3,4,4,5,5,6,6,7,7,8,8,9,9,10,10,11,11,12,12],"right_children":[2,4,6,8,10,12,14,16,18,20,22,24,26,-1,-1,-1,-1,-1,-1,-1,-1,-1,-1,-1,-1,-1,-1],"split_conditions":[4E0,1E1,5E0,2E0,2E0,1E2,2E1,9E0,1E2,6E1,1E1,3E2,8E0,5.4518627E1,1.09862564E2,-6.6520195E0,4.3671566E1,2.2755723E0,-1.1745669E1,1.4412755E1,3.5251934E1,1.4071401E1,4.713475E1,1.4620232E1,7.5715256E1,-2.361625E0,1.7511248E1],"split_indices":[272,117,213,272,272,102,213,213,102,117,271,146,272,0,0,0,0,0,0,0,0,0,0,0,0,0,0],"split_type":[0,0,0,0,0,0,0,0,0,0,0,0,0,0,0,0,0,0,0,0,0,0,0,0,0,0,0],"sum_hessian":[6.867E3,5.315E3,1.552E3,5.235E3,8E1,1.525E3,2.7E1,3.162E3,2.073E3,4.2E1,3.8E1,7.35E2,7.9E2,2.2E1,5E0,3.15E3,1.2E1,1.809E3,2.64E2,2.5E1,1.7E1,6E0,3.2E1,7.3E2,5E0,5.55E2,2.35E2],"tree_param":{"num_deleted":"0","num_feature":"285","num_nodes":"27","size_leaf_vector":"1"}},{"base_weights":[-1.3192776E-1,-3.0318989E1,1.1386651E2,-3.1994766E1,6.758398E2,9.99844E1,6.131945E2,-3.52481E1,1.7663824E2,2.8939444E1,9.657366E1,9.620375E1,9.692521E1,7.888538E2,3.644335E2,-3.6444073E0,4.6103214E1,3.4022152E1,1.1671016E1,8.467744E0,3.2175564E1,5.1040035E1,9.78365E1,2.0271053E1,6.540945E1],"categories":[],"categories_nodes":[],"categories_segments":[],"categories_sizes":[],"default_left":[0,0,0,0,0,0,0,0,0,0,0,0,0,0,0,0,0,0,0,0,0,0,0,0,0],"id":5,"left_children":[1,3,5,7,9,11,13,15,17,-1,-1,19,-1,21,23,-1,-1,-1,-1,-1,-1,-1,-1,-1,-1],"loss_changes":[2.3817096E7,6.496997E6,9.982762E6,3.7122165E6,1.176902E6,4.543858E6,1.416705E6,3.2082545E6,7.83764E5,0E0,0E0,3.628048E6,0E0,6.61584E5,7.10615E5,0E0,0E0,0E0,0E0,0E0,0E0,0E0,0E0,0E0,0E0],"parents":[2147483647,0,0,1,1,2,2,3,3,4,4,5,5,6,6,7,7,8,8,11,11,13,13,14,14],"right_children":[2,4,6,8,10,12,14,16,18,-1,-1,20,-1,22,24,-1,-1,-1,-1,-1,-1,-1,-1,-1,-1],"split_conditions":[2.2E1,9E2,3E0,5E1,7E2,2E0,1.06E2,1.6E3,1E2,2.8939444E1,9.657366E1,4E1,9.692521E1,3.8E1,5.15E2,-3.6444073E0,4.6103214E1,3.4022152E1,1.1671016E1,8.467744E0,3.2175564E1,5.1040035E1,9.78365E1,2.0271053E1,6.540945E1],"split_indices":[270,101,213,108,98,202,270,105,108,0,0,148,0,270,270,0,0,0,0,0,0,0,0,0,0],"split_type":[0,0,0,0,0,0,0,0,0,0,0,0,0,0,0,0,0,0,0,0,0,0,0,0,0],"sum_hessian":[6.919E3,5.471E3,1.448E3,5.459E3,1.2E1,1.41E3,3.8E1,5.376E3,8.3E1,6E0,6E0,1.405E3,5E0,2.1E1,1.7E1,5.364E3,1.2E1,2.1E1,6.2E1,1.338E3,6.7E1,1E1,1.1E1,1.2E1,5E0],"tree_param":{"num_deleted":"0","num_feature":"285","num_nodes":"25","size_leaf_vector":"1"}},{"base_weights":[2.8435261E0,-2.5569273E1,1.0852547E2,-3.130236E1,3.384449E2,1.2532142E1,2.1760962E2,-4.113443E1,1.3423761E2,2.2581693E2,4.4569626E2,6.0609107E0,5.069752E1,1.9950128E2,4.328143E2,-5.156481E0,1.1568352E0,1.0602931E1,3.2519382E1,1.198503E1,3.6633446E1,3.821301E1,6.1089508E1,-3.8007805E0,6.4090815E0,1.85918E1,4.4752895E1,3.1374704E1,5.5865326E1],"categories":[],"categories_nodes":[],"categories_segments":[],"categories_sizes":[],"default_left":[0,0,0,0,0,0,0,0,0,0,0,0,0,0,0,0,0,0,0,0,0,0,0,0,0,0,0,0,0],"id":6,"left_children":[1,3,5,7,9,11,13,15,17,19,21,23,-1,25,27,-1,-1,-1,-1,-1,-1,-1,-1,-1,-1,-1,-1,-1,-1],"loss_changes":[2.061945E7,1.1305031E7,1.5233088E7,8.679004E6,9.14034E5,2.47666E6,2.567512E6,2.766187E6,1.5760985E6,5.9637225E5,2.076035E5,1.9613304E6,0E0,2.039284E6,6.03856E5,0E0,0E0,0E0,0E0,0E0,0E0,0E0,0E0,0E0,0E0,0E0,0E0,0E0,0E0],"parents":[2147483647,0,0,1,1,2,2,3,3,4,4,5,5,6,6,7,7,8,8,9,9,10,10,11,11,13,13,14,14],"right_children":[2,4,6,8,10,12,14,16,18,20,22,24,-1,26,28,-1,-1,-1,-1,-1,-1,-1,-1,-1,-1,-1,-1,-1,-1],"split_conditions":[2.1E1,1E1,3E0,7E0,2E0,1E0,4E1,6E0,5E1,6E1,4E0,2E0,5.069752E1,5E0,1E0,-5.156481E0,1.1568352E0,1.0602931E1,3.2519382E1,1.198503E1,3.6633446E1,3.821301E1,6.1089508E1,-3.8007805E0,6.4090815E0,1.85918E1,4.4752895E1,3.1374704E1,5.5865326E1],"split_indices":[270,117,272,272,272,213,148,270,112,117,272,272,0,213,204,0,0,0,0,0,0,0,0,0,0,0,0,0,0],"split_type":[0,0,0,0,0,0,0,0,0,0,0,0,0,0,0,0,0,0,0,0,0,0,0,0,0,0,0,0,0],"sum_hessian":[6.865E3,5.411E3,1.454E3,5.328E3,8.3E1,7.74E2,6.8E2,5.03E3,2.98E2,4.2E1,4.1E1,7.65E2,9E0,6.29E2,5.1E1,4.199E3,8.31E2,2.61E2,3.7E1,2.5E1,1.7E1,3.2E1,9E0,4.35E2,3.3E2,5.98E2,3.1E1,2.8E1,2.3E1],"tree_param":{"num_deleted":"0","num_feature":"285","num_nodes":"29","size_leaf_vector":"1"}},{"base_weights":[1.5195191E0,-8.279605E0,2.7387112E2,-2.3836979E1,1.1736449E2,1.6751698E2,4.0251483E2,-3.5202377E1,1.5023613E2,7.8946815E1,2.502814E2,2.0264052E2,4.1342224E1,4.563162E2,1.8618315E2,-6.903337E0,2.3156345E0,1.4054131E1,6.204405E1,5.881506E0,3.2290554E1,2.2931185E1,7.607664E1,2.2570587E1,8.118163E0,-4.0783386E0,1.5187444E1,4.8590206E1,1.5249066E1,3.4377446E0,3.8009285E1],"categories":[],"categories_nodes":[],"categories_segments":[],"categories_sizes":[],"default_left":[0,0,0,0,0,0,0,0,0,0,0,0,0,0,0,0,0,0,0,0,0,0,0,0,0,0,0,0,0,0,0],"id":7,"left_children":[1,3,5,7,9,11,13,15,17,19,21,23,25,27,29,-1,-1,-1,-1,-1,-1,-1,-1,-1,-1,-1,-1,-1,-1,-1,-1],"loss_changes":[1.8288934E7,1.2933088E7,3.188838E6,1.165219E7,3.702777E6,5.7660725E5,1.160408E6,1.0913741E7,1.5584405E6,2.7657252E6,1.570404E6,2.702305E5,2.7851975E5,6.89966E5,6.639752E5,0E0,0E0,0E0,0E0,0E0,0E0,0E0,0E0,0E0,0E0,0E0,0E0,0E0,0E0,0E0,0E0],"parents":[2147483647,0,0,1,1,2,2,3,3,4,4,5,5,6,6,7,7,8,8,9,9,10,10,11,11,12,12,13,13,14,14],"right_children":[2,4,6,8,10,12,14,16,18,20,22,24,26,28,30,-1,-1,-1,-1,-1,-1,-1,-1,-1,-1,-1,-1,-1,-1,-1,-1],"split_conditions":[2E0,6E0,3E0,3E0,4.2E1,2.25E1,2.5E1,5E0,3E2,1.1E1,1E0,1E0,2E0,1E0,1E0,-6.903337E0,2.3156345E0,1.4054131E1,6.204405E1,5.881506E0,3.2290554E1,2.2931185E1,7.607664E1,2.2570587E1,8.118163E0,-4.0783386E0,1.5187444E1,4.8590206E1,1.5249066E1,3.4377446E0,3.8009285E1],"split_indices":[118,272,272,116,270,118,118,270,116,272,159,277,272,281,270,0,0,0,0,0,0,0,0,0,0,0,0,0,0,0,0],"split_type":[0,0,0,0,0,0,0,0,0,0,0,0,0,0,0,0,0,0,0,0,0,0,0,0,0,0,0,0,0,0,0],"sum_hessian":[6.851E3,6.614E3,2.37E2,5.886E3,7.28E2,1.31E2,1.06E2,5.526E3,3.6E2,5.66E2,1.62E2,1.02E2,2.9E1,8.4E1,2.2E1,3.498E3,2.028E3,3.54E2,6E0,5.24E2,4.2E1,1.57E2,5E0,8.5E1,1.7E1,1.7E1,1.2E1,7.6E1,8E0,1.3E1,9E0],"tree_param":{"num_deleted":"0","num_feature":"285","num_nodes":"31","size_leaf_vector":"1"}},{"base_weights":[9.7616327E-1,-7.960005E0,2.3987294E2,-3.3373413E1,5.766513E1,1.5950621E2,4.2045306E2,-3.7860664E1,2.571724E2,4.9947792E1,4.2088037E2,2.0088123E2,1.8371885E1,4.4654486E2,9.57432E0,-3.9415035E0,5.835453E1,2.7712376E1,1.1771243E1,4.6479664E0,7.5151024E1,3.3082317E1,7.853101E1,4.5961204E0,2.4062012E1,-3.537746E-1,8.664552E0,4.8100628E1,1.55698595E1],"categories":[],"categories_nodes":[],"categories_segments":[],"categories_sizes":[],"default_left":[0,0,0,0,0,0,0,0,0,0,0,0,0,0,0,0,0,0,0,0,0,0,0,0,0,0,0,0,0],"id":8,"left_children":[1,3,5,7,9,11,13,15,17,19,21,23,25,27,-1,-1,-1,-1,-1,-1,-1,-1,-1,-1,-1,-1,-1,-1,-1],"loss_changes":[1.4920044E7,1.1237612E7,3.590117E6,6.342062E6,5.2515265E6,1.0240495E6,6.0961E5,4.643843E6,1.73278E5,4.449285E6,1.020163E6,8.262045E5,6.163638E4,6.3674E5,0E0,0E0,0E0,0E0,0E0,0E0,0E0,0E0,0E0,0E0,0E0,0E0,0E0,0E0,0E0],"parents":[2147483647,0,0,1,1,2,2,3,3,4,4,5,5,6,6,7,7,8,8,9,9,10,10,11,11,12,12,13,13],"right_children":[2,4,6,8,10,12,14,16,18,20,22,24,26,28,-1,-1,-1,-1,-1,-1,-1,-1,-1,-1,-1,-1,-1,-1,-1],"split_conditions":[2E0,1.1E1,2E0,1E1,2E0,2.5E1,5.5E1,1.2E3,1E0,2.003E3,8E0,3E0,3E1,1E0,9.57432E0,-3.9415035E0,5.835453E1,2.7712376E1,1.1771243E1,4.6479664E0,7.5151024E1,3.3082317E1,7.853101E1,4.5961204E0,2.4062012E1,-3.537746E-1,8.664552E0,4.8100628E1,1.55698595E1],"split_indices":[118,270,270,117,214,118,137,98,278,270,213,118,118,185,0,0,0,0,0,0,0,0,0,0,0,0,0,0,0],"split_type":[0,0,0,0,0,0,0,0,0,0,0,0,0,0,0,0,0,0,0,0,0,0,0,0,0,0,0,0,0],"sum_hessian":[6.987E3,6.736E3,2.51E2,4.856E3,1.88E3,1.75E2,7.6E1,4.783E3,7.3E1,1.842E3,3.8E1,1.35E2,4E1,7E1,6E0,4.772E3,1.1E1,6.3E1,1E1,1.834E3,8E0,3.2E1,6E0,2.8E1,1.07E2,3.1E1,9E0,6.2E1,8E0],"tree_param":{"num_deleted":"0","num_feature":"285","num_nodes":"29","size_leaf_vector":"1"}},{"base_weights":[3.436713E-1,-3.284031E1,6.2863873E1,-4.553399E1,1.2932771E2,3.3751843E0,1.473621E2,-4.7365166E1,3.575047E2,1.1364583E2,4.270416E2,-1.1181171E0,7.8703445E1,1.3489098E2,4.3924387E2,-6.331535E0,-1.034789E0,2.2529127E1,6.0641865E1,1.0200469E1,5.4325836E1,2.8052551E1,5.38492E1,-1.051397E0,2.0121384E1,9.01759E0,1.9259655E1,2.7904234E1,5.7090034E1],"categories":[],"categories_nodes":[],"categories_segments":[],"categories_sizes":[],"default_left":[0,0,0,0,0,0,0,0,0,0,0,0,0,0,0,0,0,0,0,0,0,0,0,0,0,0,0,0,0],"id":9,"left_children":[1,3,5,7,9,11,13,15,17,19,21,23,-1,25,27,-1,-1,-1,-1,-1,-1,-1,-1,-1,-1,-1,-1,-1,-1],"loss_changes":[1.429446E7,9.271236E6,1.2008264E7,3.098229E6,1.478139E6,4.9411475E6,3.533522E6,2.453772E6,4.8866475E5,1.5049522E6,1.1020775E5,2.6560248E6,0E0,2.428766E6,6.843575E5,0E0,0E0,0E0,0E0,0E0,0E0,0E0,0E0,0E0,0E0,0E0,0E0,0E0,0E0],"parents":[2147483647,0,0,1,1,2,2,3,3,4,4,5,5,6,6,7,7,8,8,9,9,10,10,11,11,13,13,14,14],"right_children":[2,4,6,8,10,12,14,16,18,20,22,24,-1,26,28,-1,-1,-1,-1,-1,-1,-1,-1,-1,-1,-1,-1,-1,-1],"split_conditions":[3E0,1E1,3E0,8E0,4E1,1.4E3,2E0,8E0,1.9E1,2.13E2,1.4E1,5E1,7.8703445E1,5.3E1,1.3E1,-6.331535E0,-1.034789E0,2.2529127E1,6.0641865E1,1.0200469E1,5.4325836E1,2.8052551E1,5.38492E1,-1.051397E0,2.0121384E1,9.01759E0,1.9259655E1,2.7904234E1,5.7090034E1],"split_indices":[272,116,270,213,117,101,214,270,213,116,271,108,0,270,271,0,0,0,0,0,0,0,0,0,0,0,0,0,0],"split_type":[0,0,0,0,0,0,0,0,0,0,0,0,0,0,0,0,0,0,0,0,0,0,0,0,0,0,0,0,0],"sum_hessian":[6.888E3,4.5E3,2.388E3,4.174E3,3.26E2,1.402E3,9.86E2,4.156E3,1.8E1,3.11E2,1.5E1,1.395E3,7E0,9.47E2,3.9E1,2.904E3,1.252E3,1.3E1,5E0,3.04E2,7E0,8E0,7E0,1.334E3,6.1E1,5.35E2,4.12E2,1.9E1,2E1],"tree_param":{"num_deleted":"0","num_feature":"285","num_nodes":"29","size_leaf_vector":"1"}},{"base_weights":[1.2508913E0,-1.0840881E1,1.6771678E2,-3.1010695E1,6.1902184E1,1.4736115E2,4.947345E2,-3.5672882E1,1.1729079E2,5.1017914E1,3.3205634E2,1.3374568E2,3.4389886E2,3.60842E2,7.676239E1,-3.9173207E0,1.3776245E1,1.5382568E1,-1.6180209E0,4.4094405E0,4.3055073E1,2.3049475E1,6.346356E1,1.2590799E1,3.6642582E1,1.67638E1,5.6494354E1,4.6312767E1,2.7013992E1],"categories":[],"categories_nodes":[],"categories_segments":[],"categories_sizes":[],"default_left":[0,0,0,0,0,0,0,0,0,0,0,0,0,0,0,0,0,0,0,0,0,0,0,0,0,0,0,0,0],"id":10,"left_children":[1,3,5,7,9,11,13,15,17,19,21,23,25,27,-1,-1,-1,-1,-1,-1,-1,-1,-1,-1,-1,-1,-1,-1,-1],"loss_changes":[1.3910734E7,9.455179E6,3.04241E6,3.492343E6,4.0967215E6,1.136775E6,7.09531E5,2.975231E6,7.5344725E5,3.517899E6,1.5131625E6,7.10689E5,9.96217E5,6.044125E4,0E0,0E0,0E0,0E0,0E0,0E0,0E0,0E0,0E0,0E0,0E0,0E0,0E0,0E0,0E0],"parents":[2147483647,0,0,1,1,2,2,3,3,4,4,5,5,6,6,7,7,8,8,9,9,10,10,11,11,12,12,13,13],"right_children":[2,4,6,8,10,12,14,16,18,20,22,24,26,28,-1,-1,-1,-1,-1,-1,-1,-1,-1,-1,-1,-1,-1,-1,-1],"split_conditions":[1E1,2.1E1,8E0,1E0,2E0,1.5E2,1E0,5E1,2.25E1,4E0,1.1E1,5E1,1.3E1,1E1,7.676239E1,-3.9173207E0,1.3776245E1,1.5382568E1,-1.6180209E0,4.4094405E0,4.3055073E1,2.3049475E1,6.346356E1,1.2590799E1,3.6642582E1,1.67638E1,5.6494354E1,4.6312767E1,2.7013992E1],"split_indices":[116,270,118,118,118,116,270,112,118,214,209,117,271,271,0,0,0,0,0,0,0,0,0,0,0,0,0,0,0],"split_type":[0,0,0,0,0,0,0,0,0,0,0,0,0,0,0,0,0,0,0,0,0,0,0,0,0,0,0,0,0],"sum_hessian":[6.909E3,6.442E3,4.67E2,5.044E3,1.398E3,4.41E2,2.6E1,4.891E3,1.53E2,1.345E3,5.3E1,4.14E2,2.7E1,1.9E1,7E0,4.795E3,9.6E1,1.2E2,3.3E1,1.322E3,2.3E1,4.1E1,1.2E1,4.02E2,1.2E1,1.6E1,1.1E1,7E0,1.2E1],"tree_param":{"num_deleted":"0","num_feature":"285","num_nodes":"29","size_leaf_vector":"1"}},{"base_weights":[1.7315103E0,-5.423226E0,2.0905719E2,-2.4798983E1,4.5512947E1,1.8286195E2,5.51264E2,-3.47222E1,9.743824E1,4.0087933E1,3.6307077E2,1.649475E2,6.302591E1,7.477691E1,3.5858395E1,-3.5728014E0,7.255927E1,8.217905E0,3.214262E1,3.5773926E0,3.3687614E1,1.1362404E1,5.146359E1,2.096066E1,5.6061715E-1],"categories":[],"categories_nodes":[],"categories_segments":[],"categories_sizes":[],"default_left":[0,0,0,0,0,0,0,0,0,0,0,0,0,0,0,0,0,0,0,0,0,0,0,0,0],"id":11,"left_children":[1,3,5,7,9,11,13,15,17,19,21,23,-1,-1,-1,-1,-1,-1,-1,-1,-1,-1,-1,-1,-1],"loss_changes":[1.0316423E7,6.6362385E6,1.978885E6,5.911841E6,3.1777135E6,1.6352705E6,3.37664E5,3.471821E6,1.224528E6,2.3220188E6,1.1135548E6,1.493194E6,0E0,0E0,0E0,0E0,0E0,0E0,0E0,0E0,0E0,0E0,0E0,0E0,0E0],"parents":[2147483647,0,0,1,1,2,2,3,3,4,4,5,5,6,6,7,7,8,8,9,9,10,10,11,11],"right_children":[2,4,6,8,10,12,14,16,18,20,22,24,-1,-1,-1,-1,-1,-1,-1,-1,-1,-1,-1,-1,-1],"split_conditions":[2E0,1.1E1,1E0,1E1,9E0,1E1,5E0,4E3,1E1,5E1,3E1,2.25E1,6.302591E1,7.477691E1,3.5858395E1,-3.5728014E0,7.255927E1,8.217905E0,3.214262E1,3.5773926E0,3.3687614E1,1.1362404E1,5.146359E1,2.096066E1,5.6061715E-1],"split_indices":[118,270,209,116,213,117,118,104,117,195,270,118,0,0,0,0,0,0,0,0,0,0,0,0,0],"split_type":[0,0,0,0,0,0,0,0,0,0,0,0,0,0,0,0,0,0,0,0,0,0,0,0,0],"sum_hessian":[6.953E3,6.722E3,2.31E2,4.87E3,1.852E3,2.16E2,1.5E1,4.505E3,3.65E2,1.822E3,3E1,2.09E2,7E0,6E0,9E0,4.5E3,5E0,3.43E2,2.2E1,1.797E3,2.5E1,1.2E1,1.8E1,1.63E2,4.6E1],"tree_param":{"num_deleted":"0","num_feature":"285","num_nodes":"25","size_leaf_vector":"1"}},{"base_weights":[1.2375222E0,-2.1144203E1,7.752575E1,-3.1250238E1,1.141216E2,7.250774E1,6.29705E2,-3.403847E1,2.8212228E2,1.06595825E2,4.9130886E1,5.9313526E1,2.4373582E2,3.6273907E1,8.44851E1,-3.7849271E0,1.2047281E1,2.1208796E1,3.808775E1,6.151746E0,1.7566444E1,5.0341296E0,2.731604E1,2.6593887E1,-3.744763E0],"categories":[],"categories_nodes":[],"categories_segments":[],"categories_sizes":[],"default_left":[0,0,0,0,0,0,0,0,0,0,0,0,0,0,0,0,0,0,0,0,0,0,0,0,0],"id":12,"left_children":[1,3,5,7,9,11,13,15,17,19,-1,21,23,-1,-1,-1,-1,-1,-1,-1,-1,-1,-1,-1,-1],"loss_changes":[1.1810448E7,7.3142865E6,4.301797E6,4.3582845E6,1.0035975E6,3.500888E6,4.976525E5,2.9097555E6,2.2353575E5,1.1287342E6,0E0,2.7606655E6,7.02946E5,0E0,0E0,0E0,0E0,0E0,0E0,0E0,0E0,0E0,0E0,0E0,0E0],"parents":[2147483647,0,0,1,1,2,2,3,3,4,4,5,5,6,6,7,7,8,8,9,9,11,11,12,12],"right_children":[2,4,6,8,10,12,14,16,18,20,-1,22,24,-1,-1,-1,-1,-1,-1,-1,-1,-1,-1,-1,-1],"split_conditions":[4E0,1E1,1E3,2.5E1,3E2,3E0,5E2,3E1,6E1,2E0,4.9130886E1,1.1E1,2.5E2,3.6273907E1,8.44851E1,-3.7849271E0,1.2047281E1,2.1208796E1,3.808775E1,6.151746E0,1.7566444E1,5.0341296E0,2.731604E1,2.6593887E1,-3.744763E0],"split_indices":[272,116,98,117,116,209,101,148,117,272,0,272,204,0,0,0,0,0,0,0,0,0,0,0,0],"split_type":[0,0,0,0,0,0,0,0,0,0,0,0,0,0,0,0,0,0,0,0,0,0,0,0,0],"sum_hessian":[6.915E3,5.347E3,1.568E3,4.976E3,3.71E2,1.555E3,1.3E1,4.933E3,4.3E1,3.65E2,6E0,1.445E3,1.1E2,7E0,6E0,4.815E3,1.18E2,2.7E1,1.6E1,2.22E2,1.43E2,1.388E3,5.7E1,1.02E2,8E0],"tree_param":{"num_deleted":"0","num_feature":"285","num_nodes":"25","size_leaf_vector":"1"}},{"base_weights":[-2.1552423E-2,-1.9926207E1,6.723168E1,-2.3249037E1,2.324189E2,4.2761574E1,1.7602751E2,-3.0190092E1,7.735275E1,1.783151E2,4.0387454E2,3.8359875E1,6.0718525E1,1.6417241E2,5.763623E1,-4.888122E0,1.338463E-1,6.961335E0,5.004469E1,1.3376711E1,3.267981E1,2.6482355E1,5.9148903E1,2.6638358E0,1.824895E1,1.5074763E1,5.182786E1],"categories":[],"categories_nodes":[],"categories_segments":[],"categories_sizes":[],"default_left":[0,0,0,0,0,0,0,0,0,0,0,0,0,0,0,0,0,0,0,0,0,0,0,0,0,0,0],"id":13,"left_children":[1,3,5,7,9,11,13,15,17,19,21,23,-1,25,-1,-1,-1,-1,-1,-1,-1,-1,-1,-1,-1,-1,-1],"loss_changes":[9.331747E6,4.515695E6,4.2307675E6,3.710216E6,5.773315E5,3.2089445E6,1.291213E6,2.927729E6,1.0883138E6,3.2008938E5,2.6076725E5,2.177866E6,0E0,1.276701E6,0E0,0E0,0E0,0E0,0E0,0E0,0E0,0E0,0E0,0E0,0E0,0E0,0E0],"parents":[2147483647,0,0,1,1,2,2,3,3,4,4,5,5,6,6,7,7,8,8,9,9,10,10,11,11,13,13],"right_children":[2,4,6,8,10,12,14,16,18,20,22,24,-1,26,-1,-1,-1,-1,-1,-1,-1,-1,-1,-1,-1,-1,-1],"split_conditions":[4E0,1E1,5.1E1,1E1,7.5E1,1.2E3,9E2,4E0,1E0,3.5E1,1.5E1,1E1,6.0718525E1,4E2,5.763623E1,-4.888122E0,1.338463E-1,6.961335E0,5.004469E1,1.3376711E1,3.267981E1,2.6482355E1,5.9148903E1,2.6638358E0,1.824895E1,1.5074763E1,5.182786E1],"split_indices":[272,117,270,116,117,98,97,270,195,116,271,272,0,48,0,0,0,0,0,0,0,0,0,0,0,0,0],"split_type":[0,0,0,0,0,0,0,0,0,0,0,0,0,0,0,0,0,0,0,0,0,0,0,0,0,0,0],"sum_hessian":[6.969E3,5.378E3,1.591E3,5.309E3,6.9E1,1.3E3,2.91E2,4.967E3,3.42E2,5.4E1,1.5E1,1.291E3,9E0,2.84E2,7E0,3.118E3,1.849E3,3.37E2,5E0,4.3E1,1.1E1,1E1,5E0,1.195E3,9.6E1,2.75E2,9E0],"tree_param":{"num_deleted":"0","num_feature":"285","num_nodes":"27","size_leaf_vector":"1"}},{"base_weights":[1.2825288E0,-5.9545655E0,1.8098991E2,-3.614477E1,2.113914E1,1.6404315E2,5.620152E1,-3.7565544E1,7.141272E1,1.9862972E1,7.6268524E1,1.14925E2,3.0811816E2,-4.0403733E0,1.7294958E1,1.7469834E0,4.1583637E1,1.5514931E1,-2.99359E0,2.3410059E1,4.2481068E1],"categories":[],"categories_nodes":[],"categories_segments":[],"categories_sizes":[],"default_left":[0,0,0,0,0,0,0,0,0,0,0,0,0,0,0,0,0,0,0,0,0],"id":14,"left_children":[1,3,5,7,9,11,-1,13,-1,15,-1,17,19,-1,-1,-1,-1,-1,-1,-1,-1],"loss_changes":[9.003549E6,5.444318E6,1.638322E6,3.3824862E6,3.3046025E6,1.7903775E6,0E0,1.884874E6,0E0,3.3122465E6,0E0,1.1350688E6,4.619755E5,0E0,0E0,0E0,0E0,0E0,0E0,0E0,0E0],"parents":[2147483647,0,0,1,1,2,2,3,3,4,4,5,5,7,7,9,9,11,11,12,12],"right_children":[2,4,6,8,10,12,-1,14,-1,16,-1,18,20,-1,-1,-1,-1,-1,-1,-1,-1],"split_conditions":[1E0,2E0,1.1E1,2.13E2,4E2,3E0,5.620152E1,2.5E1,7.141272E1,6E2,7.6268524E1,2.25E1,4E0,-4.0403733E0,1.7294958E1,1.7469834E0,4.1583637E1,1.5514931E1,-2.99359E0,2.3410059E1,4.2481068E1],"split_indices":[118,272,209,116,146,116,0,117,0,101,0,118,272,0,0,0,0,0,0,0,0],"split_type":[0,0,0,0,0,0,0,0,0,0,0,0,0,0,0,0,0,0,0,0,0],"sum_hessian":[6.921E3,6.654E3,2.67E2,3.147E3,3.507E3,2.57E2,1E1,3.142E3,5E0,3.502E3,5E0,1.93E2,6.4E1,3.101E3,4.1E1,3.482E3,2E1,1.51E2,4.2E1,4.1E1,2.3E1],"tree_param":{"num_deleted":"0","num_feature":"285","num_nodes":"21","size_leaf_vector":"1"}},{"base_weights":[-1.3671675E-2,-2.3226904E1,4.3556236E1,-2.543133E1,1.6092735E2,3.304604E1,2.4849202E2,-2.7221762E1,1.6632841E2,1.2506598E2,2.4343845E1,2.8680996E1,3.4682632E2,2.7312195E2,-7.467726E0,-3.0010786E0,8.996535E0,2.0021584E1,-6.471747E0,9.340835E0,1.6054008E1,2.4847476E0,3.8096863E1,2.4799292E1,7.173E1,2.9808842E1,8.419803E0],"categories":[],"categories_nodes":[],"categories_segments":[],"categories_sizes":[],"default_left":[0,0,0,0,0,0,0,0,0,0,0,0,0,0,0,0,0,0,0,0,0,0,0,0,0,0,0],"id":15,"left_children":[1,3,5,7,9,11,13,15,17,19,-1,21,23,25,-1,-1,-1,-1,-1,-1,-1,-1,-1,-1,-1,-1,-1],"loss_changes":[6.9280795E6,1.8183032E6,5.120261E6,1.5210282E6,1.26378875E5,3.0937118E6,9.43713E5,1.433268E6,3.3396888E5,2.8802312E4,0E0,3.010257E6,9.5718525E5,4.84312E5,0E0,0E0,0E0,0E0,0E0,0E0,0E0,0E0,0E0,0E0,0E0,0E0,0E0],"parents":[2147483647,0,0,1,1,2,2,3,3,4,4,5,5,6,6,7,7,8,8,9,9,11,11,12,12,13,13],"right_children":[2,4,6,8,10,12,14,16,18,20,-1,22,24,26,-1,-1,-1,-1,-1,-1,-1,-1,-1,-1,-1,-1,-1],"split_conditions":[3E0,7E0,2E0,3E0,1.3E1,2E0,1E0,2.5E1,1E0,2E0,2.4343845E1,1.5E2,7E0,3E0,-7.467726E0,-3.0010786E0,8.996535E0,2.0021584E1,-6.471747E0,9.340835E0,1.6054008E1,2.4847476E0,3.8096863E1,2.4799292E1,7.173E1,2.9808842E1,8.419803E0],"split_indices":[272,17,118,213,17,214,281,148,280,272,0,108,213,185,0,0,0,0,0,0,0,0,0,0,0,0,0],"split_type":[0,0,0,0,0,0,0,0,0,0,0,0,0,0,0,0,0,0,0,0,0,0,0,0,0,0,0],"sum_hessian":[6.848E3,4.468E3,2.38E3,4.416E3,5.2E1,2.265E3,1.15E2,4.376E3,4E1,3.8E1,1.4E1,2.235E3,3E1,1.07E2,8E0,4.275E3,1.01E2,3.5E1,5E0,2.2E1,1.6E1,2.212E3,2.3E1,2.5E1,5E0,9.4E1,1.3E1],"tree_param":{"num_deleted":"0","num_feature":"285","num_nodes":"27","size_leaf_vector":"1"}},{"base_weights":[1.0452802E0,-6.9403343E0,1.0863078E2,-2.8868063E1,2.854067E1,8.7851425E1,2.0455528E2,-3.0117167E1,6.815343E1,-2.463043E1,6.4550835E1,6.1443188E1,1.5274403E2,2.3049628E2,-1.0457773E0,-3.3398266E0,1.2538203E1,-2.9208019E0,3.216396E1,6.120451E0,5.9762398E1,1.0309661E1,2.5414317E0,7.0843782E0,3.1905685E1,2.58845E1,4.202684E0],"categories":[],"categories_nodes":[],"categories_segments":[],"categories_sizes":[],"default_left":[0,0,0,0,0,0,0,0,0,0,0,0,0,0,0,0,0,0,0,0,0,0,0,0,0,0,0],"id":16,"left_children":[1,3,5,7,9,11,13,15,-1,17,19,21,23,25,-1,-1,-1,-1,-1,-1,-1,-1,-1,-1,-1,-1,-1],"loss_changes":[5.918485E6,4.9902525E6,9.30817E5,3.5380418E6,4.692605E6,6.640985E5,4.7093325E5,2.023591E6,0E0,1.5786245E6,2.5696055E6,4.1908375E5,1.5165765E6,3.89837E5,0E0,0E0,0E0,0E0,0E0,0E0,0E0,0E0,0E0,0E0,0E0,0E0,0E0],"parents":[2147483647,0,0,1,1,2,2,3,3,4,4,5,5,6,6,7,7,9,9,10,10,11,11,12,12,13,13],"right_children":[2,4,6,8,10,12,14,16,-1,18,20,22,24,26,-1,-1,-1,-1,-1,-1,-1,-1,-1,-1,-1,-1,-1],"split_conditions":[1E1,4E0,5E0,5E2,2E0,1.4E1,5E0,5E0,6.815343E1,9E0,2.003E3,5E1,6.5E1,1E0,-1.0457773E0,-3.3398266E0,1.2538203E1,-2.9208019E0,3.216396E1,6.120451E0,5.9762398E1,1.0309661E1,2.5414317E0,7.0843782E0,3.1905685E1,2.58845E1,4.202684E0],"split_indices":[116,270,270,108,272,271,212,17,0,213,270,116,116,278,0,0,0,0,0,0,0,0,0,0,0,0,0],"split_type":[0,0,0,0,0,0,0,0,0,0,0,0,0,0,0,0,0,0,0,0,0,0,0,0,0,0,0],"sum_hessian":[6.887E3,6.412E3,4.75E2,3.963E3,2.449E3,3.92E2,8.3E1,3.957E3,6E0,9.89E2,1.46E3,2.8E2,1.12E2,7.4E1,9E0,3.876E3,8.1E1,9.77E2,1.2E1,1.452E3,8E0,1.29E2,1.51E2,7.6E1,3.6E1,6.4E1,1E1],"tree_param":{"num_deleted":"0","num_feature":"285","num_nodes":"27","size_leaf_vector":"1"}},{"base_weights":[-9.713655E-1,-2.9443022E1,2.4087378E1,-3.0838697E1,2.7110132E2,-3.2341695E0,6.3602665E1,-3.1814333E1,2.5569736E1,1.7580935E1,3.5489086E1,-9.613074E0,1.8512383E2,5.8694374E1,4.6364E1,-3.3848622E0,6.526559E0,-1.1753893E0,4.8812496E1,2.8680155E1,1.2710113E1,5.6236253E0,6.532003E1],"categories":[],"categories_nodes":[],"categories_segments":[],"categories_sizes":[],"default_left":[0,0,0,0,0,0,0,0,0,0,0,0,0,0,0,0,0,0,0,0,0,0,0],"id":17,"left_children":[1,3,5,7,9,11,13,15,-1,-1,-1,17,19,21,-1,-1,-1,-1,-1,-1,-1,-1,-1],"loss_changes":[4.912195E6,1.3602875E6,3.95377E6,9.05226E5,5.7374E4,2.6042668E6,2.912147E6,6.3397525E5,0E0,0E0,0E0,2.2391658E6,3.8242E5,2.1260915E6,0E0,0E0,0E0,0E0,0E0,0E0,0E0,0E0,0E0],"parents":[2147483647,0,0,1,1,2,2,3,3,4,4,5,5,6,6,7,7,11,11,12,12,13,13],"right_children":[2,4,6,8,10,12,14,16,-1,-1,-1,18,20,22,-1,-1,-1,-1,-1,-1,-1,-1,-1],"split_conditions":[2E0,6E1,5E0,7E0,1.4E1,3E0,1E1,3E0,2.5569736E1,1.7580935E1,3.5489086E1,9E2,1E1,8E0,4.6364E1,-3.3848622E0,6.526559E0,-1.1753893E0,4.8812496E1,2.8680155E1,1.2710113E1,5.6236253E0,6.532003E1],"split_indices":[272,117,270,214,271,118,214,118,0,0,0,101,271,215,0,0,0,0,0,0,0,0,0],"split_type":[0,0,0,0,0,0,0,0,0,0,0,0,0,0,0,0,0,0,0,0,0,0,0],"sum_hessian":[6.883E3,3.222E3,3.661E3,3.208E3,1.4E1,2.165E3,1.496E3,3.198E3,1E1,8E0,6E0,2.095E3,7E1,1.479E3,1.7E1,3.133E3,6.5E1,2.087E3,8E0,2.4E1,4.6E1,1.474E3,5E0],"tree_param":{"num_deleted":"0","num_feature":"285","num_nodes":"23","size_leaf_vector":"1"}},{"base_weights":[2.2755249E0,-4.4380956E0,9.2345184E1,-9.297034E0,1.2004538E2,8.448256E1,6.1156513E1,-2.5950369E1,1.95988E1,1.4396597E2,2.2889418E1,1.5600458E2,4.649512E1,-2.95458E0,1.8515692E1,1.7981796E0,6.25943E1,1.2827323E1,2.9028E1,-1.3730222E0,2.4456871E1,1.3124446E1,3.1835943E1,2.6119277E0,1.7288136E1],"categories":[],"categories_nodes":[],"categories_segments":[],"categories_sizes":[],"default_left":[0,0,0,0,0,0,0,0,0,0,0,0,0,0,0,0,0,0,0,0,0,0,0,0,0],"id":18,"left_children":[1,3,5,7,9,11,-1,13,15,17,19,21,23,-1,-1,-1,-1,-1,-1,-1,-1,-1,-1,-1,-1],"loss_changes":[4.1842842E6,3.8963992E6,1.9079008E6,2.983542E6,5.591195E5,1.2805752E6,0E0,2.9907038E6,2.21145E6,4.082025E5,4.0113094E5,6.17485E5,7.963798E5,0E0,0E0,0E0,0E0,0E0,0E0,0E0,0E0,0E0,0E0,0E0,0E0],"parents":[2147483647,0,0,1,1,2,2,3,3,4,4,5,5,7,7,8,8,9,9,10,10,11,11,12,12],"right_children":[2,4,6,8,10,12,-1,14,16,18,20,22,24,-1,-1,-1,-1,-1,-1,-1,-1,-1,-1,-1,-1],"split_conditions":[7E0,1E0,2E3,4E0,2.25E1,1E2,6.1156513E1,1E1,1E1,5E0,1E0,9E2,1.1E1,-2.95458E0,1.8515692E1,1.7981796E0,6.25943E1,1.2827323E1,2.9028E1,-1.3730222E0,2.4456871E1,1.3124446E1,3.1835943E1,2.6119277E0,1.7288136E1],"split_indices":[272,118,99,270,118,97,0,117,202,272,280,53,272,0,0,0,0,0,0,0,0,0,0,0,0],"split_type":[0,0,0,0,0,0,0,0,0,0,0,0,0,0,0,0,0,0,0,0,0,0,0,0,0],"sum_hessian":[6.918E3,6.439E3,4.79E2,6.198E3,2.41E2,4.73E2,6E0,3.932E3,2.266E3,1.93E2,4.8E1,1.63E2,3.1E2,3.867E3,6.5E1,2.261E3,5E0,1.76E2,1.7E1,4.2E1,6E0,1.43E2,2E1,2.68E2,4.2E1],"tree_param":{"num_deleted":"0","num_feature":"285","num_nodes":"25","size_leaf_vector":"1"}},{"base_weights":[2.5680253E-1,-6.5819006E0,9.283845E1,-8.937762E0,2.3116544E2,8.126307E1,3.3866632E2,-1.2515361E1,8.553703E1,1.6567351E2,3.4568796E2,1.5656476E2,3.563683E1,4.4137512E2,1.8154913E1,-1.5557613E0,1.0397002E1,1.0496027E1,4.7178608E-1,2.0730135E1,-9.995379E-1,2.6538502E1,5.1559826E1,1.4186294E1,4.383816E1,2.1701632E0,1.8569723E1,2.6055393E1,5.3331112E1],"categories":[],"categories_nodes":[],"categories_segments":[],"categories_sizes":[],"default_left":[0,0,0,0,0,0,0,0,0,0,0,0,0,0,0,0,0,0,0,0,0,0,0,0,0,0,0,0,0],"id":19,"left_children":[1,3,5,7,9,11,13,15,17,19,21,23,25,27,-1,-1,-1,-1,-1,-1,-1,-1,-1,-1,-1,-1,-1,-1,-1],"loss_changes":[4.3629345E6,3.5962265E6,1.3212705E6,2.1490152E6,4.1524775E5,1.5542435E6,2.5875225E5,2.171828E6,3.6369125E5,3.0920612E5,1.6334225E5,6.463005E5,5.898485E5,6.053125E4,0E0,0E0,0E0,0E0,0E0,0E0,0E0,0E0,0E0,0E0,0E0,0E0,0E0,0E0,0E0],"parents":[2147483647,0,0,1,1,2,2,3,3,4,4,5,5,6,6,7,7,8,8,9,9,10,10,11,11,12,12,13,13],"right_children":[2,4,6,8,10,12,14,16,18,20,22,24,26,28,-1,-1,-1,-1,-1,-1,-1,-1,-1,-1,-1,-1,-1,-1,-1],"split_conditions":[7E0,2E0,1E3,1E0,9E0,1E2,1E2,3E0,2.5E1,5.65E1,1.5E1,5E1,2E0,1.3E1,1.8154913E1,-1.5557613E0,1.0397002E1,1.0496027E1,4.7178608E-1,2.0730135E1,-9.995379E-1,2.6538502E1,5.1559826E1,1.4186294E1,4.383816E1,2.1701632E0,1.8569723E1,2.6055393E1,5.3331112E1],"split_indices":[272,214,100,118,214,100,103,17,118,270,271,64,269,271,0,0,0,0,0,0,0,0,0,0,0,0,0,0,0],"split_type":[0,0,0,0,0,0,0,0,0,0,0,0,0,0,0,0,0,0,0,0,0,0,0,0,0,0,0,0,0],"sum_hessian":[6.889E3,6.416E3,4.73E2,6.354E3,6.2E1,4.53E2,2E1,6.123E3,2.31E2,4.1E1,2.1E1,1.7E2,2.83E2,1.1E1,9E0,5.968E3,1.55E2,1.86E2,4.5E1,3.3E1,8E0,1.6E1,5E0,1.63E2,7E0,2.6E2,2.3E1,5E0,6E0],"tree_param":{"num_deleted":"0","num_feature":"285","num_nodes":"29","size_leaf_vector":"1"}},{"base_weights":[-4.686914E-2,-1.8512035E1,3.473153E1,-2.0987944E1,2.0270909E2,6.852512E1,-1.4949506E1,-2.21043E1,3.6259232E2,1.5766931E2,2.6238531E1,8.8984146E1,-4.333754E1,-2.6445492E1,2.677006E2,-2.3758717E0,1.7052023E1,1.9593885E1,5.243649E1,6.9373703E0,2.2630255E1,8.5917845E0,6.874128E1,-8.6146555E0,1.0104833E1,-5.154256E0,5.51261E0,1.8478796E1,5.1433155E1],"categories":[],"categories_nodes":[],"categories_segments":[],"categories_sizes":[],"default_left":[0,0,0,0,0,0,0,0,0,0,0,0,0,0,0,0,0,0,0,0,0,0,0,0,0,0,0,0,0],"id":20,"left_children":[1,3,5,7,9,11,13,15,17,19,-1,21,23,25,27,-1,-1,-1,-1,-1,-1,-1,-1,-1,-1,-1,-1,-1,-1],"loss_changes":[4.433031E6,2.473937E6,4.020313E6,1.9178424E6,9.302E4,3.265112E6,3.158941E6,1.421545E6,2.47736E5,1.72161E5,0E0,2.152065E6,1.3747096E6,1.9128859E6,6.82013E5,0E0,0E0,0E0,0E0,0E0,0E0,0E0,0E0,0E0,0E0,0E0,0E0,0E0,0E0],"parents":[2147483647,0,0,1,1,2,2,3,3,4,4,5,5,6,6,7,7,8,8,9,9,11,11,12,12,13,13,14,14],"right_children":[2,4,6,8,10,12,14,16,18,20,-1,22,24,26,28,-1,-1,-1,-1,-1,-1,-1,-1,-1,-1,-1,-1,-1,-1],"split_conditions":[3E0,4E1,1E2,8E0,2E0,1E2,1.2E3,3E0,2E0,6E1,2.6238531E1,5E2,6E0,8E0,1E0,-2.3758717E0,1.7052023E1,1.9593885E1,5.243649E1,6.9373703E0,2.2630255E1,8.5917845E0,6.874128E1,-8.6146555E0,1.0104833E1,-5.154256E0,5.51261E0,1.8478796E1,5.1433155E1],"split_indices":[272,117,102,214,272,100,105,213,272,117,0,108,272,272,281,0,0,0,0,0,0,0,0,0,0,0,0,0,0],"split_type":[0,0,0,0,0,0,0,0,0,0,0,0,0,0,0,0,0,0,0,0,0,0,0,0,0,0,0,0,0],"sum_hessian":[6.901E3,4.508E3,2.393E3,4.459E3,4.9E1,1.424E3,9.69E2,4.447E3,1.2E1,3E1,1.9E1,1.204E3,2.2E2,9.32E2,3.7E1,4.41E3,3.7E1,7E0,5E0,1.4E1,1.6E1,1.199E3,5E0,1.7E2,5E1,7.13E2,2.19E2,2.9E1,8E0],"tree_param":{"num_deleted":"0","num_feature":"285","num_nodes":"29","size_leaf_vector":"1"}},{"base_weights":[1.2570722E-1,-7.0810113E0,9.363484E1,-9.378043E0,2.4491077E2,7.758553E1,2.4546336E2,-3.166345E1,1.0047765E1,2.8183395E2,1.6672281E0,5.9781155E1,1.609753E2,6.521724E1,3.698878E2,-3.4076054E0,1.4235301E1,-3.0108434E-1,7.2064486E0,1.3841008E1,4.3794746E1,5.3440003E0,4.3028664E1,1.932224E1,-1.0413877E1,9.9727196E-1,1.46837435E1,5.5465473E1,1.8509726E1],"categories":[],"categories_nodes":[],"categories_segments":[],"categories_sizes":[],"default_left":[0,0,0,0,0,0,0,0,0,0,0,0,0,0,0,0,0,0,0,0,0,0,0,0,0,0,0,0,0],"id":21,"left_children":[1,3,5,7,9,11,13,15,17,19,-1,21,23,25,27,-1,-1,-1,-1,-1,-1,-1,-1,-1,-1,-1,-1,-1,-1],"loss_changes":[4.577077E6,3.6524185E6,1.165213E6,2.7060185E6,4.75657E5,6.451305E5,1.0075195E6,1.2269838E6,2.7051228E6,1.03651325E6,0E0,8.3454775E5,6.784075E5,8.8717E4,8.19201E5,0E0,0E0,0E0,0E0,0E0,0E0,0E0,0E0,0E0,0E0,0E0,0E0,0E0,0E0],"parents":[2147483647,0,0,1,1,2,2,3,3,4,4,5,5,6,6,7,7,8,8,9,9,11,11,12,12,13,13,14,14],"right_children":[2,4,6,8,10,12,14,16,18,20,-1,22,24,26,28,-1,-1,-1,-1,-1,-1,-1,-1,-1,-1,-1,-1,-1,-1],"split_conditions":[1E1,2E0,1E0,2E0,2.4E1,6E0,3.5E1,1E1,5.1E1,2.9E1,1.6672281E0,2.13E2,1.8E1,2E0,6.6666664E1,-3.4076054E0,1.4235301E1,-3.0108434E-1,7.2064486E0,1.3841008E1,4.3794746E1,5.3440003E0,4.3028664E1,1.932224E1,-1.0413877E1,9.9727196E-1,1.46837435E1,5.5465473E1,1.8509726E1],"split_indices":[116,214,280,272,209,270,116,117,270,270,0,116,228,272,116,0,0,0,0,0,0,0,0,0,0,0,0,0,0],"split_type":[0,0,0,0,0,0,0,0,0,0,0,0,0,0,0,0,0,0,0,0,0,0,0,0,0,0,0,0,0],"sum_hessian":[6.79E3,6.305E3,4.85E2,6.249E3,5.6E1,4.4E2,4.5E1,2.91E3,3.339E3,4.8E1,8E0,3.64E2,7.6E1,1.9E1,2.6E1,2.871E3,3.9E1,2.759E3,5.8E2,2.6E1,2.2E1,3.59E2,5E0,6.8E1,8E0,1.2E1,7E0,1.2E1,1.4E1],"tree_param":{"num_deleted":"0","num_feature":"285","num_nodes":"29","size_leaf_vector":"1"}},{"base_weights":[-1.8279094E0,-5.115275E0,1.4920078E2,-7.5475025E0,1.6984923E2,1.938782E2,7.300911E0,-1.30992155E1,6.783301E1,1.3584572E2,3.6603634E1,2.1200735E2,2.6645447E1,-4.365603E1,1.128528E1,-1.5316988E0,1.5155436E1,5.4567723E0,2.932826E1,1.1067322E1,4.278609E1,1.7936308E1,3.195933E1,-3.1063025E0,7.230336E0,-8.044357E0,8.624512E0],"categories":[],"categories_nodes":[],"categories_segments":[],"categories_sizes":[],"default_left":[0,0,0,0,0,0,0,0,0,0,0,0,0,0,0,0,0,0,0,0,0,0,0,0,0,0,0],"id":22,"left_children":[1,3,5,7,9,11,13,15,17,19,-1,21,23,25,-1,-1,-1,-1,-1,-1,-1,-1,-1,-1,-1,-1,-1],"loss_changes":[3.4026885E6,2.8554695E6,9.24184E5,2.7696245E6,5.640125E5,3.3087925E5,1.9855636E5,2.2528282E6,1.3417529E6,5.407071E5,0E0,2.938835E5,3.386414E4,1.2640646E5,0E0,0E0,0E0,0E0,0E0,0E0,0E0,0E0,0E0,0E0,0E0,0E0,0E0],"parents":[2147483647,0,0,1,1,2,2,3,3,4,4,5,5,6,6,7,7,8,8,9,9,11,11,12,12,13,13],"right_children":[2,4,6,8,10,12,14,16,18,20,-1,22,24,26,-1,-1,-1,-1,-1,-1,-1,-1,-1,-1,-1,-1,-1],"split_conditions":[3E1,2E0,9E2,1E1,2.5E1,1.6E1,1.5E3,5E1,8E0,1.2E1,3.6603634E1,5E0,2E2,1E0,1.128528E1,-1.5316988E0,1.5155436E1,5.4567723E0,2.932826E1,1.1067322E1,4.278609E1,1.7936308E1,3.195933E1,-3.1063025E0,7.230336E0,-8.044357E0,8.624512E0],"split_indices":[148,213,148,116,213,271,148,108,118,212,0,204,148,277,0,0,0,0,0,0,0,0,0,0,0,0,0],"split_type":[0,0,0,0,0,0,0,0,0,0,0,0,0,0,0,0,0,0,0,0,0,0,0,0,0,0,0],"sum_hessian":[6.851E3,6.706E3,1.45E2,6.615E3,9.1E1,1.1E2,3.5E1,6.162E3,4.53E2,7.9E1,1.2E1,9.9E1,1.1E1,2.4E1,1.1E1,6.081E3,8.1E1,4.29E2,2.4E1,7.4E1,5E0,7.8E1,2.1E1,5E0,6E0,1.9E1,5E0],"tree_param":{"num_deleted":"0","num_feature":"285","num_nodes":"27","size_leaf_vector":"1"}},{"base_weights":[1.0325062E0,-4.947093E0,8.580061E1,-1.3964202E1,4.1146965E1,8.111779E1,4.2115177E1,-1.7076487E1,1.1266206E2,9.656086E1,6.674014E0,6.750744E1,2.0150581E2,-1.9807669E0,1.2804927E1,1.5693171E1,-2.6434371E0,8.604193E0,3.6291454E1,-5.0689634E-2,4.655849E1,6.2109036E0,4.1525036E1,9.620984E-1,3.4135933E1],"categories":[],"categories_nodes":[],"categories_segments":[],"categories_sizes":[],"default_left":[0,0,0,0,0,0,0,0,0,0,0,0,0,0,0,0,0,0,0,0,0,0,0,0,0],"id":23,"left_children":[1,3,5,7,9,11,-1,13,15,17,19,21,23,-1,-1,-1,-1,-1,-1,-1,-1,-1,-1,-1,-1],"loss_changes":[3.4847128E6,2.6697835E6,6.7722475E5,2.1190132E6,2.00706E6,7.20455E5,0E0,2.0810735E6,7.984976E5,1.0978825E6,2.1389495E6,7.326214E5,1.204325E6,0E0,0E0,0E0,0E0,0E0,0E0,0E0,0E0,0E0,0E0,0E0,0E0],"parents":[2147483647,0,0,1,1,2,2,3,3,4,4,5,5,7,7,8,8,9,9,10,10,11,11,12,12],"right_children":[2,4,6,8,10,12,-1,14,16,18,20,22,24,-1,-1,-1,-1,-1,-1,-1,-1,-1,-1,-1,-1],"split_conditions":[3E0,5E0,5E2,2.5E1,1E2,1E0,4.2115177E1,4E0,9E2,1E0,2.1E3,2.4E1,3.5E1,-1.9807669E0,1.2804927E1,1.5693171E1,-2.6434371E0,8.604193E0,3.6291454E1,-5.0689634E-2,4.655849E1,6.2109036E0,4.1525036E1,9.620984E-1,3.4135933E1],"split_indices":[116,272,116,148,102,280,0,17,148,213,99,209,116,0,0,0,0,0,0,0,0,0,0,0,0],"split_type":[0,0,0,0,0,0,0,0,0,0,0,0,0,0,0,0,0,0,0,0,0,0,0,0,0],"sum_hessian":[6.873E3,6.421E3,4.52E2,5.371E3,1.05E3,4.47E2,5E0,5.243E3,1.28E2,4.02E2,6.48E2,4.03E2,4.4E1,5.147E3,9.6E1,9.7E1,3.1E1,3.88E2,1.4E1,6.39E2,9E0,3.98E2,5E0,1.9E1,2.5E1],"tree_param":{"num_deleted":"0","num_feature":"285","num_nodes":"25","size_leaf_vector":"1"}},{"base_weights":[7.2350716E-3,-5.4740353E0,7.347003E1,-6.234907E0,4.8081413E1,6.842312E1,4.5824894E1,-7.660359E0,2.453325E2,6.341381E1,3.921251E1,-2.195747E0,1.513171E0,1.8330275E1,4.761268E1,5.369636E0,2.1350471E1],"categories":[],"categories_nodes":[],"categories_segments":[],"categories_sizes":[],"default_left":[0,0,0,0,0,0,0,0,0,0,0,0,0,0,0,0,0],"id":24,"left_children":[1,3,5,7,-1,9,-1,11,13,15,-1,-1,-1,-1,-1,-1,-1],"loss_changes":[2.7663388E6,2.3684275E6,8.9495325E5,2.2911635E6,0E0,7.4049225E5,0E0,2.0692218E6,4.2810475E5,6.6819675E5,0E0,0E0,0E0,0E0,0E0,0E0,0E0],"parents":[2147483647,0,0,1,1,2,2,3,3,5,5,7,7,8,8,9,9],"right_children":[2,4,6,8,-1,10,-1,12,14,16,-1,-1,-1,-1,-1,-1,-1],"split_conditions":[1E1,5E0,2E0,9E2,4.8081413E1,4E1,4.5824894E1,4E0,1.01E2,8E0,3.921251E1,-2.195747E0,1.513171E0,1.8330275E1,4.761268E1,5.369636E0,2.1350471E1],"split_indices":[116,202,180,97,0,148,0,270,270,118,0,0,0,0,0,0,0],"split_type":[0,0,0,0,0,0,0,0,0,0,0,0,0,0,0,0,0],"sum_hessian":[6.868E3,6.392E3,4.76E2,6.383E3,9E0,4.71E2,5E0,6.348E3,3.5E1,4.65E2,6E0,3.901E3,2.447E3,2.9E1,6E0,4.38E2,2.7E1],"tree_param":{"num_deleted":"0","num_feature":"285","num_nodes":"17","size_leaf_vector":"1"}},{"base_weights":[7.515028E-1,-1.3512082E0,1.9063031E2,-8.548437E0,5.4852577E1,1.4017105E2,3.5454004E2,-1.1494367E1,1.1771587E2,4.601389E1,2.7104504E2,1.779747E2,-8.962412E0,1.7837685E1,6.477764E1,-1.2267874E0,4.429304E1,9.634576E0,5.0082577E1,9.707335E0,-5.7604588E-3,3.4208187E1,3.2933578E0,1.3663338E1,2.883083E1],"categories":[],"categories_nodes":[],"categories_segments":[],"categories_sizes":[],"default_left":[0,0,0,0,0,0,0,0,0,0,0,0,0,0,0,0,0,0,0,0,0,0,0,0,0],"id":25,"left_children":[1,3,5,7,9,11,13,15,17,19,21,23,-1,-1,-1,-1,-1,-1,-1,-1,-1,-1,-1,-1,-1],"loss_changes":[2.7339925E6,2.740225E6,5.7061075E5,2.2350078E6,1.4569775E6,5.284895E5,7.6262825E5,2.068393E6,1.0733808E6,1.7407706E6,4.961745E5,1.9323562E5,0E0,0E0,0E0,0E0,0E0,0E0,0E0,0E0,0E0,0E0,0E0,0E0,0E0],"parents":[2147483647,0,0,1,1,2,2,3,3,4,4,5,5,6,6,7,7,8,8,9,9,10,10,11,11],"right_children":[2,4,6,8,10,12,14,16,18,20,22,24,-1,-1,-1,-1,-1,-1,-1,-1,-1,-1,-1,-1,-1],"split_conditions":[2.5E1,6E0,3.5E1,3E1,1E3,2.5E1,1E0,8E1,1.5E2,1E2,1E2,7.5E1,-8.962412E0,1.7837685E1,6.477764E1,-1.2267874E0,4.429304E1,9.634576E0,5.0082577E1,9.707335E0,-5.7604588E-3,3.4208187E1,3.2933578E0,1.3663338E1,2.883083E1],"split_indices":[117,272,116,148,100,116,280,195,204,100,103,117,0,0,0,0,0,0,0,0,0,0,0,0,0],"split_type":[0,0,0,0,0,0,0,0,0,0,0,0,0,0,0,0,0,0,0,0,0,0,0,0,0],"sum_hessian":[6.846E3,6.772E3,7.4E1,6.004E3,7.68E2,5.8E1,1.6E1,5.868E3,1.36E2,7.39E2,2.9E1,5E1,8E0,1.1E1,5E0,5.859E3,9E0,1.3E2,6E0,3.5E2,3.89E2,2.2E1,7E0,3.8E1,1.2E1],"tree_param":{"num_deleted":"0","num_feature":"285","num_nodes":"25","size_leaf_vector":"1"}},{"base_weights":[-4.9107125E-1,-1.4469897E0,4.6548595E1,-2.6185238E0,2.5535463E2,-4.3373747E0,1.3310037E2,1.8737334E2,5.073811E1,-5.534665E-1,1.9544918E1,8.935322E0,2.7081099E1,9.396116E0,3.0621168E1],"categories":[],"categories_nodes":[],"categories_segments":[],"categories_sizes":[],"default_left":[0,0,0,0,0,0,0,0,0,0,0,0,0,0,0],"id":26,"left_children":[1,3,-1,5,7,9,11,13,-1,-1,-1,-1,-1,-1,-1],"loss_changes":[3.0461198E6,2.0536818E6,0E0,1.585485E6,4.36056E5,1.6061306E6,4.8788025E5,2.598525E5,0E0,0E0,0E0,0E0,0E0,0E0,0E0],"parents":[2147483647,0,0,1,1,3,3,4,4,5,5,6,6,7,7],"right_children":[2,4,-1,6,8,10,12,14,-1,-1,-1,-1,-1,-1,-1],"split_conditions":[2E1,1E3,4.6548595E1,1E1,1.4E1,5E2,3.5E1,1.7E3,5.073811E1,-5.534665E-1,1.9544918E1,8.935322E0,2.7081099E1,9.396116E0,3.0621168E1],"split_indices":[213,100,0,117,271,48,116,100,0,0,0,0,0,0,0],"split_type":[0,0,0,0,0,0,0,0,0,0,0,0,0,0,0],"sum_hessian":[6.836E3,6.823E3,1.3E1,6.793E3,3E1,6.709E3,8.4E1,2.5E1,5E0,6.67E3,3.9E1,6.5E1,1.9E1,1.5E1,1E1],"tree_param":{"num_deleted":"0","num_feature":"285","num_nodes":"15","size_leaf_vector":"1"}},{"base_weights":[2.7328427E0,-8.160246E-1,1.00219635E2,-3.402076E0,1.2252181E2,8.320459E1,3.1952347E2,-4.7520185E0,2.3201768E2,6.195964E1,2.3966606E2,1.049655E2,1.2351242E1,9.6706505E0,5.068378E1,-9.181304E-1,5.935125E0,3.1315374E1,-1.6044458E1,1.1411671E1,-2.0894668E0,3.894424E1,1.0947494E1,1.7648123E1,6.095174E0,-1.3797418E0,1.8989187E1],"categories":[],"categories_nodes":[],"categories_segments":[],"categories_sizes":[],"default_left":[0,0,0,0,0,0,0,0,0,0,0,0,0,0,0,0,0,0,0,0,0,0,0,0,0,0,0],"id":27,"left_children":[1,3,5,7,9,11,13,15,17,19,21,23,25,-1,-1,-1,-1,-1,-1,-1,-1,-1,-1,-1,-1,-1,-1],"loss_changes":[2.373766E6,2.1122375E6,8.72697E5,2.0623738E6,9.5000375E5,3.45616E5,6.6051125E5,1.8319042E6,1.228429E6,3.9563525E5,8.5434525E5,5.306434E5,2.533123E5,0E0,0E0,0E0,0E0,0E0,0E0,0E0,0E0,0E0,0E0,0E0,0E0,0E0,0E0],"parents":[2147483647,0,0,1,1,2,2,3,3,4,4,5,5,6,6,7,7,8,8,9,9,10,10,11,11,12,12],"right_children":[2,4,6,8,10,12,14,16,18,20,22,24,26,-1,-1,-1,-1,-1,-1,-1,-1,-1,-1,-1,-1,-1,-1],"split_conditions":[2E0,3E1,1E0,9E0,3E0,2.25E1,1E0,7E0,1E0,9E2,1.1E1,1.1E1,1E0,9.6706505E0,5.068378E1,-9.181304E-1,5.935125E0,3.1315374E1,-1.6044458E1,1.1411671E1,-2.0894668E0,3.894424E1,1.0947494E1,1.7648123E1,6.095174E0,-1.3797418E0,1.8989187E1],"split_indices":[118,148,209,213,272,118,204,272,137,148,271,271,280,0,0,0,0,0,0,0,0,0,0,0,0,0,0],"split_type":[0,0,0,0,0,0,0,0,0,0,0,0,0,0,0,0,0,0,0,0,0,0,0,0,0,0,0],"sum_hessian":[6.86E3,6.62E3,2.4E2,6.485E3,1.35E2,2.24E2,1.6E1,6.449E3,3.6E1,9E1,4.5E1,1.71E2,5.3E1,8E0,8E0,6.033E3,4.16E2,3E1,6E0,5.5E1,3.5E1,2E1,2.5E1,6.4E1,1.07E2,4.7E1,6E0],"tree_param":{"num_deleted":"0","num_feature":"285","num_nodes":"27","size_leaf_vector":"1"}},{"base_weights":[1.2140739E0,5.6163883E-1,4.988871E1,-1.4717218E0,1.4399243E2,-4.0475197E0,1.1073768E2,2.591174E2,4.1595978E1,-5.3830916E-1,1.9124365E1,1.6340578E1,1.753156E0,1.671399E1,8.291146E1,-5.062559E0,1.8014334E1],"categories":[],"categories_nodes":[],"categories_segments":[],"categories_sizes":[],"default_left":[0,0,0,0,0,0,0,0,0,0,0,0,0,0,0,0,0],"id":28,"left_children":[1,3,-1,5,7,9,11,13,15,-1,-1,-1,-1,-1,-1,-1,-1],"loss_changes":[2.2320275E6,2.0029486E6,0E0,1.9577509E6,1.1209074E6,1.727954E6,7.433015E5,2.220633E6,6.735266E5,0E0,0E0,0E0,0E0,0E0,0E0,0E0,0E0],"parents":[2147483647,0,0,1,1,3,3,4,4,5,5,6,6,7,7,8,8],"right_children":[2,4,-1,6,8,10,12,14,16,-1,-1,-1,-1,-1,-1,-1,-1],"split_conditions":[2.003E3,5E1,4.988871E1,2.5E1,1E2,4E0,5E2,5E1,1.5E2,-5.3830916E-1,1.9124365E1,1.6340578E1,1.753156E0,1.671399E1,8.291146E1,-5.062559E0,1.8014334E1],"split_indices":[270,108,0,148,107,28,148,113,106,0,0,0,0,0,0,0,0],"split_type":[0,0,0,0,0,0,0,0,0,0,0,0,0,0,0,0,0],"sum_hessian":[6.874E3,6.866E3,8E0,6.771E3,9.5E1,6.62E3,1.51E2,4.4E1,5.1E1,6.576E3,4.4E1,9.6E1,5.5E1,3.9E1,5E0,3.1E1,2E1],"tree_param":{"num_deleted":"0","num_feature":"285","num_nodes":"17","size_leaf_vector":"1"}},{"base_weights":[1.1161348E0,-1.683023E1,1.7066502E1,-1.7717422E1,4.6150997E1,1.5953491E1,4.6235275E1,-1.9894278E1,7.371448E1,1.4540971E1,3.328617E2,-2.0626805E0,2.3739841E1,8.4895194E-1,4.1543804E1,1.1717179E0,1.7041656E1,2.4762236E1,4.336569E1],"categories":[],"categories_nodes":[],"categories_segments":[],"categories_sizes":[],"default_left":[0,0,0,0,0,0,0,0,0,0,0,0,0,0,0,0,0,0,0],"id":29,"left_children":[1,3,5,7,-1,9,-1,11,13,15,17,-1,-1,-1,-1,-1,-1,-1,-1],"loss_changes":[1.9593898E6,1.375104E6,1.7887068E6,6.4155944E5,0E0,1.6138232E6,0E0,5.970816E5,1.6681409E6,1.5830209E6,3.00845E4,0E0,0E0,0E0,0E0,0E0,0E0,0E0,0E0],"parents":[2147483647,0,0,1,1,2,2,3,3,5,5,7,7,8,8,9,9,10,10],"right_children":[2,4,6,8,-1,10,-1,12,14,16,18,-1,-1,-1,-1,-1,-1,-1,-1],"split_conditions":[2E0,2.13E2,1.2E3,6E1,4.6150997E1,1E1,4.6235275E1,2.5E1,1E0,1.5E1,4E0,-2.0626805E0,2.3739841E1,8.4895194E-1,4.1543804E1,1.1717179E0,1.7041656E1,2.4762236E1,4.336569E1],"split_indices":[272,116,98,116,0,214,0,193,280,195,272,0,0,0,0,0,0,0,0],"split_type":[0,0,0,0,0,0,0,0,0,0,0,0,0,0,0,0,0,0,0],"sum_hessian":[6.843E3,3.22E3,3.623E3,3.215E3,5E0,3.615E3,8E0,3.141E3,7.4E1,3.6E3,1.5E1,3.133E3,8E0,6.3E1,1.1E1,3.537E3,6.3E1,1E1,5E0],"tree_param":{"num_deleted":"0","num_feature":"285","num_nodes":"19","size_leaf_vector":"1"}},{"base_weights":[1.2883928E-1,-3.2777343E0,9.4144035E1,-4.9966435E0,1.3333165E2,8.031004E1,2.7007556E2,-7.261052E0,9.9694626E1,2.634289E2,-4.022117E1,1.0248336E2,7.2544312E0,5.02142E1,1.3153607E2,-8.467671E-1,1.9427666E1,1.333669E1,-2.083118E0,1.4708107E1,4.7966022E1,-6.3995576E0,5.0988708E0,1.1209837E1,-8.304223E0,-4.7717705E0,2.4840637E1,2.0252726E0,2.0813093E1],"categories":[],"categories_nodes":[],"categories_segments":[],"categories_sizes":[],"default_left":[0,0,0,0,0,0,0,0,0,0,0,0,0,0,0,0,0,0,0,0,0,0,0,0,0,0,0,0,0],"id":30,"left_children":[1,3,5,7,9,11,13,15,17,19,21,23,25,-1,27,-1,-1,-1,-1,-1,-1,-1,-1,-1,-1,-1,-1,-1,-1],"loss_changes":[2.1890315E6,1.5495331E6,5.59997E5,1.5451948E6,1.8620524E6,3.60491E5,4.805065E5,1.5526422E6,5.628344E5,1.1118792E6,8.132763E4,3.1434388E5,7.144551E5,0E0,9.806955E4,0E0,0E0,0E0,0E0,0E0,0E0,0E0,0E0,0E0,0E0,0E0,0E0,0E0,0E0],"parents":[2147483647,0,0,1,1,2,2,3,3,4,4,5,5,6,6,7,7,8,8,9,9,10,10,11,11,12,12,14,14],"right_children":[2,4,6,8,10,12,14,16,18,20,22,24,26,-1,28,-1,-1,-1,-1,-1,-1,-1,-1,-1,-1,-1,-1,-1,-1],"split_conditions":[2E0,5E1,1E0,4E1,1E2,2.25E1,5E0,9E2,9E2,5E1,1E0,1E0,3.5E1,5.02142E1,5.8E1,-8.467671E-1,1.9427666E1,1.333669E1,-2.083118E0,1.4708107E1,4.7966022E1,-6.3995576E0,5.0988708E0,1.1209837E1,-8.304223E0,-4.7717705E0,2.4840637E1,2.0252726E0,2.0813093E1],"split_indices":[118,113,209,148,112,118,118,53,148,115,276,185,116,0,204,0,0,0,0,0,0,0,0,0,0,0,0,0,0],"split_type":[0,0,0,0,0,0,0,0,0,0,0,0,0,0,0,0,0,0,0,0,0,0,0,0,0,0,0,0,0],"sum_hessian":[6.833E3,6.595E3,2.38E2,6.514E3,8.1E1,2.22E2,1.6E1,6.377E3,1.37E2,4.6E1,3.5E1,1.7E2,5.2E1,5E0,1.1E1,6.34E3,3.7E1,1.07E2,3E1,3.1E1,1.5E1,2.8E1,7E0,1.62E2,8E0,4.3E1,9E0,5E0,6E0],"tree_param":{"num_deleted":"0","num_feature":"285","num_nodes":"29","size_leaf_vector":"1"}},{"base_weights":[-7.2526455E-1,-1.3730178E0,4.4441853E1,-4.2393427E0,9.327925E1,-4.7212186E0,5.317511E1,1.037849E2,-1.1880757E1,-5.198919E-1,5.263133E1,9.112304E0,2.5916708E1],"categories":[],"categories_nodes":[],"categories_segments":[],"categories_sizes":[],"default_left":[0,0,0,0,0,0,0,0,0,0,0,0,0],"id":31,"left_children":[1,3,-1,5,7,9,-1,11,-1,-1,-1,-1,-1],"loss_changes":[1.9844122E6,1.8645262E6,0E0,1.7252442E6,4.6240838E5,1.6934834E6,0E0,3.560975E5,0E0,0E0,0E0,0E0,0E0],"parents":[2147483647,0,0,1,1,3,3,4,4,5,5,7,7],"right_children":[2,4,-1,6,8,10,-1,12,-1,-1,-1,-1,-1],"split_conditions":[9E0,3E0,4.4441853E1,1E1,5.5E1,5E2,5.317511E1,1.1E1,-1.1880757E1,-5.198919E-1,5.263133E1,9.112304E0,2.5916708E1],"split_indices":[215,118,0,202,137,108,0,209,0,0,0,0,0],"split_type":[0,0,0,0,0,0,0,0,0,0,0,0,0],"sum_hessian":[6.879E3,6.87E3,9E0,6.669E3,2.01E2,6.664E3,5E0,1.92E2,9E0,6.659E3,5E0,1.79E2,1.3E1],"tree_param":{"num_deleted":"0","num_feature":"285","num_nodes":"13","size_leaf_vector":"1"}},{"base_weights":[1.6782343E0,-2.6648386E0,5.966381E1,-5.186357E0,9.777923E1,5.495226E1,4.2271774E1,-7.8584332E0,9.047304E1,7.612487E1,1.7998767E2,5.0230137E1,3.6348404E1,-8.655433E-1,3.1518473E1,1.0328811E1,-1.2489685E1,6.0123186E0,1.9052914E1,2.467123E1,6.3489184E0,1.2039316E1,3.5708928E0],"categories":[],"categories_nodes":[],"categories_segments":[],"categories_sizes":[],"default_left":[0,0,0,0,0,0,0,0,0,0,0,0,0,0,0,0,0,0,0,0,0,0,0],"id":32,"left_children":[1,3,5,7,9,11,-1,13,15,17,19,21,-1,-1,-1,-1,-1,-1,-1,-1,-1,-1,-1],"loss_changes":[1.7348025E6,1.6237244E6,7.978335E5,1.5990352E6,2.6578525E5,6.737811E5,0E0,1.5691471E6,4.82097E5,2.1920812E5,2.3308262E5,4.735425E5,0E0,0E0,0E0,0E0,0E0,0E0,0E0,0E0,0E0,0E0,0E0],"parents":[2147483647,0,0,1,1,2,2,3,3,4,4,5,5,7,7,8,8,9,9,10,10,11,11],"right_children":[2,4,6,8,10,12,-1,14,16,18,20,22,-1,-1,-1,-1,-1,-1,-1,-1,-1,-1,-1],"split_conditions":[3E0,7E0,2E0,3E0,5.8E1,1E1,4.2271774E1,1.8E3,1E2,1E0,1.2E2,3E1,3.6348404E1,-8.655433E-1,3.1518473E1,1.0328811E1,-1.2489685E1,6.0123186E0,1.9052914E1,2.467123E1,6.3489184E0,1.2039316E1,3.5708928E0],"split_indices":[116,212,180,17,204,272,0,99,103,276,204,116,0,0,0,0,0,0,0,0,0,0,0],"split_type":[0,0,0,0,0,0,0,0,0,0,0,0,0,0,0,0,0,0,0,0,0,0,0],"sum_hessian":[6.887E3,6.408E3,4.79E2,6.252E3,1.56E2,4.74E2,5E0,6.083E3,1.69E2,1.25E2,3.1E1,4.68E2,6E0,6.069E3,1.4E1,1.6E2,9E0,1.11E2,1.4E1,1.9E1,1.2E1,7.9E1,3.89E2],"tree_param":{"num_deleted":"0","num_feature":"285","num_nodes":"23","size_leaf_vector":"1"}},{"base_weights":[5.564249E-1,-2.599699E-2,5.7125042E1,-1.0847367E0,2.4939937E2,-1.5515537E0,5.3025604E1,3.3795267E2,-2.5297143E0,-3.1181344E-1,1.5655596E1,4.2695747E1,2.944698E0],"categories":[],"categories_nodes":[],"categories_segments":[],"categories_sizes":[],"default_left":[0,0,0,0,0,0,0,0,0,0,0,0,0],"id":33,"left_children":[1,3,-1,5,7,9,-1,11,-1,-1,-1,-1,-1],"loss_changes":[2.2821682E6,1.8118356E6,0E0,1.6954248E6,7.139824E5,1.6914551E6,0E0,5.91514E5,0E0,0E0,0E0,0E0,0E0],"parents":[2147483647,0,0,1,1,3,3,4,4,5,5,7,7],"right_children":[2,4,-1,6,8,10,-1,12,-1,-1,-1,-1,-1],"split_conditions":[2.003E3,5E1,5.7125042E1,5E2,1E0,2E0,5.3025604E1,1E2,-2.5297143E0,-3.1181344E-1,1.5655596E1,4.2695747E1,2.944698E0],"split_indices":[270,195,0,108,279,214,0,99,0,0,0,0,0],"split_type":[0,0,0,0,0,0,0,0,0,0,0,0,0],"sum_hessian":[6.865E3,6.859E3,6E0,6.831E3,2.8E1,6.826E3,5E0,2.1E1,7E0,6.76E3,6.6E1,1.6E1,5E0],"tree_param":{"num_deleted":"0","num_feature":"285","num_nodes":"13","size_leaf_vector":"1"}},{"base_weights":[8.228953E-1,-9.156277E-1,1.2856744E2,-1.6718352E0,2.8552783E2,2.5856055E2,2.9895378E1,-4.147451E0,7.7796326E1,1.6252613E1,4.189642E1,1.6244458E2,6.884723E1,-1.5321921E1,2.5768433E1,-5.3079003E-1,1.7750639E1,1.1903692E1,-3.7592149E0,8.960769E0,3.0659376E1,-6.618423E0,6.747412E0],"categories":[],"categories_nodes":[],"categories_segments":[],"categories_sizes":[],"default_left":[0,0,0,0,0,0,0,0,0,0,0,0,0,0,0,0,0,0,0,0,0,0,0],"id":34,"left_children":[1,3,5,7,9,11,13,15,17,-1,-1,19,-1,21,-1,-1,-1,-1,-1,-1,-1,-1,-1],"loss_changes":[1.5382912E6,1.4807948E6,1.1851522E6,1.3414489E6,2.273395E5,1.5410165E6,5.601482E5,1.3947522E6,9.847646E5,0E0,0E0,3.295057E5,0E0,1.981808E5,0E0,0E0,0E0,0E0,0E0,0E0,0E0,0E0,0E0],"parents":[2147483647,0,0,1,1,2,2,3,3,4,4,5,5,6,6,7,7,8,8,11,11,13,13],"right_children":[2,4,6,8,10,12,14,16,18,-1,-1,20,-1,22,-1,-1,-1,-1,-1,-1,-1,-1,-1],"split_conditions":[5E1,1E3,1E2,3E0,1.8E3,5E1,1E0,4E0,2.25E1,1.6252613E1,4.189642E1,4E1,6.884723E1,1E2,2.5768433E1,-5.3079003E-1,1.7750639E1,1.1903692E1,-3.7592149E0,8.960769E0,3.0659376E1,-6.618423E0,6.747412E0],"split_indices":[108,48,107,118,50,113,278,34,118,0,0,107,0,102,0,0,0,0,0,0,0,0,0],"split_type":[0,0,0,0,0,0,0,0,0,0,0,0,0,0,0,0,0,0,0,0,0,0,0],"sum_hessian":[6.925E3,6.833E3,9.2E1,6.816E3,1.7E1,3.9E1,5.3E1,6.611E3,2.05E2,1E1,7E0,3.3E1,6E0,4.5E1,8E0,6.57E3,4.1E1,1.51E2,5.4E1,2.3E1,1E1,2.8E1,1.7E1],"tree_param":{"num_deleted":"0","num_feature":"285","num_nodes":"23","size_leaf_vector":"1"}},{"base_weights":[8.422966E-1,-1.0480599E0,1.2635742E2,-5.163419E0,5.4278988E1,1.4242908E2,-1.5452727E1,-5.6044297E0,4.5875854E1,4.953564E1,3.6026333E1,1.0834085E2,3.7485892E2,-6.2669086E-1,2.922962E1,8.134417E0,1.989732E0,8.8770895E0,3.544785E1,9.388589E0,6.401843E1],"categories":[],"categories_nodes":[],"categories_segments":[],"categories_sizes":[],"default_left":[0,0,0,0,0,0,0,0,0,0,0,0,0,0,0,0,0,0,0,0,0],"id":35,"left_children":[1,3,5,7,9,11,-1,13,-1,15,-1,17,19,-1,-1,-1,-1,-1,-1,-1,-1],"loss_changes":[1.6311149E6,1.5424291E6,4.8246612E5,1.29254E6,6.628559E5,7.279301E5,0E0,1.2451548E6,0E0,4.3487525E5,0E0,3.827863E5,8.344871E5,0E0,0E0,0E0,0E0,0E0,0E0,0E0,0E0],"parents":[2147483647,0,0,1,1,2,2,3,3,4,4,5,5,7,7,9,9,11,11,12,12],"right_children":[2,4,6,8,10,12,-1,14,-1,16,-1,18,20,-1,-1,-1,-1,-1,-1,-1,-1],"split_conditions":[2E0,1E1,9E0,3E0,2E2,6E0,-1.5452727E1,2E0,4.5875854E1,5E1,3.6026333E1,1.2E1,7E0,-6.2669086E-1,2.922962E1,8.134417E0,1.989732E0,8.8770895E0,3.544785E1,9.388589E0,6.401843E1],"split_indices":[213,116,272,217,148,272,0,29,0,116,0,212,213,0,0,0,0,0,0,0,0],"split_type":[0,0,0,0,0,0,0,0,0,0,0,0,0,0,0,0,0,0,0,0,0],"sum_hessian":[6.873E3,6.772E3,1.01E2,6.304E3,4.68E2,9.6E1,5E0,6.299E3,5E0,4.62E2,6E0,8.5E1,1.1E1,6.286E3,1.3E1,2.22E2,2.4E2,8E1,5E0,6E0,5E0],"tree_param":{"num_deleted":"0","num_feature":"285","num_nodes":"21","size_leaf_vector":"1"}},{"base_weights":[-1.6883007E0,-3.9525807E0,9.016936E1,-4.385988E0,4.7981136E1,7.337042E1,1.9602742E2,-5.1831775E0,2.4894942E2,3.6461166E1,1.0501275E2,1.26999084E2,3.589365E1,-5.672988E-1,4.0329338E1,5.1910564E1,1.3208148E1,1.7885922E0,6.235845E0,1.1664791E1,-2.8002808E0,6.4928E0,2.0639664E1],"categories":[],"categories_nodes":[],"categories_segments":[],"categories_sizes":[],"default_left":[0,0,0,0,0,0,0,0,0,0,0,0,0,0,0,0,0,0,0,0,0,0,0],"id":36,"left_children":[1,3,5,7,-1,9,11,13,15,17,19,21,-1,-1,-1,-1,-1,-1,-1,-1,-1,-1,-1],"loss_changes":[1.4265539E6,1.4054061E6,2.7903738E5,1.3519736E6,0E0,1.64348E5,2.0181294E5,1.3363959E6,5.944604E5,3.1595953E4,1.2243606E5,7.038003E4,0E0,0E0,0E0,0E0,0E0,0E0,0E0,0E0,0E0,0E0,0E0],"parents":[2147483647,0,0,1,1,2,2,3,3,5,5,6,6,7,7,8,8,9,9,10,10,11,11],"right_children":[2,4,6,8,-1,10,12,14,16,18,20,22,-1,-1,-1,-1,-1,-1,-1,-1,-1,-1,-1],"split_conditions":[3E0,7E0,1.2E1,6E2,4.7981136E1,2E0,1.5E1,1.2E1,4E2,6E0,1E2,2E1,3.589365E1,-5.672988E-1,4.0329338E1,5.1910564E1,1.3208148E1,1.7885922E0,6.235845E0,1.1664791E1,-2.8002808E0,6.4928E0,2.0639664E1],"split_indices":[17,202,17,101,0,272,271,32,102,17,101,17,0,0,0,0,0,0,0,0,0,0,0],"split_type":[0,0,0,0,0,0,0,0,0,0,0,0,0,0,0,0,0,0,0,0,0,0,0],"sum_hessian":[6.856E3,6.692E3,1.64E2,6.687E3,5E0,1.43E2,2.1E1,6.667E3,2E1,6.7E1,7.6E1,1.6E1,5E0,6.66E3,7E0,5E0,1.5E1,4E1,2.7E1,7E1,6E0,1E1,6E0],"tree_param":{"num_deleted":"0","num_feature":"285","num_nodes":"23","size_leaf_vector":"1"}},{"base_weights":[-5.354834E-1,-2.3961053E0,1.4933955E2,-2.8185675E0,4.740478E1,1.0626902E2,3.7639642E2,-3.211264E0,4.3982708E1,5.260934E1,1.8401926E2,1.9052305E1,5.6149487E1,-4.4613943E-1,1.3183444E1,9.354404E0,-3.2767358E0,3.3974304E1,9.69564E0],"categories":[],"categories_nodes":[],"categories_segments":[],"categories_sizes":[],"default_left":[0,0,0,0,0,0,0,0,0,0,0,0,0,0,0,0,0,0,0],"id":37,"left_children":[1,3,5,7,-1,9,11,13,-1,15,17,-1,-1,-1,-1,-1,-1,-1,-1],"loss_changes":[1.9102754E6,1.3631938E6,7.814755E5,1.176645E6,0E0,2.9070662E5,3.4028562E5,1.1411679E6,0E0,1.5683945E5,3.6023475E5,0E0,0E0,0E0,0E0,0E0,0E0,0E0,0E0],"parents":[2147483647,0,0,1,1,2,2,3,3,5,5,6,6,7,7,9,9,10,10],"right_children":[2,4,6,8,-1,10,12,14,-1,16,18,-1,-1,-1,-1,-1,-1,-1,-1],"split_conditions":[3E0,1E3,2E1,1E1,4.740478E1,4E0,5E0,1.1E1,4.3982708E1,3E0,5E0,1.9052305E1,5.6149487E1,-4.4613943E-1,1.3183444E1,9.354404E0,-3.2767358E0,3.3974304E1,9.69564E0],"split_indices":[213,55,213,202,0,272,272,272,0,272,272,0,0,0,0,0,0,0,0],"split_type":[0,0,0,0,0,0,0,0,0,0,0,0,0,0,0,0,0,0,0],"sum_hessian":[6.848E3,6.765E3,8.3E1,6.76E3,5E0,7.1E1,1.2E1,6.755E3,5E0,4.3E1,2.8E1,7E0,5E0,6.694E3,6.1E1,2.9E1,1.4E1,9E0,1.9E1],"tree_param":{"num_deleted":"0","num_feature":"285","num_nodes":"19","size_leaf_vector":"1"}},{"base_weights":[-4.5786276E-1,-1.2481188E1,1.7196857E1,-1.5304553E1,1.1970553E2,1.5441584E1,2.4849208E2,-1.7251225E1,1.4288684E2,3.5639767E2,-2.0182724E1,1.3508633E1,2.3660428E2,3.6814517E2,8.037659E-1,-1.8377074E0,2.624039E1,1.697875E1,-1.6202408E0,2.8173681E1,5.8279537E1,-6.3417053E0,8.018913E0,1.2279228E0,3.496294E1,1.1217016E1,5.227771E1,1.7754313E1,4.889038E1],"categories":[],"categories_nodes":[],"categories_segments":[],"categories_sizes":[],"default_left":[0,0,0,0,0,0,0,0,0,0,0,0,0,0,0,0,0,0,0,0,0,0,0,0,0,0,0,0,0],"id":38,"left_children":[1,3,5,7,9,11,13,15,17,19,21,23,25,27,-1,-1,-1,-1,-1,-1,-1,-1,-1,-1,-1,-1,-1,-1,-1],"loss_changes":[1.4655036E6,1.5346114E6,1.1317072E6,1.2410265E6,2.8546915E6,1.1839618E6,6.012344E5,1.2560321E6,2.124515E5,3.7670275E5,2.4375842E5,1.1337381E6,7.95992E5,2.3543438E5,0E0,0E0,0E0,0E0,0E0,0E0,0E0,0E0,0E0,0E0,0E0,0E0,0E0,0E0,0E0],"parents":[2147483647,0,0,1,1,2,2,3,3,4,4,5,5,6,6,7,7,8,8,9,9,10,10,11,11,12,12,13,13],"right_children":[2,4,6,8,10,12,14,16,18,20,22,24,26,28,-1,-1,-1,-1,-1,-1,-1,-1,-1,-1,-1,-1,-1,-1,-1],"split_conditions":[2E0,5E1,4E0,5E1,1E2,1E1,3.9E1,2E0,1E0,1E2,2E2,5E0,3.3E1,8E0,8.037659E-1,-1.8377074E0,2.624039E1,1.697875E1,-1.6202408E0,2.8173681E1,5.8279537E1,-6.3417053E0,8.018913E0,1.2279228E0,3.496294E1,1.1217016E1,5.227771E1,1.7754313E1,4.889038E1],"split_indices":[270,114,215,117,114,214,270,40,278,102,114,202,270,215,0,0,0,0,0,0,0,0,0,0,0,0,0,0,0],"split_type":[0,0,0,0,0,0,0,0,0,0,0,0,0,0,0,0,0,0,0,0,0,0,0,0,0,0,0,0,0],"sum_hessian":[6.902E3,4.106E3,2.796E3,4.021E3,8.5E1,2.776E3,2E1,3.973E3,4.8E1,3.1E1,5.4E1,2.753E3,2.3E1,1.3E1,7E0,3.958E3,1.5E1,4.1E1,7E0,2.5E1,6E0,3.8E1,1.6E1,2.744E3,9E0,1.7E1,6E0,6E0,7E0],"tree_param":{"num_deleted":"0","num_feature":"285","num_nodes":"29","size_leaf_vector":"1"}},{"base_weights":[1.9548732E0,2.1504195E-1,1.4254726E2,-1.1446268E1,2.0049389E1,1.6600299E2,1.6733962E0,-1.352577E1,1.27831024E2,-6.53298E0,3.7350544E1,9.904969E1,2.2666017E2,4.499618E0,-5.6369214E0,-1.4518883E0,2.0650717E1,3.0955427E1,1.3008599E-2,-8.447666E-1,3.0952173E1,3.495158E0,3.3650723E1,1.4537017E1,-3.5920537E0,1.119384E1,3.874562E1],"categories":[],"categories_nodes":[],"categories_segments":[],"categories_sizes":[],"default_left":[0,0,0,0,0,0,0,0,0,0,0,0,0,0,0,0,0,0,0,0,0,0,0,0,0,0,0],"id":39,"left_children":[1,3,5,7,9,11,13,15,17,19,21,23,25,-1,-1,-1,-1,-1,-1,-1,-1,-1,-1,-1,-1,-1,-1],"loss_changes":[1.6809089E6,1.5704875E6,2.7728338E5,1.2401761E6,1.1564471E6,2.6995562E5,3.5225773E4,9.238308E5,1.4619522E6,6.029191E5,1.0812432E6,2.302896E5,6.3916075E5,0E0,0E0,0E0,0E0,0E0,0E0,0E0,0E0,0E0,0E0,0E0,0E0,0E0,0E0],"parents":[2147483647,0,0,1,1,2,2,3,3,4,4,5,5,6,6,7,7,8,8,9,9,10,10,11,11,12,12],"right_children":[2,4,6,8,10,12,14,16,18,20,22,24,26,-1,-1,-1,-1,-1,-1,-1,-1,-1,-1,-1,-1,-1,-1],"split_conditions":[1E1,4E0,1E0,5E1,2E0,2E0,1E2,1.6E3,1E2,1E0,7E1,1.6E1,1.2E1,4.499618E0,-5.6369214E0,-1.4518883E0,2.0650717E1,3.0955427E1,1.3008599E-2,-8.447666E-1,3.0952173E1,3.495158E0,3.3650723E1,1.4537017E1,-3.5920537E0,1.119384E1,3.874562E1],"split_indices":[117,270,278,113,272,272,117,102,113,219,195,271,271,0,0,0,0,0,0,0,0,0,0,0,0,0,0],"split_type":[0,0,0,0,0,0,0,0,0,0,0,0,0,0,0,0,0,0,0,0,0,0,0,0,0,0,0],"sum_hessian":[6.871E3,6.788E3,8.3E1,4.275E3,2.513E3,7.1E1,1.2E1,4.213E3,6.2E1,9.91E2,1.522E3,3.5E1,3.6E1,7E0,5E0,4.195E3,1.8E1,2.5E1,3.7E1,9.86E2,5E0,1.511E3,1.1E1,2.6E1,9E0,2.2E1,1.4E1],"tree_param":{"num_deleted":"0","num_feature":"285","num_nodes":"27","size_leaf_vector":"1"}},{"base_weights":[9.003024E-1,-1.9052167E-1,1.7607079E2,-9.0964055E-1,2.60519E2,2.073375E2,-5.1296835E0,-2.2345817E0,1.382028E2,1.5167312E1,3.6460636E1,1.3205768E2,4.731296E1,-2.7003303E-1,3.949206E1,1.7070967E1,-8.302981E0,1.9628431E1,5.0463657E0],"categories":[],"categories_nodes":[],"categories_segments":[],"categories_sizes":[],"default_left":[0,0,0,0,0,0,0,0,0,0,0,0,0,0,0,0,0,0,0],"id":40,"left_children":[1,3,5,7,9,11,-1,13,15,-1,-1,17,-1,-1,-1,-1,-1,-1,-1],"loss_changes":[1.3276586E6,1.2949819E6,3.1632438E5,1.2698761E6,1.5995912E5,6.9785325E5,0E0,1.263332E6,4.816265E5,0E0,0E0,1.525505E5,0E0,0E0,0E0,0E0,0E0,0E0,0E0],"parents":[2147483647,0,0,1,1,2,2,3,3,4,4,5,5,7,7,8,8,11,11],"right_children":[2,4,6,8,10,12,-1,14,16,-1,-1,18,-1,-1,-1,-1,-1,-1,-1],"split_conditions":[9E0,1E2,4E0,1.1E1,2E0,5E0,-5.1296835E0,8E0,1.5E2,1.5167312E1,3.6460636E1,1.1E1,4.731296E1,-2.7003303E-1,3.949206E1,1.7070967E1,-8.302981E0,1.9628431E1,5.0463657E0],"split_indices":[213,180,209,272,272,272,0,142,109,0,0,213,0,0,0,0,0,0,0],"split_type":[0,0,0,0,0,0,0,0,0,0,0,0,0,0,0,0,0,0,0],"sum_hessian":[6.947E3,6.905E3,4.2E1,6.887E3,1.8E1,3.7E1,5E0,6.823E3,6.4E1,1E1,8E0,3E1,7E0,6.816E3,7E0,5.6E1,8E0,1.6E1,1.4E1],"tree_param":{"num_deleted":"0","num_feature":"285","num_nodes":"19","size_leaf_vector":"1"}},{"base_weights":[1.9765559E-1,-3.0349898E-1,4.9230324E1,-1.5406252E0,1.6202757E2,-3.9246988E0,8.402373E1,5.7700768E1,2.9106134E2,-4.5919108E-1,2.9102232E1,4.345996E0,2.1302443E1,1.6656471E1,-6.2267494E0,4.4820385E1,-3.1829596E-1],"categories":[],"categories_nodes":[],"categories_segments":[],"categories_sizes":[],"default_left":[0,0,0,0,0,0,0,0,0,0,0,0,0,0,0,0,0],"id":41,"left_children":[1,3,-1,5,7,9,11,13,15,-1,-1,-1,-1,-1,-1,-1,-1],"loss_changes":[1.6969015E6,1.380714E6,0E0,1.3921651E6,6.832129E5,1.30784E6,9.588015E5,4.0217812E5,1.064907E6,0E0,0E0,0E0,0E0,0E0,0E0,0E0,0E0],"parents":[2147483647,0,0,1,1,3,3,4,4,5,5,6,6,7,7,8,8],"right_children":[2,4,-1,6,8,10,12,14,16,-1,-1,-1,-1,-1,-1,-1,-1],"split_conditions":[2.003E3,6E1,4.9230324E1,4E0,1.22E2,2E1,5E0,1.3E1,1.5E2,-4.5919108E-1,2.9102232E1,4.345996E0,2.1302443E1,1.6656471E1,-6.2267494E0,4.4820385E1,-3.1829596E-1],"split_indices":[270,269,0,212,270,213,209,271,269,0,0,0,0,0,0,0,0],"split_type":[0,0,0,0,0,0,0,0,0,0,0,0,0,0,0,0,0],"sum_hessian":[6.879E3,6.873E3,6E0,6.822E3,5.1E1,6.638E3,1.84E2,2.9E1,2.2E1,6.624E3,1.4E1,1.41E2,4.3E1,1.5E1,1.4E1,1.4E1,8E0],"tree_param":{"num_deleted":"0","num_feature":"285","num_nodes":"17","size_leaf_vector":"1"}},{"base_weights":[1.536814E0,-1.3095793E0,7.118342E1,-1.9656479E0,3.0779236E2,6.7541016E1,5.2533237E1,-2.460974E0,3.607213E1,1.3301208E1,4.222511E1,2.5083952E2,3.780947E1,-3.0309197E-1,3.1002684E1,1.1008724E1,3.5243263E1,-4.3318133E0,8.740546E0],"categories":[],"categories_nodes":[],"categories_segments":[],"categories_sizes":[],"default_left":[0,0,0,0,0,0,0,0,0,0,0,0,0,0,0,0,0,0,0],"id":42,"left_children":[1,3,5,7,9,-1,11,13,-1,-1,-1,15,17,-1,-1,-1,-1,-1,-1],"loss_changes":[1.3632025E6,1.3404526E6,3.0071318E6,1.1854881E6,2.2390725E5,0E0,7.584274E5,1.1739134E6,0E0,0E0,0E0,2.18592E5,9.935926E5,0E0,0E0,0E0,0E0,0E0,0E0],"parents":[2147483647,0,0,1,1,2,2,3,3,4,4,6,6,7,7,11,11,12,12],"right_children":[2,4,6,8,10,-1,12,14,-1,-1,-1,16,18,-1,-1,-1,-1,-1,-1],"split_conditions":[3.5E1,1.8E3,4E1,2E0,7E0,6.7541016E1,5E1,8E0,3.607213E1,1.3301208E1,4.222511E1,3E0,6E1,-3.0309197E-1,3.1002684E1,1.1008724E1,3.5243263E1,-4.3318133E0,8.740546E0],"split_indices":[116,99,116,217,272,0,116,25,0,0,0,272,116,0,0,0,0,0,0],"split_type":[0,0,0,0,0,0,0,0,0,0,0,0,0,0,0,0,0,0,0],"sum_hessian":[6.875E3,6.606E3,2.69E2,6.593E3,1.3E1,7E0,2.62E2,6.585E3,8E0,6E0,7E0,1.7E1,2.45E2,6.574E3,1.1E1,8E0,9E0,9.3E1,1.52E2],"tree_param":{"num_deleted":"0","num_feature":"285","num_nodes":"19","size_leaf_vector":"1"}},{"base_weights":[1.2972445E0,5.163647E-1,2.1476913E2,-1.535416E0,7.727081E1,2.5427742E2,4.727997E0,-4.2512937E0,6.1767975E1,2.509706E2,5.541207E0,1.5281053E2,4.6556507E1,-4.9547085E-1,2.7610556E1,8.672676E0,-4.9066067E0,1.9005877E1,3.4676178E1,-1.9530696E0,1.4065241E1,7.605794E0,2.552631E1],"categories":[],"categories_nodes":[],"categories_segments":[],"categories_sizes":[],"default_left":[0,0,0,0,0,0,0,0,0,0,0,0,0,0,0,0,0,0,0,0,0,0,0],"id":43,"left_children":[1,3,5,7,9,11,-1,13,15,17,19,21,-1,-1,-1,-1,-1,-1,-1,-1,-1,-1,-1],"loss_changes":[1.143423E6,1.0766744E6,1.53408E5,1.1451061E6,2.2163855E6,3.5763075E5,0E0,1.2607336E6,7.6221694E5,2.375055E5,4.3295888E5,9.853772E4,0E0,0E0,0E0,0E0,0E0,0E0,0E0,0E0,0E0,0E0,0E0],"parents":[2147483647,0,0,1,1,2,2,3,3,4,4,5,5,7,7,8,8,9,9,10,10,11,11],"right_children":[2,4,6,8,10,12,-1,14,16,18,20,22,-1,-1,-1,-1,-1,-1,-1,-1,-1,-1,-1],"split_conditions":[1.2E3,4E1,8E0,1E0,1E2,7E0,4.727997E0,1E0,2.25E1,6E0,1.5E2,2.5E3,4.6556507E1,-4.9547085E-1,2.7610556E1,8.672676E0,-4.9066067E0,1.9005877E1,3.4676178E1,-1.9530696E0,1.4065241E1,7.605794E0,2.552631E1],"split_indices":[47,107,272,118,107,272,0,219,118,272,108,47,0,0,0,0,0,0,0,0,0,0,0],"split_type":[0,0,0,0,0,0,0,0,0,0,0,0,0,0,0,0,0,0,0,0,0,0,0],"sum_hessian":[6.859E3,6.835E3,2.4E1,6.658E3,1.77E2,1.9E1,5E0,6.385E3,2.73E2,5.1E1,1.26E2,1.4E1,5E0,6.37E3,1.5E1,2.23E2,5E1,3.3E1,1.8E1,1.07E2,1.9E1,9E0,5E0],"tree_param":{"num_deleted":"0","num_feature":"285","num_nodes":"23","size_leaf_vector":"1"}},{"base_weights":[2.9182138E0,9.610115E-1,1.552315E2,5.321261E-1,4.1537212E1,1.1845214E2,4.2658737E1,-2.244795E-1,2.3247633E2,2.4929808E2,7.208993E1,-1.5329447E-1,1.177526E1,1.3902806E1,2.9876423E1,1.2193103E1,3.2404854E1,1.7612063E0,1.5659389E1],"categories":[],"categories_nodes":[],"categories_segments":[],"categories_sizes":[],"default_left":[0,0,0,0,0,0,0,0,0,0,0,0,0,0,0,0,0,0,0],"id":44,"left_children":[1,3,5,7,-1,9,-1,11,13,15,17,-1,-1,-1,-1,-1,-1,-1,-1],"loss_changes":[2.044275E6,1.2033998E6,8.177556E5,1.1874195E6,0E0,4.5520025E5,0E0,1.0413987E6,9.474225E4,1.5090325E5,2.6885416E5,0E0,0E0,0E0,0E0,0E0,0E0,0E0,0E0],"parents":[2147483647,0,0,1,1,2,2,3,3,5,5,7,7,8,8,9,9,10,10],"right_children":[2,4,6,8,-1,10,-1,12,14,16,18,-1,-1,-1,-1,-1,-1,-1,-1],"split_conditions":[5E1,1.2E1,5E1,1E2,4.1537212E1,1E2,4.2658737E1,2E0,2E0,3E0,6E0,-1.5329447E-1,1.177526E1,1.3902806E1,2.9876423E1,1.2193103E1,3.2404854E1,1.7612063E0,1.5659389E1],"split_indices":[108,32,113,180,0,108,0,214,272,272,272,0,0,0,0,0,0,0,0],"split_type":[0,0,0,0,0,0,0,0,0,0,0,0,0,0,0,0,0,0,0],"sum_hessian":[6.857E3,6.771E3,8.6E1,6.765E3,6E0,7.7E1,9E0,6.744E3,2.1E1,1.9E1,5.8E1,6.671E3,7.3E1,1E1,1.1E1,8E0,1.1E1,3.6E1,2.2E1],"tree_param":{"num_deleted":"0","num_feature":"285","num_nodes":"19","size_leaf_vector":"1"}},{"base_weights":[2.153879E0,1.7741363E0,4.351444E1,3.7809393E-1,1.1024389E2,-2.7295268E-1,2.314112E2,8.449893E1,1.8713286E2,-7.3566E-2,2.8297077E1,1.3272219E1,2.5717712E1,3.3438453E-1,9.3911295E0,1.2738862E1,3.1526203E1],"categories":[],"categories_nodes":[],"categories_segments":[],"categories_sizes":[],"default_left":[0,0,0,0,0,0,0,0,0,0,0,0,0,0,0,0,0],"id":45,"left_children":[1,3,-1,5,7,9,11,13,15,-1,-1,-1,-1,-1,-1,-1,-1],"loss_changes":[1.1258675E6,1.03678844E6,0E0,1.01700756E6,1.5640425E5,8.8393856E5,1.4180375E4,5.0864656E4,1.2059375E5,0E0,0E0,0E0,0E0,0E0,0E0,0E0,0E0],"parents":[2147483647,0,0,1,1,3,3,4,4,5,5,6,6,7,7,8,8],"right_children":[2,4,-1,6,8,10,12,14,16,-1,-1,-1,-1,-1,-1,-1,-1],"split_conditions":[5E2,6E0,4.351444E1,2E0,1.2E1,1E1,1.1E1,9E0,1.5E1,-7.3566E-2,2.8297077E1,1.3272219E1,2.5717712E1,3.3438453E-1,9.3911295E0,1.2738862E1,3.1526203E1],"split_indices":[113,17,0,40,17,32,271,271,271,0,0,0,0,0,0,0,0],"split_type":[0,0,0,0,0,0,0,0,0,0,0,0,0,0,0,0,0],"sum_hessian":[6.851E3,6.846E3,5E0,6.76E3,8.6E1,6.742E3,1.8E1,6.6E1,2E1,6.732E3,1E1,5E0,1.3E1,7E0,5.9E1,1.5E1,5E0],"tree_param":{"num_deleted":"0","num_feature":"285","num_nodes":"17","size_leaf_vector":"1"}},{"base_weights":[-6.776651E-1,-1.1654074E0,4.2112125E1,-1.6278391E0,3.9840565E1,-3.2292821E0,1.0119714E2,-6.6969943E-1,4.3956394E0,7.7388816E0,1.752406E1],"categories":[],"categories_nodes":[],"categories_segments":[],"categories_sizes":[],"default_left":[0,0,0,0,0,0,0,0,0,0,0],"id":46,"left_children":[1,3,-1,5,-1,7,9,-1,-1,-1,-1],"loss_changes":[1.4249596E6,1.2787324E6,0E0,1.1381852E6,0E0,1.1137716E6,1.733005E5,0E0,0E0,0E0,0E0],"parents":[2147483647,0,0,1,1,3,3,5,5,6,6],"right_children":[2,4,-1,6,-1,8,10,-1,-1,-1,-1],"split_conditions":[5E0,3E1,4.2112125E1,5E0,3.9840565E1,3E0,1.2E1,-6.6969943E-1,4.3956394E0,7.7388816E0,1.752406E1],"split_indices":[202,28,0,17,0,116,17,0,0,0,0],"split_type":[0,0,0,0,0,0,0,0,0,0,0],"sum_hessian":[6.923E3,6.916E3,7E0,6.909E3,7E0,6.804E3,1.05E2,6.339E3,4.65E2,8.1E1,2.4E1],"tree_param":{"num_deleted":"0","num_feature":"285","num_nodes":"11","size_leaf_vector":"1"}},{"base_weights":[-5.3387797E-1,-1.8743742E0,1.7277959E2,-2.238623E0,4.1410664E1,9.22413E1,4.402653E2,-2.6010675E0,4.1144207E1,2.3159279E2,-4.496881E1,8.005756E1,6.853284E0,-3.6126673E-1,1.4372731E1,3.3766313E0,3.2809414E1,-8.632331E0,-1.9915164E0],"categories":[],"categories_nodes":[],"categories_segments":[],"categories_sizes":[],"default_left":[0,0,0,0,0,0,0,0,0,0,0,0,0,0,0,0,0,0,0],"id":47,"left_children":[1,3,5,7,-1,9,11,13,-1,15,17,-1,-1,-1,-1,-1,-1,-1,-1],"loss_changes":[1.6043029E6,1.0391461E6,1.1011598E6,1.02768425E6,0E0,8.134726E5,1.552403E6,1.01331144E6,0E0,3.898225E5,2.1074637E4,0E0,0E0,0E0,0E0,0E0,0E0,0E0,0E0],"parents":[2147483647,0,0,1,1,2,2,3,3,5,5,6,6,7,7,9,9,10,10],"right_children":[2,4,6,8,-1,10,12,14,-1,16,18,-1,-1,-1,-1,-1,-1,-1,-1],"split_conditions":[6E1,3E2,1.82E2,8E2,4.1410664E1,9E1,2E2,2E0,4.1144207E1,6.1E1,1.2E1,8.005756E1,6.853284E0,-3.6126673E-1,1.4372731E1,3.3766313E0,3.2809414E1,-8.632331E0,-1.9915164E0],"split_indices":[269,116,270,55,0,269,269,28,0,270,271,0,0,0,0,0,0,0,0],"split_type":[0,0,0,0,0,0,0,0,0,0,0,0,0,0,0,0,0,0,0],"sum_hessian":[6.903E3,6.851E3,5.2E1,6.846E3,5E0,4.1E1,1.1E1,6.841E3,5E0,2E1,2.1E1,5E0,6E0,6.795E3,4.6E1,7E0,1.3E1,7E0,1.4E1],"tree_param":{"num_deleted":"0","num_feature":"285","num_nodes":"19","size_leaf_vector":"1"}},{"base_weights":[-9.680873E-2,-4.5177472E-1,4.0712444E1,-8.0215037E-1,4.0127083E1,-1.5931257E0,1.7395273E2,-2.1822906E-1,2.2208342E1,1.9768648E0,2.1809938E1],"categories":[],"categories_nodes":[],"categories_segments":[],"categories_sizes":[],"default_left":[0,0,0,0,0,0,0,0,0,0,0],"id":48,"left_children":[1,3,-1,5,-1,7,9,-1,-1,-1,-1],"loss_changes":[9.958422E5,9.691305E5,0E0,9.51001E5,0E0,9.0293006E5,2.0669644E5,0E0,0E0,0E0,0E0],"parents":[2147483647,0,0,1,1,3,3,5,5,6,6],"right_children":[2,4,-1,6,-1,8,10,-1,-1,-1,-1],"split_conditions":[1E3,1.5E3,4.0712444E1,8E2,4.0127083E1,1E2,1E2,-2.1822906E-1,2.2208342E1,1.9768648E0,2.1809938E1],"split_indices":[146,101,0,48,0,180,53,0,0,0,0],"split_type":[0,0,0,0,0,0,0,0,0,0,0],"sum_hessian":[6.887E3,6.882E3,5E0,6.877E3,5E0,6.847E3,3E1,6.83E3,1.7E1,7E0,2.3E1],"tree_param":{"num_deleted":"0","num_feature":"285","num_nodes":"11","size_leaf_vector":"1"}},{"base_weights":[-2.2143975E-1,-6.321359E-1,4.0422863E1,-1.1804595E0,2.8964835E2,-3.7788994E0,5.963828E1,1.6656904E1,4.054794E1,-1.4458323E0,1.1565542E0,3.9119077E0,1.1784917E1],"categories":[],"categories_nodes":[],"categories_segments":[],"categories_sizes":[],"default_left":[0,0,0,0,0,0,0,0,0,0,0,0,0],"id":49,"left_children":[1,3,-1,5,7,9,11,-1,-1,-1,-1,-1,-1],"loss_changes":[1.1462215E6,1.0974845E6,0E0,1.0876562E6,1.17792875E5,1.0817078E6,3.322222E5,0E0,0E0,0E0,0E0,0E0,0E0],"parents":[2147483647,0,0,1,1,3,3,4,4,5,5,6,6],"right_children":[2,4,-1,6,8,10,12,-1,-1,-1,-1,-1,-1],"split_conditions":[6E0,2E0,4.0422863E1,1E0,8E0,2E0,7E0,1.6656904E1,4.054794E1,-1.4458323E0,1.1565542E0,3.9119077E0,1.1784917E1],"split_indices":[240,29,0,17,29,270,17,0,0,0,0,0,0],"split_type":[0,0,0,0,0,0,0,0,0,0,0,0,0],"sum_hessian":[6.898E3,6.892E3,6E0,6.88E3,1.2E1,6.599E3,2.81E2,7E0,5E0,3.891E3,2.708E3,2.09E2,7.2E1],"tree_param":{"num_deleted":"0","num_feature":"285","num_nodes":"13","size_leaf_vector":"1"}},{"base_weights":[-2.47734E-1,-2.1299481E0,8.72315E1,-2.5740283E0,3.7182972E1,2.8963608E2,4.652427E0,-2.9817202E0,3.895275E1,4.551949E0,3.4573647E1,-2.314672E1,1.0931956E2,-3.369362E-1,3.6958046E1,-4.4532294E0,1.2087995E1,-2.2295873E-1,4.0715557E1],"categories":[],"categories_nodes":[],"categories_segments":[],"categories_sizes":[],"default_left":[0,0,0,0,0,0,0,0,0,0,0,0,0,0,0,0,0,0,0],"id":50,"left_children":[1,3,5,7,-1,9,11,13,-1,-1,-1,15,17,-1,-1,-1,-1,-1,-1],"loss_changes":[1.1335038E6,1.1200898E6,2.4222378E6,1.0773165E6,0E0,5.59454E5,3.0513475E5,9.726189E5,0E0,0E0,0E0,2.6103072E5,7.3182144E5,0E0,0E0,0E0,0E0,0E0,0E0],"parents":[2147483647,0,0,1,1,2,2,3,3,5,5,6,6,7,7,11,11,12,12],"right_children":[2,4,6,8,-1,10,12,14,-1,-1,-1,16,18,-1,-1,-1,-1,-1,-1],"split_conditions":[5E1,2.003E3,1E2,1.5E2,3.7182972E1,4E1,1.5E2,6E0,3.895275E1,4.551949E0,3.4573647E1,1.1E1,1E0,-3.369362E-1,3.6958046E1,-4.4532294E0,1.2087995E1,-2.2295873E-1,4.0715557E1],"split_indices":[110,270,110,108,0,107,108,240,0,0,0,272,278,0,0,0,0,0,0],"split_type":[0,0,0,0,0,0,0,0,0,0,0,0,0,0,0,0,0,0,0],"sum_hessian":[6.882E3,6.738E3,1.44E2,6.731E3,7E0,4.1E1,1.03E2,6.725E3,6E0,8E0,3.3E1,8.2E1,2.1E1,6.719E3,6E0,7.2E1,1E1,1.6E1,5E0],"tree_param":{"num_deleted":"0","num_feature":"285","num_nodes":"19","size_leaf_vector":"1"}},{"base_weights":[-2.1810862E-1,-1.6362522E0,1.3217732E2,-3.6134028E0,8.39054E1,9.523267E1,4.6690792E1,-4.37947E0,2.0845038E2,7.3545135E1,2.909645E1,5.033618E1,2.0600612E2,-4.7527394E-1,4.0906216E1,7.8918414E0,4.1556828E1,1.1638019E1,3.1176087E-1,8.0757265E0,-1.811411E1,1.4360788E1,2.924591E1],"categories":[],"categories_nodes":[],"categories_segments":[],"categories_sizes":[],"default_left":[0,0,0,0,0,0,0,0,0,0,0,0,0,0,0,0,0,0,0,0,0,0,0],"id":51,"left_children":[1,3,5,7,9,11,-1,13,15,17,-1,19,21,-1,-1,-1,-1,-1,-1,-1,-1,-1,-1],"loss_changes":[1.29329E6,1.1529156E6,8.582899E5,1.0831882E6,3.0895975E5,3.2284412E5,0E0,1.026509E6,6.110853E5,4.4611856E5,0E0,3.5967612E5,6.0496312E4,0E0,0E0,0E0,0E0,0E0,0E0,0E0,0E0,0E0,0E0],"parents":[2147483647,0,0,1,1,2,2,3,3,4,4,5,5,7,7,8,8,9,9,11,11,12,12],"right_children":[2,4,6,8,10,12,-1,14,16,18,-1,20,22,-1,-1,-1,-1,-1,-1,-1,-1,-1,-1],"split_conditions":[2.5E1,4E1,4E0,1.3E1,3E0,7.5E1,4.6690792E1,1.5E3,2E0,5E2,2.909645E1,1E0,1.5E1,-4.7527394E-1,4.0906216E1,7.8918414E0,4.1556828E1,1.1638019E1,3.1176087E-1,8.0757265E0,-1.811411E1,1.4360788E1,2.924591E1],"split_indices":[117,148,272,187,116,117,0,101,272,148,0,281,271,0,0,0,0,0,0,0,0,0,0],"split_type":[0,0,0,0,0,0,0,0,0,0,0,0,0,0,0,0,0,0,0,0,0,0,0],"sum_hessian":[6.886E3,6.814E3,7.2E1,6.661E3,1.53E2,6.6E1,6E0,6.638E3,2.3E1,1.47E2,6E0,4.8E1,1.8E1,6.633E3,5E0,1.5E1,8E0,9.1E1,5.6E1,4.3E1,5E0,1.2E1,6E0],"tree_param":{"num_deleted":"0","num_feature":"285","num_nodes":"23","size_leaf_vector":"1"}},{"base_weights":[1.2144581E0,3.565975E-2,1.1956182E2,-8.320742E-1,1.6377124E2,1.7233249E2,-4.8887398E1,-1.7908689E0,1.4627466E2,2.5462724E2,3.428704E1,1.1475899E2,4.3465496E1,5.389206E0,-1.2622222E1,-2.639772E-1,1.6597012E1,1.08159895E1,2.8248102E1,9.686174E0,2.9787512E1,-5.0088816E0,1.832616E1,1.3549242E1,-3.9134793E0],"categories":[],"categories_nodes":[],"categories_segments":[],"categories_sizes":[],"default_left":[0,0,0,0,0,0,0,0,0,0,0,0,0,0,0,0,0,0,0,0,0,0,0,0,0],"id":52,"left_children":[1,3,5,7,9,11,13,15,17,19,21,23,-1,-1,-1,-1,-1,-1,-1,-1,-1,-1,-1,-1,-1],"loss_changes":[9.619012E5,9.702512E5,6.12889E5,9.5838175E5,4.1478862E5,7.354661E5,1.4192572E5,9.6172456E5,1.9787169E5,1.14430625E5,2.1029705E5,1.4569525E5,0E0,0E0,0E0,0E0,0E0,0E0,0E0,0E0,0E0,0E0,0E0,0E0,0E0],"parents":[2147483647,0,0,1,1,2,2,3,3,4,4,5,5,6,6,7,7,8,8,9,9,10,10,11,11],"right_children":[2,4,6,8,10,12,14,16,18,20,22,24,-1,-1,-1,-1,-1,-1,-1,-1,-1,-1,-1,-1,-1],"split_conditions":[2E0,1E1,5.65E1,4E0,1E2,3.9E1,1E0,3E0,3E1,2E1,2E0,1E0,4.3465496E1,5.389206E0,-1.2622222E1,-2.639772E-1,1.6597012E1,1.08159895E1,2.8248102E1,9.686174E0,2.9787512E1,-5.0088816E0,1.832616E1,1.3549242E1,-3.9134793E0],"split_indices":[214,80,270,28,80,270,209,26,28,80,272,282,0,0,0,0,0,0,0,0,0,0,0,0,0],"split_type":[0,0,0,0,0,0,0,0,0,0,0,0,0,0,0,0,0,0,0,0,0,0,0,0,0],"sum_hessian":[6.894E3,6.827E3,6.7E1,6.792E3,3.5E1,5.1E1,1.6E1,6.749E3,4.3E1,2E1,1.5E1,4.3E1,8E0,7E0,9E0,6.716E3,3.3E1,3.5E1,8E0,5E0,1.5E1,1E1,5E0,3.8E1,5E0],"tree_param":{"num_deleted":"0","num_feature":"285","num_nodes":"25","size_leaf_vector":"1"}},{"base_weights":[-1.0546684E0,-1.9850606E0,2.1231943E2,-2.32903E0,3.9242E1,1.4710544E2,3.4814037E1,-1.203504E1,1.1729613E1,2.2085895E2,1.6032708E0,-1.2804115E0,2.7270765E1,1.0775366E0,2.776504E1,6.36709E0,3.0111109E1],"categories":[],"categories_nodes":[],"categories_segments":[],"categories_sizes":[],"default_left":[0,0,0,0,0,0,0,0,0,0,0,0,0,0,0,0,0],"id":53,"left_children":[1,3,5,7,-1,9,-1,11,13,15,-1,-1,-1,-1,-1,-1,-1],"loss_changes":[1.3718086E6,9.341415E5,2.145095E5,9.381213E5,0E0,2.0913466E5,0E0,8.941171E5,7.0954975E5,1.5743344E5,0E0,0E0,0E0,0E0,0E0,0E0,0E0],"parents":[2147483647,0,0,1,1,2,2,3,3,5,5,7,7,8,8,9,9],"right_children":[2,4,6,8,-1,10,-1,12,14,16,-1,-1,-1,-1,-1,-1,-1],"split_conditions":[1E3,4E2,1.8E3,2E0,3.9242E1,1E2,3.4814037E1,1.55E3,6E0,7E0,1.6032708E0,-1.2804115E0,2.7270765E1,1.0775366E0,2.776504E1,6.36709E0,3.0111109E1],"split_indices":[53,108,50,270,0,46,0,97,200,272,0,0,0,0,0,0,0],"split_type":[0,0,0,0,0,0,0,0,0,0,0,0,0,0,0,0,0],"sum_hessian":[6.907E3,6.878E3,2.9E1,6.873E3,5E0,2.1E1,8E0,4.066E3,2.807E3,1.3E1,8E0,4.056E3,1E1,2.798E3,9E0,5E0,8E0],"tree_param":{"num_deleted":"0","num_feature":"285","num_nodes":"17","size_leaf_vector":"1"}},{"base_weights":[1.3134204E0,8.073111E-1,2.9175287E1,4.5448756E-1,4.05479E1,7.3974974E-2,3.7427036E1,-3.1482443E-2,3.3399483E1],"categories":[],"categories_nodes":[],"categories_segments":[],"categories_sizes":[],"default_left":[0,0,0,0,0,0,0,0,0],"id":54,"left_children":[1,3,-1,5,-1,7,-1,-1,-1],"loss_changes":[1.0140239E6,9.8341125E5,0E0,9.7916375E5,0E0,8.930637E5,0E0,0E0,0E0],"parents":[2147483647,0,0,1,1,3,3,5,5],"right_children":[2,4,-1,6,-1,8,-1,-1,-1],"split_conditions":[8E0,1E3,2.9175287E1,3E0,4.05479E1,8E0,3.7427036E1,-3.1482443E-2,3.3399483E1],"split_indices":[25,55,0,217,0,142,0,0,0],"split_type":[0,0,0,0,0,0,0,0,0],"sum_hessian":[6.899E3,6.888E3,1.1E1,6.883E3,5E0,6.877E3,6E0,6.87E3,7E0],"tree_param":{"num_deleted":"0","num_feature":"285","num_nodes":"9","size_leaf_vector":"1"}},{"base_weights":[-1.5805197E0,-2.4153125E0,2.4852686E2,-2.8310509E0,4.0671917E1,3.5637375E2,7.26885E0,-3.3363574E0,2.644606E1,1.9324179E1,4.5456753E1,-3.9930123E-1,1.4653594E1],"categories":[],"categories_nodes":[],"categories_segments":[],"categories_sizes":[],"default_left":[0,0,0,0,0,0,0,0,0,0,0,0,0],"id":55,"left_children":[1,3,5,7,-1,9,-1,11,-1,-1,-1,-1,-1],"loss_changes":[1.4435334E6,1.1729211E6,4.10259E5,9.305292E5,0E0,1.36418E5,0E0,6.7679025E5,0E0,0E0,0E0,0E0,0E0],"parents":[2147483647,0,0,1,1,2,2,3,3,5,5,7,7],"right_children":[2,4,6,8,-1,10,-1,12,-1,-1,-1,-1,-1],"split_conditions":[4E0,1E1,3.9E1,2.8E1,4.0671917E1,9E0,7.26885E0,5E1,2.644606E1,1.9324179E1,4.5456753E1,-3.9930123E-1,1.4653594E1],"split_indices":[215,32,270,193,0,215,0,66,0,0,0,0,0],"split_type":[0,0,0,0,0,0,0,0,0,0,0,0,0],"sum_hessian":[6.91E3,6.888E3,2.2E1,6.882E3,6E0,1.3E1,9E0,6.87E3,1.2E1,6E0,7E0,6.841E3,2.9E1],"tree_param":{"num_deleted":"0","num_feature":"285","num_nodes":"13","size_leaf_vector":"1"}},{"base_weights":[3.326741E-2,-4.3348473E-1,4.0277786E1,-1.2023826E0,2.2961955E2,-2.2343848E0,1.6689516E2,2.976946E2,-1.287557E0,-2.720297E-1,2.7447626E1,2.157136E1,-1.0801326E1,1.4275713E1,5.2077393E1],"categories":[],"categories_nodes":[],"categories_segments":[],"categories_sizes":[],"default_left":[0,0,0,0,0,0,0,0,0,0,0,0,0,0,0],"id":56,"left_children":[1,3,-1,5,7,9,11,13,-1,-1,-1,-1,-1,-1,-1],"loss_changes":[1.2991296E6,1.221329E6,0E0,1.1940682E6,3.83514E5,9.2043275E5,5.86965E5,5.47796E5,0E0,0E0,0E0,0E0,0E0,0E0,0E0],"parents":[2147483647,0,0,1,1,3,3,4,4,5,5,6,6,7,7],"right_children":[2,4,-1,6,8,10,12,14,-1,-1,-1,-1,-1,-1,-1],"split_conditions":[2.003E3,4E0,4.0277786E1,5E0,1.7E1,2.4E1,7.1E1,9E0,-1.287557E0,-2.720297E-1,2.7447626E1,2.157136E1,-1.0801326E1,1.4275713E1,5.2077393E1],"split_indices":[270,215,0,214,215,187,270,215,0,0,0,0,0,0,0],"split_type":[0,0,0,0,0,0,0,0,0,0,0,0,0,0,0],"sum_hessian":[6.909E3,6.902E3,7E0,6.88E3,2.2E1,6.839E3,4.1E1,1.7E1,5E0,6.828E3,1.1E1,3.5E1,6E0,1.1E1,6E0],"tree_param":{"num_deleted":"0","num_feature":"285","num_nodes":"15","size_leaf_vector":"1"}},{"base_weights":[5.0212896E-1,-1.3074893E0,8.156722E1,-2.3587341E0,1.1463156E2,2.3595592E2,6.1220047E1,-3.7107358E0,8.760105E1,8.58222E1,2.5009619E1,2.853729E0,3.4649905E2,7.934666E1,-1.2816881E2,-5.822986E-1,4.798787E0,3.209936E1,-3.5828927E0,6.0227323E0,1.9857302E1,1.9663132E1,4.3861694E1,5.309335E0,2.3837627E1,-1.7343786E1,-5.399344E0],"categories":[],"categories_nodes":[],"categories_segments":[],"categories_sizes":[],"default_left":[0,0,0,0,0,0,0,0,0,0,0,0,0,0,0,0,0,0,0,0,0,0,0,0,0,0,0],"id":57,"left_children":[1,3,5,7,9,11,13,15,17,19,-1,-1,21,23,25,-1,-1,-1,-1,-1,-1,-1,-1,-1,-1,-1,-1],"loss_changes":[1.00101944E6,8.138215E5,4.536195E5,8.0500125E5,2.1269519E5,3.7989988E5,4.6675578E5,7.121566E5,2.8346492E6,1.352185E5,0E0,0E0,6.5614625E4,4.9670025E5,3.0929688E4,0E0,0E0,0E0,0E0,0E0,0E0,0E0,0E0,0E0,0E0,0E0,0E0],"parents":[2147483647,0,0,1,1,2,2,3,3,4,4,5,5,6,6,7,7,8,8,9,9,12,12,13,13,14,14],"right_children":[2,4,6,8,10,12,14,16,18,20,-1,-1,22,24,26,-1,-1,-1,-1,-1,-1,-1,-1,-1,-1,-1,-1],"split_conditions":[4E1,4E2,9E0,5E1,1.6E1,5.1E1,6E0,1E0,1E2,2E3,2.5009619E1,2.853729E0,2.01E2,5E0,2E2,-5.822986E-1,4.798787E0,3.209936E1,-3.5828927E0,6.0227323E0,1.9857302E1,1.9663132E1,4.3861694E1,5.309335E0,2.3837627E1,-1.7343786E1,-5.399344E0],"split_indices":[148,47,271,114,271,270,209,17,114,47,0,0,270,204,148,0,0,0,0,0,0,0,0,0,0,0,0],"split_type":[0,0,0,0,0,0,0,0,0,0,0,0,0,0,0,0,0,0,0,0,0,0,0,0,0,0,0],"sum_hessian":[6.822E3,6.674E3,1.48E2,6.615E3,5.9E1,1.6E1,1.32E2,6.518E3,9.7E1,5E1,9E0,6E0,1E1,1.21E2,1.1E1,6.263E3,2.55E2,3.3E1,6.4E1,4.2E1,8E0,5E0,5E0,1.05E2,1.6E1,6E0,5E0],"tree_param":{"num_deleted":"0","num_feature":"285","num_nodes":"27","size_leaf_vector":"1"}},{"base_weights":[8.446571E-1,-4.8716113E-1,1.0138033E2,-1.7305099E0,1.02458954E2,1.1975956E2,-1.7895195E1,-3.3918304E0,7.182215E1,1.1915562E2,-2.967255E0,4.173611E1,2.5011987E2,-3.9588988E-1,2.1776426E1,2.818488E1,-1.9533987E-1,9.352488E0,2.9102705E1,1.4194257E0,1.3924489E1,3.227659E1,5.802209E0],"categories":[],"categories_nodes":[],"categories_segments":[],"categories_sizes":[],"default_left":[0,0,0,0,0,0,0,0,0,0,0,0,0,0,0,0,0,0,0,0,0,0,0],"id":58,"left_children":[1,3,5,7,9,11,-1,13,15,17,-1,19,21,-1,-1,-1,-1,-1,-1,-1,-1,-1,-1],"loss_changes":[9.319604E5,8.7952306E5,4.9028975E5,8.298224E5,1.8444031E5,8.642809E5,0E0,8.3358875E5,2.324775E6,2.943608E5,0E0,1.4573002E5,4.27837E5,0E0,0E0,0E0,0E0,0E0,0E0,0E0,0E0,0E0,0E0],"parents":[2147483647,0,0,1,1,2,2,3,3,4,4,5,5,7,7,8,8,9,9,11,11,12,12],"right_children":[2,4,6,8,10,12,-1,14,16,18,-1,20,22,-1,-1,-1,-1,-1,-1,-1,-1,-1,-1],"split_conditions":[2E0,1E1,2E2,5E1,6E0,4E0,-1.7895195E1,1E2,1E2,4E0,-2.967255E0,3.8E1,1E2,-3.9588988E-1,2.1776426E1,2.818488E1,-1.9533987E-1,9.352488E0,2.9102705E1,1.4194257E0,1.3924489E1,3.227659E1,5.802209E0],"split_indices":[213,117,137,109,270,272,0,180,109,272,0,270,104,0,0,0,0,0,0,0,0,0,0],"split_type":[0,0,0,0,0,0,0,0,0,0,0,0,0,0,0,0,0,0,0,0,0,0,0],"sum_hessian":[6.959E3,6.869E3,9E1,6.788E3,8.1E1,8.5E1,5E0,6.639E3,1.49E2,7.2E1,9E0,5.4E1,3.1E1,6.623E3,1.6E1,3.8E1,1.11E2,6.4E1,8E0,4.3E1,1.1E1,2.2E1,9E0],"tree_param":{"num_deleted":"0","num_feature":"285","num_nodes":"23","size_leaf_vector":"1"}},{"base_weights":[-5.293304E-1,-3.1414645E0,6.1939083E1,-3.5763316E0,3.1920256E1,5.1574867E1,3.0976044E2,-4.1620026E0,2.2566576E2,5.867744E1,-2.2264668E1,4.7901134E1,8.888282E0,-4.8823673E-1,1.54913225E1,3.1858353E1,8.131033E0,6.5660834E0,-1.0727493E1],"categories":[],"categories_nodes":[],"categories_segments":[],"categories_sizes":[],"default_left":[0,0,0,0,0,0,0,0,0,0,0,0,0,0,0,0,0,0,0],"id":59,"left_children":[1,3,5,7,-1,9,11,13,15,17,-1,-1,-1,-1,-1,-1,-1,-1,-1],"loss_changes":[1.1342669E6,9.364013E5,7.006284E5,8.956504E5,0E0,5.369896E5,3.68645E5,7.625653E5,2.0212012E5,3.1183725E5,0E0,0E0,0E0,0E0,0E0,0E0,0E0,0E0,0E0],"parents":[2147483647,0,0,1,1,2,2,3,3,5,5,6,6,7,7,8,8,9,9],"right_children":[2,4,6,8,-1,10,12,14,16,18,-1,-1,-1,-1,-1,-1,-1,-1,-1],"split_conditions":[1E0,5E0,1.5E1,1E0,3.1920256E1,6E2,1.26E2,1E3,1.1E1,5.5E1,-2.2264668E1,4.7901134E1,8.888282E0,-4.8823673E-1,1.54913225E1,3.1858353E1,8.131033E0,6.5660834E0,-1.0727493E1],"split_indices":[118,202,209,219,0,97,270,53,271,137,0,0,0,0,0,0,0,0,0],"split_type":[0,0,0,0,0,0,0,0,0,0,0,0,0,0,0,0,0,0,0],"sum_hessian":[6.949E3,6.671E3,2.78E2,6.663E3,8E0,2.68E2,1E1,6.647E3,1.6E1,2.62E2,6E0,5E0,5E0,6.618E3,2.9E1,9E0,7E0,2.52E2,1E1],"tree_param":{"num_deleted":"0","num_feature":"285","num_nodes":"19","size_leaf_vector":"1"}},{"base_weights":[1.8201401E0,-1.8911252E0,3.9761963E1,-2.5009573E0,2.5164055E2,2.971644E1,2.3331973E2,-3.6042016E0,1.00640114E2,4.478136E1,2.4012425E0,2.5303082E1,4.491816E1,2.9769788E2,-7.3809137E0,-5.5349785E-1,5.7505054E0,1.2198823E1,-4.811887E0,2.269761E0,2.3422043E1,4.1536423E1,1.1018033E1],"categories":[],"categories_nodes":[],"categories_segments":[],"categories_sizes":[],"default_left":[0,0,0,0,0,0,0,0,0,0,0,0,0,0,0,0,0,0,0,0,0,0,0],"id":60,"left_children":[1,3,5,7,9,11,13,15,17,-1,-1,19,-1,21,-1,-1,-1,-1,-1,-1,-1,-1,-1],"loss_changes":[9.656243E5,9.66489E5,1.1810882E6,7.096145E5,6.5906444E5,1.0660616E6,6.151446E5,7.280703E5,2.1546769E5,0E0,0E0,3.0876122E5,0E0,5.058475E5,0E0,0E0,0E0,0E0,0E0,0E0,0E0,0E0,0E0],"parents":[2147483647,0,0,1,1,2,2,3,3,4,4,5,5,6,6,7,7,8,8,11,11,13,13],"right_children":[2,4,6,8,10,12,14,16,18,-1,-1,20,-1,22,-1,-1,-1,-1,-1,-1,-1,-1,-1],"split_conditions":[1E0,7E2,8E0,7E0,8E2,4.5E1,1E0,3E0,1E0,4.478136E1,2.4012425E0,6E0,4.491816E1,1E2,-7.3809137E0,-5.5349785E-1,5.7505054E0,1.2198823E1,-4.811887E0,2.269761E0,2.3422043E1,4.1536423E1,1.1018033E1],"split_indices":[281,101,272,17,103,269,118,118,279,0,0,28,0,96,0,0,0,0,0,0,0,0,0],"split_type":[0,0,0,0,0,0,0,0,0,0,0,0,0,0,0,0,0,0,0,0,0,0,0],"sum_hessian":[6.856E3,6.246E3,6.1E2,6.232E3,1.4E1,5.81E2,2.9E1,6.167E3,6.5E1,7E0,7E0,5.76E2,5E0,2.4E1,5E0,5.979E3,1.88E2,5.7E1,8E0,5.7E2,6E0,1.4E1,1E1],"tree_param":{"num_deleted":"0","num_feature":"285","num_nodes":"23","size_leaf_vector":"1"}},{"base_weights":[5.8172494E-1,3.8038883E-2,2.6737354E2,-7.31209E-1,1.6979245E2,3.962768E1,2.9456365E0,-1.0544388E0,3.1498407E1,1.18083275E2,3.6556683E1,-1.5248428E-1,2.1292427E1,4.764576E0,1.8485575E1],"categories":[],"categories_nodes":[],"categories_segments":[],"categories_sizes":[],"default_left":[0,0,0,0,0,0,0,0,0,0,0,0,0,0,0],"id":61,"left_children":[1,3,5,7,9,-1,-1,11,-1,13,-1,-1,-1,-1,-1],"loss_changes":[9.985209E5,8.9736144E5,4.1768338E5,6.984466E5,2.7065588E5,0E0,0E0,6.883115E5,0E0,1.1347784E5,0E0,0E0,0E0,0E0,0E0],"parents":[2147483647,0,0,1,1,2,2,3,3,4,4,7,7,9,9],"right_children":[2,4,6,8,10,-1,-1,12,-1,14,-1,-1,-1,-1,-1],"split_conditions":[8E1,6E0,1.5E2,1.2E1,3.4E1,3.962768E1,2.9456365E0,2.8E1,3.1498407E1,3E0,3.6556683E1,-1.5248428E-1,2.1292427E1,4.764576E0,1.8485575E1],"split_indices":[195,28,195,32,28,0,0,193,0,272,0,0,0,0,0],"split_type":[0,0,0,0,0,0,0,0,0,0,0,0,0,0,0],"sum_hessian":[6.883E3,6.87E3,1.3E1,6.84E3,3E1,8E0,5E0,6.834E3,6E0,2.5E1,5E0,6.82E3,1.4E1,1.3E1,1.2E1],"tree_param":{"num_deleted":"0","num_feature":"285","num_nodes":"15","size_leaf_vector":"1"}},{"base_weights":[-8.59457E-1,-1.4269623E0,2.6096906E2,-3.0411317E0,7.4003555E1,1.6711218E1,3.739024E1,-4.7102623E0,7.07102E1,1.0972187E2,1.3560464E1,-7.4555904E-1,3.1595907E0,2.5742805E-1,1.1244325E1,7.434439E0,2.8401144E1,4.451246E0,-1.0106022E1],"categories":[],"categories_nodes":[],"categories_segments":[],"categories_sizes":[],"default_left":[0,0,0,0,0,0,0,0,0,0,0,0,0,0,0,0,0,0,0],"id":62,"left_children":[1,3,5,7,9,-1,-1,11,13,15,17,-1,-1,-1,-1,-1,-1,-1,-1],"loss_changes":[1.03054025E6,8.426661E5,9.650994E4,8.343397E5,3.115563E5,0E0,0E0,6.606645E5,4.262385E5,5.399846E5,1.9962406E5,0E0,0E0,0E0,0E0,0E0,0E0,0E0,0E0],"parents":[2147483647,0,0,1,1,2,2,3,3,4,4,7,7,8,8,9,9,10,10],"right_children":[2,4,6,8,10,-1,-1,12,14,16,18,-1,-1,-1,-1,-1,-1,-1,-1],"split_conditions":[2E0,3E1,8E0,7E0,5E2,1.6711218E1,3.739024E1,3E0,3.3E1,2.8E2,1.66E2,-7.4555904E-1,3.1595907E0,2.5742805E-1,1.1244325E1,7.434439E0,2.8401144E1,4.451246E0,-1.0106022E1],"split_indices":[40,148,40,212,148,0,0,116,270,148,270,0,0,0,0,0,0,0,0],"split_type":[0,0,0,0,0,0,0,0,0,0,0,0,0,0,0,0,0,0,0],"sum_hessian":[6.932E3,6.918E3,1.4E1,6.774E3,1.44E2,9E0,5E0,6.625E3,1.49E2,9E1,5.4E1,6.16E3,4.65E2,5.7E1,9.2E1,7.6E1,1.4E1,4.3E1,1.1E1],"tree_param":{"num_deleted":"0","num_feature":"285","num_nodes":"19","size_leaf_vector":"1"}},{"base_weights":[-3.995294E-1,-1.0938622E0,1.6903195E2,-1.441174E0,3.3774105E1,4.0990463E1,1.2441311E1,-2.869477E0,7.157683E1,5.293006E1,-7.7357864E0,-3.6260256E-1,1.3338681E1,2.229621E1,9.6170723E-1,1.6379883E1,-3.6837776E0],"categories":[],"categories_nodes":[],"categories_segments":[],"categories_sizes":[],"default_left":[0,0,0,0,0,0,0,0,0,0,0,0,0,0,0,0,0],"id":63,"left_children":[1,3,5,7,-1,-1,9,11,13,15,-1,-1,-1,-1,-1,-1,-1],"loss_changes":[8.070903E5,8.044859E5,