{"learner":{"attributes":{"scikit_learn":"{\"_estimator_type\": \"regressor\"}"},"feature_names":["A60309051","A62050157","A62100615","A62100835","A62300051","A70052971","A72050092","A82602000","A82603000","A84300260","B10422060","C20760645","C20760650","C20850602","C50020400","C50030023","C50030025","C50030027","C50030029","C50030031","C50030035","C50050155","C50050700","C50051450","C50055000","C50055300","C50055400","C50055500","C50055550","C50106100","C50106150","C50106200","C50106300","C50300050","C50300402","C50306200","C50306300","C50307000","C50307050","C50709003","C50950103","D05040650","D05040750","D05040850","D05040950","D05041050","D05041150","D05041250","D05041350","D05041450","D05041550","D05104100","D05104200","D05104300","D05104400","D05104500","D05104600","D05104700","D05104800","D05104900","D05105000","D05105100","D05105200","D05105300","D05105400","D05105500","D05106100","D05106200","D05106500","D05222201","D05222202","D05222207","D05222208","D05222210","D05222211","D05300200","D05344250","D05487038","D05487042","D05487044","D05487054","D05487056","D05487057","D05487058","D05487059","D05487070","D05490938","D05500050","D05500100","D05500150","D05500200","D05500250","D05500300","D05500350","D05500400","D05500450","D05500500","D05500501","D05500502","D05500503","D05500504","D05500505","D05500506","D05500507","D05500508","D05500509","D05500510","F30050160","F30050320","F30050610","F40100920","F60170089","G18100550","G18101100","G18101200","G20050100","G20050200","G20050300","G24100115","G24100320","G24100520","G24100720","G24101220","G24103000","H25100110","H25100801","H25101111","H25101501","H25101852","H25102299","H25109930","H25109931","H40102401","H40102501","H75100165","H90150100","I60100810","I80101012","I80101512","I80102012","I80102512","I80103012","I80103512","I80104012","I80105012","I80105230","I80105512","I80106012","I80106512","I80200512","I80203012","I80204512","I80205012","I80205512","I80206012","I80207012","I80207512","I80208012","K20102172","K60403000","K60405170","K60405200","P25100100","R30100100","R50100200","S40100260","S40100700","S50102200","T20100804","T30101100","T40104100","T50057110","T80150205","T80150300","T80150305","T80150405","T80150500","T80150505","T80201800","T80201850","T80203050","T80203100","T80203200","T80203205","T80203300","T80203305","T80203400","T80203500","T80203600","T80203700","T80203800","T80203900","T80205000","T80205010","T80205030","T80205505","T80205520","T80230075","T80230080","T80230085","T80300400","T80350535","T80350540","T80350545","T80350550","T80403000","T80403005","T80403007","T80403009","V00611707","V00611708","V00611709","V00636207","V00666488","W10209910","YY1014070","YY1067380","YY1069400","YY1910312","YY1911382","YY1911583","YY1912064","YY1912894","YY1913244","YY1913342","YY1913343","YY1913357","YY1913359","YY1913360","YY1913361","YY1913362","YY1913367","YZ1052030","YZ1053290","i80202012","t80150105","#prod","#ProdVol","hora","Intervalo_7-8","Intervalo_8-9","Intervalo_9-10","Intervalo_10-11","Intervalo_11-12","Intervalo_12-13","Intervalo_13-14","Intervalo_14-15","Intervalo_15-16","Intervalo_16-17","Intervalo_17-18","Intervalo_18-19"],"feature_types":["float","float","float","float","float","float","float","float","float","float","float","float","float","float","float","float","float","float","float","float","float","float","float","float","float","float","float","float","float","float","float","float","float","float","float","float","float","float","float","float","float","float","float","float","float","float","float","float","float","float","float","float","float","float","float","float","float","float","float","float","float","float","float","float","float","float","float","float","float","float","float","float","float","float","float","float","float","float","float","float","float","float","float","float","float","float","float","float","float","float","float","float","float","float","float","float","float","float","float","float","float","float","float","float","float","float","float","float","float","float","float","float","float","float","float","float","float","float","float","float","float","float","float","float","float","float","float","float","float","float","float","float","float","float","float","float","float","float","float","float","float","float","float","float","float","float","float","float","float","float","float","float","float","float","float","float","float","float","float","float","float","float","float","float","float","float","float","float","float","float","float","float","float","float","float","float","float","float","float","float","float","float","float","float","float","float","float","float","float","float","float","float","float","float","float","float","float","float","float","float","float","float","float","float","float","float","float","float","float","float","float","float","float","float","float","float","float","float","float","float","float","float","float","float","float","float","float","float","float","float","float","float","float","float","float","float","int","float","int","int","int","int","int","int","int","int","int","int","int","int","int"],"gradient_booster":{"model":{"gbtree_model_param":{"num_parallel_tree":"1","num_trees":"100"},"iteration_indptr":[0,1,2,3,4,5,6,7,8,9,10,11,12,13,14,15,16,17,18,19,20,21,22,23,24,25,26,27,28,29,30,31,32,33,34,35,36,37,38,39,40,41,42,43,44,45,46,47,48,49,50,51,52,53,54,55,56,57,58,59,60,61,62,63,64,65,66,67,68,69,70,71,72,73,74,75,76,77,78,79,80,81,82,83,84,85,86,87,88,89,90,91,92,93,94,95,96,97,98,99,100],"tree_info":[0,0,0,0,0,0,0,0,0,0,0,0,0,0,0,0,0,0,0,0,0,0,0,0,0,0,0,0,0,0,0,0,0,0,0,0,0,0,0,0,0,0,0,0,0,0,0,0,0,0,0,0,0,0,0,0,0,0,0,0,0,0,0,0,0,0,0,0,0,0,0,0,0,0,0,0,0,0,0,0,0,0,0,0,0,0,0,0,0,0,0,0,0,0,0,0,0,0,0,0],"trees":[{"base_weights":[-6.900805E-6,-3.0270628E1,8.43782E1,-4.7643932E1,3.883726E1,-1.6518146E0,1.3865854E2,-5.3660686E1,1.1708182E2,1.9330204E1,1.5033334E2,2.501158E1,-3.0952686E1,1.0153984E2,1.6412982E2,-6.195761E1,4.3892643E1,1.6554922E2,-1.2302246E1,1.3965141E1,1.9947618E2,1.3382301E2,9.5673676E1,2.1961279E1,8.553025E1,-3.9491016E1,8.437764E1,1.1043168E2,1.25012045E1,1.2573155E2,1.8311267E2,-6.543992E1,1.0939834E2,3.8057953E1,2.4662604E2,1.740797E2,-2.9386566E1,-2.8675585E1,6.692269E1,1.0966301E1,2.3750734E2,2.3274117E2,2.4863434E1,1.1799832E2,2.1051678E2,3.75067E1,-8.004263E0,-3.0649551E1,-8.382581E1,-4.8565838E1,1.0534116E2,1.0574597E2,9.6487816E1,1.779537E0,5.012269E1,8.8899445E1,1.6427914E2,1.8488878E2,-1.8969751E1,-2.0337124E1,5.214756E1,4.3626743E1,-2.9581168E0,3.4993958E1,7.2775607E0,8.181631E1,1.7422688E1,5.3660233E1,-2.4877314E1,-2.4577314E1,4.630249E0,-1.4092442E1,2.7859032E1,2.3459728E0,5.884084E1,7.649604E1,1.7272688E1,7.493499E1,-8.7731326E-1,-1.3273133E0,1.083025E1,3.1586573E1,6.8627205E1,7.004235E1,-2.0077314E1,8.988586E0,2.7314642E1,2.6379027E0,-2.1635963E1,-1.1954902E1,8.674398E0,-2.7046913E1,-7.583701E0,1.9726869E0,-2.3827314E1,3.7791595E1,5.1340303E0,3.2461716E1,-2.989097E1,-2.2630877E0,4.082269E1,3.0364267E1,-1.2222798E1,4.496023E1,8.609604E1,5.596967E1,-1.5169752E1],"categories":[],"categories_nodes":[],"categories_segments":[],"categories_sizes":[],"default_left":[0,0,0,0,0,0,0,0,0,0,0,0,0,0,0,0,0,0,0,0,0,0,0,0,0,0,0,0,0,0,0,0,0,0,0,0,0,0,0,0,0,0,0,0,0,0,0,0,0,0,0,0,0,0,0,0,0,0,0,0,0,0,0,0,0,0,0,0,0,0,0,0,0,0,0,0,0,0,0,0,0,0,0,0,0,0,0,0,0,0,0,0,0,0,0,0,0,0,0,0,0,0,0,0,0,0,0],"id":0,"left_children":[1,3,5,7,9,11,13,15,17,19,21,23,25,27,29,31,33,35,37,39,41,43,-1,45,-1,47,49,51,53,55,57,59,61,63,65,67,69,71,-1,73,75,77,79,81,83,85,87,89,91,93,95,97,-1,99,-1,101,103,105,-1,-1,-1,-1,-1,-1,-1,-1,-1,-1,-1,-1,-1,-1,-1,-1,-1,-1,-1,-1,-1,-1,-1,-1,-1,-1,-1,-1,-1,-1,-1,-1,-1,-1,-1,-1,-1,-1,-1,-1,-1,-1,-1,-1,-1,-1,-1,-1,-1],"loss_changes":[1.2653411E7,4.379357E6,6.108247E6,2.8943885E6,1.59134E6,3.9687334E5,7.41594E5,2.2787315E6,6.479404E5,6.0127325E5,2.60701E5,2.0477003E5,2.4163648E5,2.5909425E5,3.22479E5,1.553844E6,2.5203184E5,1.298325E5,1.1816055E5,4.049787E5,9.8766125E4,9.7738625E4,0E0,1.23278516E5,0E0,8.601928E4,5.249436E4,2.61878E5,5.1078848E4,2.12562E5,1.49516E5,1.440818E6,2.2483581E5,2.3141725E5,1.3682844E4,1.0342625E5,1.0683566E4,6.663618E4,0E0,3.4861903E5,1.0479844E4,6.0974188E4,1.4761985E3,9.6978375E4,1.1753575E5,6.756133E4,9.863817E4,1.0527183E5,1.1434344E4,5.62702E3,2.5147344E4,1.5930625E5,0E0,3.8588426E4,0E0,1.3823081E5,9.3159E4,1.33007E5,0E0,0E0,0E0,0E0,0E0,0E0,0E0,0E0,0E0,0E0,0E0,0E0,0E0,0E0,0E0,0E0,0E0,0E0,0E0,0E0,0E0,0E0,0E0,0E0,0E0,0E0,0E0,0E0,0E0,0E0,0E0,0E0,0E0,0E0,0E0,0E0,0E0,0E0,0E0,0E0,0E0,0E0,0E0,0E0,0E0,0E0,0E0,0E0,0E0],"parents":[2147483647,0,0,1,1,2,2,3,3,4,4,5,5,6,6,7,7,8,8,9,9,10,10,11,11,12,12,13,13,14,14,15,15,16,16,17,17,18,18,19,19,20,20,21,21,23,23,25,25,26,26,27,27,28,28,29,29,30,30,31,31,32,32,33,33,34,34,35,35,36,36,37,37,39,39,40,40,41,41,42,42,43,43,44,44,45,45,46,46,47,47,48,48,49,49,50,50,51,51,53,53,55,55,56,56,57,57],"right_children":[2,4,6,8,10,12,14,16,18,20,22,24,26,28,30,32,34,36,38,40,42,44,-1,46,-1,48,50,52,54,56,58,60,62,64,66,68,70,72,-1,74,76,78,80,82,84,86,88,90,92,94,96,98,-1,100,-1,102,104,106,-1,-1,-1,-1,-1,-1,-1,-1,-1,-1,-1,-1,-1,-1,-1,-1,-1,-1,-1,-1,-1,-1,-1,-1,-1,-1,-1,-1,-1,-1,-1,-1,-1,-1,-1,-1,-1,-1,-1,-1,-1,-1,-1,-1,-1,-1,-1,-1,-1],"split_conditions":[1.2E1,4E0,2E0,1E0,8E0,4.1E1,3E0,3E0,2.5E1,3E0,4E2,1E0,1.2E2,1E0,3.4E1,1E1,1E0,1E0,1.5E2,8E2,1.7E1,1.1E1,9.5673676E1,1E0,8.553025E1,1E2,9E0,3E1,4E2,5E0,1.5E3,2E1,1E3,3E1,6E0,1E2,3E0,3E0,6.692269E1,1.2E3,1E2,1E0,4E0,3E0,8E2,1E0,1E0,1E0,5E2,2E2,1E0,2.5E2,9.6487816E1,1E0,5.012269E1,1.6E1,5E1,5E2,-1.8969751E1,-2.0337124E1,5.214756E1,4.3626743E1,-2.9581168E0,3.4993958E1,7.2775607E0,8.181631E1,1.7422688E1,5.3660233E1,-2.4877314E1,-2.4577314E1,4.630249E0,-1.4092442E1,2.7859032E1,2.3459728E0,5.884084E1,7.649604E1,1.7272688E1,7.493499E1,-8.7731326E-1,-1.3273133E0,1.083025E1,3.1586573E1,6.8627205E1,7.004235E1,-2.0077314E1,8.988586E0,2.7314642E1,2.6379027E0,-2.1635963E1,-1.1954902E1,8.674398E0,-2.7046913E1,-7.583701E0,1.9726869E0,-2.3827314E1,3.7791595E1,5.1340303E0,3.2461716E1,-2.989097E1,-2.2630877E0,4.082269E1,3.0364267E1,-1.2222798E1,4.496023E1,8.609604E1,5.596967E1,-1.5169752E1],"split_indices":[237,236,236,109,236,237,236,107,109,14,94,190,180,246,237,135,14,114,107,95,238,236,0,235,0,125,238,185,125,236,47,108,135,107,14,87,109,236,0,44,60,39,14,107,91,247,242,243,125,180,247,180,0,109,0,235,100,169,0,0,0,0,0,0,0,0,0,0,0,0,0,0,0,0,0,0,0,0,0,0,0,0,0,0,0,0,0,0,0,0,0,0,0,0,0,0,0,0,0,0,0,0,0,0,0,0,0],"split_type":[0,0,0,0,0,0,0,0,0,0,0,0,0,0,0,0,0,0,0,0,0,0,0,0,0,0,0,0,0,0,0,0,0,0,0,0,0,0,0,0,0,0,0,0,0,0,0,0,0,0,0,0,0,0,0,0,0,0,0,0,0,0,0,0,0,0,0,0,0,0,0,0,0,0,0,0,0,0,0,0,0,0,0,0,0,0,0,0,0,0,0,0,0,0,0,0,0,0,0,0,0,0,0,0,0,0,0],"sum_hessian":[4.952E3,3.645E3,1.307E3,2.913E3,7.32E2,5.06E2,8.01E2,2.811E3,1.02E2,6.24E2,1.08E2,2.65E2,2.41E2,3.28E2,4.73E2,2.591E3,2.2E2,7.4E1,2.8E1,6.07E2,1.7E1,1E2,8E0,2.63E2,2E0,2.25E2,1.6E1,2.98E2,3E1,1.59E2,3.14E2,2.54E3,5.1E1,2.15E2,5E0,7.1E1,3E0,2.7E1,1E0,6E2,7E0,1.4E1,3E0,8.5E1,1.5E1,1.73E2,9E1,1.89E2,3.6E1,2E0,1.4E1,2.93E2,5E0,2.9E1,1E0,8.3E1,7.6E1,3.12E2,2E0,2.516E3,2.4E1,3.9E1,1.2E1,3.1E1,1.84E2,4E0,1E0,7E1,1E0,1E0,2E0,2.4E1,3E0,5.91E2,9E0,6E0,1E0,1.3E1,1E0,1E0,2E0,7.8E1,7E0,1.4E1,1E0,1.53E2,2E1,7.2E1,1.8E1,1.64E2,2.5E1,3.2E1,4E0,1E0,1E0,1.1E1,3E0,2.9E2,3E0,2.8E1,1E0,7.6E1,7E0,7E1,6E0,3.1E2,2E0],"tree_param":{"num_deleted":"0","num_feature":"251","num_nodes":"107","size_leaf_vector":"1"}},{"base_weights":[2.4886446E-1,-2.6322609E1,5.4583862E1,-3.4622086E1,5.15056E1,-3.1469464E0,9.541672E1,-4.1697807E1,4.2564583E1,3.0376917E1,1.3755042E2,-4.5906534E0,7.205478E1,8.5734085E1,1.3596385E2,-4.5398396E1,8.589041E1,2.0188578E1,8.655258E1,6.893092E1,-1.8748411E0,1.5111687E2,7.430614E0,-9.973748E-1,-6.451543E1,8.048932E1,1.822449E2,1.0459233E2,1.7465514E2,-4.9135838E1,6.261969E1,4.662689E1,1.4087463E2,1.0410218E2,8.226335E0,6.659893E1,1.4807202E2,5.8718372E1,1.7335461E2,-2.4039387E1,5.1470253E1,1.328485E2,2.3378726E2,2.7630957E1,-1.7065716E1,3.7702262E0,-4.674972E1,-6.891061E1,1.4715921E1,7.399789E1,1.357178E2,1.9150972E2,-2.5472765E1,9.475296E1,2.2599608E2,1.8193651E2,-7.2878944E1,-1.5543507E1,2.3963623E1,2.8779633E1,-5.5986943E0,8.878709E0,4.7422226E1,3.4475765E1,7.025849E1,4.028174E1,1.8893219E0,-5.9208784E0,1.3701761E1,1.6035055E1,5.6753414E1,-2.2463448E1,4.912416E1,1.361925E1,4.6078735E1,2.2336994E1,5.663161E1,-8.980032E0,5.354325E1,1.0519995E1,4.9753086E1,3.51696E1,6.756845E1,1.5821636E1,7.494779E1,2.9561853E0,1.2636993E1,6.343942E-1,4.1412914E1,-7.490798E0,-1.7884212E1,-2.3149496E1,-4.0206394E0,2.1314905E1,6.451071E1,3.156053E1,5.812875E1,6.3382088E1,2.2140572E1,3.637369E1,1.4554488E1,8.2056564E1,2.1436316E1,4.7100105E1,7.690044E1,-3.2727633E0,-2.9522764E1],"categories":[],"categories_nodes":[],"categories_segments":[],"categories_sizes":[],"default_left":[0,0,0,0,0,0,0,0,0,0,0,0,0,0,0,0,0,0,0,0,0,0,0,0,0,0,0,0,0,0,0,0,0,0,0,0,0,0,0,0,0,0,0,0,0,0,0,0,0,0,0,0,0,0,0,0,0,0,0,0,0,0,0,0,0,0,0,0,0,0,0,0,0,0,0,0,0,0,0,0,0,0,0,0,0,0,0,0,0,0,0,0,0,0,0,0,0,0,0,0,0,0,0,0,0,0,0],"id":1,"left_children":[1,3,5,7,9,11,13,15,17,19,21,23,-1,25,27,29,31,33,35,37,39,41,43,45,47,49,51,53,55,57,59,61,63,65,67,69,71,73,75,77,79,81,83,85,-1,87,89,91,-1,93,95,97,-1,99,101,103,105,-1,-1,-1,-1,-1,-1,-1,-1,-1,-1,-1,-1,-1,-1,-1,-1,-1,-1,-1,-1,-1,-1,-1,-1,-1,-1,-1,-1,-1,-1,-1,-1,-1,-1,-1,-1,-1,-1,-1,-1,-1,-1,-1,-1,-1,-1,-1,-1,-1,-1],"loss_changes":[7.152384E6,2.1508042E6,3.8356505E6,1.6440515E6,5.794041E5,2.3822781E5,3.62494E5,1.304677E6,2.4727438E5,3.2217875E5,1.1008875E5,1.44635E5,0E0,3.760995E5,2.02645E5,1.0842155E6,1.6182369E5,1.6878497E5,9.447931E4,1.1565994E5,1.691338E5,5.502625E4,1.0666291E4,1.3868812E5,2.2348125E4,2.53105E5,1.1279125E5,1.0162325E5,1.5745025E5,8.979235E5,2.4548331E5,8.4531375E4,5.0595875E4,6.1120906E4,1.5691825E5,9.626472E4,8.215672E4,1.3078678E5,1.1921562E3,1.25900625E5,7.2982125E4,4.428575E4,1.29585E4,1.1307031E3,0E0,1.2775245E5,1.5322875E4,1.5918781E4,0E0,2.587395E5,1.14234375E5,7.28095E4,0E0,1.1293975E5,3.1868688E4,1.044615E5,3.672745E3,0E0,0E0,0E0,0E0,0E0,0E0,0E0,0E0,0E0,0E0,0E0,0E0,0E0,0E0,0E0,0E0,0E0,0E0,0E0,0E0,0E0,0E0,0E0,0E0,0E0,0E0,0E0,0E0,0E0,0E0,0E0,0E0,0E0,0E0,0E0,0E0,0E0,0E0,0E0,0E0,0E0,0E0,0E0,0E0,0E0,0E0,0E0,0E0,0E0,0E0],"parents":[2147483647,0,0,1,1,2,2,3,3,4,4,5,5,6,6,7,7,8,8,9,9,10,10,11,11,13,13,14,14,15,15,16,16,17,17,18,18,19,19,20,20,21,21,22,22,23,23,24,24,25,25,26,26,27,27,28,28,29,29,30,30,31,31,32,32,33,33,34,34,35,35,36,36,37,37,38,38,39,39,40,40,41,41,42,42,43,43,45,45,46,46,47,47,49,49,50,50,51,51,53,53,54,54,55,55,56,56],"right_children":[2,4,6,8,10,12,14,16,18,20,22,24,-1,26,28,30,32,34,36,38,40,42,44,46,48,50,52,54,56,58,60,62,64,66,68,70,72,74,76,78,80,82,84,86,-1,88,90,92,-1,94,96,98,-1,100,102,104,106,-1,-1,-1,-1,-1,-1,-1,-1,-1,-1,-1,-1,-1,-1,-1,-1,-1,-1,-1,-1,-1,-1,-1,-1,-1,-1,-1,-1,-1,-1,-1,-1,-1,-1,-1,-1,-1,-1,-1,-1,-1,-1,-1,-1,-1,-1,-1,-1,-1,-1],"split_conditions":[6E0,6E0,2E0,1E1,4E2,1E0,6E0,3E0,2E0,1E2,1E0,1E0,7.205478E1,4E1,1E0,1E0,7E0,2.5E1,1E0,9E2,8E0,7E2,6E2,1E0,5E2,2E0,1.5E2,6E2,5E0,1E1,2.5E1,1E0,2E1,1.4E1,6E1,1E0,9E0,1E0,6E2,4E0,1E0,1E2,5E2,5E2,-1.7065716E1,1E0,1E2,1E0,1.4715921E1,1E0,1.22E2,1.6E1,-2.5472765E1,6E0,1.01E2,1E2,1E2,-1.5543507E1,2.3963623E1,2.8779633E1,-5.5986943E0,8.878709E0,4.7422226E1,3.4475765E1,7.025849E1,4.028174E1,1.8893219E0,-5.9208784E0,1.3701761E1,1.6035055E1,5.6753414E1,-2.2463448E1,4.912416E1,1.361925E1,4.6078735E1,2.2336994E1,5.663161E1,-8.980032E0,5.354325E1,1.0519995E1,4.9753086E1,3.51696E1,6.756845E1,1.5821636E1,7.494779E1,2.9561853E0,1.2636993E1,6.343942E-1,4.1412914E1,-7.490798E0,-1.7884212E1,-2.3149496E1,-4.0206394E0,2.1314905E1,6.451071E1,3.156053E1,5.812875E1,6.3382088E1,2.2140572E1,3.637369E1,1.4554488E1,8.2056564E1,2.1436316E1,4.7100105E1,7.690044E1,-3.2727633E0,-2.9522764E1],"split_indices":[237,236,236,107,93,190,236,14,236,95,241,124,0,135,180,109,14,107,109,47,236,92,91,125,124,185,180,93,174,135,109,241,14,238,107,14,238,169,44,14,246,101,95,88,0,187,125,245,0,187,237,238,0,235,237,49,43,0,0,0,0,0,0,0,0,0,0,0,0,0,0,0,0,0,0,0,0,0,0,0,0,0,0,0,0,0,0,0,0,0,0,0,0,0,0,0,0,0,0,0,0,0,0,0,0,0,0],"split_type":[0,0,0,0,0,0,0,0,0,0,0,0,0,0,0,0,0,0,0,0,0,0,0,0,0,0,0,0,0,0,0,0,0,0,0,0,0,0,0,0,0,0,0,0,0,0,0,0,0,0,0,0,0,0,0,0,0,0,0,0,0,0,0,0,0,0,0,0,0,0,0,0,0,0,0,0,0,0,0,0,0,0,0,0,0,0,0,0,0,0,0,0,0,0,0,0,0,0,0,0,0,0,0,0,0,0,0],"sum_hessian":[4.952E3,3.326E3,1.626E3,3.006E3,3.2E2,6.74E2,9.52E2,2.754E3,2.52E2,2.58E2,6.2E1,6.71E2,3E0,7.71E2,1.81E2,2.677E3,7.7E1,1.68E2,8.4E1,1.17E2,1.41E2,5.6E1,6E0,6.34E2,3.7E1,7.33E2,3.8E1,1.02E2,7.9E1,2.588E3,8.9E1,4.6E1,3.1E1,2E1,1.48E2,6.5E1,1.9E1,1.08E2,9E0,1E2,4.1E1,4.8E1,8E0,5E0,1E0,5.75E2,5.9E1,3.6E1,1E0,6.58E2,7.5E1,3.7E1,1E0,9.6E1,6E0,7.7E1,2E0,2.536E3,5.2E1,6.3E1,2.6E1,4.1E1,5E0,2.6E1,5E0,1.5E1,5E0,8.5E1,6.3E1,6E1,5E0,1E0,1.8E1,9.6E1,1.2E1,2E0,7E0,9.8E1,2E0,3.7E1,4E0,4.3E1,5E0,1E0,7E0,3E0,2E0,5.69E2,6E0,2.3E1,3.6E1,3.1E1,5E0,6.46E2,1.2E1,5.1E1,2.4E1,3.1E1,6E0,6E1,3.6E1,4E0,2E0,6E1,1.7E1,1E0,1E0],"tree_param":{"num_deleted":"0","num_feature":"251","num_nodes":"107","size_leaf_vector":"1"}},{"base_weights":[4.4374305E-1,-1.8192114E1,3.8551334E1,-2.865239E1,2.2643621E1,-2.08987E0,6.729662E1,-3.0955715E1,1.3478658E2,1.2726912E1,7.9268684E1,-3.2071848E0,5.5842457E1,5.2858055E1,8.712579E1,-3.621338E1,2.500657E1,1.5438632E2,-2.1529089E1,8.610548E0,9.994762E1,5.5800682E1,1.2192834E2,-7.1253457E0,3.1137398E1,4.857077E1,1.5432466E2,6.801388E1,1.1284673E2,-3.9146317E1,6.1509964E1,1.6596573E1,1.1531514E2,1.7628513E2,-3.5039551E0,-8.012102E1,3.1925797E1,6.771699E0,1.7543018E2,2.9450108E1,1.3553748E2,4.595781E1,5.980095E1,6.1398853E1,9.775351E1,-8.754378E0,9.051462E1,2.5827621E1,5.8830334E1,4.332291E1,1.3511581E2,1.725642E2,-3.4305817E1,7.4447624E1,-3.0024164E1,1.1531101E2,-6.19471E1,-1.2295333E1,3.383422E1,1.0523869E1,3.0691078E1,2.022783E1,2.1781628E0,-1.9093933E1,3.8638012E1,5.5550587E1,-1.0867921E1,-1.0451881E1,1.8275797E1,-7.0742044E0,-2.7332273E1,1.3572679E0,4.2335213E1,7.641627E1,3.369754E0,1.5006216E1,-3.373947E-1,2.4160877E1,6.078164E1,2.6523298E1,2.476886E0,2.1957256E1,4.9348392E1,-1.2543163E0,-1.5554036E1,-6.2688055E0,5.0481316E1,5.9899054E0,4.3849915E1,1.2331527E1,6.6165375E1,4.4215748E1,-3.3107162E1,6.517344E1,1.5650416E1,2.1151974E1,6.8470505E1,-1.275491E1,2.1730001E1,3.533635E1,-1.7805185E1,-2.7818482E0,-2.5094349E1],"categories":[],"categories_nodes":[],"categories_segments":[],"categories_sizes":[],"default_left":[0,0,0,0,0,0,0,0,0,0,0,0,0,0,0,0,0,0,0,0,0,0,0,0,0,0,0,0,0,0,0,0,0,0,0,0,0,0,0,0,0,0,0,0,0,0,0,0,0,0,0,0,0,0,0,0,0,0,0,0,0,0,0,0,0,0,0,0,0,0,0,0,0,0,0,0,0,0,0,0,0,0,0,0,0,0,0,0,0,0,0,0,0,0,0,0,0,0,0,0,0,0,0],"id":2,"left_children":[1,3,5,7,9,11,13,15,17,19,21,23,-1,25,27,29,31,33,35,37,39,41,43,45,47,49,51,53,55,57,59,61,63,65,67,69,-1,71,73,75,77,79,-1,-1,81,83,85,87,-1,89,91,93,-1,95,97,99,101,-1,-1,-1,-1,-1,-1,-1,-1,-1,-1,-1,-1,-1,-1,-1,-1,-1,-1,-1,-1,-1,-1,-1,-1,-1,-1,-1,-1,-1,-1,-1,-1,-1,-1,-1,-1,-1,-1,-1,-1,-1,-1,-1,-1,-1,-1],"loss_changes":[3.5181612E6,1.421787E6,1.9008725E6,1.0013965E6,3.80273E5,1.4255877E5,2.682425E5,7.6973125E5,1.1668244E5,2.0701898E5,9.4311125E4,9.065128E4,0E0,2.3350338E5,1.8895575E5,6.87135E5,1.6897248E5,1.1471869E5,4.601015E4,1.6875497E5,6.1242312E4,8.549684E4,4.999672E4,9.686383E4,5.5373688E4,2.3622238E5,1.2754522E5,1.4856962E5,7.993825E4,6.52506E5,7.188466E4,9.774147E4,5.402683E4,6.14555E4,1.221613E4,3.3635742E2,0E0,1.6512564E5,7.525494E4,6.34567E3,4.6392875E4,1.017052E5,0E0,0E0,3.5501344E4,1.1704316E5,9.0145125E4,4.504459E4,0E0,1.8903688E5,1.0662381E5,1.0163356E5,0E0,1.1603425E5,2.22784E4,7.92355E4,2.6535576E3,0E0,0E0,0E0,0E0,0E0,0E0,0E0,0E0,0E0,0E0,0E0,0E0,0E0,0E0,0E0,0E0,0E0,0E0,0E0,0E0,0E0,0E0,0E0,0E0,0E0,0E0,0E0,0E0,0E0,0E0,0E0,0E0,0E0,0E0,0E0,0E0,0E0,0E0,0E0,0E0,0E0,0E0,0E0,0E0,0E0,0E0],"parents":[2147483647,0,0,1,1,2,2,3,3,4,4,5,5,6,6,7,7,8,8,9,9,10,10,11,11,13,13,14,14,15,15,16,16,17,17,18,18,19,19,20,20,21,21,22,22,23,23,24,24,25,25,26,26,27,27,28,28,29,29,30,30,31,31,32,32,33,33,34,34,35,35,37,37,38,38,39,39,40,40,41,41,44,44,45,45,46,46,47,47,49,49,50,50,51,51,53,53,54,54,55,55,56,56],"right_children":[2,4,6,8,10,12,14,16,18,20,22,24,-1,26,28,30,32,34,36,38,40,42,44,46,48,50,52,54,56,58,60,62,64,66,68,70,-1,72,74,76,78,80,-1,-1,82,84,86,88,-1,90,92,94,-1,96,98,100,102,-1,-1,-1,-1,-1,-1,-1,-1,-1,-1,-1,-1,-1,-1,-1,-1,-1,-1,-1,-1,-1,-1,-1,-1,-1,-1,-1,-1,-1,-1,-1,-1,-1,-1,-1,-1,-1,-1,-1,-1,-1,-1,-1,-1,-1,-1],"split_conditions":[6E0,4E0,2E0,2E1,8E0,1E0,1E0,3E0,6E1,1E0,4E2,1E0,5.5842457E1,2E0,4E0,3E0,1E0,1E0,1E0,3E2,5E0,1E0,5E2,2E2,1E0,4.1E2,2E1,2E0,5E0,2E0,7E0,3E1,9E0,1E0,3E0,8.3333336E1,3.1925797E1,1.2E3,5E2,1.3E1,7E0,1E2,5.980095E1,6.1398853E1,4E2,4.5E1,1.1E1,1E0,5.8830334E1,4E2,2.2E1,1E0,-3.4305817E1,4E1,1.17E2,6.5E2,1E2,-1.2295333E1,3.383422E1,1.0523869E1,3.0691078E1,2.022783E1,2.1781628E0,-1.9093933E1,3.8638012E1,5.5550587E1,-1.0867921E1,-1.0451881E1,1.8275797E1,-7.0742044E0,-2.7332273E1,1.3572679E0,4.2335213E1,7.641627E1,3.369754E0,1.5006216E1,-3.373947E-1,2.4160877E1,6.078164E1,2.6523298E1,2.476886E0,2.1957256E1,4.9348392E1,-1.2543163E0,-1.5554036E1,-6.2688055E0,5.0481316E1,5.9899054E0,4.3849915E1,1.2331527E1,6.6165375E1,4.4215748E1,-3.3107162E1,6.517344E1,1.5650416E1,2.1151974E1,6.8470505E1,-1.275491E1,2.1730001E1,3.533635E1,-1.7805185E1,-2.7818482E0,-2.5094349E1],"split_indices":[237,236,236,108,236,190,180,107,107,14,93,247,0,109,236,14,109,247,244,101,236,109,96,180,177,237,108,165,174,31,14,107,238,200,107,107,0,93,98,238,14,89,0,0,94,180,238,187,0,92,185,125,0,185,125,237,43,0,0,0,0,0,0,0,0,0,0,0,0,0,0,0,0,0,0,0,0,0,0,0,0,0,0,0,0,0,0,0,0,0,0,0,0,0,0,0,0,0,0,0,0,0,0],"split_type":[0,0,0,0,0,0,0,0,0,0,0,0,0,0,0,0,0,0,0,0,0,0,0,0,0,0,0,0,0,0,0,0,0,0,0,0,0,0,0,0,0,0,0,0,0,0,0,0,0,0,0,0,0,0,0,0,0,0,0,0,0,0,0,0,0,0,0,0,0,0,0,0,0,0,0,0,0,0,0,0,0,0,0,0,0,0,0,0,0,0,0,0,0,0,0,0,0,0,0,0,0,0,0],"sum_hessian":[4.952E3,3.326E3,1.626E3,2.648E3,6.78E2,6.74E2,9.52E2,2.612E3,3.6E1,5.78E2,1E2,6.71E2,3E0,5.53E2,3.99E2,2.388E3,2.24E2,3.2E1,4E0,5.53E2,2.5E1,6.6E1,3.4E1,6.03E2,6.8E1,5.32E2,2.1E1,2.31E2,1.68E2,2.319E3,6.9E1,2.06E2,1.8E1,2.8E1,4E0,3E0,1E0,5.48E2,5E0,9E0,1.6E1,6.3E1,3E0,6E0,2.8E1,5.94E2,9E0,6.7E1,1E0,5.03E2,2.9E1,2E1,1E0,2.17E2,1.4E1,1.66E2,2E0,2.292E3,2.7E1,4.3E1,2.6E1,3.1E1,1.75E2,1E0,1.7E1,2.7E1,1E0,3E0,1E0,1E0,2E0,5.4E2,8E0,3E0,2E0,5E0,4E0,1E1,6E0,2.9E1,3.4E1,2.2E1,6E0,5.38E2,5.6E1,4E0,5E0,6.5E1,2E0,4.98E2,5E0,2.8E1,1E0,1.4E1,6E0,2.13E2,4E0,1.3E1,1E0,1.64E2,2E0,1E0,1E0],"tree_param":{"num_deleted":"0","num_feature":"251","num_nodes":"103","size_leaf_vector":"1"}},{"base_weights":[5.1567286E-1,-2.0141617E1,1.9569557E1,-3.0260008E1,-1.5229242E0,9.242904E-1,4.5703346E1,-3.3438644E1,4.4792126E1,-3.6856115E0,1.3600804E2,-1.6641412E0,9.339082E1,2.9094213E1,5.8600857E1,-3.8964428E1,9.592235E0,7.391562E1,-2.1519175E1,-4.4001865E0,4.32779E1,1.6800876E2,-2.6663961E1,-4.9511757E0,7.961824E1,6.791387E1,4.9673405E1,2.559318E1,1.7317442E2,5.673548E1,5.707391E1,-4.113525E1,8.99971E1,2.2621813E0,9.737886E1,3.1617424E1,9.937681E1,-3.4814384E1,1.9627542E1,-5.606699E0,7.760715E1,1.8637692E2,-2.3509188E0,-1.7993913E0,-1.0199391E1,-8.483295E0,6.821271E1,5.511275E1,1.7708548E2,1.0671446E1,1.118429E2,2.2366648E1,1.444554E2,1.8990714E2,8.7709814E-1,5.1550114E1,9.1016716E1,-1.3316634E1,1.4937945E1,4.054522E1,6.689308E0,1.5601938E1,-2.2659216E0,4.028012E1,-2.110125E1,1.7037577E1,-1.3558396E1,3.6526905E1,9.301755E0,-1.2523769E1,4.127542E0,-1.9573146E0,3.0257666E1,2.6835236E1,-7.900919E0,5.9681404E1,1.0999082E1,-3.087532E0,4.001883E1,1.7338278E1,4.3884212E1,2.2969286E1,-9.574301E0,7.1789276E1,3.2205105E1,-4.7885394E0,2.6370995E1,9.263005E0,3.6010166E1,7.97645E0,-1.0082346E1,5.2470493E1,-1.5551575E0,6.2840508E1,2.0784326E0,1.3532217E1,2.6409271E1,3.24394E1,-1.0339295E1],"categories":[],"categories_nodes":[],"categories_segments":[],"categories_sizes":[],"default_left":[0,0,0,0,0,0,0,0,0,0,0,0,0,0,0,0,0,0,0,0,0,0,0,0,0,0,0,0,0,0,0,0,0,0,0,0,0,0,0,0,0,0,0,0,0,0,0,0,0,0,0,0,0,0,0,0,0,0,0,0,0,0,0,0,0,0,0,0,0,0,0,0,0,0,0,0,0,0,0,0,0,0,0,0,0,0,0,0,0,0,0,0,0,0,0,0,0,0,0],"id":3,"left_children":[1,3,5,7,9,11,13,15,17,19,21,23,25,27,29,31,33,35,37,39,-1,41,43,45,47,49,-1,51,53,55,-1,57,59,61,63,65,67,69,-1,71,73,75,-1,-1,-1,77,79,81,83,85,87,89,91,93,-1,95,97,-1,-1,-1,-1,-1,-1,-1,-1,-1,-1,-1,-1,-1,-1,-1,-1,-1,-1,-1,-1,-1,-1,-1,-1,-1,-1,-1,-1,-1,-1,-1,-1,-1,-1,-1,-1,-1,-1,-1,-1,-1,-1],"loss_changes":[1.9499029E6,4.477598E5,1.2556562E6,3.688855E5,2.4975302E5,3.603671E5,2.281495E5,3.5181188E5,1.2325727E5,8.795787E4,7.2152875E4,3.9180994E5,6.4158406E4,2.3315434E5,1.3728412E5,3.7043962E5,1.0852794E5,4.4244312E4,2.5396592E4,8.1865086E4,0E0,3.698997E4,2.5077515E2,3.6469756E5,1.2638384E5,7.927381E4,0E0,1.7356844E5,3.0781094E4,1.012535E5,0E0,3.835455E5,6.423767E4,7.704848E4,8.987181E4,3.7373383E4,3.7537844E4,6.63466E3,0E0,7.999177E4,1.712864E4,1.15118125E4,0E0,0E0,0E0,3.4648056E5,4.4413406E4,9.018611E4,2.2033375E4,3.225712E4,8.231234E3,1.0722733E5,5.557811E4,3.4341688E4,0E0,1.18247625E5,1.6908869E5,0E0,0E0,0E0,0E0,0E0,0E0,0E0,0E0,0E0,0E0,0E0,0E0,0E0,0E0,0E0,0E0,0E0,0E0,0E0,0E0,0E0,0E0,0E0,0E0,0E0,0E0,0E0,0E0,0E0,0E0,0E0,0E0,0E0,0E0,0E0,0E0,0E0,0E0,0E0,0E0,0E0,0E0],"parents":[2147483647,0,0,1,1,2,2,3,3,4,4,5,5,6,6,7,7,8,8,9,9,10,10,11,11,12,12,13,13,14,14,15,15,16,16,17,17,18,18,19,19,21,21,22,22,23,23,24,24,25,25,27,27,28,28,29,29,31,31,32,32,33,33,34,34,35,35,36,36,37,37,39,39,40,40,41,41,45,45,46,46,47,47,48,48,49,49,50,50,51,51,52,52,53,53,55,55,56,56],"right_children":[2,4,6,8,10,12,14,16,18,20,22,24,26,28,30,32,34,36,38,40,-1,42,44,46,48,50,-1,52,54,56,-1,58,60,62,64,66,68,70,-1,72,74,76,-1,-1,-1,78,80,82,84,86,88,90,92,94,-1,96,98,-1,-1,-1,-1,-1,-1,-1,-1,-1,-1,-1,-1,-1,-1,-1,-1,-1,-1,-1,-1,-1,-1,-1,-1,-1,-1,-1,-1,-1,-1,-1,-1,-1,-1,-1,-1,-1,-1,-1,-1,-1,-1],"split_conditions":[2E0,3E0,2E0,1E0,1E0,8E2,3E0,1E1,2.5E1,1E0,1.5E1,1E0,1.6E3,1E0,4E2,2E1,1.5E2,4E0,1.6E1,1E0,4.32779E1,1E0,3E1,1E0,1E2,2.5E2,4.9673405E1,1E0,1E0,1E1,5.707391E1,1E1,1.4E1,3E1,3.5E2,1E0,1E0,1E0,1.9627542E1,2E1,1E0,1E0,-2.3509188E0,-1.7993913E0,-1.0199391E1,8E2,3E0,1E0,2E2,1.5E1,1E1,3.6E1,1.17E2,1E1,8.7709814E-1,1E1,1.5E2,-1.3316634E1,1.4937945E1,4.054522E1,6.689308E0,1.5601938E1,-2.2659216E0,4.028012E1,-2.110125E1,1.7037577E1,-1.3558396E1,3.6526905E1,9.301755E0,-1.2523769E1,4.127542E0,-1.9573146E0,3.0257666E1,2.6835236E1,-7.900919E0,5.9681404E1,1.0999082E1,-3.087532E0,4.001883E1,1.7338278E1,4.3884212E1,2.2969286E1,-9.574301E0,7.1789276E1,3.2205105E1,-4.7885394E0,2.6370995E1,9.263005E0,3.6010166E1,7.97645E0,-1.0082346E1,5.2470493E1,-1.5551575E0,6.2840508E1,2.0784326E0,1.3532217E1,2.6409271E1,3.24394E1,-1.0339295E1],"split_indices":[236,237,237,109,187,93,236,107,109,190,187,109,93,187,92,108,107,109,238,186,0,245,187,14,93,90,0,109,165,183,0,135,238,107,107,246,242,242,0,167,243,244,0,0,0,50,107,242,88,238,238,200,125,135,0,200,180,0,0,0,0,0,0,0,0,0,0,0,0,0,0,0,0,0,0,0,0,0,0,0,0,0,0,0,0,0,0,0,0,0,0,0,0,0,0,0,0,0,0],"split_type":[0,0,0,0,0,0,0,0,0,0,0,0,0,0,0,0,0,0,0,0,0,0,0,0,0,0,0,0,0,0,0,0,0,0,0,0,0,0,0,0,0,0,0,0,0,0,0,0,0,0,0,0,0,0,0,0,0,0,0,0,0,0,0,0,0,0,0,0,0,0,0,0,0,0,0,0,0,0,0,0,0,0,0,0,0,0,0,0,0,0,0,0,0,0,0,0,0,0,0],"sum_hessian":[4.952E3,2.376E3,2.576E3,1.539E3,8.37E2,1.504E3,1.072E3,1.477E3,6.2E1,8.25E2,1.2E1,1.464E3,4E1,4.7E2,6.02E2,1.309E3,1.68E2,4.3E1,1.9E1,8.22E2,3E0,1E1,2E0,1.408E3,5.6E1,3.1E1,9E0,4.6E2,1E1,5.95E2,7E0,1.288E3,2.1E1,1.56E2,1.2E1,1.7E1,2.6E1,1.7E1,2E0,8.11E2,1.1E1,9E0,1E0,1E0,1E0,1.344E3,6.4E1,4.6E1,1E1,1.4E1,1.7E1,4.49E2,1.1E1,9E0,1E0,5.19E2,7.6E1,1.244E3,4.4E1,1.2E1,9E0,2.5E1,1.31E2,1E1,2E0,1.3E1,4E0,1.9E1,7E0,1.5E1,2E0,8.05E2,6E0,1E1,1E0,8E0,1E0,1.328E3,1.6E1,5.8E1,6E0,3.7E1,9E0,4E0,6E0,1.1E1,3E0,2E0,1.5E1,4.18E2,3.1E1,9E0,2E0,8E0,1E0,4.43E2,7.6E1,6.7E1,9E0],"tree_param":{"num_deleted":"0","num_feature":"251","num_nodes":"99","size_leaf_vector":"1"}},{"base_weights":[5.3350264E-1,-1.3977651E1,1.3918244E1,-1.4411881E1,7.416987E1,1.6007037E0,3.3726917E1,-1.5222015E1,1.23240715E2,7.971675E-1,2.1360141E2,3.1018871E1,9.251962E1,-2.3092308E1,-8.9081E-1,1.4817352E2,-1.757077E1,-2.6459575E0,5.141344E1,6.9251625E1,1.9112211E1,2.813838E1,9.234804E1,1.6253596E2,6.637722E1,-2.433275E1,9.53401E1,-2.4703424E0,9.9538765E1,6.496557E1,4.3703205E1,8.196577E0,-1.6103424E1,7.5060964E0,-2.3339111E1,4.5806515E1,5.2778908E1,1.9033329E1,4.245509E1,1.0525132E2,-3.3143513E1,5.8768525E0,1.7487166E2,8.079226E1,-5.8329872E1,-8.034691E0,9.694628E0,3.8021862E1,1.1059127E1,-7.497987E-2,-1.3173611E1,3.714538E1,-6.7993107E0,1.55145235E1,5.4657674E-1,1.9454216E0,6.265399E1,-9.788334E0,1.0102042E1,3.3627954E0,1.9982384E1,8.47057E0,-5.6632595E0,1.408265E1,-2.3345934E1,3.606613E1,-7.072962E0,5.499057E1,1.4849923E1,1.1828499E1,3.7574703E1,1.6053562E1,-3.4034325E1],"categories":[],"categories_nodes":[],"categories_segments":[],"categories_sizes":[],"default_left":[0,0,0,0,0,0,0,0,0,0,0,0,0,0,0,0,0,0,0,0,0,0,0,0,0,0,0,0,0,0,0,0,0,0,0,0,0,0,0,0,0,0,0,0,0,0,0,0,0,0,0,0,0,0,0,0,0,0,0,0,0,0,0,0,0,0,0,0,0,0,0,0,0],"id":4,"left_children":[1,3,5,7,-1,9,11,13,15,17,19,21,23,25,27,29,31,33,35,-1,-1,37,39,41,43,45,47,49,51,-1,53,-1,-1,55,57,59,-1,61,63,65,-1,-1,67,69,71,-1,-1,-1,-1,-1,-1,-1,-1,-1,-1,-1,-1,-1,-1,-1,-1,-1,-1,-1,-1,-1,-1,-1,-1,-1,-1,-1,-1],"loss_changes":[9.62206E5,2.7317606E5,6.28719E5,2.6661716E5,0E0,2.706866E5,1.54433E5,2.6627856E5,5.1755062E4,2.7636694E5,7.9653125E2,1.6452012E5,6.791828E4,2.2620838E5,1.3317931E5,7.625809E4,6.3294507E3,3.1214103E5,6.245472E4,0E0,0E0,1.1716269E5,1.2154725E5,1.5971125E4,6.4035312E4,2.1025838E5,2.470589E4,7.59955E4,4.13771E4,0E0,1.9190635E3,0E0,0E0,2.036696E5,2.6005888E5,6.978116E4,0E0,1.941459E5,1.930815E5,7.997197E4,0E0,0E0,1.4957812E3,5.0228812E4,3.0728715E4,0E0,0E0,0E0,0E0,0E0,0E0,0E0,0E0,0E0,0E0,0E0,0E0,0E0,0E0,0E0,0E0,0E0,0E0,0E0,0E0,0E0,0E0,0E0,0E0,0E0,0E0,0E0,0E0],"parents":[2147483647,0,0,1,1,2,2,3,3,5,5,6,6,7,7,8,8,9,9,10,10,11,11,12,12,13,13,14,14,15,15,16,16,17,17,18,18,21,21,22,22,23,23,24,24,25,25,26,26,27,27,28,28,30,30,33,33,34,34,35,35,37,37,38,38,39,39,42,42,43,43,44,44],"right_children":[2,4,6,8,-1,10,12,14,16,18,20,22,24,26,28,30,32,34,36,-1,-1,38,40,42,44,46,48,50,52,-1,54,-1,-1,56,58,60,-1,62,64,66,-1,-1,68,70,72,-1,-1,-1,-1,-1,-1,-1,-1,-1,-1,-1,-1,-1,-1,-1,-1,-1,-1,-1,-1,-1,-1,-1,-1,-1,-1,-1,-1],"split_conditions":[2E0,2E2,5E0,6E0,7.416987E1,2E0,4E1,3E0,3.6E1,8E0,2E0,9E0,4.4E1,8E0,1E0,1.2E1,9E1,1E2,1E2,6.9251625E1,1.9112211E1,6E0,3E0,9E0,1E0,1E0,1.3E1,1E0,1.5E1,6.496557E1,1E0,8.196577E0,-1.6103424E1,2E0,4E2,2E2,5.2778908E1,3E0,1E2,5E1,-3.3143513E1,5.8768525E0,1E2,4E0,1.5E2,-8.034691E0,9.694628E0,3.8021862E1,1.1059127E1,-7.497987E-2,-1.3173611E1,3.714538E1,-6.7993107E0,1.55145235E1,5.4657674E-1,1.9454216E0,6.265399E1,-9.788334E0,1.0102042E1,3.3627954E0,1.9982384E1,8.47057E0,-5.6632595E0,1.408265E1,-2.3345934E1,3.606613E1,-7.072962E0,5.499057E1,1.4849923E1,1.1828499E1,3.7574703E1,1.6053562E1,-3.4034325E1],"split_indices":[236,162,237,23,0,29,135,237,23,236,26,236,124,14,187,238,23,93,52,0,0,180,165,238,241,109,238,124,187,0,248,0,0,22,93,93,0,125,92,102,0,0,132,236,135,0,0,0,0,0,0,0,0,0,0,0,0,0,0,0,0,0,0,0,0,0,0,0,0,0,0,0,0],"split_type":[0,0,0,0,0,0,0,0,0,0,0,0,0,0,0,0,0,0,0,0,0,0,0,0,0,0,0,0,0,0,0,0,0,0,0,0,0,0,0,0,0,0,0,0,0,0,0,0,0,0,0,0,0,0,0,0,0,0,0,0,0,0,0,0,0,0,0,0,0,0,0,0,0],"sum_hessian":[4.952E3,2.376E3,2.576E3,2.373E3,3E0,1.589E3,9.87E2,2.36E3,1.3E1,1.584E3,5E0,9.45E2,4.2E1,1.523E3,8.37E2,1.1E1,2E0,1.484E3,1E2,4E0,1E0,9.04E2,4.1E1,1E1,3.2E1,1.508E3,1.5E1,8.25E2,1.2E1,6E0,5E0,1E0,1E0,9.96E2,4.88E2,9.7E1,3E0,5.54E2,3.5E2,3.9E1,2E0,1E0,9E0,2.9E1,3E0,1.446E3,6.2E1,9E0,6E0,7.84E2,4.1E1,1E1,2E0,4E0,1E0,9.92E2,4E0,4.2E2,6.8E1,3.7E1,6E1,4.46E2,1.08E2,3.38E2,1.2E1,3.5E1,4E0,8E0,1E0,1.6E1,1.3E1,1E0,2E0],"tree_param":{"num_deleted":"0","num_feature":"251","num_nodes":"73","size_leaf_vector":"1"}},{"base_weights":[4.826916E-1,-5.100455E0,2.1066456E1,-2.6441927E0,-4.5364773E1,1.3980332E1,4.526089E1,-9.107875E-1,-5.4420197E1,-5.0666916E1,6.191009E1,1.22133E1,1.4266661E2,4.226524E1,1.5454768E2,-7.9148936E0,1.2209917E1,-5.869181E1,3.909386E1,-5.28477E1,6.207588E1,2.9434164E1,4.161035E1,8.91236E0,6.940208E1,1.6282115E2,-8.831829E0,4.759613E1,-8.709284E0,1.7438173E1,5.646783E1,-8.383959E0,1.4820822E2,1.5507447E1,-3.636407E1,-6.1946785E1,2.5693865E1,-5.4549835E1,4.6200863E1,6.2115574E0,3.2282253E1,6.2031484E0,7.7549805E1,9.997569E1,-3.1407475E1,1.7112115E2,1.3218171E1,5.128086E1,-6.7639656E1,-1.1476126E2,2.7125223E1,-2.155814E0,-1.8412197E1,2.0327671E1,5.7481644E1,4.3612576E0,5.1957283E1,-1.6080866E1,1.658381E1,-1.9534033E1,2.3393864E1,-1.679825E1,3.753046E1,-5.199852E0,1.536895E1,1.6048055E0,6.408011E1,5.3479416E1,1.1220365E1,1.757444E1,5.4360504E1,-1.3681119E1,1.6583261E1,5.4277393E1,1.3903986E1,1.374707E1,3.1720055E1,-3.406955E1,9.434818E0,-3.8711334E1,-6.5067997E0,-4.403904E1,1.7412083E1],"categories":[],"categories_nodes":[],"categories_segments":[],"categories_sizes":[],"default_left":[0,0,0,0,0,0,0,0,0,0,0,0,0,0,0,0,0,0,0,0,0,0,0,0,0,0,0,0,0,0,0,0,0,0,0,0,0,0,0,0,0,0,0,0,0,0,0,0,0,0,0,0,0,0,0,0,0,0,0,0,0,0,0,0,0,0,0,0,0,0,0,0,0,0,0,0,0,0,0,0,0,0,0],"id":5,"left_children":[1,3,5,7,9,11,13,15,17,19,21,23,25,27,29,31,33,35,-1,37,-1,39,-1,41,43,45,-1,47,49,-1,-1,51,53,55,57,59,-1,61,-1,63,-1,65,67,69,71,73,-1,75,77,79,81,-1,-1,-1,-1,-1,-1,-1,-1,-1,-1,-1,-1,-1,-1,-1,-1,-1,-1,-1,-1,-1,-1,-1,-1,-1,-1,-1,-1,-1,-1,-1,-1],"loss_changes":[5.69317E5,3.852923E5,1.8058431E5,3.2968744E5,1.3054497E5,1.844923E5,7.171303E4,3.268888E5,1.0155225E5,1.311475E5,2.3349922E4,1.5210181E5,4.2949297E4,6.4001594E4,8.542672E3,1.7106725E5,1.9885956E5,6.0274062E4,0E0,8.3395625E4,0E0,1.5670088E4,0E0,1.4195922E5,1.3875295E5,2.3174062E3,0E0,9.348656E4,9.05203E4,0E0,0E0,1.463822E5,1.1455984E4,1.7489372E5,1.27769266E5,5.6033906E4,0E0,6.201375E4,0E0,9.367384E3,0E0,1.29538836E5,1.1059597E5,1.0370269E5,1.6057488E4,2.6238125E3,0E0,5.637075E4,3.542656E4,5.173711E3,1.0530267E5,0E0,0E0,0E0,0E0,0E0,0E0,0E0,0E0,0E0,0E0,0E0,0E0,0E0,0E0,0E0,0E0,0E0,0E0,0E0,0E0,0E0,0E0,0E0,0E0,0E0,0E0,0E0,0E0,0E0,0E0,0E0,0E0],"parents":[2147483647,0,0,1,1,2,2,3,3,4,4,5,5,6,6,7,7,8,8,9,9,10,10,11,11,12,12,13,13,14,14,15,15,16,16,17,17,19,19,21,21,23,23,24,24,25,25,27,27,28,28,31,31,32,32,33,33,34,34,35,35,37,37,39,39,41,41,42,42,43,43,44,44,45,45,47,47,48,48,49,49,50,50],"right_children":[2,4,6,8,10,12,14,16,18,20,22,24,26,28,30,32,34,36,-1,38,-1,40,-1,42,44,46,-1,48,50,-1,-1,52,54,56,58,60,-1,62,-1,64,-1,66,68,70,72,74,-1,76,78,80,82,-1,-1,-1,-1,-1,-1,-1,-1,-1,-1,-1,-1,-1,-1,-1,-1,-1,-1,-1,-1,-1,-1,-1,-1,-1,-1,-1,-1,-1,-1,-1,-1],"split_conditions":[4E0,1E2,2.7E1,1E2,8E2,3E2,9.6E2,2E0,4E2,1E0,8E2,3E0,9E2,1E2,5E0,6E1,1E0,5E2,3.909386E1,1E0,6.207588E1,1E2,4.161035E1,5E1,6.6666664E1,4E2,-8.831829E0,1E2,1E2,1.7438173E1,5.646783E1,1E0,2E2,2E0,1.2E1,6E0,2.5693865E1,2E0,4.6200863E1,1E2,3.2282253E1,2E0,5E0,3.5E1,1E2,1E2,1.3218171E1,9E0,2.03E2,2E2,9E0,-2.155814E0,-1.8412197E1,2.0327671E1,5.7481644E1,4.3612576E0,5.1957283E1,-1.6080866E1,1.658381E1,-1.9534033E1,2.3393864E1,-1.679825E1,3.753046E1,-5.199852E0,1.536895E1,1.6048055E0,6.408011E1,5.3479416E1,1.1220365E1,1.757444E1,5.4360504E1,-1.3681119E1,1.6583261E1,5.4277393E1,1.3903986E1,1.374707E1,3.1720055E1,-3.406955E1,9.434818E0,-3.8711334E1,-6.5067997E0,-4.403904E1,1.7412083E1],"split_indices":[236,93,237,90,93,101,237,236,89,188,95,107,98,89,236,162,143,88,0,109,0,90,0,103,107,97,0,43,91,0,0,114,162,22,143,21,0,23,0,96,0,162,236,107,51,87,0,236,237,87,238,0,0,0,0,0,0,0,0,0,0,0,0,0,0,0,0,0,0,0,0,0,0,0,0,0,0,0,0,0,0,0,0],"split_type":[0,0,0,0,0,0,0,0,0,0,0,0,0,0,0,0,0,0,0,0,0,0,0,0,0,0,0,0,0,0,0,0,0,0,0,0,0,0,0,0,0,0,0,0,0,0,0,0,0,0,0,0,0,0,0,0,0,0,0,0,0,0,0,0,0,0,0,0,0,0,0,0,0,0,0,0,0,0,0,0,0,0,0],"sum_hessian":[4.952E3,3.896E3,1.056E3,3.673E3,2.23E2,8.18E2,2.38E2,3.555E3,1.18E2,2.13E2,1E1,8.08E2,1E1,2.33E2,5E0,2.318E3,1.237E3,1.16E2,2E0,2.12E2,1E0,8E0,2E0,7.65E2,4.3E1,9E0,1E0,2.11E2,2.2E1,2E0,3E0,2.312E3,6E0,1.159E3,7.8E1,1.14E2,2E0,2.11E2,1E0,7E0,1E0,7.37E2,2.8E1,3.3E1,1E1,8E0,1E0,2.05E2,6E0,5E0,1.7E1,2.262E3,5E1,3E0,3E0,1.153E3,6E0,6.6E1,1.2E1,1.12E2,2E0,2.1E2,1E0,5E0,2E0,7.35E2,2E0,7E0,2.1E1,2.3E1,1E1,9E0,1E0,7E0,1E0,1.88E2,1.7E1,4E0,2E0,4E0,1E0,2E0,1.5E1],"tree_param":{"num_deleted":"0","num_feature":"251","num_nodes":"83","size_leaf_vector":"1"}},{"base_weights":[4.7849703E-1,-7.0477307E-1,6.035191E1,-2.3661163E0,4.1038033E1,8.421335E1,2.0026554E1,-6.0142684E0,1.8039087E1,3.7249104E1,5.122421E1,9.983717E1,-1.5414669E1,4.5098257E0,1.18431656E2,-1.3365988E1,4.3299665E0,1.4313924E1,6.4829834E1,3.0649744E1,8.63847E1,1.1361711E2,-4.979161E0,-3.993231E1,4.6931377E1,-5.244151E0,4.7495564E1,4.4867462E1,-9.1117865E-1,-1.4913862E1,8.802574E1,3.6908112E0,1.7863033E2,1.1206026E1,6.617335E1,7.763236E1,-4.9636316E0,2.6189972E1,1.1322659E2,5.166522E1,1.4844292E2,1.2505071E2,5.2717796E1,7.60783E1,-8.479183E1,-3.8790375E1,2.167551E1,1.7091522E1,4.0275974E0,-2.1579426E1,8.728221E1,-4.831937E0,2.804793E1,3.0693E1,-5.442543E0,7.0847505E-1,2.5880318E1,6.195283E1,5.8852205E0,7.740328E0,4.6863656E-2,2.4823914E1,-9.973518E0,4.065795E1,1.4694705E1,-1.16736355E1,2.2771214E1,4.7153864E0,1.811076E1,4.2268333E1,6.0446076E0,3.146475E1,1.3600261E0,4.805334E1,1.17050495E1,4.369154E1,1.5852354E1,-4.7755246E0,2.6906693E1,2.7537233E1,4.341133E0,3.1356263E0,-3.6007153E1,9.620158E0,-2.983683E0,-1.263748E1,2.4406467E1,2.943989E1,6.581882E0],"categories":[],"categories_nodes":[],"categories_segments":[],"categories_sizes":[],"default_left":[0,0,0,0,0,0,0,0,0,0,0,0,0,0,0,0,0,0,0,0,0,0,0,0,0,0,0,0,0,0,0,0,0,0,0,0,0,0,0,0,0,0,0,0,0,0,0,0,0,0,0,0,0,0,0,0,0,0,0,0,0,0,0,0,0,0,0,0,0,0,0,0,0,0,0,0,0,0,0,0,0,0,0,0,0,0,0,0,0],"id":6,"left_children":[1,3,5,7,9,11,13,15,17,19,-1,21,23,25,27,29,31,33,35,37,39,41,43,45,47,49,-1,-1,-1,51,53,55,57,59,61,63,65,67,69,71,73,75,77,79,81,-1,83,-1,-1,85,87,-1,-1,-1,-1,-1,-1,-1,-1,-1,-1,-1,-1,-1,-1,-1,-1,-1,-1,-1,-1,-1,-1,-1,-1,-1,-1,-1,-1,-1,-1,-1,-1,-1,-1,-1,-1,-1,-1],"loss_changes":[3.5094488E5,3.3699512E5,9.068672E4,3.4797266E5,8.505122E4,9.493316E4,5.5962125E4,3.0158788E5,1.22652984E5,5.6368297E4,0E0,7.567259E4,1.5631277E4,5.0338387E4,1.935879E4,3.6510347E5,1.8293614E5,1.0531081E5,4.6849062E4,5.669497E4,3.7577875E4,2.5437312E4,5.1736707E4,4.1343438E4,2.44375E2,5.0249695E4,0E0,0E0,0E0,2.9679356E5,5.4934438E4,1.8013775E5,2.254764E4,1.00307625E5,6.3714484E4,6.634297E4,2.7661605E4,5.4529547E4,1.7763281E4,3.7147918E4,2.7390781E3,4.879625E4,2.4265758E4,2.543795E3,1.4677033E4,0E0,1.9619111E3,0E0,0E0,6.2642523E4,1.392082E3,0E0,0E0,0E0,0E0,0E0,0E0,0E0,0E0,0E0,0E0,0E0,0E0,0E0,0E0,0E0,0E0,0E0,0E0,0E0,0E0,0E0,0E0,0E0,0E0,0E0,0E0,0E0,0E0,0E0,0E0,0E0,0E0,0E0,0E0,0E0,0E0,0E0,0E0],"parents":[2147483647,0,0,1,1,2,2,3,3,4,4,5,5,6,6,7,7,8,8,9,9,11,11,12,12,13,13,14,14,15,15,16,16,17,17,18,18,19,19,20,20,21,21,22,22,23,23,24,24,25,25,29,29,30,30,31,31,32,32,33,33,34,34,35,35,36,36,37,37,38,38,39,39,40,40,41,41,42,42,43,43,44,44,46,46,49,49,50,50],"right_children":[2,4,6,8,10,12,14,16,18,20,-1,22,24,26,28,30,32,34,36,38,40,42,44,46,48,50,-1,-1,-1,52,54,56,58,60,62,64,66,68,70,72,74,76,78,80,82,-1,84,-1,-1,86,88,-1,-1,-1,-1,-1,-1,-1,-1,-1,-1,-1,-1,-1,-1,-1,-1,-1,-1,-1,-1,-1,-1,-1,-1,-1,-1,-1,-1,-1,-1,-1,-1,-1,-1,-1,-1,-1,-1],"split_conditions":[4E1,1E0,4E2,5E0,3.8E1,1.6E1,5E2,2E0,5E1,1E0,5.122421E1,4.5E1,1E0,5E1,6E2,2E1,1E0,1.6E1,1E0,3E0,5E0,1E0,2.5E1,1.5E2,3E0,4E0,4.7495564E1,4.4867462E1,-9.1117865E-1,4E0,6E1,1E0,1E0,1E2,1E2,1E2,1E2,7E0,4E0,2E0,2E1,4.4E1,1E0,1.5E2,1.5E2,-3.8790375E1,2.5E2,1.7091522E1,4.0275974E0,1.5E3,1E0,-4.831937E0,2.804793E1,3.0693E1,-5.442543E0,7.0847505E-1,2.5880318E1,6.195283E1,5.8852205E0,7.740328E0,4.6863656E-2,2.4823914E1,-9.973518E0,4.065795E1,1.4694705E1,-1.16736355E1,2.2771214E1,4.7153864E0,1.811076E1,4.2268333E1,6.0446076E0,3.146475E1,1.3600261E0,4.805334E1,1.17050495E1,4.369154E1,1.5852354E1,-4.7755246E0,2.6906693E1,2.7537233E1,4.341133E0,3.1356263E0,-3.6007153E1,9.620158E0,-2.983683E0,-1.263748E1,2.4406467E1,2.943989E1,6.581882E0],"split_indices":[135,14,135,236,14,238,124,237,100,241,0,180,180,65,124,108,193,169,244,107,14,243,183,135,107,236,0,0,0,31,107,187,183,95,43,98,92,14,14,14,14,124,124,135,135,0,135,0,0,135,159,0,0,0,0,0,0,0,0,0,0,0,0,0,0,0,0,0,0,0,0,0,0,0,0,0,0,0,0,0,0,0,0,0,0,0,0,0,0],"split_type":[0,0,0,0,0,0,0,0,0,0,0,0,0,0,0,0,0,0,0,0,0,0,0,0,0,0,0,0,0,0,0,0,0,0,0,0,0,0,0,0,0,0,0,0,0,0,0,0,0,0,0,0,0,0,0,0,0,0,0,0,0,0,0,0,0,0,0,0,0,0,0,0,0,0,0,0,0,0,0,0,0,0,0,0,0,0,0,0,0],"sum_hessian":[4.952E3,4.857E3,9.5E1,4.672E3,1.85E2,5.9E1,3.6E1,3.964E3,7.08E2,1.81E2,4E0,5.1E1,8E0,3.2E1,4E0,2.317E3,1.647E3,6.57E2,5.1E1,1.61E2,2E1,4.5E1,6E0,6E0,2E0,3.1E1,1E0,3E0,1E0,2.283E3,3.4E1,1.642E3,5E0,6.21E2,3.6E1,4.3E1,8E0,1.54E2,7E0,1.4E1,6E0,3.7E1,8E0,3E0,3E0,2E0,4E0,1E0,1E0,2.7E1,4E0,2.259E3,2.4E1,3E1,4E0,1.617E3,2.5E1,4E0,1E0,2.67E2,3.54E2,3.1E1,5E0,1.3E1,3E1,6E0,2E0,1.19E2,3.5E1,5E0,2E0,6E0,8E0,5E0,1E0,2.8E1,9E0,3E0,5E0,2E0,1E0,1E0,2E0,3E0,1E0,2.3E1,4E0,3E0,1E0],"tree_param":{"num_deleted":"0","num_feature":"251","num_nodes":"89","size_leaf_vector":"1"}},{"base_weights":[4.6735716E-1,-9.161465E-2,1.0639604E2,-4.234815E-1,1.8133911E2,1.1402248E2,-1.2639747E1,-1.7658323E0,4.317384E1,1.94389E2,1.1541E1,1.311768E2,3.7837646E1,-3.5473053E0,2.6411495E1,6.638431E1,-1.091176E1,2.0661983E2,1.6315983E1,4.2570366E1,1.443091E2,1.3338477E1,1.6393173E1,-1.0808974E1,5.5270123E0,9.5450966E1,2.3543446E1,7.241543E1,-4.3188E1,-1.7228443E1,4.005335E1,6.657101E1,1.7237816E1,1.4760604E1,3.4013147E0,1.50772E2,6.1353726E0,5.864175E0,1.5127534E0,-3.3881187E0,5.764967E1,1.471037E0,3.8681156E1,1.0988976E1,4.7613075E1,7.5049458E0,-2.464226E1,2.282201E1,-2.0633114E1,-3.864052E1,9.54579E0,-7.5185547E0,1.4665343E1,4.71803E1,8.000558E0],"categories":[],"categories_nodes":[],"categories_segments":[],"categories_sizes":[],"default_left":[0,0,0,0,0,0,0,0,0,0,0,0,0,0,0,0,0,0,0,0,0,0,0,0,0,0,0,0,0,0,0,0,0,0,0,0,0,0,0,0,0,0,0,0,0,0,0,0,0,0,0,0,0,0,0],"id":7,"left_children":[1,3,5,7,9,11,-1,13,15,17,-1,19,21,23,25,27,29,31,-1,33,35,-1,37,39,41,43,45,47,49,51,-1,-1,-1,-1,-1,53,-1,-1,-1,-1,-1,-1,-1,-1,-1,-1,-1,-1,-1,-1,-1,-1,-1,-1,-1],"loss_changes":[2.9328256E5,2.9679584E5,3.4255375E4,2.880089E5,9.3016875E3,2.7709062E4,0E0,2.3973489E5,1.8526116E5,2.4614062E3,0E0,1.7128812E4,1.2341504E2,2.959928E5,5.398722E4,7.119434E4,4.335251E4,3.2074375E3,0E0,2.7065674E2,1.052475E4,0E0,8.835266E0,2.4766022E5,1.5304312E5,3.511721E4,4.471042E4,5.5846562E4,4.262831E4,2.4012262E4,0E0,0E0,0E0,0E0,0E0,8.704031E3,0E0,0E0,0E0,0E0,0E0,0E0,0E0,0E0,0E0,0E0,0E0,0E0,0E0,0E0,0E0,0E0,0E0,0E0,0E0],"parents":[2147483647,0,0,1,1,2,2,3,3,4,4,5,5,7,7,8,8,9,9,11,11,12,12,13,13,14,14,15,15,16,16,17,17,19,19,20,20,22,22,23,23,24,24,25,25,26,26,27,27,28,28,29,29,35,35],"right_children":[2,4,6,8,10,12,-1,14,16,18,-1,20,22,24,26,28,30,32,-1,34,36,-1,38,40,42,44,46,48,50,52,-1,-1,-1,-1,-1,54,-1,-1,-1,-1,-1,-1,-1,-1,-1,-1,-1,-1,-1,-1,-1,-1,-1,-1,-1],"split_conditions":[4E0,2E0,9E1,1E0,1E0,1.4E1,-1.2639747E1,1E1,2.5E1,2E0,1.1541E1,1E1,1E0,1E0,2E1,3E2,1.5E2,9E2,1.6315983E1,1E2,1E0,1.3338477E1,6E0,2E2,4E0,2E0,1E0,5.5E1,4E2,1E0,4.005335E1,6.657101E1,1.7237816E1,1.4760604E1,3.4013147E0,1E0,6.1353726E0,5.864175E0,1.5127534E0,-3.3881187E0,5.764967E1,1.471037E0,3.8681156E1,1.0988976E1,4.7613075E1,7.5049458E0,-2.464226E1,2.282201E1,-2.0633114E1,-3.864052E1,9.54579E0,-7.5185547E0,1.4665343E1,4.71803E1,8.000558E0],"split_indices":[23,26,23,109,241,238,0,107,109,29,0,238,248,237,107,87,107,88,0,93,124,0,23,162,188,236,164,169,89,165,0,0,0,0,0,185,0,0,0,0,0,0,0,0,0,0,0,0,0,0,0,0,0,0,0],"split_type":[0,0,0,0,0,0,0,0,0,0,0,0,0,0,0,0,0,0,0,0,0,0,0,0,0,0,0,0,0,0,0,0,0,0,0,0,0,0,0,0,0,0,0,0,0,0,0,0,0,0,0,0,0,0,0],"sum_hessian":[4.952E3,4.927E3,2.5E1,4.919E3,8E0,2.4E1,1E0,4.773E3,1.46E2,7E0,1E0,1.9E1,5E0,4.49E3,2.83E2,1.02E2,4.4E1,6E0,1E0,3E0,1.6E1,3E0,2E0,2.494E3,1.996E3,1E1,2.73E2,9.7E1,5E0,4.3E1,1E0,5E0,1E0,2E0,1E0,1.5E1,1E0,1E0,1E0,2.489E3,5E0,1.987E3,9E0,6E0,4E0,2.7E2,3E0,9.5E1,2E0,2E0,3E0,3.9E1,4E0,1.4E1,1E0],"tree_param":{"num_deleted":"0","num_feature":"251","num_nodes":"55","size_leaf_vector":"1"}},{"base_weights":[3.9890376E-1,-4.1447215E0,9.681274E0,-4.485714E0,1.5817514E2,8.663703E0,9.539753E1,-5.6126537E0,3.953256E1,7.510084E1,7.124353E1,1.4499305E1,-7.746128E0,1.0074649E2,-1.3256378E-1,-6.146293E0,9.019093E1,7.8397964E1,1.605407E1,1.208162E0,2.6112244E1,2.3983086E1,-1.9725816E0,-1.6999733E1,3.0365025E1,1.0646914E2,5.1921844E-1,-7.212864E0,4.1274986E1,1.6703302E2,-5.44228E1,4.2082146E1,4.6709026E1,6.479424E0,3.951709E1,2.4835619E1,-4.2622776E1,-3.8066196E0,4.6954803E1,-2.1722755E1,3.8731808E1,2.3989437E1,3.2456047E1,1.1207367E2,2.5195038E0,-2.6177292E0,8.074522E0,1.7808102E1,-5.8993115E0,2.0233898E1,7.661361E1,-1.8350702E1,-2.0918381E0,1.5816226E1,-1.1930585E1,-3.208731E1,4.0302773E0,7.1455445E0,5.1548687E1,-1.8908025E0,2.5161757E1,-7.073178E0,3.8507744E1,1.688185E1,-3.6106194E1,1.3379103E1,-1.53917475E-2,3.518056E1,5.1226044E0],"categories":[],"categories_nodes":[],"categories_segments":[],"categories_sizes":[],"default_left":[0,0,0,0,0,0,0,0,0,0,0,0,0,0,0,0,0,0,0,0,0,0,0,0,0,0,0,0,0,0,0,0,0,0,0,0,0,0,0,0,0,0,0,0,0,0,0,0,0,0,0,0,0,0,0,0,0,0,0,0,0,0,0,0,0,0,0,0,0],"id":8,"left_children":[1,3,5,7,9,11,13,15,17,-1,19,21,23,25,-1,27,29,31,33,-1,-1,35,37,39,41,43,-1,45,47,49,51,-1,53,55,-1,57,-1,59,-1,61,63,65,-1,67,-1,-1,-1,-1,-1,-1,-1,-1,-1,-1,-1,-1,-1,-1,-1,-1,-1,-1,-1,-1,-1,-1,-1,-1,-1],"loss_changes":[2.0893595E5,1.8480303E5,1.4117158E5,1.6491362E5,3.824708E4,1.542879E5,9.784703E3,1.6609562E5,7.447898E4,0E0,4.9586445E3,1.8563164E5,1.4969373E5,1.0015109E4,0E0,1.6320997E5,2.0911402E5,5.4232125E4,5.7843742E4,0E0,0E0,1.10273E5,1.2703902E5,9.0599805E4,3.8585914E4,8.402656E3,0E0,1.629277E5,7.941707E4,8.835228E4,1.8142324E3,0E0,1.3533988E4,4.0883707E4,0E0,1.0819122E5,0E0,9.485381E4,0E0,9.069947E4,8.211689E4,3.864515E4,0E0,5.8936406E3,0E0,0E0,0E0,0E0,0E0,0E0,0E0,0E0,0E0,0E0,0E0,0E0,0E0,0E0,0E0,0E0,0E0,0E0,0E0,0E0,0E0,0E0,0E0,0E0,0E0],"parents":[2147483647,0,0,1,1,2,2,3,3,4,4,5,5,6,6,7,7,8,8,10,10,11,11,12,12,13,13,15,15,16,16,17,17,18,18,21,21,22,22,23,23,24,24,25,25,27,27,28,28,29,29,30,30,32,32,33,33,35,35,37,37,39,39,40,40,41,41,43,43],"right_children":[2,4,6,8,10,12,14,16,18,-1,20,22,24,26,-1,28,30,32,34,-1,-1,36,38,40,42,44,-1,46,48,50,52,-1,54,56,-1,58,-1,60,-1,62,64,66,-1,68,-1,-1,-1,-1,-1,-1,-1,-1,-1,-1,-1,-1,-1,-1,-1,-1,-1,-1,-1,-1,-1,-1,-1,-1,-1],"split_conditions":[3E0,2E1,1.3E3,3E0,1.1E1,1E2,3.5E1,5E0,6E0,7.510084E1,1.3E1,1E2,3E2,1E0,-1.3256378E-1,4E1,1E2,1E1,1.5E2,1.208162E0,2.6112244E1,1.4E1,1E0,1E1,1E0,1E2,5.1921844E-1,1E0,1E3,2E1,2E2,4.2082146E1,3.5E1,7E0,3.951709E1,1E2,-4.2622776E1,2E0,4.6954803E1,2E0,1.22E2,5E2,3.2456047E1,1.1E3,2.5195038E0,-2.6177292E0,8.074522E0,1.7808102E1,-5.8993115E0,2.0233898E1,7.661361E1,-1.8350702E1,-2.0918381E0,1.5816226E1,-1.1930585E1,-3.208731E1,4.0302773E0,7.1455445E0,5.1548687E1,-1.8908025E0,2.5161757E1,-7.073178E0,3.8507744E1,1.688185E1,-3.6106194E1,1.3379103E1,-1.53917475E-2,3.518056E1,5.1226044E0],"split_indices":[236,136,93,109,238,90,107,75,109,0,238,93,93,241,0,135,75,238,107,0,0,174,109,236,248,60,0,14,135,75,75,0,107,109,0,81,0,21,0,162,237,96,0,87,0,0,0,0,0,0,0,0,0,0,0,0,0,0,0,0,0,0,0,0,0,0,0,0,0],"split_type":[0,0,0,0,0,0,0,0,0,0,0,0,0,0,0,0,0,0,0,0,0,0,0,0,0,0,0,0,0,0,0,0,0,0,0,0,0,0,0,0,0,0,0,0,0,0,0,0,0,0,0,0,0,0,0,0,0,0,0,0,0,0,0,0,0,0,0,0,0],"sum_hessian":[4.952E3,3.325E3,1.627E3,3.319E3,6E0,1.609E3,1.8E1,3.237E3,8.2E1,2E0,4E0,1.187E3,4.22E2,1.7E1,1E0,3.22E3,1.7E1,3E1,5.2E1,1E0,3E0,7.53E2,4.34E2,3.4E2,8.2E1,1.6E1,1E0,3.15E3,7E1,1.1E1,6E0,9E0,2.1E1,4.9E1,3E0,7.5E2,3E0,4.3E2,4E0,3.14E2,2.6E1,7.7E1,5E0,1.5E1,1E0,3.017E3,1.33E2,5.4E1,1.6E1,6E0,5E0,5E0,1E0,2E1,1E0,2E0,4.7E1,7.46E2,4E0,4.19E2,1.1E1,3.11E2,3E0,2.4E1,2E0,4.1E1,3.6E1,1.4E1,1E0],"tree_param":{"num_deleted":"0","num_feature":"251","num_nodes":"69","size_leaf_vector":"1"}},{"base_weights":[3.6830372E-1,-2.819106E-1,5.6223236E1,-8.619823E-1,6.228186E1,6.570549E1,-8.584298E1,-1.36421E0,7.253504E1,6.98468E1,-3.2720474E1,7.251416E1,-4.4273094E1,-2.9829523E1,-6.7615037E0,-1.6270351E0,1.3934041E2,7.915456E1,-2.0045021E1,7.674873E1,1.5643733E1,-2.0032396E1,1.0416309E1,7.907424E1,-1.8953606E1,-2.048694E0,8.627707E1,1.4825586E2,1.0202509E1,1.03541115E2,4.6239494E1,1.3308655E0,-1.0351126E1,5.1621223E1,1.0040437E2,4.2911674E1,-7.7784305E0,1.3765744E2,6.497371E1,-7.524609E-1,2.2861988E1,2.7830425E1,-8.47879E0,4.7174366E1,1.2796754E1,-6.949179E0,3.387238E1,8.511781E0,4.4456406E1,1.1984068E1,3.1338049E1,3.3111954E1,4.130798E0,1.5479447E1,2.5278351E0,6.0374275E1,1.3960746E1,1.3717326E1,3.5044468E1],"categories":[],"categories_nodes":[],"categories_segments":[],"categories_sizes":[],"default_left":[0,0,0,0,0,0,0,0,0,0,0,0,0,0,0,0,0,0,0,0,0,0,0,0,0,0,0,0,0,0,0,0,0,0,0,0,0,0,0,0,0,0,0,0,0,0,0,0,0,0,0,0,0,0,0,0,0,0,0],"id":9,"left_children":[1,3,5,7,9,11,13,15,17,19,21,23,-1,-1,-1,25,27,29,31,33,35,-1,-1,37,-1,39,41,43,-1,45,47,-1,-1,49,51,53,-1,55,57,-1,-1,-1,-1,-1,-1,-1,-1,-1,-1,-1,-1,-1,-1,-1,-1,-1,-1,-1,-1],"loss_changes":[1.7989731E5,1.7777302E5,8.2425516E4,1.7899033E5,3.462633E4,8.911858E4,1.1998984E3,1.7851069E5,2.1810234E4,1.4511828E4,1.1505145E4,5.2174125E4,0E0,0E0,0E0,1.785732E5,3.4098281E3,2.0095531E4,1.2149691E3,1.6810062E4,7.914088E3,0E0,0E0,3.3184625E4,0E0,1.7247078E5,1.9721875E4,8.889219E2,0E0,2.2791375E4,2.3118076E4,0E0,0E0,8.164324E3,1.4025891E4,7.6346045E2,0E0,4.2784703E4,3.7568656E4,0E0,0E0,0E0,0E0,0E0,0E0,0E0,0E0,0E0,0E0,0E0,0E0,0E0,0E0,0E0,0E0,0E0,0E0,0E0,0E0],"parents":[2147483647,0,0,1,1,2,2,3,3,4,4,5,5,6,6,7,7,8,8,9,9,10,10,11,11,15,15,16,16,17,17,18,18,19,19,20,20,23,23,25,25,26,26,27,27,29,29,30,30,33,33,34,34,35,35,37,37,38,38],"right_children":[2,4,6,8,10,12,14,16,18,20,22,24,-1,-1,-1,26,28,30,32,34,36,-1,-1,38,-1,40,42,44,-1,46,48,-1,-1,50,52,54,-1,56,58,-1,-1,-1,-1,-1,-1,-1,-1,-1,-1,-1,-1,-1,-1,-1,-1,-1,-1,-1,-1],"split_conditions":[1.4E1,1E1,2E2,2E0,1E2,1E0,1E2,2E0,3.6E1,1E2,2E2,5E1,-4.4273094E1,-2.9829523E1,-6.7615037E0,2E0,1E0,1.3E1,9E1,1.8E1,3E1,-2.0032396E1,1.0416309E1,1.9E1,-1.8953606E1,4E0,1E0,2E0,1.0202509E1,4E0,1E2,1.3308655E0,-1.0351126E1,1E2,1E0,1E0,-7.7784305E0,1.2E1,7.2E1,-7.524609E-1,2.2861988E1,2.7830425E1,-8.47879E0,4.7174366E1,1.2796754E1,-6.949179E0,3.387238E1,8.511781E0,4.4456406E1,1.1984068E1,3.1338049E1,3.3111954E1,4.130798E0,1.5479447E1,2.5278351E0,6.0374275E1,1.3960746E1,1.3717326E1,3.5044468E1],"split_indices":[172,21,172,23,94,165,87,26,23,96,93,103,0,0,0,22,241,238,23,21,21,0,0,172,0,31,40,29,0,23,52,0,0,93,241,14,0,238,237,0,0,0,0,0,0,0,0,0,0,0,0,0,0,0,0,0,0,0,0],"split_type":[0,0,0,0,0,0,0,0,0,0,0,0,0,0,0,0,0,0,0,0,0,0,0,0,0,0,0,0,0,0,0,0,0,0,0,0,0,0,0,0,0,0,0,0,0,0,0,0,0,0,0,0,0,0,0,0,0,0,0],"sum_hessian":[4.952E3,4.896E3,5.6E1,4.852E3,4.4E1,5.3E1,3E0,4.82E3,3.2E1,4.1E1,3E0,5.2E1,1E0,2E0,1E0,4.812E3,8E0,3E1,2E0,3.6E1,5E0,2E0,1E0,5E1,2E0,4.79E3,2.2E1,7E0,1E0,1.6E1,1.4E1,1E0,1E0,1.9E1,1.7E1,3E0,2E0,8E0,4.2E1,4.763E3,2.7E1,2.1E1,1E0,6E0,1E0,1E0,1.5E1,1.3E1,1E0,1.7E1,2E0,1.5E1,2E0,2E0,1E0,4E0,4E0,3.2E1,1E1],"tree_param":{"num_deleted":"0","num_feature":"251","num_nodes":"59","size_leaf_vector":"1"}},{"base_weights":[3.1575117E-1,-7.959272E-1,3.0316721E1,-2.8050296E0,1.624316E1,4.7989357E1,1.4201634E1,-3.4450943E0,6.177114E1,3.7920662E1,-6.827954E-1,2.5756807E1,1.5731233E2,2.535193E0,5.7240707E1,-3.6860702E0,1.4256203E2,6.8676125E1,-5.088574E1,1.9885937E1,8.5982414E1,-5.90027E1,1.3581822E1,1.5419497E1,1.1806658E2,1.7264394E2,-6.2997785E0,-3.02777E0,4.111667E1,1.5580165E2,2.286287E1,-3.9665742E0,1.1499911E2,5.3885098E1,3.328307E1,7.644139E1,-2.032159E1,-2.2064299E1,-8.342835E-1,2.650925E1,-4.2208637E1,9.507385E1,-1.18446236E2,-6.560091E1,4.558477E1,8.024695E0,7.125256E1,6.262752E0,1.2404788E2,6.8482513E0,1.8378902E2,1.8743533E2,-7.278969E-1,-2.2863842E1,1.0565638E1,5.3730526E1,9.390196E0,2.1469727E0,5.00402E1,-1.3662504E0,1.5957175E1,4.0481316E1,1.5407028E1,1.7163692E1,-2.186309E0,2.390914E1,-6.1147866E0,2.3481674E-1,-8.285181E0,8.725645E0,-3.20535E1,-1.7289991E1,2.8374205E1,3.345427E1,-2.0475934E0,-9.00943E0,-4.4291378E1,-2.1294926E1,1.5405365E1,1.476498E0,2.9192896E1,2.388029E1,-1.3105033E1,-2.806713E0,2.3431887E1,4.160426E1,9.8273945E0,6.366727E1,1.4772511E1,5.9020245E1,1.2772234E1,-1.0312252E1,2.765616E1,5.9093385E0,-1.5166298E1,-4.3890395E0,2.2239632E1],"categories":[],"categories_nodes":[],"categories_segments":[],"categories_sizes":[],"default_left":[0,0,0,0,0,0,0,0,0,0,0,0,0,0,0,0,0,0,0,0,0,0,0,0,0,0,0,0,0,0,0,0,0,0,0,0,0,0,0,0,0,0,0,0,0,0,0,0,0,0,0,0,0,0,0,0,0,0,0,0,0,0,0,0,0,0,0,0,0,0,0,0,0,0,0,0,0,0,0,0,0,0,0,0,0,0,0,0,0,0,0,0,0,0,0,0,0],"id":10,"left_children":[1,3,5,7,9,11,13,15,17,19,21,23,25,27,29,31,33,35,37,39,41,43,45,47,49,51,-1,53,-1,55,57,59,61,-1,63,65,67,-1,-1,69,71,73,75,77,-1,79,81,83,85,-1,87,89,-1,91,93,-1,-1,95,-1,-1,-1,-1,-1,-1,-1,-1,-1,-1,-1,-1,-1,-1,-1,-1,-1,-1,-1,-1,-1,-1,-1,-1,-1,-1,-1,-1,-1,-1,-1,-1,-1,-1,-1,-1,-1,-1,-1],"loss_changes":[1.6521377E5,1.6357789E5,4.9727375E4,1.7686975E5,1.8494978E5,2.0011256E5,4.7053492E4,1.4946016E5,3.6166203E4,1.8984862E5,2.3706416E5,6.593015E4,4.1898656E4,5.6539863E4,6.420417E4,1.4118002E5,2.2367094E4,2.9197047E4,3.0659097E3,6.774496E4,1.2277425E5,8.791461E4,7.281898E4,6.387748E4,3.961996E4,3.4118656E4,0E0,1.9925277E4,0E0,8.898422E3,4.7350688E4,1.4190456E5,5.7594375E3,0E0,3.329428E3,1.3288094E4,6.374978E2,0E0,0E0,5.3609703E4,3.920987E4,9.792619E4,3.3091523E3,3.8265203E4,0E0,5.7702504E4,2.266786E4,6.917795E4,2.1363047E3,0E0,4.8532344E3,7.7887188E3,0E0,4.2897125E4,2.555472E4,0E0,0E0,1.9200092E4,0E0,0E0,0E0,0E0,0E0,0E0,0E0,0E0,0E0,0E0,0E0,0E0,0E0,0E0,0E0,0E0,0E0,0E0,0E0,0E0,0E0,0E0,0E0,0E0,0E0,0E0,0E0,0E0,0E0,0E0,0E0,0E0,0E0,0E0,0E0,0E0,0E0,0E0,0E0],"parents":[2147483647,0,0,1,1,2,2,3,3,4,4,5,5,6,6,7,7,8,8,9,9,10,10,11,11,12,12,13,13,14,14,15,15,16,16,17,17,18,18,19,19,20,20,21,21,22,22,23,23,24,24,25,25,27,27,29,29,30,30,31,31,32,32,34,34,35,35,36,36,39,39,40,40,41,41,42,42,43,43,45,45,46,46,47,47,48,48,50,50,51,51,53,53,54,54,57,57],"right_children":[2,4,6,8,10,12,14,16,18,20,22,24,26,28,30,32,34,36,38,40,42,44,46,48,50,52,-1,54,-1,56,58,60,62,-1,64,66,68,-1,-1,70,72,74,76,78,-1,80,82,84,86,-1,88,90,-1,92,94,-1,-1,96,-1,-1,-1,-1,-1,-1,-1,-1,-1,-1,-1,-1,-1,-1,-1,-1,-1,-1,-1,-1,-1,-1,-1,-1,-1,-1,-1,-1,-1,-1,-1,-1,-1,-1,-1,-1,-1,-1,-1],"split_conditions":[3.6666668E1,1E1,8.3333336E1,1E0,4.5E1,6E1,1.5E2,7E0,3.3E1,3.6E1,5.2E1,1E0,6E1,1.17E2,2E2,6E1,1E0,1E0,1E2,1E0,1E2,3E0,1.6E1,2E1,2E0,1.6E1,-6.2997785E0,1.2E1,4.111667E1,1E0,1.6E1,5E1,1E0,5.3885098E1,1.2E1,1E0,2E0,-2.2064299E1,-8.342835E-1,1E2,2.7E1,4.4E1,1E2,2E2,4.558477E1,4E1,4E2,4E0,1.5E1,6.8482513E0,1E0,1E2,-7.278969E-1,1E0,4E0,5.3730526E1,9.390196E0,1E0,5.00402E1,-1.3662504E0,1.5957175E1,4.0481316E1,1.5407028E1,1.7163692E1,-2.186309E0,2.390914E1,-6.1147866E0,2.3481674E-1,-8.285181E0,8.725645E0,-3.20535E1,-1.7289991E1,2.8374205E1,3.345427E1,-2.0475934E0,-9.00943E0,-4.4291378E1,-2.1294926E1,1.5405365E1,1.476498E0,2.9192896E1,2.388029E1,-1.3105033E1,-2.806713E0,2.3431887E1,4.160426E1,9.8273945E0,6.366727E1,1.4772511E1,5.9020245E1,1.2772234E1,-1.0312252E1,2.765616E1,5.9093385E0,-1.5166298E1,-4.3890395E0,2.2239632E1],"split_indices":[107,180,107,186,180,107,107,33,186,237,237,244,108,125,107,162,242,247,88,246,94,14,238,108,236,238,0,238,0,244,238,99,243,0,33,188,237,0,0,47,180,124,88,88,0,185,88,236,238,0,125,52,0,237,236,0,0,109,0,0,0,0,0,0,0,0,0,0,0,0,0,0,0,0,0,0,0,0,0,0,0,0,0,0,0,0,0,0,0,0,0,0,0,0,0,0,0],"split_type":[0,0,0,0,0,0,0,0,0,0,0,0,0,0,0,0,0,0,0,0,0,0,0,0,0,0,0,0,0,0,0,0,0,0,0,0,0,0,0,0,0,0,0,0,0,0,0,0,0,0,0,0,0,0,0,0,0,0,0,0,0,0,0,0,0,0,0,0,0,0,0,0,0,0,0,0,0,0,0,0,0,0,0,0,0,0,0,0,0,0,0,0,0,0,0,0,0],"sum_hessian":[4.952E3,4.776E3,1.76E2,4.273E3,5.03E2,8.3E1,9.3E1,4.232E3,4.1E1,2.2E2,2.83E2,7E1,1.3E1,7.4E1,1.9E1,4.226E3,6E0,3.9E1,2E0,1.61E2,5.9E1,5.5E1,2.28E2,6.4E1,6E0,1.2E1,1E0,7.2E1,2E0,4E0,1.5E1,4.217E3,9E0,4E0,2E0,3.6E1,3E0,1E0,1E0,1.46E2,1.5E1,5.7E1,2E0,5.4E1,1E0,2.09E2,1.9E1,6E1,4E0,3E0,3E0,1.1E1,1E0,2.9E1,4.3E1,3E0,1E0,1.4E1,1E0,4.175E3,4.2E1,6E0,3E0,1E0,1E0,3.5E1,1E0,1E0,2E0,1.44E2,2E0,1.4E1,1E0,4.9E1,8E0,1E0,1E0,5.2E1,2E0,2.03E2,6E0,1.8E1,1E0,5E1,1E1,3E0,1E0,2E0,1E0,1E1,1E0,2.7E1,2E0,3.8E1,5E0,1.2E1,2E0],"tree_param":{"num_deleted":"0","num_feature":"251","num_nodes":"97","size_leaf_vector":"1"}},{"base_weights":[3.3722174E-1,3.558527E-2,1.0674772E2,-2.3723339E-1,9.604572E1,1.2509051E2,2.9618114E1,-6.9273406E-1,5.6869946E1,2.1875519E1,4.044623E1,4.5197624E1,6.4276886E1,1.9390361E-1,1.7683613E1,-1.135489E0,6.256347E1,6.471905E1,-3.6209373E1,-3.486351E0,1.4519853E1,-1.0813718E0,2.4644518E1,3.8686285E0,-3.7813718E0,-1.7097484E0,4.63991E1,7.698152E1,-1.0937265E1,7.7510376E1,-1.6419802E1,3.4209492E0,-3.631238E0,-8.3145785E-1,7.4808946E0,2.3740738E1,-5.927218E0,2.7551723E1,-4.702204E0,2.8808655E1,5.2373767E0,4.516535E0,-1.5873927E1,2.20665E-1,1.3187623E0],"categories":[],"categories_nodes":[],"categories_segments":[],"categories_sizes":[],"default_left":[0,0,0,0,0,0,0,0,0,0,0,0,0,0,0,0,0,0,0,0,0,0,0,0,0,0,0,0,0,0,0,0,0,0,0,0,0,0,0,0,0,0,0,0,0],"id":11,"left_children":[1,3,5,7,9,11,13,15,17,19,-1,-1,21,23,-1,25,27,29,-1,31,-1,-1,-1,-1,-1,33,35,37,-1,39,41,43,-1,-1,-1,-1,-1,-1,-1,-1,-1,-1,-1,-1,-1],"loss_changes":[1.5897405E5,1.2941795E5,1.6101875E4,1.2820228E5,3.731408E4,7.42E3,3.4402961E3,1.3699725E5,6.216761E4,4.204926E3,0E0,0E0,6.36183E3,6.502218E2,0E0,1.3263445E5,5.1348047E4,4.071192E4,0E0,2.7950986E2,0E0,0E0,0E0,0E0,0E0,1.3584336E5,1.27176695E5,4.27385E4,0E0,3.502217E4,7.688352E3,4.620796E0,0E0,0E0,0E0,0E0,0E0,0E0,0E0,0E0,0E0,0E0,0E0,0E0,0E0],"parents":[2147483647,0,0,1,1,2,2,3,3,4,4,5,5,6,6,7,7,8,8,9,9,12,12,13,13,15,15,16,16,17,17,19,19,25,25,26,26,27,27,29,29,30,30,31,31],"right_children":[2,4,6,8,10,12,14,16,18,20,-1,-1,22,24,-1,26,28,30,-1,32,-1,-1,-1,-1,-1,34,36,38,-1,40,42,44,-1,-1,-1,-1,-1,-1,-1,-1,-1,-1,-1,-1,-1],"split_conditions":[2E0,3E1,1E0,3E1,1.1E1,1E0,1E1,1E0,1.5E1,3E0,4.044623E1,4.5197624E1,4E0,1E1,1.7683613E1,3E2,1.5E1,1E0,-3.6209373E1,1E1,1.4519853E1,-1.0813718E0,2.4644518E1,3.8686285E0,-3.7813718E0,1E0,1.3E1,1E0,-1.0937265E1,1E2,2E0,6E1,-3.631238E0,-8.3145785E-1,7.4808946E0,2.3740738E1,-5.927218E0,2.7551723E1,-4.702204E0,2.8808655E1,5.2373767E0,4.516535E0,-1.5873927E1,2.20665E-1,1.3187623E0],"split_indices":[29,205,241,108,238,245,27,187,109,236,0,0,29,29,0,50,187,243,0,135,0,0,0,0,0,14,238,244,0,108,236,205,0,0,0,0,0,0,0,0,0,0,0,0,0],"split_type":[0,0,0,0,0,0,0,0,0,0,0,0,0,0,0,0,0,0,0,0,0,0,0,0,0,0,0,0,0,0,0,0,0,0,0,0,0,0,0,0,0,0,0,0,0],"sum_hessian":[4.952E3,4.939E3,1.3E1,4.926E3,1.3E1,1E1,3E0,4.888E3,3.8E1,5E0,8E0,6E0,4E0,2E0,1E0,4.855E3,3.3E1,3.7E1,1E0,3E0,2E0,1E0,3E0,1E0,1E0,4.798E3,5.7E1,2.9E1,4E0,3.2E1,5E0,2E0,1E0,4.615E3,1.83E2,3.8E1,1.9E1,2.5E1,4E0,2.4E1,8E0,3E0,2E0,1E0,1E0],"tree_param":{"num_deleted":"0","num_feature":"251","num_nodes":"45","size_leaf_vector":"1"}},{"base_weights":[2.6881126E-1,2.7353276E-2,9.968685E1,-2.698279E-1,8.1337906E1,1.1205635E2,-5.456653E0,-4.4090366E-1,1.4005725E2,9.004126E1,-9.992853E0,1.2228235E2,1.4694638E0,-6.1196655E-1,1.3976161E2,4.9066124E1,3.386229E0,1.1850959E2,5.156834E1,1.3787094E2,1.1985586E1,-1.3035939E0,3.411986E1,4.3467546E0,1.6191826E2,1.3167679E2,1.9757973E0,1.8046722E1,1.9596409E1,5.983947E1,8.409548E1,-7.79491E-1,5.341194E0,3.2325417E1,7.8604913E0,5.7910866E1,5.6169662E0,4.4309525E1,2.9288156E0,8.838593E-1,6.62945E0,1.387796E1,4.099104E1],"categories":[],"categories_nodes":[],"categories_segments":[],"categories_sizes":[],"default_left":[0,0,0,0,0,0,0,0,0,0,0,0,0,0,0,0,0,0,0,0,0,0,0,0,0,0,0,0,0,0,0,0,0,0,0,0,0,0,0,0,0,0,0],"id":12,"left_children":[1,3,5,7,9,11,-1,13,15,17,-1,19,-1,21,23,-1,-1,25,27,29,-1,31,33,-1,35,37,-1,39,-1,-1,41,-1,-1,-1,-1,-1,-1,-1,-1,-1,-1,-1,-1],"loss_changes":[1.18895414E5,1.1944029E5,1.9534945E4,1.1829406E5,2.0959922E4,1.14548125E4,0E0,1.1808409E5,1.6307727E4,1.2508078E4,0E0,7.3259375E3,0E0,1.18110055E5,1.4307641E4,0E0,0E0,1.2396258E4,2.970375E3,9.723844E3,0E0,1.1928707E5,5.3147695E4,0E0,1.8665422E4,1.4184156E4,0E0,1.7960999E2,0E0,0E0,5.606801E3,0E0,0E0,0E0,0E0,0E0,0E0,0E0,0E0,0E0,0E0,0E0,0E0],"parents":[2147483647,0,0,1,1,2,2,3,3,4,4,5,5,7,7,8,8,9,9,11,11,13,13,14,14,17,17,18,18,19,19,21,21,22,22,24,24,25,25,27,27,30,30],"right_children":[2,4,6,8,10,12,-1,14,16,18,-1,20,-1,22,24,-1,-1,26,28,30,-1,32,34,-1,36,38,-1,40,-1,-1,42,-1,-1,-1,-1,-1,-1,-1,-1,-1,-1,-1,-1],"split_conditions":[1.2E1,8E2,1E0,4E0,1E0,1E0,-5.456653E0,2E0,1E0,9E2,-9.992853E0,1E2,1.4694638E0,4E1,1E1,4.9066124E1,3.386229E0,5E2,1E2,1.1E1,1.1985586E1,3E0,1E2,4.3467546E0,1E0,4E2,1.9757973E0,7E2,1.9596409E1,5.983947E1,1E0,-7.79491E-1,5.341194E0,3.2325417E1,7.8604913E0,5.7910866E1,5.6169662E0,4.4309525E1,2.9288156E0,8.838593E-1,6.62945E0,1.387796E1,4.099104E1],"split_indices":[136,89,245,145,174,244,0,193,244,88,0,88,0,135,238,0,0,92,94,238,0,107,135,0,183,94,0,87,0,0,15,0,0,0,0,0,0,0,0,0,0,0,0],"split_type":[0,0,0,0,0,0,0,0,0,0,0,0,0,0,0,0,0,0,0,0,0,0,0,0,0,0,0,0,0,0,0,0,0,0,0,0,0,0,0,0,0,0,0],"sum_hessian":[4.952E3,4.941E3,1.1E1,4.924E3,1.7E1,1E1,1E0,4.919E3,5E0,1.6E1,1E0,9E0,1E0,4.914E3,5E0,4E0,1E0,8E0,8E0,7E0,2E0,4.819E3,9.5E1,1E0,4E0,7E0,1E0,3E0,5E0,2E0,5E0,4.514E3,3.05E2,8E0,8.7E1,3E0,1E0,6E0,1E0,1E0,2E0,4E0,1E0],"tree_param":{"num_deleted":"0","num_feature":"251","num_nodes":"43","size_leaf_vector":"1"}},{"base_weights":[2.5966114E-1,9.0156145E-2,1.400015E2,-2.3833919E-1,6.7496376E1,6.576027E1,2.4096434E1,-1.8367046E0,1.3848129E1,4.8450394E0,1.04764175E2,-5.1621306E-1,-2.613612E1,1.2604909E1,4.0470966E1,-5.25947E0,9.052616E0,1.3358203E2,2.041207E1,-1.0825379E0,5.0611977E1,-3.1174303E1,4.7484367E1,1.0276442E1,6.774146E1,6.3696423E0,-1.2077148E1,1.5339996E2,-9.689598E0,-5.8355827E0,1.8810402E1,-4.658442E-1,1.537853E1,1.7173697E1,-3.7185555E1,-9.831044E0,2.759699E1,2.209096E1,-2.450094E1,2.8338258E0,4.1663246E1,2.122376E1,1.5986756E0,-7.5071445E0,-5.6811583E-1,4.9428707E1,7.670785E0,1.3385353E0,-3.22659E0],"categories":[],"categories_nodes":[],"categories_segments":[],"categories_sizes":[],"default_left":[0,0,0,0,0,0,0,0,0,0,0,0,0,0,0,0,0,0,0,0,0,0,0,0,0,0,0,0,0,0,0,0,0,0,0,0,0,0,0,0,0,0,0,0,0,0,0,0,0],"id":13,"left_children":[1,3,5,7,9,-1,-1,11,13,15,17,19,21,23,-1,25,-1,27,29,31,33,35,37,39,41,-1,43,45,-1,47,-1,-1,-1,-1,-1,-1,-1,-1,-1,-1,-1,-1,-1,-1,-1,-1,-1,-1,-1],"loss_changes":[1.1730879E5,1.09577805E5,1.0753211E4,1.1091341E5,5.5529492E4,0E0,0E0,1.4194016E5,7.384962E4,2.7182134E3,3.3736016E4,1.2157959E5,8.604858E4,6.323893E4,0E0,1.701314E3,0E0,4.1116156E4,5.915869E3,1.0228638E5,6.036375E4,4.507639E4,5.6678797E4,4.9837977E4,3.37325E3,0E0,8.755021E2,1.031175E4,0E0,2.5062834E2,0E0,0E0,0E0,0E0,0E0,0E0,0E0,0E0,0E0,0E0,0E0,0E0,0E0,0E0,0E0,0E0,0E0,0E0,0E0],"parents":[2147483647,0,0,1,1,2,2,3,3,4,4,7,7,8,8,9,9,10,10,11,11,12,12,13,13,15,15,17,17,18,18,19,19,20,20,21,21,22,22,23,23,24,24,26,26,27,27,29,29],"right_children":[2,4,6,8,10,-1,-1,12,14,16,18,20,22,24,-1,26,-1,28,30,32,34,36,38,40,42,-1,44,46,-1,48,-1,-1,-1,-1,-1,-1,-1,-1,-1,-1,-1,-1,-1,-1,-1,-1,-1,-1,-1],"split_conditions":[1E0,9E0,9E0,6E0,1.3E1,6.576027E1,2.4096434E1,1E2,2E2,2E0,3E1,1.3E1,6E2,4E2,4.0470966E1,1E1,9.052616E0,2E0,1E0,1E1,1E0,2E0,1E2,1E0,3.5E1,6.3696423E0,9E0,1E0,-9.689598E0,6E1,1.8810402E1,-4.658442E-1,1.537853E1,1.7173697E1,-3.7185555E1,-9.831044E0,2.759699E1,2.209096E1,-2.450094E1,2.8338258E0,4.1663246E1,2.122376E1,1.5986756E0,-7.5071445E0,-5.6811583E-1,4.9428707E1,7.670785E0,1.3385353E0,-3.22659E0],"split_indices":[219,167,238,236,237,0,0,90,51,236,167,172,90,92,0,167,0,114,114,21,165,162,87,18,107,0,238,242,0,167,0,0,0,0,0,0,0,0,0,0,0,0,0,0,0,0,0,0,0],"split_type":[0,0,0,0,0,0,0,0,0,0,0,0,0,0,0,0,0,0,0,0,0,0,0,0,0,0,0,0,0,0,0,0,0,0,0,0,0,0,0,0,0,0,0,0,0,0,0,0,0],"sum_hessian":[4.952E3,4.947E3,5E0,4.924E3,2.3E1,1E0,4E0,4.423E3,5.01E2,9E0,1.4E1,4.196E3,2.27E2,4.97E2,4E0,7E0,2E0,1E1,4E0,4.151E3,4.5E1,2.13E2,1.4E1,4.78E2,1.9E1,1E0,6E0,9E0,1E0,3E0,1E0,4.115E3,3.6E1,4.4E1,1E0,2.11E2,2E0,1.2E1,2E0,4.76E2,2E0,1.8E1,1E0,2E0,4E0,8E0,1E0,1E0,2E0],"tree_param":{"num_deleted":"0","num_feature":"251","num_nodes":"49","size_leaf_vector":"1"}},{"base_weights":[2.3821314E-1,-6.344863E-2,6.785447E1,-1.7518538E-1,5.5073532E1,9.749731E1,-5.243064E1,-5.4637694E-1,5.492395E1,1.0165846E2,4.0136585E0,-6.646779E0,-1.9568544E1,-8.1883097E-1,7.3364426E1,5.989416E1,-1.4742905E1,1.0620783E2,4.33028E0,-1.0570178E0,8.2060616E1,9.984013E1,-2.7688246E1,4.571502E1,1.1135475E2,1.6476929E0,-8.282001E0,1.1685797E2,1.3512873E1,-4.089867E-1,1.9055681E1,1.2607351E1,3.2050392E1,1.4888999E1,4.719181E1,1.0558327E1,3.439245E1,3.6979942E1,7.7694216E0,2.2807726E1,4.5547386E1],"categories":[],"categories_nodes":[],"categories_segments":[],"categories_sizes":[],"default_left":[0,0,0,0,0,0,0,0,0,0,0,0,0,0,0,0,0,0,0,0,0,0,0,0,0,0,0,0,0,0,0,0,0,0,0,0,0,0,0,0,0],"id":14,"left_children":[1,3,5,7,-1,9,11,13,15,17,-1,-1,-1,19,21,23,25,27,-1,29,31,33,-1,35,37,-1,-1,39,-1,-1,-1,-1,-1,-1,-1,-1,-1,-1,-1,-1,-1],"loss_changes":[1.0103182E5,1.0123458E5,8.3554875E4,1.0086001E5,0E0,4.940453E3,4.9205566E2,9.869254E4,1.230957E4,5.2128438E3,0E0,0E0,0E0,9.644155E4,8.8161375E4,1.7529102E4,9.325273E2,5.1590156E3,0E0,9.6364664E4,9.396305E3,3.835883E4,0E0,1.4819105E4,2.91525E3,0E0,0E0,7.0183594E3,0E0,0E0,0E0,0E0,0E0,0E0,0E0,0E0,0E0,0E0,0E0,0E0,0E0],"parents":[2147483647,0,0,1,1,2,2,3,3,5,5,6,6,7,7,8,8,9,9,13,13,14,14,15,15,16,16,17,17,19,19,20,20,21,21,23,23,24,24,27,27],"right_children":[2,4,6,8,-1,10,12,14,16,18,-1,-1,-1,20,22,24,26,28,-1,30,32,34,-1,36,38,-1,-1,40,-1,-1,-1,-1,-1,-1,-1,-1,-1,-1,-1,-1,-1],"split_conditions":[1E2,4E1,1E0,2E0,5.5073532E1,1E2,1E2,1E0,3.6E1,1E0,4.0136585E0,-6.646779E0,-1.9568544E1,2E0,1E0,2.4E1,9E1,1E1,4.33028E0,2E0,2E0,1E0,-2.7688246E1,1E2,2E2,1.6476929E0,-8.282001E0,2E0,1.3512873E1,-4.089867E-1,1.9055681E1,1.2607351E1,3.2050392E1,1.4888999E1,4.719181E1,1.0558327E1,3.439245E1,3.6979942E1,7.7694216E0,2.2807726E1,4.5547386E1],"split_indices":[202,210,245,23,0,87,132,189,23,165,0,0,0,29,192,23,23,135,0,22,236,243,0,87,93,0,0,236,0,0,0,0,0,0,0,0,0,0,0,0,0],"split_type":[0,0,0,0,0,0,0,0,0,0,0,0,0,0,0,0,0,0,0,0,0,0,0,0,0,0,0,0,0,0,0,0,0,0,0,0,0,0,0,0,0],"sum_hessian":[4.952E3,4.931E3,2.1E1,4.929E3,2E0,1.7E1,4E0,4.897E3,3.2E1,1.6E1,1E0,2E0,2E0,4.88E3,1.7E1,3E1,2E0,1.5E1,1E0,4.867E3,1.3E1,1.5E1,2E0,2.5E1,5E0,1E0,1E0,1.2E1,3E0,4.845E3,2.2E1,6E0,7E0,9E0,6E0,2.3E1,2E0,4E0,1E0,7E0,5E0],"tree_param":{"num_deleted":"0","num_feature":"251","num_nodes":"41","size_leaf_vector":"1"}},{"base_weights":[2.2728515E-1,1.3983577E-1,6.49915E1,3.382145E-2,1.7501685E2,-4.9678817E-2,6.1991497E1,6.900379E1,9.753793E0,-3.14354E-1,6.5195244E1,-3.8113744E0,4.9553375E0,7.579678E1,-2.0435104E1,-1.3153839E0,2.0903702E1,1.4100487E0,5.1132942E1,2.7999043E1,2.4112062E0],"categories":[],"categories_nodes":[],"categories_segments":[],"categories_sizes":[],"default_left":[0,0,0,0,0,0,0,0,0,0,0,0,0,0,0,0,0,0,0,0,0],"id":15,"left_children":[1,3,-1,5,7,9,-1,-1,-1,11,13,15,17,19,-1,-1,-1,-1,-1,-1,-1],"loss_changes":[9.370528E4,9.180153E4,0E0,8.5405336E4,1.603307E4,8.548335E4,0E0,0E0,0E0,9.087001E4,3.342935E4,1.2517144E5,8.226203E4,2.182282E4,0E0,0E0,0E0,0E0,0E0,0E0,0E0],"parents":[2147483647,0,0,1,1,3,3,4,4,5,5,9,9,10,10,11,11,12,12,13,13],"right_children":[2,4,-1,6,8,10,-1,-1,-1,12,14,16,18,20,-1,-1,-1,-1,-1,-1,-1],"split_conditions":[9.6E1,3.5E1,6.49915E1,1E0,5E1,1.2E3,6.1991497E1,6.900379E1,9.753793E0,2E0,1E2,2E2,1E0,1E0,-2.0435104E1,-1.3153839E0,2.0903702E1,1.4100487E0,5.1132942E1,2.7999043E1,2.4112062E0],"split_indices":[211,33,0,9,33,44,0,0,0,237,41,52,155,243,0,0,0,0,0,0,0],"split_type":[0,0,0,0,0,0,0,0,0,0,0,0,0,0,0,0,0,0,0,0,0],"sum_hessian":[4.952E3,4.951E3,1E0,4.949E3,2E0,4.948E3,1E0,1E0,1E0,4.929E3,1.9E1,2.963E3,1.966E3,1.8E1,1E0,2.941E3,2.2E1,1.964E3,2E0,1.4E1,4E0],"tree_param":{"num_deleted":"0","num_feature":"251","num_nodes":"21","size_leaf_vector":"1"}},{"base_weights":[2.1721742E-1,5.286998E-2,1.0179787E2,-2.811227E-1,4.9785816E1,4.4306866E1,3.822933E1,-8.4431493E-1,2.9915361E1,7.284995E1,-4.628811E1,2.3346495E1,-8.435623E0,-1.5069962E0,2.5834406E1,7.9451004E1,9.640868E0,5.1887657E1,1.25329704E2,6.690682E1,-1.0494745E2,-1.7832607E0,6.335237E1,4.778292E1,-1.0345061E1,7.0635056E1,4.8866325E1,4.67524E-1,1.4941748E2,4.4468903E1,3.394483E1,5.1289204E1,4.8362972E1,2.7717912E0,2.733628E1,-4.76372E0,-3.6973434E1,-6.1122847E-1,2.0460823E1,3.8904934E1,-9.63833E0,1.5420165E1,-1.612857E1,7.3340136E-1,-1.2604661E1,8.401482E0,5.358218E1,-1.2177111E1,7.2192373E0,6.3547295E1,1.740213E1,1.8360969E0,2.42309E1,4.4952235E0,1.6348375E1],"categories":[],"categories_nodes":[],"categories_segments":[],"categories_sizes":[],"default_left":[0,0,0,0,0,0,0,0,0,0,0,0,0,0,0,0,0,0,0,0,0,0,0,0,0,0,0,0,0,0,0,0,0,0,0,0,0,0,0,0,0,0,0,0,0,0,0,0,0,0,0,0,0,0,0],"id":16,"left_children":[1,3,5,7,9,11,-1,13,15,17,19,-1,-1,21,23,25,27,29,31,33,35,37,39,41,43,-1,45,47,49,-1,51,-1,53,-1,-1,-1,-1,-1,-1,-1,-1,-1,-1,-1,-1,-1,-1,-1,-1,-1,-1,-1,-1,-1,-1],"loss_changes":[8.268257E4,8.2169234E4,6.1433594E3,8.359483E4,7.649554E4,1.1897562E4,0E0,8.534246E4,8.962194E4,2.3199531E4,5.350128E4,0E0,0E0,8.449043E4,9.340233E4,1.125452E5,8.3274375E4,3.126998E4,1.631793E4,3.347208E3,6.1915547E3,8.356546E4,1.3083178E5,2.9580031E4,1.8330273E4,0E0,5.724936E4,6.1044027E4,1.0531211E4,0E0,2.426034E4,0E0,2.1142578E0,0E0,0E0,0E0,0E0,0E0,0E0,0E0,0E0,0E0,0E0,0E0,0E0,0E0,0E0,0E0,0E0,0E0,0E0,0E0,0E0,0E0,0E0],"parents":[2147483647,0,0,1,1,2,2,3,3,4,4,5,5,7,7,8,8,9,9,10,10,13,13,14,14,15,15,16,16,17,17,18,18,19,19,20,20,21,21,22,22,23,23,24,24,26,26,27,27,28,28,30,30,32,32],"right_children":[2,4,6,8,10,12,-1,14,16,18,20,-1,-1,22,24,26,28,30,32,34,36,38,40,42,44,-1,46,48,50,-1,52,-1,54,-1,-1,-1,-1,-1,-1,-1,-1,-1,-1,-1,-1,-1,-1,-1,-1,-1,-1,-1,-1,-1,-1],"split_conditions":[2E1,2E0,3.8E1,5E1,2E1,1.2E1,3.822933E1,3E0,1E2,1.2E1,1.1E1,2.3346495E1,-8.435623E0,5E0,2.5E1,5E1,5E1,9E0,1.5E1,3.4E1,1.2E1,2E0,1E2,5.5E1,4E0,7.0635056E1,1E0,5E0,5E1,4.4468903E1,3E0,5.1289204E1,2E0,2.7717912E0,2.733628E1,-4.76372E0,-3.6973434E1,-6.1122847E-1,2.0460823E1,3.8904934E1,-9.63833E0,1.5420165E1,-1.612857E1,7.3340136E-1,-1.2604661E1,8.401482E0,5.358218E1,-1.2177111E1,7.2192373E0,6.3547295E1,1.740213E1,1.8360969E0,2.42309E1,4.4952235E0,1.6348375E1],"split_indices":[14,31,14,100,25,238,0,109,100,31,238,0,0,75,109,98,103,238,238,25,238,18,75,169,236,0,242,236,97,0,236,0,25,0,0,0,0,0,0,0,0,0,0,0,0,0,0,0,0,0,0,0,0,0,0],"split_type":[0,0,0,0,0,0,0,0,0,0,0,0,0,0,0,0,0,0,0,0,0,0,0,0,0,0,0,0,0,0,0,0,0,0,0,0,0,0,0,0,0,0,0,0,0,0,0,0,0,0,0,0,0,0,0],"sum_hessian":[4.952E3,4.945E3,7E0,4.913E3,3.2E1,3E0,4E0,4.824E3,8.9E1,2.6E1,6E0,2E0,1E0,4.708E3,1.16E2,2.5E1,6.4E1,2E1,6E0,2E0,4E0,4.689E3,1.9E1,7.2E1,4.4E1,3E0,2.2E1,6.1E1,3E0,2E0,1.8E1,3E0,3E0,1E0,1E0,1E0,3E0,4.673E3,1.6E1,1.1E1,8E0,7E1,2E0,3.2E1,1.2E1,2E1,2E0,2.2E1,3.9E1,1E0,2E0,1.2E1,6E0,1E0,2E0],"tree_param":{"num_deleted":"0","num_feature":"251","num_nodes":"55","size_leaf_vector":"1"}},{"base_weights":[2.3873115E-1,4.009358E-2,8.202441E1,-1.4157078E-1,8.965111E1,9.20375E1,-4.217939E0,-2.8163752E-1,1.149235E2,5.2003044E1,-2.376699E1,1.0012841E2,1.6692605E0,-4.317215E-1,3.1586727E1,5.624657E1,1.8873833E1,1.13299484E2,9.488825E0,-1.0998439E0,2.3088377E1,4.8431866E1,7.034621E1,-5.6748104E-1,5.9705276E0,5.783485E0,3.571717E1,1.1219595E1,3.52626E1],"categories":[],"categories_nodes":[],"categories_segments":[],"categories_sizes":[],"default_left":[0,0,0,0,0,0,0,0,0,0,0,0,0,0,0,0,0,0,0,0,0,0,0,0,0,0,0,0,0],"id":17,"left_children":[1,3,5,7,9,11,-1,13,15,-1,-1,17,-1,19,-1,-1,-1,21,-1,23,25,-1,27,-1,-1,-1,-1,-1,-1],"loss_changes":[8.04617E4,8.046414E4,1.2839234E4,7.9536484E4,1.5506783E5,7.138992E3,0E0,7.812703E4,1.0849539E4,0E0,0E0,5.438453E3,0E0,7.7371195E4,0E0,0E0,0E0,5.1855312E3,0E0,7.9636945E4,4.743325E4,0E0,4.934006E3,0E0,0E0,0E0,0E0,0E0,0E0],"parents":[2147483647,0,0,1,1,2,2,3,3,4,4,5,5,7,7,8,8,11,11,13,13,17,17,19,19,20,20,22,22],"right_children":[2,4,6,8,10,12,-1,14,16,-1,-1,18,-1,20,-1,-1,-1,22,-1,24,26,-1,28,-1,-1,-1,-1,-1,-1],"split_conditions":[1.2E1,4E0,1E0,1E0,1E1,1E0,-4.217939E0,8E1,9E0,5.2003044E1,-2.376699E1,1E2,1.6692605E0,4E2,3.1586727E1,5.624657E1,1.8873833E1,1.1E1,9.488825E0,3.6666668E1,5E1,4.8431866E1,1E0,-5.6748104E-1,5.9705276E0,5.783485E0,3.571717E1,1.1219595E1,3.52626E1],"split_indices":[136,188,245,219,188,244,0,146,238,0,0,88,0,93,0,0,0,238,0,107,104,0,15,0,0,0,0,0,0],"split_type":[0,0,0,0,0,0,0,0,0,0,0,0,0,0,0,0,0,0,0,0,0,0,0,0,0,0,0,0,0],"sum_hessian":[4.952E3,4.941E3,1.1E1,4.932E3,9E0,1E1,1E0,4.927E3,5E0,6E0,3E0,9E0,1E0,4.921E3,6E0,1E0,4E0,7E0,2E0,4.786E3,1.35E2,2E0,5E0,4.613E3,1.73E2,1.31E2,4E0,4E0,1E0],"tree_param":{"num_deleted":"0","num_feature":"251","num_nodes":"29","size_leaf_vector":"1"}},{"base_weights":[2.2438659E-1,6.699739E-2,9.750221E1,-6.94787E-2,1.12443886E2,5.5227894E1,1.4955013E2,-2.4523246E-1,8.6619225E1,1.3575706E2,-6.182991E-1,2.491929E1,-2.966156E-1,5.8830032E1,8.467527E0,-4.5188716E-1,7.238189E1,1.4268842E2,2.0123475E0,-5.933327E-1,5.1205566E1,9.7790456E-1,-1.1113815E0,-5.862686E-1,1.0968181E2,1.8570028E1,1.00214035E2,1.6481721E2,4.8066673E0,-9.502716E0,3.5029633E1,-5.687044E-1,3.2548702E0,3.7912629E0,3.7968945E1,-5.6884694E-1,1.1900479E1,3.341152E1,1.2232426E1,5.5052063E1,1.350879E1,2.7066674E0,1.3056668E1],"categories":[],"categories_nodes":[],"categories_segments":[],"categories_sizes":[],"default_left":[0,0,0,0,0,0,0,0,0,0,0,0,0,0,0,0,0,0,0,0,0,0,0,0,0,0,0,0,0,0,0,0,0,0,0,0,0,0,0,0,0,0,0],"id":18,"left_children":[1,3,5,7,9,11,13,15,17,19,-1,-1,21,-1,-1,23,25,27,29,-1,-1,-1,-1,31,33,35,37,39,-1,-1,41,-1,-1,-1,-1,-1,-1,-1,-1,-1,-1,-1,-1],"loss_changes":[7.582628E4,7.5863414E4,9.342977E3,7.530166E4,1.6296625E4,9.298256E3,1.1408094E4,7.40558E4,4.7151258E4,2.4391695E4,0E0,0E0,4.8435307E1,0E0,0E0,7.286512E4,1.910682E4,1.4177086E4,6.6710317E3,0E0,0E0,0E0,0E0,7.360393E4,8.229977E3,2.6660198E3,1.4276953E3,2.9307969E3,0E0,0E0,2.6994336E2,0E0,0E0,0E0,0E0,0E0,0E0,0E0,0E0,0E0,0E0,0E0,0E0],"parents":[2147483647,0,0,1,1,2,2,3,3,4,4,5,5,6,6,7,7,8,8,9,9,12,12,15,15,16,16,17,17,18,18,23,23,24,24,25,25,26,26,27,27,30,30],"right_children":[2,4,6,8,10,12,14,16,18,20,-1,-1,22,-1,-1,24,26,28,30,-1,-1,-1,-1,32,34,36,38,40,-1,-1,42,-1,-1,-1,-1,-1,-1,-1,-1,-1,-1,-1,-1],"split_conditions":[7E0,1E2,3.5E1,1.6E1,1E2,1.2E1,5E1,3E1,3E0,3E0,-6.182991E-1,2.491929E1,1.9E1,5.8830032E1,8.467527E0,2E0,1.1E1,1E0,2.5E1,-5.933327E-1,5.1205566E1,9.7790456E-1,-1.1113815E0,1E1,1E1,3E0,1E0,1E0,4.8066673E0,-9.502716E0,6E1,-5.687044E-1,3.2548702E0,3.7912629E0,3.7968945E1,-5.6884694E-1,1.1900479E1,3.341152E1,1.2232426E1,5.5052063E1,1.350879E1,2.7066674E0,1.3056668E1],"split_indices":[33,81,33,140,83,33,33,205,151,236,0,0,33,0,0,193,238,150,140,0,0,0,0,180,238,236,207,142,0,0,140,0,0,0,0,0,0,0,0,0,0,0,0],"split_type":[0,0,0,0,0,0,0,0,0,0,0,0,0,0,0,0,0,0,0,0,0,0,0,0,0,0,0,0,0,0,0,0,0,0,0,0,0,0,0,0,0,0,0],"sum_hessian":[4.952E3,4.945E3,7E0,4.94E3,5E0,5E0,2E0,4.931E3,9E0,4E0,1E0,3E0,2E0,1E0,1E0,4.918E3,1.3E1,5E0,4E0,1E0,3E0,1E0,1E0,4.913E3,5E0,5E0,8E0,4E0,1E0,2E0,2E0,4.409E3,5.04E2,1E0,4E0,3E0,2E0,6E0,2E0,3E0,1E0,1E0,1E0],"tree_param":{"num_deleted":"0","num_feature":"251","num_nodes":"43","size_leaf_vector":"1"}},{"base_weights":[2.2230889E-1,1.2911063E-1,4.6186924E1,-4.035517E-2,8.38662E1,-1.4709222E-1,1.317633E2,1.6599878E1,1.1283288E2,-2.2205772E-1,5.5504883E1,1.2050916E1,4.4671383E1,3.8752464E1,9.571029E0,9.057593E-1,-1.2746364E1,1.8391517E-1,2.6696922E1,-4.2122865E0,3.6455273E1],"categories":[],"categories_nodes":[],"categories_segments":[],"categories_sizes":[],"default_left":[0,0,0,0,0,0,0,0,0,0,0,0,0,0,0,0,0,0,0,0,0],"id":19,"left_children":[1,3,-1,5,7,9,11,-1,13,15,-1,-1,-1,-1,-1,17,19,-1,-1,-1,-1],"loss_changes":[7.094547E4,7.026091E4,0E0,6.954509E4,2.0217734E3,6.859867E4,2.9867188E2,0E0,1.1690742E3,6.976141E4,0E0,0E0,0E0,0E0,0E0,1.16767984E5,7.262352E4,0E0,0E0,0E0,0E0],"parents":[2147483647,0,0,1,1,3,3,4,4,5,5,6,6,8,8,9,9,15,15,16,16],"right_children":[2,4,-1,6,8,10,12,-1,14,16,-1,-1,-1,-1,-1,18,20,-1,-1,-1,-1],"split_conditions":[3.3E3,1E2,4.6186924E1,6E0,1E0,9.6E1,4E1,1.6599878E1,3E2,1E0,5.5504883E1,1.2050916E1,4.4671383E1,3.8752464E1,9.571029E0,4E1,7E0,1.8391517E-1,2.6696922E1,-4.2122865E0,3.6455273E1],"split_indices":[50,162,0,210,242,211,210,0,89,246,0,0,0,0,0,185,14,0,0,0,0],"split_type":[0,0,0,0,0,0,0,0,0,0,0,0,0,0,0,0,0,0,0,0,0],"sum_hessian":[4.952E3,4.95E3,2E0,4.941E3,9E0,4.938E3,3E0,6E0,3E0,4.937E3,1E0,1E0,2E0,2E0,1E0,4.53E3,4.07E2,4.516E3,1.4E1,4.04E2,3E0],"tree_param":{"num_deleted":"0","num_feature":"251","num_nodes":"21","size_leaf_vector":"1"}},{"base_weights":[2.1264195E-1,1.0817143E-1,3.8832527E1,-3.883496E-2,9.092622E1,-2.0293266E-1,8.0930855E1,1.3141377E2,5.275572E0,-4.111683E-1,6.38292E1,8.873557E1,1.6032532E0,1.0994453E1,4.3782936E1,-7.710033E-1,3.690558E1,1.2042354E2,2.7156906E1,9.7163704E1,3.1965775E0,-3.3101517E-1,1.213663E1,1.5591689E1,-5.1385255E0,4.499937E1,-4.1172423E0,1.7161254E0,2.4724222E1,3.2066055E1,4.365262E0],"categories":[],"categories_nodes":[],"categories_segments":[],"categories_sizes":[],"default_left":[0,0,0,0,0,0,0,0,0,0,0,0,0,0,0,0,0,0,0,0,0,0,0,0,0,0,0,0,0,0,0],"id":20,"left_children":[1,3,-1,5,7,9,11,13,-1,15,17,19,-1,-1,-1,21,23,25,27,29,-1,-1,-1,-1,-1,-1,-1,-1,-1,-1,-1],"loss_changes":[6.685463E4,6.609016E4,0E0,6.569376E4,2.1444227E4,6.5815086E4,5.425117E3,1.5358672E3,0E0,6.6080164E4,2.9936777E4,4.887336E3,0E0,0E0,0E0,6.68187E4,3.9153598E4,2.5862586E4,1.2558272E4,4.870742E3,0E0,0E0,0E0,0E0,0E0,0E0,0E0,0E0,0E0,0E0,0E0],"parents":[2147483647,0,0,1,1,3,3,4,4,5,5,6,6,7,7,9,9,10,10,11,11,15,15,16,16,17,17,18,18,19,19],"right_children":[2,4,-1,6,8,10,12,14,-1,16,18,20,-1,-1,-1,22,24,26,28,30,-1,-1,-1,-1,-1,-1,-1,-1,-1,-1,-1],"split_conditions":[1E1,1E0,3.8832527E1,2E0,2E0,5E0,2E0,2E0,5.275572E0,1E0,6E0,2E0,1.6032532E0,1.0994453E1,4.3782936E1,3E1,3.6E1,1.4E1,5E1,9E2,3.1965775E0,-3.3101517E-1,1.213663E1,1.5591689E1,-5.1385255E0,4.499937E1,-4.1172423E0,1.7161254E0,2.4724222E1,3.2066055E1,4.365262E0],"split_indices":[145,194,0,26,236,111,23,194,0,186,111,29,0,0,0,108,237,238,111,88,0,0,0,0,0,0,0,0,0,0,0],"split_type":[0,0,0,0,0,0,0,0,0,0,0,0,0,0,0,0,0,0,0,0,0,0,0,0,0,0,0,0,0,0,0],"sum_hessian":[4.952E3,4.949E3,3E0,4.942E3,7E0,4.933E3,9E0,4E0,3E0,4.918E3,1.5E1,8E0,1E0,1E0,3E0,4.872E3,4.6E1,5E0,1E1,7E0,1E0,4.834E3,3.8E1,3.6E1,1E1,4E0,1E0,8E0,2E0,6E0,1E0],"tree_param":{"num_deleted":"0","num_feature":"251","num_nodes":"31","size_leaf_vector":"1"}},{"base_weights":[1.9522466E-1,-2.278312E-1,3.0590162E1,-7.399097E-1,2.533046E1,3.4748413E1,-4.4628944E1,-8.583593E-1,3.38435E1,2.8631554E1,-2.5964176E1,2.8249784E1,7.7519905E1,-1.8709517E1,1.2869065E0,-1.1629728E0,4.30597E1,3.5195805E1,-1.4976146E1,2.1743238E1,6.61978E1,8.771142E1,9.269005E-1,-1.4141668E0,5.294226E1,3.7573845E1,3.2791054E1,5.0977898E1,7.587265E0,-6.2532005E1,1.3107793E1,2.6846317E1,-3.0574362E1,3.1458271E1,2.202776E1,3.0210283E1,1.4661393E0,-5.175396E-1,1.2880956E1,1.8662102E1,2.7002203E0,9.598119E0,3.1583616E1,1.6369017E1,-1.9782337E1,-1.869069E-1,3.808439E1,-3.3773617E1,2.5076113E0,8.1725067E-1,1.4426518E1,4.6661334E0,1.7546024E1,-2.914142E0,-1.237304E1,8.7074435E-1,1.4779331E1],"categories":[],"categories_nodes":[],"categories_segments":[],"categories_sizes":[],"default_left":[0,0,0,0,0,0,0,0,0,0,0,0,0,0,0,0,0,0,0,0,0,0,0,0,0,0,0,0,0,0,0,0,0,0,0,0,0,0,0,0,0,0,0,0,0,0,0,0,0,0,0,0,0,0,0,0,0],"id":21,"left_children":[1,3,5,7,9,11,13,15,-1,17,-1,19,21,-1,-1,23,25,27,29,31,33,35,-1,37,39,41,-1,43,45,47,49,51,53,-1,55,-1,-1,-1,-1,-1,-1,-1,-1,-1,-1,-1,-1,-1,-1,-1,-1,-1,-1,-1,-1,-1,-1],"loss_changes":[6.3696387E4,6.3965984E4,2.2819816E4,6.453641E4,3.7932582E4,1.5877219E4,3.7380312E3,6.4090742E4,0E0,2.7434766E4,0E0,1.2881457E4,5.797457E3,0E0,0E0,6.4699633E4,7.885379E3,3.534229E4,1.8181883E4,1.443683E4,1.1352156E4,7.038797E3,0E0,6.536311E4,8.396441E3,8.721371E3,0E0,2.5397031E4,3.0458645E4,1.8680248E4,3.1380278E3,1.5883453E4,7.1218604E2,0E0,2.4615562E3,0E0,0E0,0E0,0E0,0E0,0E0,0E0,0E0,0E0,0E0,0E0,0E0,0E0,0E0,0E0,0E0,0E0,0E0,0E0,0E0,0E0,0E0],"parents":[2147483647,0,0,1,1,2,2,3,3,4,4,5,5,6,6,7,7,9,9,11,11,12,12,15,15,16,16,17,17,18,18,19,19,20,20,21,21,23,23,24,24,25,25,27,27,28,28,29,29,30,30,31,31,32,32,34,34],"right_children":[2,4,6,8,10,12,14,16,-1,18,-1,20,22,-1,-1,24,26,28,30,32,34,36,-1,38,40,42,-1,44,46,48,50,52,54,-1,56,-1,-1,-1,-1,-1,-1,-1,-1,-1,-1,-1,-1,-1,-1,-1,-1,-1,-1,-1,-1,-1,-1],"split_conditions":[6E0,4E1,9E0,3E2,2.2E1,2E0,1.8E1,2E0,3.38435E1,1.6E1,-2.5964176E1,1E0,2.5E1,-1.8709517E1,1.2869065E0,1.3E3,1E0,5E2,1.5E2,6E0,3E0,4E0,9.269005E-1,1E0,1E0,1E2,3.2791054E1,1.5E2,5E1,1E0,4E2,3E0,1.1E1,3.1458271E1,3E1,3.0210283E1,1.4661393E0,-5.175396E-1,1.2880956E1,1.8662102E1,2.7002203E0,9.598119E0,3.1583616E1,1.6369017E1,-1.9782337E1,-1.869069E-1,3.808439E1,-3.3773617E1,2.5076113E0,8.1725067E-1,1.4426518E1,4.6661334E0,1.7546024E1,-2.914142E0,-1.237304E1,8.7074435E-1,1.4779331E1],"split_indices":[21,135,237,105,185,169,21,23,0,238,0,243,169,0,0,93,159,135,135,236,236,14,0,187,247,52,0,180,65,180,124,236,238,0,21,0,0,0,0,0,0,0,0,0,0,0,0,0,0,0,0,0,0,0,0,0,0],"split_type":[0,0,0,0,0,0,0,0,0,0,0,0,0,0,0,0,0,0,0,0,0,0,0,0,0,0,0,0,0,0,0,0,0,0,0,0,0,0,0,0,0,0,0,0,0,0,0,0,0,0,0,0,0,0,0,0,0],"sum_hessian":[4.952E3,4.885E3,6.7E1,4.79E3,9.5E1,6.4E1,3E0,4.786E3,4E0,9.3E1,2E0,5.7E1,7E0,2E0,1E0,4.754E3,3.2E1,8.1E1,1.2E1,5E1,7E0,6E0,1E0,4.733E3,2.1E1,3.1E1,1E0,5.1E1,3E1,4E0,8E0,4.6E1,4E0,3E0,4E0,5E0,1E0,4.701E3,3.2E1,1.7E1,4E0,3E1,1E0,5E1,1E0,2.9E1,1E0,2E0,2E0,7E0,1E0,3.5E1,1.1E1,2E0,2E0,3E0,1E0],"tree_param":{"num_deleted":"0","num_feature":"251","num_nodes":"57","size_leaf_vector":"1"}},{"base_weights":[1.7769241E-1,1.06303185E-1,5.3054577E1,-2.6639195E-2,9.402441E1,-3.708886E-1,3.5108868E1,1.3225694E2,-1.0379639E0,-6.1119133E-1,5.2927643E1,4.22805E1,-2.5967728E1,4.5204357E1,8.784E0,-2.6382637E0,2.17118E0,-7.784821E-1,7.347813E1,6.2124756E1,-7.8086977E0,1.891995E1,8.489903E1,-4.1892785E-1,5.6815076E0,3.5662357E1,-1.4317346E0,2.2035059E1,4.0375233E0,1.6711102E1,4.02024E-1,3.2307606E1,-3.120876E0],"categories":[],"categories_nodes":[],"categories_segments":[],"categories_sizes":[],"default_left":[0,0,0,0,0,0,0,0,0,0,0,0,0,0,0,0,0,0,0,0,0,0,0,0,0,0,0,0,0,0,0,0,0],"id":22,"left_children":[1,3,-1,5,7,9,11,13,15,17,19,21,-1,-1,-1,-1,-1,23,25,27,-1,29,31,-1,-1,-1,-1,-1,-1,-1,-1,-1,-1],"loss_changes":[6.2450414E4,6.183167E4,0E0,5.9836758E4,2.5578613E4,6.277768E4,4.5542535E4,5.0744062E3,2.562003E2,6.0517355E4,1.7592848E4,4.419096E4,0E0,0E0,0E0,0E0,0E0,5.9337688E4,3.964256E4,1.0034828E4,0E0,1.9971598E4,3.5875773E4,0E0,0E0,0E0,0E0,0E0,0E0,0E0,0E0,0E0,0E0],"parents":[2147483647,0,0,1,1,3,3,4,4,5,5,6,6,7,7,8,8,9,9,10,10,11,11,17,17,18,18,19,19,21,21,22,22],"right_children":[2,4,-1,6,8,10,12,14,16,18,20,22,-1,-1,-1,-1,-1,24,26,28,-1,30,32,-1,-1,-1,-1,-1,-1,-1,-1,-1,-1],"split_conditions":[1E0,3E0,5.3054577E1,2E0,1E0,2E0,3E0,1.6E1,1E0,1.3E1,1E0,2E0,-2.5967728E1,4.5204357E1,8.784E0,-2.6382637E0,2.17118E0,1E1,4E0,1E0,-7.8086977E0,1.1E1,1E0,-4.1892785E-1,5.6815076E0,3.5662357E1,-1.4317346E0,2.2035059E1,4.0375233E0,1.6711102E1,4.02024E-1,3.2307606E1,-3.120876E0],"split_indices":[9,177,0,40,246,22,235,238,175,113,245,236,0,0,0,0,0,183,236,244,0,238,243,0,0,0,0,0,0,0,0,0,0],"split_type":[0,0,0,0,0,0,0,0,0,0,0,0,0,0,0,0,0,0,0,0,0,0,0,0,0,0,0,0,0,0,0,0,0],"sum_hessian":[4.952E3,4.951E3,1E0,4.945E3,6E0,4.898E3,4.7E1,4E0,2E0,4.877E3,2.1E1,4.5E1,2E0,3E0,1E0,1E0,1E0,4.867E3,1E1,1.9E1,2E0,3E1,1.5E1,4.72E3,1.47E2,6E0,4E0,1.5E1,4E0,9E0,2.1E1,1.2E1,3E0],"tree_param":{"num_deleted":"0","num_feature":"251","num_nodes":"33","size_leaf_vector":"1"}},{"base_weights":[1.6166697E-1,9.3157016E-2,5.0913452E1,-5.790044E-1,1.7319504E1,-3.0490692E0,4.4147124E0,1.989575E1,-7.991978E1,-2.2805142E0,-4.681523E1,3.96128E0,1.4627228E2,1.4336232E1,7.667973E1,-3.3849792E1,-6.1100955E0,-5.4517317E0,7.4040685E0,-5.7985184E1,5.4070232E1,3.0947094E0,5.5436543E1,1.7487459E2,4.7794557E0,1.1662784E1,2.958702E1,9.103002E1,-2.0786188E1,-1.788083E0,1.6326675E1,3.1077497E0,-8.776408E0,-1.8336836E1,1.436359E1,2.25884E1,-7.807787E0,1.1223216E0,-3.2376236E1,2.2877642E1,-8.004246E0,6.611789E1,5.747921E0,1.6708398E0,1.5780003E1,4.2526035E1,8.67835E0],"categories":[],"categories_nodes":[],"categories_segments":[],"categories_sizes":[],"default_left":[0,0,0,0,0,0,0,0,0,0,0,0,0,0,0,0,0,0,0,0,0,0,0,0,0,0,0,0,0,0,0,0,0,0,0,0,0,0,0,0,0,0,0,0,0,0,0],"id":23,"left_children":[1,3,-1,5,7,9,11,13,15,17,19,21,23,25,27,-1,-1,29,31,33,35,37,39,41,-1,43,-1,45,-1,-1,-1,-1,-1,-1,-1,-1,-1,-1,-1,-1,-1,-1,-1,-1,-1,-1,-1],"loss_changes":[5.7517508E4,5.734867E4,0E0,5.881347E4,4.8185363E4,1.071943E5,1.0092198E5,5.6356562E4,7.502201E3,9.635294E4,6.5113992E4,7.003979E4,1.5854219E4,3.6481117E4,3.982192E4,0E0,0E0,7.227435E4,8.415061E4,1.9534406E4,1.2159592E4,1.1155418E5,4.6491258E4,2.4128867E4,0E0,4.0366344E4,0E0,4.314992E4,0E0,0E0,0E0,0E0,0E0,0E0,0E0,0E0,0E0,0E0,0E0,0E0,0E0,0E0,0E0,0E0,0E0,0E0,0E0],"parents":[2147483647,0,0,1,1,3,3,4,4,5,5,6,6,7,7,8,8,9,9,10,10,11,11,12,12,13,13,14,14,17,17,18,18,19,19,20,20,21,21,22,22,23,23,25,25,27,27],"right_children":[2,4,-1,6,8,10,12,14,16,18,20,22,24,26,28,-1,-1,30,32,34,36,38,40,42,-1,44,-1,46,-1,-1,-1,-1,-1,-1,-1,-1,-1,-1,-1,-1,-1,-1,-1,-1,-1,-1,-1],"split_conditions":[1E2,1E0,5.0913452E1,3E0,1.6E1,6E1,5E0,7E0,5E0,1.2E1,5E2,4.5E1,2E2,3.8E1,1.2E1,-3.3849792E1,-6.1100955E0,4E0,3.6E1,6E1,1E0,3.6E1,1E0,1E2,4.7794557E0,1E0,2.958702E1,3E0,-2.0786188E1,-1.788083E0,1.6326675E1,3.1077497E0,-8.776408E0,-1.8336836E1,1.436359E1,2.25884E1,-7.807787E0,1.1223216E0,-3.2376236E1,2.2877642E1,-8.004246E0,6.611789E1,5.747921E0,1.6708398E0,1.5780003E1,4.2526035E1,8.67835E0],"split_indices":[82,14,0,236,235,124,164,237,14,237,124,235,93,14,125,0,0,31,200,200,125,235,246,56,0,241,0,236,0,0,0,0,0,0,0,0,0,0,0,0,0,0,0,0,0,0,0],"split_type":[0,0,0,0,0,0,0,0,0,0,0,0,0,0,0,0,0,0,0,0,0,0,0,0,0,0,0,0,0,0,0,0,0,0,0,0,0,0,0,0,0,0,0,0,0,0,0],"sum_hessian":[4.952E3,4.951E3,1E0,4.766E3,1.85E2,3.189E3,1.577E3,1.81E2,4E0,3.135E3,5.4E1,1.573E3,4E0,1.66E2,1.5E1,2E0,2E0,2.362E3,7.73E2,4.9E1,5E0,1.548E3,2.5E1,3E0,1E0,1.62E2,4E0,1.4E1,1E0,2.343E3,1.9E1,7.16E2,5.7E1,4.8E1,1E0,4E0,1E0,1.54E3,8E0,2E1,5E0,2E0,1E0,1.42E2,2E1,7E0,7E0],"tree_param":{"num_deleted":"0","num_feature":"251","num_nodes":"47","size_leaf_vector":"1"}},{"base_weights":[1.4716046E-1,-2.128935E-2,6.950815E1,-1.7361988E-1,7.512549E1,7.768719E1,-3.0691934E0,-2.9136848E-1,9.656618E1,1.1592743E2,-1.5059277E1,8.4165955E1,1.9349259E0,-3.8674617E-1,3.516457E1,4.8325638E1,1.5433569E1,3.8907005E1,5.0027895E0,-6.8395953E0,1.2238266E0,9.138147E1,2.8839478E0,-5.89306E-1,5.4866062E1,6.1650936E1,3.908767E1,-2.472936E-1,1.4180625E1,2.2723846E1,-2.2434929E1,1.1340451E1,3.071213E1],"categories":[],"categories_nodes":[],"categories_segments":[],"categories_sizes":[],"default_left":[0,0,0,0,0,0,0,0,0,0,0,0,0,0,0,0,0,0,0,0,0,0,0,0,0,0,0,0,0,0,0,0,0],"id":24,"left_children":[1,3,5,7,9,11,-1,13,15,17,19,21,-1,23,-1,-1,-1,-1,-1,-1,-1,25,-1,27,29,31,-1,-1,-1,-1,-1,-1,-1],"loss_changes":[5.787156E4,5.6584855E4,8.621035E3,5.6219824E4,3.854291E4,4.533992E3,0E0,5.5275914E4,9.179945E3,7.398992E3,6.854914E2,4.5009062E3,0E0,5.515294E4,0E0,0E0,0E0,0E0,0E0,0E0,0E0,2.3788906E3,0E0,5.5238883E4,5.4392074E4,2.9286309E3,0E0,0E0,0E0,0E0,0E0,0E0,0E0],"parents":[2147483647,0,0,1,1,2,2,3,3,4,4,5,5,7,7,8,8,9,9,10,10,11,11,13,13,21,21,23,23,24,24,25,25],"right_children":[2,4,6,8,10,12,-1,14,16,18,20,22,-1,24,-1,-1,-1,-1,-1,-1,-1,26,-1,28,30,32,-1,-1,-1,-1,-1,-1,-1],"split_conditions":[1.2E1,1E0,1E0,1E0,5E0,1E0,-3.0691934E0,6E0,9E0,1E0,1E2,1E2,1.9349259E0,1E0,3.516457E1,4.8325638E1,1.5433569E1,3.8907005E1,5.0027895E0,-6.8395953E0,1.2238266E0,1E0,2.8839478E0,9E0,1E0,1E0,3.908767E1,-2.472936E-1,1.4180625E1,2.2723846E1,-2.2434929E1,1.1340451E1,3.071213E1],"split_indices":[136,191,245,219,237,244,0,190,238,244,88,87,0,189,0,0,0,0,0,0,0,242,0,167,192,15,0,0,0,0,0,0,0],"split_type":[0,0,0,0,0,0,0,0,0,0,0,0,0,0,0,0,0,0,0,0,0,0,0,0,0,0,0,0,0,0,0,0,0],"sum_hessian":[4.952E3,4.941E3,1.1E1,4.932E3,9E0,1E1,1E0,4.927E3,5E0,6E0,3E0,9E0,1E0,4.924E3,3E0,1E0,4E0,5E0,1E0,2E0,1E0,8E0,1E0,4.907E3,1.7E1,6E0,2E0,4.884E3,2.3E1,1.5E1,2E0,5E0,1E0],"tree_param":{"num_deleted":"0","num_feature":"251","num_nodes":"33","size_leaf_vector":"1"}},{"base_weights":[1.5032244E-1,-1.812337E-1,3.4034992E1,-4.044771E-1,4.9397182E1,4.1284546E1,-8.846982E1,-8.591923E-1,2.4392433E1,7.093352E1,-3.8013054E1,2.9222414E1,1.1682835E2,-7.548253E0,-3.226317E1,-1.7641621E0,1.2293472E1,5.6718906E1,9.218213E-1,5.917637E1,4.0620754E1,-1.3927606E1,-6.5457916E-1,2.2401005E1,1.958414E1,4.5093346E1,-7.5878453E0,-1.9885632E0,8.214053E1,5.255288E1,5.410579E0,1.1352476E2,2.121887E1,-4.3751426E0,4.066005E1,6.2298805E1,1.382602E0,4.9460503E1,1.4163867E1,-6.434998E-1,2.571233E1,5.0497528E1,-1.0398914E0,1.7150774E1,-2.2585096E1,-4.593093E0,4.739697E0,5.5072147E1,-1.47835E1,1.2690092E0,4.1619225E1,-4.4260674E0,1.8890478E1,1.216875E1,2.5335257E1,1.890103E1,-6.8009953E0,-5.0171472E-2,8.859171E0],"categories":[],"categories_nodes":[],"categories_segments":[],"categories_sizes":[],"default_left":[0,0,0,0,0,0,0,0,0,0,0,0,0,0,0,0,0,0,0,0,0,0,0,0,0,0,0,0,0,0,0,0,0,0,0,0,0,0,0,0,0,0,0,0,0,0,0,0,0,0,0,0,0,0,0,0,0,0,0],"id":25,"left_children":[1,3,5,7,9,11,13,15,17,19,21,23,25,-1,-1,27,29,31,33,35,-1,-1,-1,37,-1,-1,-1,39,41,43,45,47,49,51,-1,53,-1,55,57,-1,-1,-1,-1,-1,-1,-1,-1,-1,-1,-1,-1,-1,-1,-1,-1,-1,-1,-1,-1],"loss_changes":[5.565149E4,5.431985E4,4.628148E4,5.5101934E4,4.4111312E4,3.850208E4,9.1678516E2,5.7131152E4,6.6715266E4,5.6308516E3,1.4058135E3,8.622289E3,3.2353469E4,0E0,0E0,8.47024E4,8.533993E4,7.2205695E4,3.7670703E4,2.609418E3,0E0,0E0,0E0,7.32359E3,0E0,0E0,0E0,6.1630656E4,8.911932E4,3.0860219E4,5.7285016E4,1.6870508E5,4.732653E4,3.6573812E4,0E0,4.2785195E3,0E0,9.243148E3,6.391372E3,0E0,0E0,0E0,0E0,0E0,0E0,0E0,0E0,0E0,0E0,0E0,0E0,0E0,0E0,0E0,0E0,0E0,0E0,0E0,0E0],"parents":[2147483647,0,0,1,1,2,2,3,3,4,4,5,5,6,6,7,7,8,8,9,9,10,10,11,11,12,12,15,15,16,16,17,17,18,18,19,19,23,23,27,27,28,28,29,29,30,30,31,31,32,32,33,33,35,35,37,37,38,38],"right_children":[2,4,6,8,10,12,14,16,18,20,22,24,26,-1,-1,28,30,32,34,36,-1,-1,-1,38,-1,-1,-1,40,42,44,46,48,50,52,-1,54,-1,56,58,-1,-1,-1,-1,-1,-1,-1,-1,-1,-1,-1,-1,-1,-1,-1,-1,-1,-1,-1,-1],"split_conditions":[1E0,1E2,6E0,5E1,1E0,1E0,1E0,3E0,1E2,1E0,1.2E2,1E0,5E1,-7.548253E0,-3.226317E1,2E1,3E1,1.1E1,1.7E1,2.08E2,4.0620754E1,-1.3927606E1,-6.5457916E-1,1E1,1.958414E1,4.5093346E1,-7.5878453E0,1.2E1,1E2,1E0,3.6666668E1,7E0,1E0,2E0,4.066005E1,5.28E2,1.382602E0,1E0,2E0,-6.434998E-1,2.571233E1,5.0497528E1,-1.0398914E0,1.7150774E1,-2.2585096E1,-4.593093E0,4.739697E0,5.5072147E1,-1.47835E1,1.2690092E0,4.1619225E1,-4.4260674E0,1.8890478E1,1.216875E1,2.5335257E1,1.890103E1,-6.8009953E0,-5.0171472E-2,8.859171E0],"split_indices":[15,202,236,100,245,237,14,107,98,180,124,248,98,0,0,75,107,238,238,125,0,0,0,238,0,0,0,113,75,164,107,237,246,113,0,237,0,18,15,0,0,0,0,0,0,0,0,0,0,0,0,0,0,0,0,0,0,0,0],"split_type":[0,0,0,0,0,0,0,0,0,0,0,0,0,0,0,0,0,0,0,0,0,0,0,0,0,0,0,0,0,0,0,0,0,0,0,0,0,0,0,0,0,0,0,0,0,0,0,0,0,0,0,0,0,0,0,0,0,0,0],"sum_hessian":[4.952E3,4.905E3,4.7E1,4.884E3,2.1E1,4.5E1,2E0,4.797E3,8.7E1,1.7E1,4E0,4E1,5E0,1E0,1E0,4.489E3,3.08E2,3.6E1,5.1E1,1.6E1,1E0,3E0,1E0,3.5E1,5E0,4E0,1E0,4.478E3,1.1E1,4.4E1,2.64E2,1.3E1,2.3E1,5E1,1E0,1.5E1,1E0,7E0,2.8E1,4.471E3,7E0,5E0,6E0,4.3E1,1E0,8.8E1,1.76E2,9E0,4E0,2.1E1,2E0,4.4E1,6E0,9E0,6E0,6E0,1E0,1.5E1,1.3E1],"tree_param":{"num_deleted":"0","num_feature":"251","num_nodes":"59","size_leaf_vector":"1"}},{"base_weights":[1.6794279E-1,-1.7159605E-1,3.097484E1,6.028714E-1,-2.6900705E1,-8.532024E0,4.9357235E1,5.361198E-1,4.7771103E1,-3.2613495E1,3.5801376E1,-2.611519E1,5.9537857E1,5.611106E1,-6.1168694E0,4.5464808E-1,1.2962589E2,-4.5121243E1,-1.3089764E1,4.5042953E1,-9.878397E0,-3.3548252E1,1.169215E1,-4.3471757E-1,8.0349846E1,1.0105484E2,3.8395477E1,3.5013783E-1,9.977388E1,5.056989E1,7.761763E0,-4.671656E1,1.1418398E1,-1.8172873E1,2.2289276E1,5.2332848E1,-4.178397E0,1.0815283E1,-4.1675186E1,3.2865284E1,3.2921495E0,4.234062E1,5.7492E1,1.227057E1,5.991179E1,2.8687162E-2,1.2132415E1,4.8648907E1,-2.2467396E1,-1.6170065E1,-1.0364987E1,-6.6721992E0,9.944987E0,1.7690308E1,5.158695E0,-1.3696983E1,9.152825E-1,-7.227345E0,2.3588058E1,9.545114E0,-7.610159E0,2.657987E1,2.0684495E0],"categories":[],"categories_nodes":[],"categories_segments":[],"categories_sizes":[],"default_left":[0,0,0,0,0,0,0,0,0,0,0,0,0,0,0,0,0,0,0,0,0,0,0,0,0,0,0,0,0,0,0,0,0,0,0,0,0,0,0,0,0,0,0,0,0,0,0,0,0,0,0,0,0,0,0,0,0,0,0,0,0,0,0],"id":26,"left_children":[1,3,5,7,9,11,13,15,-1,17,19,21,23,25,-1,27,29,31,33,35,-1,37,-1,-1,39,41,43,45,47,-1,-1,49,-1,51,-1,53,-1,-1,55,-1,-1,-1,57,59,61,-1,-1,-1,-1,-1,-1,-1,-1,-1,-1,-1,-1,-1,-1,-1,-1,-1,-1],"loss_changes":[5.181438E4,1.01450266E5,3.9637586E4,5.0350426E4,5.0599727E4,2.3098756E4,1.8573203E4,5.002381E4,0E0,3.04225E4,9.1051875E3,8.564663E3,5.1934688E3,2.3190938E4,0E0,4.9373293E4,7.7593516E3,1.19961875E4,2.4004367E4,5.457703E3,0E0,9.421224E3,0E0,0E0,4.875373E3,7.600047E3,1.387975E4,4.8525312E4,6.663066E4,0E0,0E0,4.780203E3,0E0,1.0967036E4,0E0,1.3173105E3,0E0,0E0,2.454254E3,0E0,0E0,0E0,1.2239701E4,1.0371021E4,2.0682266E4,0E0,0E0,0E0,0E0,0E0,0E0,0E0,0E0,0E0,0E0,0E0,0E0,0E0,0E0,0E0,0E0,0E0,0E0],"parents":[2147483647,0,0,1,1,2,2,3,3,4,4,5,5,6,6,7,7,9,9,10,10,11,11,12,12,13,13,15,15,16,16,17,17,18,18,19,19,21,21,24,24,25,25,26,26,27,27,28,28,31,31,33,33,35,35,38,38,42,42,43,43,44,44],"right_children":[2,4,6,8,10,12,14,16,-1,18,20,22,24,26,-1,28,30,32,34,36,-1,38,-1,-1,40,42,44,46,48,-1,-1,50,-1,52,-1,54,-1,-1,56,-1,-1,-1,58,60,62,-1,-1,-1,-1,-1,-1,-1,-1,-1,-1,-1,-1,-1,-1,-1,-1,-1,-1],"split_conditions":[1.1E1,1E0,2E0,9.6E1,1E0,1E0,6E0,3.5E1,4.7771103E1,5E0,1E0,6E1,2.1E1,1.1E1,-6.1168694E0,2E1,5E1,1E0,6E0,1E0,-9.878397E0,1.4E1,1.169215E1,-4.3471757E-1,5E1,1.8E1,3E0,7E2,1.2E1,5.056989E1,7.761763E0,3E0,1.1418398E1,6E0,2.2289276E1,1E1,-4.178397E0,1.0815283E1,1.7E1,3.2865284E1,3.2921495E0,4.234062E1,5E1,1E0,4E0,2.8687162E-2,1.2132415E1,4.8648907E1,-2.2467396E1,-1.6170065E1,-1.0364987E1,-6.6721992E0,9.944987E0,1.7690308E1,5.158695E0,-1.3696983E1,9.152825E-1,-7.227345E0,2.3588058E1,9.545114E0,-7.610159E0,2.657987E1,2.0684495E0],"split_indices":[146,146,236,211,145,242,236,33,0,146,243,146,146,238,0,181,33,112,183,244,0,146,0,0,146,146,236,47,238,0,0,146,0,140,0,143,0,0,238,0,0,0,146,244,157,0,0,0,0,0,0,0,0,0,0,0,0,0,0,0,0,0,0],"split_type":[0,0,0,0,0,0,0,0,0,0,0,0,0,0,0,0,0,0,0,0,0,0,0,0,0,0,0,0,0,0,0,0,0,0,0,0,0,0,0,0,0,0,0,0,0,0,0,0,0,0,0,0,0,0,0,0,0,0,0,0,0,0,0],"sum_hessian":[4.952E3,4.899E3,5.3E1,4.762E3,1.37E2,1.7E1,3.6E1,4.761E3,1E0,1.26E2,1.1E1,1.4E1,3E0,3.3E1,3E0,4.759E3,2E0,7.6E1,5E1,1E1,1E0,1.3E1,1E0,1E0,2E0,8E0,2.5E1,4.755E3,4E0,1E0,1E0,7.5E1,1E0,4.8E1,2E0,9E0,1E0,1E0,1.2E1,1E0,1E0,3E0,5E0,1.2E1,1.3E1,4.726E3,2.9E1,3E0,1E0,4.5E1,3E1,4.5E1,3E0,7E0,2E0,1.1E1,1E0,1E0,4E0,8E0,4E0,8E0,5E0],"tree_param":{"num_deleted":"0","num_feature":"251","num_nodes":"63","size_leaf_vector":"1"}},{"base_weights":[1.7657514E-1,1.1399084E-1,4.6514095E1,2.5675919E-2,3.2805943E1,-5.197849E-1,1.7847599E1,-6.6448724E-1,7.663214E1,2.0853743E1,-2.1509274E1,-1.1781296E0,1.9528536E1,1.0180607E2,-1.8713892E1,3.1891603E1,-4.706255E0,-5.252882E-2,-3.9401085E0,5.1194677E0,3.273034E1,3.356663E1,4.6840806E0,1.0948231E1,-1.388898E1,6.3968755E-2,-3.2436615E1],"categories":[],"categories_nodes":[],"categories_segments":[],"categories_sizes":[],"default_left":[0,0,0,0,0,0,0,0,0,0,0,0,0,0,0,0,0,0,0,0,0,0,0,0,0,0,0],"id":27,"left_children":[1,3,-1,5,-1,7,9,11,13,15,-1,17,19,21,-1,23,25,-1,-1,-1,-1,-1,-1,-1,-1,-1,-1],"loss_changes":[4.798905E4,4.7771348E4,0E0,4.8119305E4,0E0,5.367191E4,4.1065434E4,4.9756703E4,3.7845875E4,4.0494355E4,0E0,5.60835E4,2.439852E4,5.2054375E3,0E0,3.767567E4,2.2408158E4,0E0,0E0,0E0,0E0,0E0,0E0,0E0,0E0,0E0,0E0],"parents":[2147483647,0,0,1,1,3,3,5,5,6,6,7,7,8,8,9,9,11,11,12,12,13,13,15,15,16,16],"right_children":[2,4,-1,6,-1,8,10,12,14,16,-1,18,20,22,-1,24,26,-1,-1,-1,-1,-1,-1,-1,-1,-1,-1],"split_conditions":[3E0,6E0,4.6514095E1,1E0,3.2805943E1,1.1E3,1E0,3E2,1.2E3,2.5E1,-2.1509274E1,1E2,1E1,1E2,-1.8713892E1,3E2,2E1,-5.252882E-2,-3.9401085E0,5.1194677E0,3.273034E1,3.356663E1,4.6840806E0,1.0948231E1,-1.388898E1,6.3968755E-2,-3.2436615E1],"split_indices":[227,210,0,109,0,50,114,88,42,109,0,91,135,41,0,87,108,0,0,0,0,0,0,0,0,0,0],"split_type":[0,0,0,0,0,0,0,0,0,0,0,0,0,0,0,0,0,0,0,0,0,0,0,0,0,0,0],"sum_hessian":[4.952E3,4.951E3,1E0,4.948E3,3E0,4.802E3,1.46E2,4.794E3,8E0,1.42E2,4E0,4.676E3,1.18E2,7E0,1E0,9.9E1,4.3E1,4.315E3,3.61E2,1.16E2,2E0,6E0,1E0,9.4E1,5E0,4.2E1,1E0],"tree_param":{"num_deleted":"0","num_feature":"251","num_nodes":"27","size_leaf_vector":"1"}},{"base_weights":[1.3892548E-1,6.521526E-1,-1.9368841E1,5.151382E-1,8.312181E1,-5.992402E1,-2.6665275E0,3.4552845E-1,5.871506E1,1.1282711E2,-1.8722298E1,-6.6430084E1,2.6144161E1,-6.0554023E0,9.8758934E1,1.756947E-1,5.847678E1,6.948755E1,-1.2199094E1,1.437296E2,-1.0888175E1,-7.252967E1,4.9900055E-1,-1.933607E1,1.820504E1,4.812076E0,3.9629444E1,-1.3562326E-1,3.1621695E1,6.91286E1,1.4565077E1,8.0562E1,7.3288608E0,4.8567043E1,7.939037E0,-4.162757E1,-9.596878E1,-1.2571274E1,2.8601496E1,-2.3543549E1,3.307353E1,3.343754E1,-2.9034557E1,1.02274366E-1,-7.6123023E0,1.9181635E1,4.342493E0,2.5843319E1,9.444231E0,-8.5314107E-1,1.0018758E1,2.6396477E1,2.0588632E0,-1.5634967E1,6.3590636E0,-3.063512E1,1.2828003E0,1.2756652E1,1.1402207E-1,-9.582534E0,1.2302076E1,1.5964882E1,-1.5375093E1],"categories":[],"categories_nodes":[],"categories_segments":[],"categories_sizes":[],"default_left":[0,0,0,0,0,0,0,0,0,0,0,0,0,0,0,0,0,0,0,0,0,0,0,0,0,0,0,0,0,0,0,0,0,0,0,0,0,0,0,0,0,0,0,0,0,0,0,0,0,0,0,0,0,0,0,0,0,0,0,0,0,0,0],"id":28,"left_children":[1,3,5,7,9,11,13,15,17,19,-1,21,-1,23,25,27,29,31,-1,33,-1,35,37,39,41,-1,-1,43,45,47,49,51,-1,-1,-1,53,55,-1,57,59,-1,61,-1,-1,-1,-1,-1,-1,-1,-1,-1,-1,-1,-1,-1,-1,-1,-1,-1,-1,-1,-1,-1],"loss_changes":[4.960165E4,5.4500016E4,8.58656E4,4.755925E4,4.1625242E4,4.1192844E4,3.1876379E4,4.744755E4,1.7813398E4,3.7473992E4,0E0,1.47328125E4,0E0,2.9027354E4,6.1544395E3,4.6936137E4,5.541492E3,4.5188125E3,0E0,8.493531E3,0E0,1.9907547E4,5.965072E3,3.4217734E4,5.9285355E4,0E0,0E0,5.7113816E4,2.5118688E4,4.334797E3,1.4062625E3,4.8692227E3,0E0,0E0,0E0,1.1648145E4,1.1530641E4,0E0,1.1624221E3,3.2210084E4,0E0,5.1302887E4,0E0,0E0,0E0,0E0,0E0,0E0,0E0,0E0,0E0,0E0,0E0,0E0,0E0,0E0,0E0,0E0,0E0,0E0,0E0,0E0,0E0],"parents":[2147483647,0,0,1,1,2,2,3,3,4,4,5,5,6,6,7,7,8,8,9,9,11,11,13,13,14,14,15,15,16,16,17,17,19,19,21,21,22,22,23,23,24,24,27,27,28,28,29,29,30,30,31,31,35,35,36,36,38,38,39,39,41,41],"right_children":[2,4,6,8,10,12,14,16,18,20,-1,22,-1,24,26,28,30,32,-1,34,-1,36,38,40,42,-1,-1,44,46,48,50,52,-1,-1,-1,54,56,-1,58,60,-1,62,-1,-1,-1,-1,-1,-1,-1,-1,-1,-1,-1,-1,-1,-1,-1,-1,-1,-1,-1,-1,-1],"split_conditions":[7E1,1E1,1.31E2,3E2,1.5E2,4E2,3.5E1,2E0,9E2,1E0,-1.8722298E1,1E0,2.6144161E1,1E0,5E2,3E2,1E0,1E0,-1.2199094E1,1E2,-1.0888175E1,2E0,2E0,1E0,6E1,4.812076E0,3.9629444E1,1E2,1.1E1,1E0,1E1,1E0,7.3288608E0,4.8567043E1,7.939037E0,1E0,1E0,-1.2571274E1,1E2,8.1E2,3.307353E1,1E0,-2.9034557E1,1.02274366E-1,-7.6123023E0,1.9181635E1,4.342493E0,2.5843319E1,9.444231E0,-8.5314107E-1,1.0018758E1,2.6396477E1,2.0588632E0,-1.5634967E1,6.3590636E0,-3.063512E1,1.2828003E0,1.2756652E1,1.1402207E-1,-9.582534E0,1.2302076E1,1.5964882E1,-1.5375093E1],"split_indices":[125,182,237,101,182,88,107,29,98,143,0,246,0,180,125,49,241,237,0,51,0,236,236,136,200,0,0,44,238,245,27,114,0,0,0,242,114,0,54,237,0,243,0,0,0,0,0,0,0,0,0,0,0,0,0,0,0,0,0,0,0,0,0],"split_type":[0,0,0,0,0,0,0,0,0,0,0,0,0,0,0,0,0,0,0,0,0,0,0,0,0,0,0,0,0,0,0,0,0,0,0,0,0,0,0,0,0,0,0,0,0,0,0,0,0,0,0,0,0,0,0,0,0,0,0,0,0,0,0],"sum_hessian":[4.952E3,4.826E3,1.26E2,4.819E3,7E0,3.6E1,9E1,4.806E3,1.3E1,6E0,1E0,3.5E1,1E0,8.8E1,2E0,4.793E3,1.3E1,1.2E1,1E0,5E0,1E0,3.2E1,3E0,5.7E1,3.1E1,1E0,1E0,4.747E3,4.6E1,1E1,3E0,9E0,3E0,4E0,1E0,1.5E1,1.7E1,1E0,2E0,5.6E1,1E0,2.8E1,3E0,4.66E3,8.7E1,1.5E1,3.1E1,6E0,4E0,2E0,1E0,8E0,1E0,1.3E1,2E0,1.6E1,1E0,1E0,1E0,5E1,6E0,2.3E1,5E0],"tree_param":{"num_deleted":"0","num_feature":"251","num_nodes":"63","size_leaf_vector":"1"}},{"base_weights":[1.2764491E-1,1.8897288E-2,8.978691E1,-5.6849543E-2,3.7468163E1,1.0829031E2,-4.0951312E-1,-2.5745976E-1,4.7003284E1,4.8270036E-2,4.0584732E1,-3.1908423E-1,4.5486458E1,5.636281E1,-2.1028076E1,-2.4351919E-1,-3.7264492E1,4.470025E1,4.1692715E1,-1.4471331E-1,2.3382942E1,7.4080105E0,2.8734255E1],"categories":[],"categories_nodes":[],"categories_segments":[],"categories_sizes":[],"default_left":[0,0,0,0,0,0,0,0,0,0,0,0,0,0,0,0,0,0,0,0,0,0,0],"id":29,"left_children":[1,3,5,7,-1,9,-1,11,13,-1,-1,15,-1,17,-1,19,-1,21,-1,-1,-1,-1,-1],"loss_changes":[4.8291203E4,