{"learner":{"attributes":{"scikit_learn":"{\"_estimator_type\": \"regressor\"}"},"feature_names":["D05022100","D05022150","D05022200","D05022202","D05022400","D05022450","D05022700","D05022701","D05022900","D05105501","D05105701","D05105801","D05110150","D05110200","D05110250","D05110300","D05110350","D05110400","D05110450","D05110500","D05110550","D05110600","D05110650","D05110700","D05110750","D05110800","D05110850","D05110900","D05344200","D05482100","D05482200","D05490200","D05490938","D05490940","D05490950","D05491000","D05491050","D05491100","D05491750","D05491800","D05491850","D05491900","D05491950","D05492500","D05492550","D05492600","D05492650","D05492700","D05492705","D05492706","D05500010","D05500011","D05500012","D05500014","D05500022","D05500023","D05500031","D05500032","D05500033","D05500034","D05500514","D05500515","D05500520","D05500525","D05500530","D05500535","D05500540","D05500545","D05500546","D05500547","D05500548","D05500549","D05500765","D05500790","D05600150","D05600250","D05600300","D05600350","D05600400","YY1068313","#prod","#ProdVol","hora","Intervalo_7-8","Intervalo_8-9","Intervalo_9-10","Intervalo_10-11","Intervalo_11-12","Intervalo_12-13","Intervalo_13-14","Intervalo_14-15","Intervalo_15-16","Intervalo_16-17","Intervalo_17-18","Intervalo_18-19"],"feature_types":["float","float","float","float","float","float","float","float","float","float","float","float","float","float","float","float","float","float","float","float","float","float","float","float","float","float","float","float","float","float","float","float","float","float","float","float","float","float","float","float","float","float","float","float","float","float","float","float","float","float","float","float","float","float","float","float","float","float","float","float","float","float","float","float","float","float","float","float","float","float","float","float","float","float","float","float","float","float","float","float","int","float","int","int","int","int","int","int","int","int","int","int","int","int","int"],"gradient_booster":{"model":{"gbtree_model_param":{"num_parallel_tree":"1","num_trees":"100"},"iteration_indptr":[0,1,2,3,4,5,6,7,8,9,10,11,12,13,14,15,16,17,18,19,20,21,22,23,24,25,26,27,28,29,30,31,32,33,34,35,36,37,38,39,40,41,42,43,44,45,46,47,48,49,50,51,52,53,54,55,56,57,58,59,60,61,62,63,64,65,66,67,68,69,70,71,72,73,74,75,76,77,78,79,80,81,82,83,84,85,86,87,88,89,90,91,92,93,94,95,96,97,98,99,100],"tree_info":[0,0,0,0,0,0,0,0,0,0,0,0,0,0,0,0,0,0,0,0,0,0,0,0,0,0,0,0,0,0,0,0,0,0,0,0,0,0,0,0,0,0,0,0,0,0,0,0,0,0,0,0,0,0,0,0,0,0,0,0,0,0,0,0,0,0,0,0,0,0,0,0,0,0,0,0,0,0,0,0,0,0,0,0,0,0,0,0,0,0,0,0,0,0,0,0,0,0,0,0],"trees":[{"base_weights":[-5.6446595E-7,-3.8982082E1,2.1342314E2,4.3865514E0,-1.7083029E2,1.7664693E2,3.992277E2,3.312314E1,-1.67686E2,-1.26799286E2,-2.5780856E2,2.1707422E2,1.64026E1,4.1882986E2,4.7896523E0,2.8831787E1,3.5400244E2,-1.3107251E2,-2.2876524E2,-2.132629E2,-1.15953835E2,-2.7430768E2,-1.168287E2,2.5586627E2,1.2849022E2,-1.6307827E1,2.8134756E2,4.3312845E2,-2.0822329E1,-2.2172329E1,2.4327673E1,2.5700401E1,4.268724E2,7.208253E1,1.564165E2,-1.3913623E2,-2.2963581E1,-8.415264E1,-1.533829E2,-9.0877014E1,-6.59862E1,-1.3666434E2,-9.713293E1,-8.671571E1,-2.1311487E2,4.352767E1,-1.481374E2,2.3626535E2,4.1258575E2,1.1695884E2,1.1267767E2,4.7446613E1,-1.1888955E2,9.3866516E1,2.3277672E1,4.5947314E2,6.349612E1,6.772863E0,1.2617602E2,1.5160428E2,4.6136898E1,-4.48666E1,-1.7424269E1,2.5077673E1,-1.5038278E1,-1.6317472E1,-5.9030266E1,-2.2223282E0,-3.867233E1,-4.410809E1,-1.7279684E1,-3.146103E1,-1.6657425E1,1.7936897E1,-7.219263E1,-5.4113327E1,5.836896E0,6.63291E1,1.5226428E2,1.4721587E2,4.009151E1,2.8049911E1,7.204842E1,8.08113E0,8.402767E1,-1.1150806E1,-5.8789074E1,1.4110822E2,1.5027673E1],"categories":[],"categories_nodes":[],"categories_segments":[],"categories_sizes":[],"default_left":[0,0,0,0,0,0,0,0,0,0,0,0,0,0,0,0,0,0,0,0,0,0,0,0,0,0,0,0,0,0,0,0,0,0,0,0,0,0,0,0,0,0,0,0,0,0,0,0,0,0,0,0,0,0,0,0,0,0,0,0,0,0,0,0,0,0,0,0,0,0,0,0,0,0,0,0,0,0,0,0,0,0,0,0,0,0,0,0,0],"id":0,"left_children":[1,3,5,7,9,11,13,15,17,19,21,23,25,27,29,31,33,35,37,39,41,43,45,47,49,51,53,55,-1,-1,-1,57,59,-1,-1,61,63,-1,65,67,-1,69,71,-1,73,-1,75,77,79,81,-1,83,85,-1,-1,87,-1,-1,-1,-1,-1,-1,-1,-1,-1,-1,-1,-1,-1,-1,-1,-1,-1,-1,-1,-1,-1,-1,-1,-1,-1,-1,-1,-1,-1,-1,-1,-1,-1],"loss_changes":[1.3952101E7,8.108982E6,1.699274E6,5.2865775E6,1.311549E6,1.408696E6,3.22731E5,1.2511312E6,3.121725E5,1.9563925E5,2.400995E5,5.650495E5,3.9457903E5,3.09308E5,2.4007795E4,1.1170381E6,1.03159625E5,8.2237625E4,1.754055E5,4.835E2,6.89715E4,3.2235E4,1.3629927E5,2.71142E5,1.1278956E5,2.7378256E5,7.8552812E3,1.303035E5,0E0,0E0,0E0,1.099602E6,7.229425E4,0E0,0E0,6.8165125E4,2.734614E4,0E0,9.6665125E4,8.568275E3,0E0,7.182525E4,3.0877125E4,0E0,1.94683E5,0E0,7.375216E4,3.363075E5,1.9596362E5,1.3361719E5,0E0,1.165128E5,9.3492266E4,0E0,0E0,1.279815E5,0E0,0E0,0E0,0E0,0E0,0E0,0E0,0E0,0E0,0E0,0E0,0E0,0E0,0E0,0E0,0E0,0E0,0E0,0E0,0E0,0E0,0E0,0E0,0E0,0E0,0E0,0E0,0E0,0E0,0E0,0E0,0E0,0E0],"parents":[2147483647,0,0,1,1,2,2,3,3,4,4,5,5,6,6,7,7,8,8,9,9,10,10,11,11,12,12,13,13,14,14,15,15,16,16,17,17,18,18,19,19,20,20,21,21,22,22,23,23,24,24,25,25,26,26,27,27,31,31,32,32,35,35,36,36,38,38,39,39,41,41,42,42,44,44,46,46,47,47,48,48,49,49,51,51,52,52,55,55],"right_children":[2,4,6,8,10,12,14,16,18,20,22,24,26,28,30,32,34,36,38,40,42,44,46,48,50,52,54,56,-1,-1,-1,58,60,-1,-1,62,64,-1,66,68,-1,70,72,-1,74,-1,76,78,80,82,-1,84,86,-1,-1,88,-1,-1,-1,-1,-1,-1,-1,-1,-1,-1,-1,-1,-1,-1,-1,-1,-1,-1,-1,-1,-1,-1,-1,-1,-1,-1,-1,-1,-1,-1,-1,-1,-1],"split_conditions":[2E0,1E0,3E0,1E0,1E2,1.2E1,1.6E1,1.3E2,1E2,1E1,2.4E2,2.5E0,3E2,1.2E1,5E0,4.4E1,1.5E1,6.5E1,1.02E2,9E0,3E1,1.5E2,3E2,2.7E1,7E0,7.5E1,1E0,4E0,-2.0822329E1,-2.2172329E1,2.4327673E1,1.77E2,1E2,7.208253E1,1.564165E2,1E0,7E1,-8.415264E1,2E2,8E0,-6.59862E1,1E0,1E0,-8.671571E1,2E2,4.352767E1,1.6E1,1.5E2,3E0,3.5E1,1.1267767E2,3E0,6E1,9.3866516E1,2.3277672E1,1E0,6.349612E1,6.772863E0,1.2617602E2,1.5160428E2,4.6136898E1,-4.48666E1,-1.7424269E1,2.5077673E1,-1.5038278E1,-1.6317472E1,-5.9030266E1,-2.2223282E0,-3.867233E1,-4.410809E1,-1.7279684E1,-3.146103E1,-1.6657425E1,1.7936897E1,-7.219263E1,-5.4113327E1,5.836896E0,6.63291E1,1.5226428E2,1.4721587E2,4.009151E1,2.8049911E1,7.204842E1,8.08113E0,8.402767E1,-1.1150806E1,-5.8789074E1,1.4110822E2,1.5027673E1],"split_indices":[80,34,80,35,34,35,82,12,35,34,34,34,35,5,13,47,82,35,35,82,34,34,34,16,1,35,0,38,0,0,0,61,47,0,0,91,35,0,35,34,0,90,88,0,34,0,82,50,14,38,0,14,34,0,0,90,0,0,0,0,0,0,0,0,0,0,0,0,0,0,0,0,0,0,0,0,0,0,0,0,0,0,0,0,0,0,0,0,0],"split_type":[0,0,0,0,0,0,0,0,0,0,0,0,0,0,0,0,0,0,0,0,0,0,0,0,0,0,0,0,0,0,0,0,0,0,0,0,0,0,0,0,0,0,0,0,0,0,0,0,0,0,0,0,0,0,0,0,0,0,0,0,0,0,0,0,0,0,0,0,0,0,0,0,0,0,0,0,0,0,0,0,0,0,0,0,0,0,0,0,0],"sum_hessian":[1.675E3,1.417E3,2.58E2,1.067E3,3.5E2,2.17E2,4.1E1,9.15E2,1.52E2,2.34E2,1.16E2,1.73E2,4.4E1,3.9E1,2E0,9.04E2,1.1E1,9.7E1,5.5E1,2.4E1,2.1E2,1.03E2,1.3E1,1.19E2,5.4E1,4E1,4E0,3.8E1,1E0,1E0,1E0,8.98E2,6E0,8E0,3E0,9E1,7E0,3.1E1,2.4E1,2E0,2.2E1,9.7E1,1.13E2,8E1,2.3E1,1E0,1.2E1,1.08E2,1.1E1,5.3E1,1E0,2.5E1,1.5E1,3E0,1E0,3.3E1,5E0,8.92E2,6E0,4E0,2E0,7.9E1,1.1E1,1E0,6E0,8E0,1.6E1,1E0,1E0,8.5E1,1.2E1,9.4E1,1.9E1,2E0,2.1E1,1E1,2E0,1.04E2,4E0,8E0,3E0,4.6E1,7E0,2.4E1,1E0,8E0,7E0,3.2E1,1E0],"tree_param":{"num_deleted":"0","num_feature":"95","num_nodes":"89","size_leaf_vector":"1"}},{"base_weights":[5.634219E-1,-2.7297798E1,1.5309874E2,3.395908E0,-1.2061284E2,1.27129875E2,2.842443E2,2.3796673E1,-1.187642E2,-8.968029E1,-1.8171144E2,1.5794421E2,2.3131098E1,2.9815115E2,4.0712075E0,2.056455E1,3.1457047E2,-9.228393E1,-1.6298389E2,-4.6067776E1,-8.168667E1,-1.9337085E2,-8.211929E1,1.854504E2,9.47619E1,5.515868E1,-1.13697845E2,3.0882153E2,-1.769898E1,-1.884648E1,2.0678522E1,1.7102915E1,2.5730304E2,3.9561017E2,-6.3922524E0,-9.807987E1,-1.4819588E1,-1.7243681E2,3.0134583E0,-8.6875305E1,-3.7638737E1,-1.9943314E2,-1.1644212E2,-1.2453841E2,5.5063095E1,1.7485326E2,3.8573615E2,8.430527E1,9.577603E1,3.1968521E1,2.2037213E2,-1.7325693E2,8.3025635E1,3.189699E2,2.4215254E1,4.108028E0,8.005299E1,1.04276436E2,1.299879E1,1.3645291E2,4.3582325E1,6.6174316E-1,-3.538257E0,-3.337127E1,-1.8272179E1,2.1316023E1,-1.1171293E1,-1.4626432E1,-5.44615E1,-2.0349432E1,1.4771671E1,-3.08265E1,-2.1562088E1,4.1231446E0,-1.5565146E1,-6.2339176E1,-4.464999E1,-4.1559944E1,1.2356566E1,-4.722059E1,4.6695194E0,3.699852E1,-2.640442E0,4.7318428E1,9.132571E1,1.2980704E2,2.968803E1,2.0375706E1,5.9584015E1,5.9890304E0,7.142352E1,7.2746544E1,1.978602E1,-9.039689E-1,-5.91441E1,3.1215506E1,6.1460314E0,9.9018196E1,2.4976463E1],"categories":[],"categories_nodes":[],"categories_segments":[],"categories_sizes":[],"default_left":[0,0,0,0,0,0,0,0,0,0,0,0,0,0,0,0,0,0,0,0,0,0,0,0,0,0,0,0,0,0,0,0,0,0,0,0,0,0,0,0,0,0,0,0,0,0,0,0,0,0,0,0,0,0,0,0,0,0,0,0,0,0,0,0,0,0,0,0,0,0,0,0,0,0,0,0,0,0,0,0,0,0,0,0,0,0,0,0,0,0,0,0,0,0,0,0,0,0,0],"id":1,"left_children":[1,3,5,7,9,11,13,15,17,19,21,23,25,27,29,31,33,35,37,-1,39,41,43,45,47,49,51,53,-1,-1,-1,55,57,59,61,63,65,67,69,71,73,75,77,79,81,83,85,87,-1,89,91,93,95,97,-1,-1,-1,-1,-1,-1,-1,-1,-1,-1,-1,-1,-1,-1,-1,-1,-1,-1,-1,-1,-1,-1,-1,-1,-1,-1,-1,-1,-1,-1,-1,-1,-1,-1,-1,-1,-1,-1,-1,-1,-1,-1,-1,-1,-1],"loss_changes":[7.126878E6,4.0618238E6,8.4594E5,2.6644525E6,6.47071E5,6.9496075E5,1.6243225E5,8.544026E5,1.641145E5,1.07453E5,1.19979E5,2.743945E5,2.2976873E5,1.7065525E5,1.734563E4,7.3888825E5,2.626362E5,4.2546375E4,8.8392875E4,0E0,4.4953875E4,2.52795E4,8.832565E4,1.787575E5,9.749878E4,1.5387072E5,1.3155144E5,6.453425E4,0E0,0E0,0E0,7.584268E5,2.3608156E5,5.254775E4,1.6535434E2,3.77335E4,1.8046707E4,5.0810625E4,1.6439291E4,3.7400375E4,1.8279852E4,9.279E3,4.0528234E4,5.309725E4,1.852441E4,2.0049425E5,2.4507312E4,8.3910625E4,0E0,8.927309E4,1.0829375E3,3.1943031E4,1.8131523E3,6.9248E4,0E0,0E0,0E0,0E0,0E0,0E0,0E0,0E0,0E0,0E0,0E0,0E0,0E0,0E0,0E0,0E0,0E0,0E0,0E0,0E0,0E0,0E0,0E0,0E0,0E0,0E0,0E0,0E0,0E0,0E0,0E0,0E0,0E0,0E0,0E0,0E0,0E0,0E0,0E0,0E0,0E0,0E0,0E0,0E0,0E0],"parents":[2147483647,0,0,1,1,2,2,3,3,4,4,5,5,6,6,7,7,8,8,9,9,10,10,11,11,12,12,13,13,14,14,15,15,16,16,17,17,18,18,20,20,21,21,22,22,23,23,24,24,25,25,26,26,27,27,31,31,32,32,33,33,34,34,35,35,36,36,37,37,38,38,39,39,40,40,41,41,42,42,43,43,44,44,45,45,46,46,47,47,49,49,50,50,51,51,52,52,53,53],"right_children":[2,4,6,8,10,12,14,16,18,20,22,24,26,28,30,32,34,36,38,-1,40,42,44,46,48,50,52,54,-1,-1,-1,56,58,60,62,64,66,68,70,72,74,76,78,80,82,84,86,88,-1,90,92,94,96,98,-1,-1,-1,-1,-1,-1,-1,-1,-1,-1,-1,-1,-1,-1,-1,-1,-1,-1,-1,-1,-1,-1,-1,-1,-1,-1,-1,-1,-1,-1,-1,-1,-1,-1,-1,-1,-1,-1,-1,-1,-1,-1,-1,-1,-1],"split_conditions":[2E0,1E0,3E0,1E0,1E2,1E0,1.6E1,1.75E2,1E2,1E1,2.4E2,2.5E0,1E2,1.2E1,5E0,9E0,1E0,6.5E1,1.6E1,-4.6067776E1,1E0,1E0,1E0,1.5E2,7E0,3E2,1.5E2,1E0,-1.769898E1,-1.884648E1,2.0678522E1,1.3E2,1.4E1,1.6E1,1.92E2,1.4E1,7E1,9E0,1.02E2,3E1,1.2E1,1E0,1.5E2,1.6E1,3E2,2.7E1,1E0,4.5E1,9.577603E1,3E0,1E0,9E0,3.5E1,4E0,2.4215254E1,4.108028E0,8.005299E1,1.04276436E2,1.299879E1,1.3645291E2,4.3582325E1,6.6174316E-1,-3.538257E0,-3.337127E1,-1.8272179E1,2.1316023E1,-1.1171293E1,-1.4626432E1,-5.44615E1,-2.0349432E1,1.4771671E1,-3.08265E1,-2.1562088E1,4.1231446E0,-1.5565146E1,-6.2339176E1,-4.464999E1,-4.1559944E1,1.2356566E1,-4.722059E1,4.6695194E0,3.699852E1,-2.640442E0,4.7318428E1,9.132571E1,1.2980704E2,2.968803E1,2.0375706E1,5.9584015E1,5.9890304E0,7.142352E1,7.2746544E1,1.978602E1,-9.039689E-1,-5.91441E1,3.1215506E1,6.1460314E0,9.9018196E1,2.4976463E1],"split_indices":[80,34,80,35,34,35,82,14,35,34,34,34,34,5,13,2,87,35,82,0,91,91,88,50,1,35,34,1,0,0,0,12,82,82,14,82,35,82,35,34,34,86,34,82,34,16,1,38,0,14,0,82,35,3,0,0,0,0,0,0,0,0,0,0,0,0,0,0,0,0,0,0,0,0,0,0,0,0,0,0,0,0,0,0,0,0,0,0,0,0,0,0,0,0,0,0,0,0,0],"split_type":[0,0,0,0,0,0,0,0,0,0,0,0,0,0,0,0,0,0,0,0,0,0,0,0,0,0,0,0,0,0,0,0,0,0,0,0,0,0,0,0,0,0,0,0,0,0,0,0,0,0,0,0,0,0,0,0,0,0,0,0,0,0,0,0,0,0,0,0,0,0,0,0,0,0,0,0,0,0,0,0,0,0,0,0,0,0,0,0,0,0,0,0,0,0,0,0,0,0,0],"sum_hessian":[1.675E3,1.417E3,2.58E2,1.067E3,3.5E2,2.17E2,4.1E1,9.15E2,1.52E2,2.34E2,1.16E2,1.67E2,5E1,3.9E1,2E0,9.06E2,9E0,9.7E1,5.5E1,2.4E1,2.1E2,1.03E2,1.3E1,1.15E2,5.2E1,4.1E1,9E0,3.8E1,1E0,1E0,1E0,8.94E2,1.2E1,7E0,2E0,9E1,7E0,5.2E1,3E0,1.87E2,2.3E1,9.4E1,9E0,1E1,3E0,1.11E2,4E0,5.1E1,1E0,3.7E1,4E0,7E0,2E0,3.6E1,2E0,8.83E2,1.1E1,8E0,4E0,5E0,2E0,1E0,1E0,6.5E1,2.5E1,1E0,6E0,4E0,4.8E1,1E0,2E0,8.8E1,9.9E1,5E0,1.8E1,7.8E1,1.6E1,8E0,1E0,8E0,2E0,1E0,2E0,1E2,1.1E1,3E0,1E0,4.6E1,5E0,3.6E1,1E0,3E0,1E0,1E0,6E0,1E0,1E0,3.4E1,2E0],"tree_param":{"num_deleted":"0","num_feature":"95","num_nodes":"99","size_leaf_vector":"1"}},{"base_weights":[8.488222E-1,-1.9102716E1,1.1007829E2,2.6228545E0,-8.515345E1,1.3064508E2,2.569422E1,1.707098E1,-8.389417E1,-6.324386E1,-1.2843208E2,1.1227512E2,2.1823732E2,2.4681776E0,1.7465189E2,1.4194361E1,2.7627322E2,-6.50222E1,-1.1542203E2,-1.0933418E2,-5.7483185E1,-4.401868E1,-8.490568E1,1.1933535E2,-4.914146E1,2.687842E2,1.1202074E2,-9.497003E0,5.314043E1,2.0698218E2,-2.899475E0,1.17752695E1,3.2353824E2,3.7764062E2,-8.613094E1,-9.354641E1,-5.0428215E1,-4.5308064E1,-6.523095E1,-6.939316E1,-3.8239185E1,-7.070248E1,-4.6258263E1,8.9391174E1,-9.741953E1,1.2913579E2,-6.6956553E0,1.7172586E1,-7.410824E1,2.898431E2,9.629353E1,2.3492199E1,2.1138866E2,3.280297E1,-9.346381E1,2.3526433E2,9.835712E0,2.2338765E0,5.301209E1,1.1423333E2,3.608791E1,3.064554E1,1.20720924E2,1.1295539E1,-5.0054462E1,1.3413355E1,-2.9834589E1,-1.6529228E1,-2.7316854E0,2.4914552E-1,-2.8910263E1,5.88577E0,-2.4439003E1,-3.6105488E1,-1.8622282E1,-2.8835983E0,-1.6114532E1,8.801422E-2,4.0138016E1,-3.5279663E1,2.929557E-2,3.682389E1,1.0189582E2,6.158796E0,-2.1925253E1,7.913832E0,-1.8616791E-1,-9.670417E0,-2.6095898E1,9.0265335E1,1.2008707E1,4.271161E1,-6.2912936E0,-2.0623052E0,3.5408707E1,8.031161E1,3.4891193E1,-7.8550305E0,2.0499321E1,-3.187079E1,1.2801938E1,7.981507E1,1.681812E1],"categories":[],"categories_nodes":[],"categories_segments":[],"categories_sizes":[],"default_left":[0,0,0,0,0,0,0,0,0,0,0,0,0,0,0,0,0,0,0,0,0,0,0,0,0,0,0,0,0,0,0,0,0,0,0,0,0,0,0,0,0,0,0,0,0,0,0,0,0,0,0,0,0,0,0,0,0,0,0,0,0,0,0,0,0,0,0,0,0,0,0,0,0,0,0,0,0,0,0,0,0,0,0,0,0,0,0,0,0,0,0,0,0,0,0,0,0,0,0,0,0,0,0],"id":2,"left_children":[1,3,5,7,9,11,13,15,17,19,21,23,25,27,29,31,33,35,37,39,41,-1,43,45,47,49,51,53,-1,55,-1,57,59,61,63,65,67,-1,69,71,-1,73,75,77,79,81,83,85,87,89,91,93,95,97,99,101,-1,-1,-1,-1,-1,-1,-1,-1,-1,-1,-1,-1,-1,-1,-1,-1,-1,-1,-1,-1,-1,-1,-1,-1,-1,-1,-1,-1,-1,-1,-1,-1,-1,-1,-1,-1,-1,-1,-1,-1,-1,-1,-1,-1,-1,-1,-1],"loss_changes":[3.6546028E6,2.035039E6,4.4614E5,1.3364418E6,3.247015E5,3.10183E5,1.7947319E5,6.79072E5,8.3528875E4,5.611025E4,8.0720125E4,2.041615E5,1.5780275E5,9.7818445E4,4.371358E4,6.749267E5,3.9988625E5,3.607825E4,9.022294E4,9.257906E3,2.8038812E4,0E0,8.941006E4,2.07136E5,1.4517814E4,5.5636625E4,1.0939367E5,1.5934481E5,0E0,2.184661E4,0E0,6.419906E5,3.5630625E4,1.3468E4,3.6256348E4,3.0559312E4,1.2425547E4,0E0,5.150321E4,1.2342207E4,0E0,3.3225656E4,3.1455719E4,1.1829162E4,6.888559E4,1.66799E5,2.4996904E4,5.078266E2,4.3152344E2,4.31215E4,2.4599172E4,2.377743E4,9.939375E2,6.4659387E4,3.0614828E4,1.2669875E4,0E0,0E0,0E0,0E0,0E0,0E0,0E0,0E0,0E0,0E0,0E0,0E0,0E0,0E0,0E0,0E0,0E0,0E0,0E0,0E0,0E0,0E0,0E0,0E0,0E0,0E0,0E0,0E0,0E0,0E0,0E0,0E0,0E0,0E0,0E0,0E0,0E0,0E0,0E0,0E0,0E0,0E0,0E0,0E0,0E0,0E0,0E0],"parents":[2147483647,0,0,1,1,2,2,3,3,4,4,5,5,6,6,7,7,8,8,9,9,10,10,11,11,12,12,13,13,14,14,15,15,16,16,17,17,18,18,19,19,20,20,22,22,23,23,24,24,25,25,26,26,27,27,29,29,31,31,32,32,33,33,34,34,35,35,36,36,38,38,39,39,41,41,42,42,43,43,44,44,45,45,46,46,47,47,48,48,49,49,50,50,51,51,52,52,53,53,54,54,55,55],"right_children":[2,4,6,8,10,12,14,16,18,20,22,24,26,28,30,32,34,36,38,40,42,-1,44,46,48,50,52,54,-1,56,-1,58,60,62,64,66,68,-1,70,72,-1,74,76,78,80,82,84,86,88,90,92,94,96,98,100,102,-1,-1,-1,-1,-1,-1,-1,-1,-1,-1,-1,-1,-1,-1,-1,-1,-1,-1,-1,-1,-1,-1,-1,-1,-1,-1,-1,-1,-1,-1,-1,-1,-1,-1,-1,-1,-1,-1,-1,-1,-1,-1,-1,-1,-1,-1,-1],"split_conditions":[2E0,1E0,1.2E1,1E0,1E2,3E0,3E2,5E1,1E2,1E1,1.5E2,3E0,8E0,6.5E1,1E0,4.4E1,1E0,2E1,1.02E2,1.2E1,1.2E1,-4.401868E1,2E2,1E0,9E0,1E0,4.2E1,8E1,5.314043E1,9E1,-2.899475E0,4E1,1E2,1E1,5.2E1,1E1,6.5E1,-4.5308064E1,2E2,4E0,-3.8239185E1,1.2E1,1.2E1,9E0,1E0,8E1,1E0,2.1875E1,1.1E1,7E0,3E0,1E0,5.5E1,3E1,5.5E0,1E0,9.835712E0,2.2338765E0,5.301209E1,1.1423333E2,3.608791E1,3.064554E1,1.20720924E2,1.1295539E1,-5.0054462E1,1.3413355E1,-2.9834589E1,-1.6529228E1,-2.7316854E0,2.4914552E-1,-2.8910263E1,5.88577E0,-2.4439003E1,-3.6105488E1,-1.8622282E1,-2.8835983E0,-1.6114532E1,8.801422E-2,4.0138016E1,-3.5279663E1,2.929557E-2,3.682389E1,1.0189582E2,6.158796E0,-2.1925253E1,7.913832E0,-1.8616791E-1,-9.670417E0,-2.6095898E1,9.0265335E1,1.2008707E1,4.271161E1,-6.2912936E0,-2.0623052E0,3.5408707E1,8.031161E1,3.4891193E1,-7.8550305E0,2.0499321E1,-3.187079E1,1.2801938E1,7.981507E1,1.681812E1],"split_indices":[80,34,35,35,34,80,35,17,35,34,34,32,15,39,34,47,90,35,35,82,82,0,34,90,82,62,15,35,0,44,0,61,47,82,17,82,35,0,35,34,0,34,34,82,88,63,34,32,82,44,61,0,15,35,17,0,0,0,0,0,0,0,0,0,0,0,0,0,0,0,0,0,0,0,0,0,0,0,0,0,0,0,0,0,0,0,0,0,0,0,0,0,0,0,0,0,0,0,0,0,0,0,0],"split_type":[0,0,0,0,0,0,0,0,0,0,0,0,0,0,0,0,0,0,0,0,0,0,0,0,0,0,0,0,0,0,0,0,0,0,0,0,0,0,0,0,0,0,0,0,0,0,0,0,0,0,0,0,0,0,0,0,0,0,0,0,0,0,0,0,0,0,0,0,0,0,0,0,0,0,0,0,0,0,0,0,0,0,0,0,0,0,0,0,0,0,0,0,0,0,0,0,0,0,0,0,0,0,0],"sum_hessian":[1.675E3,1.417E3,2.58E2,1.067E3,3.5E2,2.07E2,5.1E1,9.15E2,1.52E2,2.34E2,1.16E2,1.73E2,3.4E1,4.5E1,6E0,9.06E2,9E0,9.7E1,5.5E1,2.4E1,2.1E2,8E1,3.6E1,1.66E2,7E0,2.2E1,1.2E1,4.3E1,2E0,5E0,1E0,9E2,6E0,7E0,2E0,3.1E1,6.6E1,3.1E1,2.4E1,9E0,1.5E1,9.4E1,1.16E2,2E0,3.4E1,1.54E2,1.2E1,2E0,5E0,1.9E1,3E0,7E0,5E0,2.9E1,1.4E1,4E0,1E0,8.78E2,2.2E1,4E0,2E0,1E0,6E0,1E0,1E0,1E0,3E1,5.9E1,7E0,8E0,1.6E1,1E0,8E0,1.2E1,8.2E1,2E1,9.6E1,1E0,1E0,2.8E1,6E0,1.51E2,3E0,9E0,3E0,1E0,1E0,2E0,3E0,1.8E1,1E0,2E0,1E0,6E0,1E0,2E0,3E0,1.1E1,1.8E1,1.3E1,1E0,3E0,1E0],"tree_param":{"num_deleted":"0","num_feature":"95","num_nodes":"103","size_leaf_vector":"1"}},{"base_weights":[9.35105E-1,-1.334443E1,7.911057E1,2.0312366E0,-6.0090492E1,7.362429E1,2.9817813E2,1.2259799E1,-5.9689964E1,-4.4826096E1,-9.023615E1,6.9037254E1,1.0291642E2,9.945963E1,1.971124E1,7.3664427E0,1.3912648E2,-4.585925E1,-8.1936615E1,-5.7571007E1,-3.0793594E1,-9.409768E1,4.237625E1,5.5278465E1,1.402329E2,5.1304293E0,2.8677402E2,8.8191795E1,2.3760883E2,2.4212763E0,-5.278529E1,-9.159782E1,1.5449901E1,-6.302117E1,-1.752483E1,-2.408216E1,-2.6806343E1,-1.03253685E2,-6.951724E1,3.0270697E1,-1.9980295E1,4.5701763E1,1.6973666E2,1.1515257E2,2.2616013E2,7.4066865E-1,7.077141E1,5.1016727E1,1.1571394E2,5.4948822E1,5.699517E0,3.7668297E1,1.2069069E2,1.1401351E1,-1.1133102E0,-1.7411951E1,1.3163533E0,-1.099932E1,-3.163254E1,-3.72827E1,3.491448E1,-2.0204533E1,-9.597201E0,2.2669537E1,-2.4280594E1,-6.595105E0,-1.7181698E1,-3.2060463E1,-1.8738983E1,2.2794748E1,-2.429563E1,1.2379837E1,9.563542E1,5.851221E1,-1.4783082E0,3.743773E1,-6.8530273E0,7.8046295E1,-1.7698609E0],"categories":[],"categories_nodes":[],"categories_segments":[],"categories_sizes":[],"default_left":[0,0,0,0,0,0,0,0,0,0,0,0,0,0,0,0,0,0,0,0,0,0,0,0,0,0,0,0,0,0,0,0,0,0,0,0,0,0,0,0,0,0,0,0,0,0,0,0,0,0,0,0,0,0,0,0,0,0,0,0,0,0,0,0,0,0,0,0,0,0,0,0,0,0,0,0,0,0,0],"id":3,"left_children":[1,3,5,7,9,11,13,15,17,19,21,23,-1,-1,-1,25,27,29,31,33,35,37,39,41,43,45,47,49,51,53,55,57,59,61,63,-1,65,67,69,-1,-1,71,73,75,77,-1,-1,-1,-1,-1,-1,-1,-1,-1,-1,-1,-1,-1,-1,-1,-1,-1,-1,-1,-1,-1,-1,-1,-1,-1,-1,-1,-1,-1,-1,-1,-1,-1,-1],"loss_changes":[1.87199E6,1.01931225E6,2.8933038E5,6.749806E5,1.5746962E5,2.9023162E5,2.47405E4,5.6825225E5,4.3010875E4,4.025528E4,6.39015E4,2.3811912E5,0E0,0E0,0E0,5.5081575E5,1.495945E5,3.2229547E4,5.5044812E4,2.5523094E4,2.0339242E4,1.847875E4,3.2232232E4,2.2462269E5,6.0160375E4,5.3869706E5,1.524325E4,1.5423292E5,1.5247556E5,2.977732E3,2.5489828E4,3.5679875E4,9.907982E4,1.2213125E4,1.00561945E5,0E0,1.4462141E4,5.2671875E3,6.2886484E4,0E0,0E0,2.2547084E5,7.167653E4,4.6749312E4,6.4644188E4,0E0,0E0,0E0,0E0,0E0,0E0,0E0,0E0,0E0,0E0,0E0,0E0,0E0,0E0,0E0,0E0,0E0,0E0,0E0,0E0,0E0,0E0,0E0,0E0,0E0,0E0,0E0,0E0,0E0,0E0,0E0,0E0,0E0,0E0],"parents":[2147483647,0,0,1,1,2,2,3,3,4,4,5,5,6,6,7,7,8,8,9,9,10,10,11,11,15,15,16,16,17,17,18,18,19,19,20,20,21,21,22,22,23,23,24,24,25,25,26,26,27,27,28,28,29,29,30,30,31,31,32,32,33,33,34,34,36,36,37,37,38,38,41,41,42,42,43,43,44,44],"right_children":[2,4,6,8,10,12,14,16,18,20,22,24,-1,-1,-1,26,28,30,32,34,36,38,40,42,44,46,48,50,52,54,56,58,60,62,64,-1,66,68,70,-1,-1,72,74,76,78,-1,-1,-1,-1,-1,-1,-1,-1,-1,-1,-1,-1,-1,-1,-1,-1,-1,-1,-1,-1,-1,-1,-1,-1,-1,-1,-1,-1,-1,-1,-1,-1,-1,-1],"split_conditions":[2E0,1E0,1.5E2,2E0,1E2,3E0,1E0,8E1,9E1,3E1,6E2,3E0,1.0291642E2,9.945963E1,1.971124E1,9E0,1.5E1,1E1,2.5E2,1E0,9E0,1.5E2,1E0,1E1,4E0,1.75E2,2E2,1.1E1,1.5E2,8E0,6E1,1E1,1E1,1E0,1.2E1,-2.408216E1,1E0,1E0,2E2,3.0270697E1,-1.9980295E1,2E2,1E0,1E0,5E0,7.4066865E-1,7.077141E1,5.1016727E1,1.1571394E2,5.4948822E1,5.699517E0,3.7668297E1,1.2069069E2,1.1401351E1,-1.1133102E0,-1.7411951E1,1.3163533E0,-1.099932E1,-3.163254E1,-3.72827E1,3.491448E1,-2.0204533E1,-9.597201E0,2.2669537E1,-2.4280594E1,-6.595105E0,-1.7181698E1,-3.2060463E1,-1.8738983E1,2.2794748E1,-2.429563E1,1.2379837E1,9.563542E1,5.851221E1,-1.4783082E0,3.743773E1,-6.8530273E0,7.8046295E1,-1.7698609E0],"split_indices":[80,34,50,35,34,22,1,15,35,34,34,80,0,0,0,74,82,82,35,90,82,34,89,16,80,14,74,82,15,35,35,82,82,84,34,0,89,91,34,0,0,61,90,62,13,0,0,0,0,0,0,0,0,0,0,0,0,0,0,0,0,0,0,0,0,0,0,0,0,0,0,0,0,0,0,0,0,0,0],"split_type":[0,0,0,0,0,0,0,0,0,0,0,0,0,0,0,0,0,0,0,0,0,0,0,0,0,0,0,0,0,0,0,0,0,0,0,0,0,0,0,0,0,0,0,0,0,0,0,0,0,0,0,0,0,0,0,0,0,0,0,0,0,0,0,0,0,0,0,0,0,0,0,0,0,0,0,0,0,0,0],"sum_hessian":[1.675E3,1.417E3,2.58E2,1.067E3,3.5E2,2.53E2,5E0,9.16E2,1.51E2,2.34E2,1.16E2,2.5E2,3E0,4E0,1E0,8.83E2,3.3E1,9.5E1,5.6E1,1.21E2,1.13E2,1.13E2,3E0,2.11E2,3.9E1,8.77E2,6E0,2.3E1,1E1,1.2E1,8.3E1,5.1E1,5E0,1.06E2,1.5E1,7E0,1.06E2,8E1,3.3E1,2E0,1E0,1.96E2,1.5E1,3.2E1,7E0,8.68E2,9E0,4E0,2E0,9E0,1.4E1,7E0,3E0,1E0,1.1E1,7.6E1,7E0,1.1E1,4E1,2E0,3E0,9.2E1,1.4E1,6E0,9E0,9.3E1,1.3E1,7.2E1,8E0,2E0,3.1E1,1.94E2,2E0,1.3E1,2E0,3E1,2E0,6E0,1E0],"tree_param":{"num_deleted":"0","num_feature":"95","num_nodes":"79","size_leaf_vector":"1"}},{"base_weights":[1.1194689E0,-9.1399975E0,5.7284733E1,-1.1076432E1,2.0099603E2,6.993598E1,1.6378164E0,-1.2613129E1,2.590379E2,2.4011731E2,-9.447307E0,6.583184E1,7.9760216E1,-1.9668888E1,9.8519714E1,-1.41972685E1,2.3362581E2,2.2999357E1,8.224176E1,2.5119614E2,1.9399357E1,-3.400644E0,-8.5064393E-1,6.0697067E1,2.2858647E2,-2.9456964E1,5.5778122E1,1.3673003E2,-3.1074419E1,-1.6041319E1,1.9905162E2,3.8063232E1,1.14738976E2,1.00574036E2,5.0184612E1,5.5361866E1,2.0217381E2,7.558932E1,1.6754555E1,-4.176382E1,2.752371E1,1.6395833E2,-8.080215E0,-5.2351327E0,7.885226E1,3.0384611E1,8.398226E1,1.3993561E0,1.3574035E1,1.5423339E1,6.993962E1,6.7044174E1,1.1149988E1,-1.49450445E1,1.9832714E1,5.521762E1,6.5033846E0],"categories":[],"categories_nodes":[],"categories_segments":[],"categories_sizes":[],"default_left":[0,0,0,0,0,0,0,0,0,0,0,0,0,0,0,0,0,0,0,0,0,0,0,0,0,0,0,0,0,0,0,0,0,0,0,0,0,0,0,0,0,0,0,0,0,0,0,0,0,0,0,0,0,0,0,0,0],"id":4,"left_children":[1,3,5,7,9,11,13,15,17,19,21,23,-1,25,27,29,31,-1,-1,33,-1,-1,-1,35,37,39,-1,41,-1,43,45,47,-1,-1,-1,49,51,-1,-1,53,-1,55,-1,-1,-1,-1,-1,-1,-1,-1,-1,-1,-1,-1,-1,-1,-1],"loss_changes":[9.662777E5,5.792317E5,1.8222231E5,5.8687506E5,1.09295E5,1.5216888E5,1.0308525E5,5.490341E5,1.0158125E3,5.1384375E3,5.31131E0,1.5995294E5,0E0,8.798478E4,8.366379E4,5.5019225E5,2.4740553E5,0E0,0E0,1.44495625E4,0E0,0E0,0E0,1.4203306E5,1.01576875E4,6.3496594E4,0E0,4.0066438E4,0E0,5.4689775E5,6.654909E4,9.885513E2,0E0,0E0,0E0,1.26372E5,1.6304344E4,0E0,0E0,3.543523E4,0E0,1.6029219E4,0E0,0E0,0E0,0E0,0E0,0E0,0E0,0E0,0E0,0E0,0E0,0E0,0E0,0E0,0E0],"parents":[2147483647,0,0,1,1,2,2,3,3,4,4,5,5,6,6,7,7,8,8,9,9,10,10,11,11,13,13,14,14,15,15,16,16,19,19,23,23,24,24,25,25,27,27,29,29,30,30,31,31,35,35,36,36,39,39,41,41],"right_children":[2,4,6,8,10,12,14,16,18,20,22,24,-1,26,28,30,32,-1,-1,34,-1,-1,-1,36,38,40,-1,42,-1,44,46,48,-1,-1,-1,50,52,-1,-1,54,-1,56,-1,-1,-1,-1,-1,-1,-1,-1,-1,-1,-1,-1,-1,-1,-1],"split_conditions":[2E0,1E2,2E1,1.15E2,1E0,3E0,1.02E2,2.1E1,1.3E2,1E0,1.2E2,1.5E2,7.9760216E1,3E0,1E0,1.3E1,1E0,2.2999357E1,8.224176E1,1.2E2,1.9399357E1,-3.400644E0,-8.5064393E-1,8.5E1,1E0,1E0,5.5778122E1,4E0,-3.1074419E1,1.77E2,3.1E1,4E1,1.14738976E2,1.00574036E2,5.0184612E1,8E1,1E0,7.558932E1,1.6754555E1,1.5E2,2.752371E1,9E1,-8.080215E0,-5.2351327E0,7.885226E1,3.0384611E1,8.398226E1,1.3993561E0,1.3574035E1,1.5423339E1,6.993962E1,6.7044174E1,1.1149988E1,-1.49450445E1,1.9832714E1,5.521762E1,6.5033846E0],"split_indices":[80,51,35,13,88,22,35,62,13,91,51,50,0,14,36,4,91,0,0,51,0,0,0,13,1,36,0,38,0,61,4,62,0,0,0,63,88,0,0,34,0,44,0,0,0,0,0,0,0,0,0,0,0,0,0,0,0],"split_type":[0,0,0,0,0,0,0,0,0,0,0,0,0,0,0,0,0,0,0,0,0,0,0,0,0,0,0,0,0,0,0,0,0,0,0,0,0,0,0,0,0,0,0,0,0,0,0,0,0,0,0,0,0,0,0,0,0],"sum_hessian":[1.675E3,1.417E3,2.58E2,1.405E3,1.2E1,2.1E2,4.8E1,1.398E3,7E0,1E1,2E0,2.07E2,3E0,4E1,8E0,1.39E3,8E0,1E0,6E0,9E0,1E0,1E0,1E0,2.02E2,5E0,3.9E1,1E0,7E0,1E0,1.379E3,1.1E1,4E0,4E0,3E0,6E0,1.96E2,6E0,4E0,1E0,3.6E1,3E0,6E0,1E0,1.373E3,6E0,6E0,5E0,1E0,3E0,1.93E2,3E0,5E0,1E0,3.4E1,2E0,5E0,1E0],"tree_param":{"num_deleted":"0","num_feature":"95","num_nodes":"57","size_leaf_vector":"1"}},{"base_weights":[1.4013305E0,-2.1314664E0,9.826004E1,-3.9348168E0,1.908489E2,5.5169212E1,2.0147449E2,-5.8552446E0,1.756872E2,1.2328943E2,1.0374455E2,1.401447E2,4.641461E0,1.30178E2,3.4655048E2,-7.628178E0,1.94018E2,2.1315515E2,-7.021497E1,1.3501488E2,-8.535691E-1,1.523288E2,3.657068E1,-1.9616346E1,1.5509239E2,2.3343079E2,3.646614E1,1.2166037E2,1.6592125E1,-9.483703E0,1.8597865E2,1.0154094E2,2.7198923E2,2.6695416E2,-1.5306549E0,1.027538E1,-4.187212E1,1.5528271E2,8.761909E0,9.449245E1,1.9666623E2,-3.965973E-1,1.6853403E1,-7.3778625E1,1.3706167E0,5.3776424E1,1.2390798E1,8.2780495E1,3.136487E0,1.047639E2,-1.740678E1,-3.5352442E0,4.1499477E1,7.134508E1,1.0421624E1,4.220996E1,-3.1871645E0,9.351803E1,5.034627E0,9.427844E1,2.8132246E1,-5.20061E0,6.882523E0,5.2564404E1,1.7104176E1,5.5451817E1,9.949201E-1,6.738901E1,4.332523E0,-4.2587166E1,-5.4347243E0,6.2344446E0,-1.714083E1,6.264548E1,7.963724E0],"categories":[],"categories_nodes":[],"categories_segments":[],"categories_sizes":[],"default_left":[0,0,0,0,0,0,0,0,0,0,0,0,0,0,0,0,0,0,0,0,0,0,0,0,0,0,0,0,0,0,0,0,0,0,0,0,0,0,0,0,0,0,0,0,0,0,0,0,0,0,0,0,0,0,0,0,0,0,0,0,0,0,0,0,0,0,0,0,0,0,0,0,0,0,0],"id":5,"left_children":[1,3,5,7,9,11,13,15,17,19,-1,21,23,25,27,29,31,33,35,37,-1,39,41,43,45,47,49,-1,-1,51,53,55,57,59,61,-1,-1,63,-1,65,67,-1,-1,69,71,-1,-1,-1,-1,73,-1,-1,-1,-1,-1,-1,-1,-1,-1,-1,-1,-1,-1,-1,-1,-1,-1,-1,-1,-1,-1,-1,-1,-1,-1],"loss_changes":[5.7370675E5,5.638332E5,2.51293E5,5.543303E5,1.1440625E5,1.8397522E5,1.30724625E5,5.642069E5,1.7159538E5,1.8131953E4,0E0,1.46205E4,1.05231414E5,1.1727583E5,6.346475E4,5.6757044E5,7.3329625E4,1.7365688E5,2.651752E4,1.905439E4,0E0,1.7316969E4,2.3031892E3,2.8518664E4,3.5940078E3,5.3979562E4,5.7705625E4,0E0,0E0,5.324338E5,1.0933872E5,3.6632805E4,6.5757625E4,6.8842625E4,1.9448204E3,0E0,0E0,7.6385312E3,0E0,6.528683E4,3.242575E4,0E0,0E0,2.3993453E4,2.2765021E4,0E0,0E0,0E0,0E0,3.515147E4,0E0,0E0,0E0,0E0,0E0,0E0,0E0,0E0,0E0,0E0,0E0,0E0,0E0,0E0,0E0,0E0,0E0,0E0,0E0,0E0,0E0,0E0,0E0,0E0,0E0],"parents":[2147483647,0,0,1,1,2,2,3,3,4,4,5,5,6,6,7,7,8,8,9,9,11,11,12,12,13,13,14,14,15,15,16,16,17,17,18,18,19,19,21,21,22,22,23,23,24,24,25,25,26,26,29,29,30,30,31,31,32,32,33,33,34,34,37,37,39,39,40,40,43,43,44,44,49,49],"right_children":[2,4,6,8,10,12,14,16,18,20,-1,22,24,26,28,30,32,34,36,38,-1,40,42,44,46,48,50,-1,-1,52,54,56,58,60,62,-1,-1,64,-1,66,68,-1,-1,70,72,-1,-1,-1,-1,74,-1,-1,-1,-1,-1,-1,-1,-1,-1,-1,-1,-1,-1,-1,-1,-1,-1,-1,-1,-1,-1,-1,-1,-1,-1],"split_conditions":[5.5E1,1.3E2,1.5E1,5E1,5E2,1.1E1,1.5E2,6E1,1E0,4E2,1.0374455E2,1.05E2,4E2,8.4E1,5E2,9E0,2.4E2,5.6E1,5.2E1,1E0,-8.535691E-1,1E2,9E0,1.2E1,1.155E3,9E0,1.6E1,1.2166037E2,1.6592125E1,6E1,1E0,1.3E1,1E0,1E0,2.5E2,1.027538E1,-4.187212E1,1E0,8.761909E0,9E0,1E0,-3.965973E-1,1.6853403E1,6.4E1,1.4E1,5.3776424E1,1.2390798E1,8.2780495E1,3.136487E0,1.05E2,-1.740678E1,-3.5352442E0,4.1499477E1,7.134508E1,1.0421624E1,4.220996E1,-3.1871645E0,9.351803E1,5.034627E0,9.427844E1,2.8132246E1,-5.20061E0,6.882523E0,5.2564404E1,1.7104176E1,5.5451817E1,9.949201E-1,6.738901E1,4.332523E0,-4.2587166E1,-5.4347243E0,6.2344446E0,-1.714083E1,6.264548E1,7.963724E0],"split_indices":[15,12,82,17,12,82,15,1,90,12,0,15,15,15,15,2,1,16,17,90,0,15,82,82,15,30,82,0,0,61,90,82,87,89,16,0,0,85,0,82,16,0,0,15,82,0,0,0,0,15,0,0,0,0,0,0,0,0,0,0,0,0,0,0,0,0,0,0,0,0,0,0,0,0,0],"split_type":[0,0,0,0,0,0,0,0,0,0,0,0,0,0,0,0,0,0,0,0,0,0,0,0,0,0,0,0,0,0,0,0,0,0,0,0,0,0,0,0,0,0,0,0,0,0,0,0,0,0,0,0,0,0,0,0,0,0,0,0,0,0,0,0,0,0,0,0,0,0,0,0,0,0,0],"sum_hessian":[1.675E3,1.617E3,5.8E1,1.603E3,1.4E1,4.2E1,1.6E1,1.587E3,1.6E1,1.1E1,3E0,1.5E1,2.7E1,1.2E1,4E0,1.574E3,1.3E1,1.4E1,2E0,1E1,1E0,1.3E1,2E0,2.4E1,3E0,5E0,7E0,3E0,1E0,1.56E3,1.4E1,7E0,6E0,1.1E1,3E0,1E0,1E0,8E0,2E0,7E0,6E0,1E0,1E0,6E0,1.8E1,2E0,1E0,4E0,1E0,4E0,3E0,1.537E3,2.3E1,1E1,4E0,5E0,2E0,5E0,1E0,8E0,3E0,2E0,1E0,6E0,2E0,3E0,4E0,5E0,1E0,2E0,4E0,1.4E1,4E0,1E0,3E0],"tree_param":{"num_deleted":"0","num_feature":"95","num_nodes":"75","size_leaf_vector":"1"}},{"base_weights":[1.5539389E0,-7.093853E-1,1.301196E2,-2.2403417E0,1.9201016E2,9.7916534E1,1.129722E2,-3.2763312E0,2.797495E2,2.3749937E2,3.0284592E1,4.6844456E1,1.8005463E2,-5.1759677E0,1.4260895E2,1.0457238E2,9.473295E1,2.6085596E2,4.0935383E0,-1.3424561E1,2.421181E1,7.439346E1,-2.045263E1,2.4096693E2,9.928528E1,-9.269433E0,6.4931046E1,3.75514E1,2.0437117E2,4.664914E0,3.7964916E1,1.1443539E1,2.8392667E2,6.1807252E-2,-6.10286E0,-2.2785088E1,9.055732E1,2.007974E1,8.032273E1,5.1666878E1,1.9760727E1,-3.0076027E0,1.1311989E2,2.4182413E1,-3.489982E0,6.8817675E-1,4.794168E1,6.746567E1,-6.2702E0,9.2655785E1,1.641677E1,5.6819885E1,1.7490091E1,-2.8754945E0,1.6169678E1],"categories":[],"categories_nodes":[],"categories_segments":[],"categories_sizes":[],"default_left":[0,0,0,0,0,0,0,0,0,0,0,0,0,0,0,0,0,0,0,0,0,0,0,0,0,0,0,0,0,0,0,0,0,0,0,0,0,0,0,0,0,0,0,0,0,0,0,0,0,0,0,0,0,0,0],"id":6,"left_children":[1,3,5,7,9,11,-1,13,15,17,19,21,23,25,27,-1,29,31,-1,33,-1,35,-1,37,39,41,43,45,47,-1,-1,-1,49,-1,-1,-1,51,-1,-1,-1,53,-1,-1,-1,-1,-1,-1,-1,-1,-1,-1,-1,-1,-1,-1],"loss_changes":[4.8778444E5,4.8666478E5,1.9328816E5,4.7885516E5,8.844541E4,1.0482944E5,0E0,4.5273553E5,4.3381188E4,4.872525E4,9.898955E3,6.2108105E4,2.5274031E4,4.6292766E5,1.2858584E5,0E0,5.590254E3,3.54125E4,0E0,2.870927E2,0E0,4.3329883E4,0E0,5.378625E3,3.1398754E4,4.4854906E5,1.07764375E5,3.842679E4,6.4777312E4,0E0,0E0,0E0,2.8803812E4,0E0,0E0,0E0,3.3594953E4,0E0,0E0,0E0,4.523859E3,0E0,0E0,0E0,0E0,0E0,0E0,0E0,0E0,0E0,0E0,0E0,0E0,0E0,0E0],"parents":[2147483647,0,0,1,1,2,2,3,3,4,4,5,5,7,7,8,8,9,9,10,10,11,11,12,12,13,13,14,14,16,16,17,17,19,19,21,21,23,23,24,24,25,25,26,26,27,27,28,28,32,32,36,36,40,40],"right_children":[2,4,6,8,10,12,-1,14,16,18,20,22,24,26,28,-1,30,32,-1,34,-1,36,-1,38,40,42,44,46,48,-1,-1,-1,50,-1,-1,-1,52,-1,-1,-1,54,-1,-1,-1,-1,-1,-1,-1,-1,-1,-1,-1,-1,-1,-1],"split_conditions":[5E1,4E1,1.7E1,1.5E1,3E0,1.2E2,1.129722E2,1.2E2,3.5E1,1.6E1,6E1,1E0,2.4E2,2.2E1,1.2E1,1.0457238E2,7.5E1,9E0,4.0935383E0,3E0,2.421181E1,5.1E1,-2.045263E1,1.3E2,1.1E1,9E1,1E0,2.95E2,1E0,4.664914E0,3.7964916E1,1.1443539E1,1E0,6.1807252E-2,-6.10286E0,-2.2785088E1,6E1,2.007974E1,8.032273E1,5.1666878E1,1E0,-3.0076027E0,1.1311989E2,2.4182413E1,-3.489982E0,6.8817675E-1,4.794168E1,6.746567E1,-6.2702E0,9.2655785E1,1.641677E1,5.6819885E1,1.7490091E1,-2.8754945E0,1.6169678E1],"split_indices":[13,62,82,49,80,13,0,14,49,82,67,89,13,15,82,0,49,82,0,61,0,13,0,13,82,22,89,14,90,0,0,0,88,0,0,0,13,0,0,0,16,0,0,0,0,0,0,0,0,0,0,0,0,0,0],"split_type":[0,0,0,0,0,0,0,0,0,0,0,0,0,0,0,0,0,0,0,0,0,0,0,0,0,0,0,0,0,0,0,0,0,0,0,0,0,0,0,0,0,0,0,0,0,0,0,0,0,0,0,0,0,0,0],"sum_hessian":[1.675E3,1.647E3,2.8E1,1.635E3,1.2E1,2.6E1,2E0,1.63E3,5E0,9E0,3E0,1.7E1,9E0,1.61E3,2E1,3E0,2E0,8E0,1E0,2E0,1E0,1.4E1,3E0,4E0,5E0,1.522E3,8.8E1,8E0,1.2E1,1E0,1E0,1E0,7E0,1E0,1E0,1E0,1.3E1,1E0,3E0,2E0,3E0,1.52E3,2E0,7.3E1,1.5E1,7E0,1E0,1.1E1,1E0,6E0,1E0,2E0,1.1E1,2E0,1E0],"tree_param":{"num_deleted":"0","num_feature":"95","num_nodes":"55","size_leaf_vector":"1"}},{"base_weights":[1.5889622E0,-5.0585203E0,3.797715E1,-6.272886E0,2.817677E2,3.4032116E1,1.986541E2,-7.467078E0,2.3465591E2,1.0348713E2,1.0359263E2,2.3591509E1,8.617062E1,1.0867914E1,2.2389436E2,-8.549012E0,2.4658919E2,4.159943E1,9.492676E1,1.9333421E0,4.4683342E1,1.9777245E1,2.179425E2,9.246113E1,-2.5761019E1,8.302359E1,2.892359E1,-9.71595E0,2.2539317E2,1.1133027E2,1.0342142E2,1.6446829E1,7.322811E1,8.509055E1,3.1296754E0,1.0003044E2,-3.6760345E1,-3.3895128E0,4.7849655E1,3.387813E1,1.01311676E2,4.072141E1,5.716054E0,3.4754684E0,4.6319656E1,3.3864037E1,3.1631746E0,-1.3631365E1,-2.9107912E0],"categories":[],"categories_nodes":[],"categories_segments":[],"categories_sizes":[],"default_left":[0,0,0,0,0,0,0,0,0,0,0,0,0,0,0,0,0,0,0,0,0,0,0,0,0,0,0,0,0,0,0,0,0,0,0,0,0,0,0,0,0,0,0,0,0,0,0,0,0],"id":7,"left_children":[1,3,5,7,9,11,13,15,17,-1,19,21,23,-1,25,27,29,-1,-1,-1,-1,31,33,35,-1,-1,-1,37,39,41,-1,43,-1,-1,-1,45,47,-1,-1,-1,-1,-1,-1,-1,-1,-1,-1,-1,-1],"loss_changes":[4.055995E5,4.956738E5,1.5741331E5,4.0829397E5,3.1817656E4,1.3623394E5,1.6487438E4,3.888529E5,1.10654375E4,0E0,1.2257678E4,1.535879E5,5.3393E4,0E0,7.00625E3,3.8493053E5,4.127325E4,0E0,0E0,0E0,0E0,1.5286953E5,5.1568656E4,4.378E4,0E0,0E0,0E0,3.7560862E5,5.028325E4,6.422785E3,0E0,1.3771978E5,0E0,0E0,0E0,4.365478E4,2.6351538E2,0E0,0E0,0E0,0E0,0E0,0E0,0E0,0E0,0E0,0E0,0E0,0E0],"parents":[2147483647,0,0,1,1,2,2,3,3,4,4,5,5,6,6,7,7,8,8,10,10,11,11,12,12,14,14,15,15,16,16,21,21,22,22,23,23,27,27,28,28,29,29,31,31,35,35,36,36],"right_children":[2,4,6,8,10,12,14,16,18,-1,20,22,24,-1,26,28,30,-1,-1,-1,-1,32,34,36,-1,-1,-1,38,40,42,-1,44,-1,-1,-1,46,48,-1,-1,-1,-1,-1,-1,-1,-1,-1,-1,-1,-1],"split_conditions":[2E0,4.5E1,1E2,9E0,1E2,3E0,8E1,7E0,2E2,1.0348713E2,1.1E1,1.5E1,1.2E1,1.0867914E1,1.4E1,2E1,5.2E1,4.159943E1,9.492676E1,1.9333421E0,4.4683342E1,4E1,2E0,1.6E1,-2.5761019E1,8.302359E1,2.892359E1,1E2,1E0,5E1,1.0342142E2,4.5E1,7.322811E1,8.509055E1,3.1296754E0,4E0,5E0,-3.3895128E0,4.7849655E1,3.387813E1,1.01311676E2,4.072141E1,5.716054E0,3.4754684E0,4.6319656E1,3.3864037E1,3.1631746E0,-1.3631365E1,-2.9107912E0],"split_indices":[80,47,54,74,47,80,50,23,74,0,82,67,5,0,82,2,23,0,0,0,0,26,63,82,0,0,0,51,86,23,0,38,0,0,0,38,13,0,0,0,0,0,0,0,0,0,0,0,0],"split_type":[0,0,0,0,0,0,0,0,0,0,0,0,0,0,0,0,0,0,0,0,0,0,0,0,0,0,0,0,0,0,0,0,0,0,0,0,0,0,0,0,0,0,0,0,0,0,0,0,0],"sum_hessian":[1.675E3,1.417E3,2.58E2,1.412E3,5E0,2.53E2,5E0,1.406E3,6E0,3E0,2E0,2.12E2,4.1E1,1E0,4E0,1.401E3,5E0,4E0,2E0,1E0,1E0,2.09E2,3E0,4E1,1E0,2E0,2E0,1.395E3,6E0,3E0,2E0,2.07E2,2E0,2E0,1E0,3.8E1,2E0,1.383E3,1.2E1,4E0,2E0,2E0,1E0,2.01E2,6E0,3.3E1,5E0,1E0,1E0],"tree_param":{"num_deleted":"0","num_feature":"95","num_nodes":"49","size_leaf_vector":"1"}},{"base_weights":[1.676078E0,6.0673153E-1,2.2455898E2,-4.4509903E-1,1.9466049E2,1.2583223E2,1.0414784E2,-1.7279696E0,1.5059889E2,2.4122261E2,2.1128744E1,3.6418717E0,1.4614285E2,1.0560054E0,-8.3926346E1,8.069587E1,2.0897394E2,8.443599E1,2.8129187E1,2.8967286E-2,9.478968E0,4.8632633E1,1.2341872E1,-5.9208655E-1,1.3087285E2,-1.4592215E2,-3.514913E-1,5.005027E1,2.4177378E1,2.3798181E2,5.2390003E0,-5.7901347E-1,4.464711E1,1.1724986E2,2.4082642E1,-1.6875862E1,-4.8300804E1,-2.5319063E1,1.4083801E1,1.0494949E1,-4.47773E0,7.946686E1,1.5516491E1],"categories":[],"categories_nodes":[],"categories_segments":[],"categories_sizes":[],"default_left":[0,0,0,0,0,0,0,0,0,0,0,0,0,0,0,0,0,0,0,0,0,0,0,0,0,0,0,0,0,0,0,0,0,0,0,0,0,0,0,0,0,0,0],"id":8,"left_children":[1,3,5,7,9,11,-1,13,15,17,19,-1,21,23,25,27,29,-1,-1,-1,-1,-1,-1,31,33,35,37,-1,39,41,-1,-1,-1,-1,-1,-1,-1,-1,-1,-1,-1,-1,-1],"loss_changes":[3.9931997E5,3.4074903E5,5.314775E4,3.2211206E5,6.762334E4,1.2080906E4,0E0,3.77214E5,4.0264938E4,1.51363125E4,6.5743225E2,0E0,1.7132812E3,3.4132788E5,2.7973838E5,3.4913664E4,3.473125E4,0E0,0E0,0E0,0E0,0E0,0E0,3.153487E5,2.3169166E5,3.2863188E4,9.936535E4,0E0,3.0573909E3,1.63705E4,0E0,0E0,0E0,0E0,0E0,0E0,0E0,0E0,0E0,0E0,0E0,0E0,0E0],"parents":[2147483647,0,0,1,1,2,2,3,3,4,4,5,5,7,7,8,8,9,9,10,10,12,12,13,13,14,14,15,15,16,16,23,23,24,24,25,25,26,26,28,28,29,29],"right_children":[2,4,6,8,10,12,-1,14,16,18,20,-1,22,24,26,28,30,-1,-1,-1,-1,-1,-1,32,34,36,38,-1,40,42,-1,-1,-1,-1,-1,-1,-1,-1,-1,-1,-1,-1,-1],"split_conditions":[3E1,2E2,4.6E1,6E1,1E0,1.1E1,1.0414784E2,1E0,2.4E2,1E0,3E2,3.6418717E0,1.5E1,1.5E1,3E1,8E1,1E0,8.443599E1,2.8129187E1,2.8967286E-2,9.478968E0,4.8632633E1,1.2341872E1,1.85E2,2.5E1,1E1,1.1E1,5.005027E1,1E0,1E0,5.2390003E0,-5.7901347E-1,4.464711E1,1.1724986E2,2.4082642E1,-1.6875862E1,-4.8300804E1,-2.5319063E1,1.4083801E1,1.0494949E1,-4.47773E0,7.946686E1,1.5516491E1],"split_indices":[4,61,4,1,89,82,0,1,1,86,61,0,82,63,1,1,87,0,0,0,0,0,0,12,63,82,82,0,89,90,0,0,0,0,0,0,0,0,0,0,0,0,0],"split_type":[0,0,0,0,0,0,0,0,0,0,0,0,0,0,0,0,0,0,0,0,0,0,0,0,0,0,0,0,0,0,0,0,0,0,0,0,0,0,0,0,0,0,0],"sum_hessian":[1.675E3,1.668E3,7E0,1.66E3,8E0,5E0,2E0,1.647E3,1.3E1,6E0,2E0,1E0,4E0,1.594E3,5.3E1,7E0,6E0,4E0,2E0,1E0,1E0,3E0,1E0,1.575E3,1.9E1,3E1,2.3E1,2E0,5E0,5E0,1E0,1.562E3,1.3E1,2E0,1.7E1,5E0,2.5E1,8E0,1.5E1,4E0,1E0,4E0,1E0],"tree_param":{"num_deleted":"0","num_feature":"95","num_nodes":"43","size_leaf_vector":"1"}},{"base_weights":[1.5050658E0,9.28518E-1,9.681512E1,4.6279952E-1,1.1701134E2,-3.4036526E-1,2.2366548E2,-1.4258082E0,1.6329643E2,1.06274345E2,1.2669945E2,-1.9930795E0,9.365498E1,2.0133249E2,7.738664E1,5.8859863E1,4.489862E0,-7.360632E-1,1.1401134E2,1.766306E1,6.457869E1,4.6990257E1,5.524864E0],"categories":[],"categories_nodes":[],"categories_segments":[],"categories_sizes":[],"default_left":[0,0,0,0,0,0,0,0,0,0,0,0,0,0,0,0,0,0,0,0,0,0,0],"id":9,"left_children":[1,3,-1,5,-1,7,9,11,13,-1,15,17,-1,19,21,-1,-1,-1,-1,-1,-1,-1,-1],"loss_changes":[3.100856E5,3.0317406E5,0E0,2.9999238E5,0E0,2.965003E5,3.1089312E4,2.9558284E5,2.0363906E4,0E0,3.5890984E4,2.922421E5,0E0,1.2166875E3,2.04817E4,0E0,0E0,0E0,0E0,0E0,0E0,0E0,0E0],"parents":[2147483647,0,0,1,1,3,3,5,5,6,6,7,7,8,8,10,10,11,11,13,13,14,14],"right_children":[2,4,-1,6,-1,8,10,12,14,-1,16,18,-1,20,22,-1,-1,-1,-1,-1,-1,-1,-1],"split_conditions":[3E2,5E1,9.681512E1,1.5E1,1.1701134E2,1.2E2,1.8E1,2.88E2,1E0,1.06274345E2,1E1,5E2,9.365498E1,1.3E2,1.5E2,5.8859863E1,4.489862E0,-7.360632E-1,1.1401134E2,1.766306E1,6.457869E1,4.6990257E1,5.524864E0],"split_indices":[32,78,0,49,0,13,49,17,87,0,82,36,0,13,13,0,0,0,0,0,0,0,0],"split_type":[0,0,0,0,0,0,0,0,0,0,0,0,0,0,0,0,0,0,0,0,0,0,0],"sum_hessian":[1.675E3,1.673E3,2E0,1.672E3,1E0,1.667E3,5E0,1.657E3,1E1,1E0,4E0,1.655E3,2E0,6E0,4E0,2E0,2E0,1.654E3,1E0,1E0,5E0,1E0,3E0],"tree_param":{"num_deleted":"0","num_feature":"95","num_nodes":"23","size_leaf_vector":"1"}},{"base_weights":[1.4862031E0,9.417611E-1,9.143683E1,-3.1601942E-1,1.3129901E2,-1.9938126E0,9.748664E1,9.043781E1,8.346549E1,-3.3275404E0,1.24906075E2,5.6944042E1,1.9172513E2,9.947722E1,-4.0611606E0,-3.7814968E0,1.0947175E2,9.378698E1,9.342175E1,-2.2891367E1,6.6552574E1,2.125212E2,6.922907E0,4.9635193E1,7.244108E1,-1.3885988E0,5.7445766E1,-2.067927E0,5.185788E1,-3.002826E1,1.9727142E1,3.265622E1,1.3100885E1,6.953614E1,1.453884E1,8.1520815E0,2.8327883E1],"categories":[],"categories_nodes":[],"categories_segments":[],"categories_sizes":[],"default_left":[0,0,0,0,0,0,0,0,0,0,0,0,0,0,0,0,0,0,0,0,0,0,0,0,0,0,0,0,0,0,0,0,0,0,0,0,0],"id":10,"left_children":[1,3,-1,5,7,9,11,13,-1,15,17,19,21,23,-1,25,-1,27,-1,29,31,33,-1,-1,35,-1,-1,-1,-1,-1,-1,-1,-1,-1,-1,-1,-1],"loss_changes":[2.7647253E5,2.745119E5,0E0,2.7242403E5,7.089131E4,2.766315E5,9.606125E4,1.4504836E4,0E0,2.7151338E5,6.945716E4,1.763261E4,2.3153625E4,1.1202242E4,0E0,2.680459E5,0E0,1.2856811E5,0E0,2.7113654E4,1.3638055E4,1.0892125E4,0E0,0E0,8.381453E3,0E0,0E0,0E0,0E0,0E0,0E0,0E0,0E0,0E0,0E0,0E0,0E0],"parents":[2147483647,0,0,1,1,3,3,4,4,5,5,6,6,7,7,9,9,10,10,11,11,12,12,13,13,15,15,17,17,19,19,20,20,21,21,24,24],"right_children":[2,4,-1,6,8,10,12,14,-1,16,18,20,22,24,-1,26,-1,28,-1,30,32,34,-1,-1,36,-1,-1,-1,-1,-1,-1,-1,-1,-1,-1,-1,-1],"split_conditions":[9E1,1.3E1,9.143683E1,4E1,4.6E1,5E1,1E0,1.5E1,8.346549E1,3.5E2,1E0,5E1,8E2,1.5E1,-4.0611606E0,1.2E1,1.0947175E2,1.3E1,9.342175E1,1E0,1.2E1,5E0,6.922907E0,4.9635193E1,2.6E1,-1.3885988E0,5.7445766E1,-2.067927E0,5.185788E1,-3.002826E1,1.9727142E1,3.265622E1,1.3100885E1,6.953614E1,1.453884E1,8.1520815E0,2.8327883E1],"split_indices":[22,4,0,51,4,38,86,16,0,53,86,51,51,4,0,23,0,82,0,34,82,46,0,0,4,0,0,0,0,0,0,0,0,0,0,0,0],"split_type":[0,0,0,0,0,0,0,0,0,0,0,0,0,0,0,0,0,0,0,0,0,0,0,0,0,0,0,0,0,0,0,0,0,0,0,0,0],"sum_hessian":[1.675E3,1.673E3,2E0,1.658E3,1.5E1,1.631E3,2.7E1,1.3E1,2E0,1.615E3,1.6E1,2E1,7E0,1.2E1,1E0,1.614E3,1E0,1.5E1,1E0,2E0,1.8E1,6E0,1E0,2E0,1E1,1.608E3,6E0,7E0,8E0,1E0,1E0,5E0,1.3E1,5E0,1E0,4E0,6E0],"tree_param":{"num_deleted":"0","num_feature":"95","num_nodes":"37","size_leaf_vector":"1"}},{"base_weights":[1.4533274E0,9.999027E-2,1.08104416E2,-6.8907785E-1,1.8608034E2,7.6274994E1,2.2431073E2,-1.8911189E0,1.22187546E2,2.394453E2,2.5858591E1,5.0913418E1,1.5231215E2,7.131043E0,8.497027E1,-2.4957452E0,7.3580765E1,1.5534608E2,-1.6124573E1,1.4090282E1,8.6384605E1,1.032391E2,-4.4781616E1,7.819327E0,5.571198E1,-3.7130682E0,1.2068596E2,8.917606E1,2.433829E2,-1.458766E1,1.2206745E1,5.9893295E1,7.40027E1,-7.1808205E1,1.3552698E1,-2.0105438E0,1.4487759E1,2.1997868E1,9.044082E1,1.4130633E1,6.3865158E1,2.0433916E1,8.1051636E1,4.048789E0,4.445679E1,-2.4205359E1,-5.445438E0],"categories":[],"categories_nodes":[],"categories_segments":[],"categories_sizes":[],"default_left":[0,0,0,0,0,0,0,0,0,0,0,0,0,0,0,0,0,0,0,0,0,0,0,0,0,0,0,0,0,0,0,0,0,0,0,0,0,0,0,0,0,0,0,0,0,0,0],"id":11,"left_children":[1,3,5,7,9,11,13,15,17,19,-1,21,23,-1,-1,25,-1,27,29,-1,-1,31,33,-1,-1,35,37,39,41,-1,-1,43,-1,45,-1,-1,-1,-1,-1,-1,-1,-1,-1,-1,-1,-1,-1],"loss_changes":[2.4189445E5,2.4314816E5,6.0565094E4,2.4394058E5,1.6673469E4,2.6956852E4,4.0533688E4,2.4494595E5,7.588453E4,2.3819E4,0E0,7.973283E4,1.2023555E4,0E0,0E0,2.4516967E5,0E0,5.402625E4,9.364532E3,0E0,0E0,4.7399516E4,1.783141E4,0E0,0E0,2.5165625E5,1.14884016E5,3.68166E4,5.0744688E3,0E0,0E0,3.4870336E4,0E0,9.1683203E2,0E0,0E0,0E0,0E0,0E0,0E0,0E0,0E0,0E0,0E0,0E0,0E0,0E0],"parents":[2147483647,0,0,1,1,2,2,3,3,4,4,5,5,6,6,7,7,8,8,9,9,11,11,12,12,15,15,17,17,18,18,21,21,22,22,25,25,26,26,27,27,28,28,31,31,33,33],"right_children":[2,4,6,8,10,12,14,16,18,20,-1,22,24,-1,-1,26,-1,28,30,-1,-1,32,34,-1,-1,36,38,40,42,-1,-1,44,-1,46,-1,-1,-1,-1,-1,-1,-1,-1,-1,-1,-1,-1,-1],"split_conditions":[1.2E2,5E1,1E0,3E1,1E0,2.5E2,1.4E2,3E1,3E0,1E1,2.5858591E1,1.8E2,9E0,7.131043E0,8.497027E1,5E1,7.3580765E1,1E0,6E1,1.4090282E1,8.6384605E1,1.75E2,1E0,7.819327E0,5.571198E1,2.2E1,1.5E1,8E1,4E1,-1.458766E1,1.2206745E1,1E0,7.40027E1,1E0,1.3552698E1,-2.0105438E0,1.4487759E1,2.1997868E1,9.044082E1,1.4130633E1,6.3865158E1,2.0433916E1,8.1051636E1,4.048789E0,4.445679E1,-2.4205359E1,-5.445438E0],"split_indices":[14,74,89,62,88,14,14,65,80,82,0,14,82,0,0,17,0,91,67,0,0,14,91,0,0,15,82,63,62,0,0,88,0,16,0,0,0,0,0,0,0,0,0,0,0,0,0],"split_type":[0,0,0,0,0,0,0,0,0,0,0,0,0,0,0,0,0,0,0,0,0,0,0,0,0,0,0,0,0,0,0,0,0,0,0,0,0,0,0,0,0,0,0,0,0,0,0],"sum_hessian":[1.675E3,1.655E3,2E1,1.649E3,6E0,1.7E1,3E0,1.634E3,1.5E1,3E0,3E0,1.4E1,3E0,1E0,2E0,1.631E3,3E0,1.2E1,3E0,1E0,2E0,9E0,5E0,1E0,2E0,1.616E3,1.5E1,8E0,4E0,2E0,1E0,8E0,1E0,4E0,1E0,1.529E3,8.7E1,1.3E1,2E0,7E0,1E0,1E0,3E0,6E0,2E0,3E0,1E0],"tree_param":{"num_deleted":"0","num_feature":"95","num_nodes":"47","size_leaf_vector":"1"}},{"base_weights":[1.4731567E0,8.961912E-1,7.272622E1,1.3882773E-1,1.8112886E2,-5.635547E-1,1.9467563E2,2.68788E1,8.19922E1,-2.117202E0,8.6995865E1,2.349686E2,-1.0183868E0,-3.7560675E0,8.2749176E1,6.178555E1,8.546703E1,1.4881614E1,8.0672424E1,-1.3945146E0,4.6469482E1,5.8697575E1,1.4347373E1,9.69197E0,3.260075E1],"categories":[],"categories_nodes":[],"categories_segments":[],"categories_sizes":[],"default_left":[0,0,0,0,0,0,0,0,0,0,0,0,0,0,0,0,0,0,0,0,0,0,0,0,0],"id":12,"left_children":[1,3,-1,5,7,9,11,-1,-1,13,15,17,-1,19,21,23,-1,-1,-1,-1,-1,-1,-1,-1,-1],"loss_changes":[2.3277767E5,2.2834206E5,0E0,2.2788733E5,3.457428E4,2.2627678E5,4.868267E4,0E0,0E0,2.27575E5,1.27078234E5,1.8116344E4,0E0,2.2779748E5,1.128855E5,3.380547E4,0E0,0E0,0E0,0E0,0E0,0E0,0E0,0E0,0E0],"parents":[2147483647,0,0,1,1,3,3,4,4,5,5,6,6,9,9,10,10,11,11,13,13,14,14,15,15],"right_children":[2,4,-1,6,8,10,12,-1,-1,14,16,18,-1,20,22,24,-1,-1,-1,-1,-1,-1,-1,-1,-1],"split_conditions":[5E2,2.5E1,7.272622E1,1.5E1,1E0,5E1,1E0,2.68788E1,8.19922E1,4E1,1.7E1,1E1,-1.0183868E0,4.4E1,1E1,1.2E2,8.546703E1,1.4881614E1,8.0672424E1,-1.3945146E0,4.6469482E1,5.8697575E1,1.4347373E1,9.69197E0,3.260075E1],"split_indices":[12,2,0,24,86,13,89,0,0,61,82,82,0,47,82,13,0,0,0,0,0,0,0,0,0],"split_type":[0,0,0,0,0,0,0,0,0,0,0,0,0,0,0,0,0,0,0,0,0,0,0,0,0],"sum_hessian":[1.675E3,1.672E3,3E0,1.666E3,6E0,1.661E3,5E0,4E0,2E0,1.633E3,2.8E1,4E0,1E0,1.603E3,3E1,2.6E1,2E0,1E0,3E0,1.595E3,8E0,6E0,2.4E1,1.7E1,9E0],"tree_param":{"num_deleted":"0","num_feature":"95","num_nodes":"25","size_leaf_vector":"1"}},{"base_weights":[1.3426675E0,9.447479E-1,1.0017869E2,-1.9612807E-1,1.1222525E2,-8.8171935E-1,1.8883122E2,1.3925607E2,-1.0438972E1,-1.2759962E0,9.762869E1,9.1052246E1,1.0519448E2,7.076527E1,7.701641E1,-1.7459213E1,7.463886E0,-2.3251631E0,1.2171756E2,4.8046627E1,4.5506167E0,2.6453556E1,4.387419E1,-8.8652617E-1,6.12753E1,4.145891E1,4.5689425E0,1.4260119E1,-5.249375E0],"categories":[],"categories_nodes":[],"categories_segments":[],"categories_sizes":[],"default_left":[0,0,0,0,0,0,0,0,0,0,0,0,0,0,0,0,0,0,0,0,0,0,0,0,0,0,0,0,0],"id":13,"left_children":[1,3,-1,5,7,9,11,13,15,17,-1,-1,19,-1,21,-1,-1,23,25,-1,-1,27,-1,-1,-1,-1,-1,-1,-1],"loss_changes":[2.2149069E5,2.126754E5,0E0,2.1516545E5,5.782083E4,2.132135E5,2.5619578E4,6.603053E4,8.194966E3,2.1358739E5,0E0,0E0,2.2310152E4,0E0,3.1136352E4,0E0,0E0,2.1401231E5,2.246239E4,0E0,0E0,7.317273E3,0E0,0E0,0E0,0E0,0E0,0E0,0E0],"parents":[2147483647,0,0,1,1,3,3,4,4,5,5,6,6,7,7,8,8,9,9,12,12,14,14,17,17,18,18,21,21],"right_children":[2,4,-1,6,8,10,12,14,16,18,-1,-1,20,-1,22,-1,-1,24,26,-1,-1,28,-1,-1,-1,-1,-1,-1,-1],"split_conditions":[5E1,1.5E2,1.0017869E2,1.5E1,1E0,5E2,1.8E1,1.8E2,1.7E2,6E1,9.762869E1,9.1052246E1,1E1,7.076527E1,2.5E2,-1.7459213E1,7.463886E0,4E1,1E0,4.8046627E1,4.5506167E0,2.1E2,4.387419E1,-8.8652617E-1,6.12753E1,4.145891E1,4.5689425E0,1.4260119E1,-5.249375E0],"split_indices":[78,16,0,49,87,36,49,16,16,1,0,0,82,0,16,0,0,41,91,0,0,16,0,0,0,0,0,0,0],"split_type":[0,0,0,0,0,0,0,0,0,0,0,0,0,0,0,0,0,0,0,0,0,0,0,0,0,0,0,0,0],"sum_hessian":[1.675E3,1.674E3,1E0,1.658E3,1.6E1,1.653E3,5E0,1.3E1,3E0,1.652E3,1E0,1E0,4E0,4E0,9E0,1E0,2E0,1.639E3,1.3E1,2E0,2E0,6E0,3E0,1.635E3,4E0,1.1E1,2E0,4E0,2E0],"tree_param":{"num_deleted":"0","num_feature":"95","num_nodes":"29","size_leaf_vector":"1"}},{"base_weights":[1.2749139E0,8.0246556E-1,7.934283E1,3.3340076E-1,7.8588135E1,-1.3505241E-1,7.829836E1,-5.1589537E-1,9.532378E1,-1.1767097E0,1.828359E2,-4.6648672E-1,9.417699E1,8.868184E1,-8.540903E0],"categories":[],"categories_nodes":[],"categories_segments":[],"categories_sizes":[],"default_left":[0,0,0,0,0,0,0,0,0,0,0,0,0,0,0],"id":14,"left_children":[1,3,-1,5,-1,7,-1,9,-1,11,13,-1,-1,-1,-1],"loss_changes":[2.081966E5,2.049777E5,0E0,2.0419903E5,0E0,2.0233867E5,0E0,2.0243366E5,0E0,1.9881256E5,1.5138962E5,0E0,0E0,0E0,0E0],"parents":[2147483647,0,0,1,1,3,3,5,5,7,7,9,9,10,10],"right_children":[2,4,-1,6,-1,8,-1,10,-1,12,14,-1,-1,-1,-1],"split_conditions":[1.77E2,3E2,7.934283E1,1.5E2,7.8588135E1,1E2,7.829836E1,3.6E1,9.532378E1,1E2,1E0,-4.6648672E-1,9.417699E1,8.868184E1,-8.540903E0],"split_indices":[39,32,0,40,0,58,0,22,0,23,87,0,0,0,0],"split_type":[0,0,0,0,0,0,0,0,0,0,0,0,0,0,0],"sum_hessian":[1.675E3,1.673E3,2E0,1.671E3,2E0,1.669E3,2E0,1.668E3,1E0,1.663E3,5E0,1.662E3,1E0,3E0,2E0],"tree_param":{"num_deleted":"0","num_feature":"95","num_nodes":"15","size_leaf_vector":"1"}},{"base_weights":[1.1939981E0,8.215181E-1,9.376469E1,1.2338866E-1,1.6715816E2,-6.657017E-1,1.4574069E2,1.8864546E2,5.735152E0,-1.5367954E0,1.3013806E2,9.044374E1,8.85885E1,3.5574875E1,8.084374E1,-2.5945532E0,1.0671498E2,1.4252116E2,9.4606024E-1,2.8964243E1,7.5893745E1,-1.1125578E0,2.9323572E1,2.2075708E1,6.772401E1,4.5975113E1,6.8937426E0,2.5490614E1,-1.0284387E1],"categories":[],"categories_nodes":[],"categories_segments":[],"categories_sizes":[],"default_left":[0,0,0,0,0,0,0,0,0,0,0,0,0,0,0,0,0,0,0,0,0,0,0,0,0,0,0,0,0],"id":15,"left_children":[1,3,-1,5,7,9,11,13,-1,15,17,-1,19,-1,-1,21,23,25,-1,27,-1,-1,-1,-1,-1,-1,-1,-1,-1],"loss_changes":[1.9411477E5,1.9448794E5,0E0,1.9187383E5,1.866064E4,1.894582E5,5.3399562E4,2.0248594E3,0E0,1.8932325E5,1.6847656E4,0E0,7.1086E4,0E0,0E0,1.8322767E5,4.648325E4,9.304344E3,0E0,2.7707062E4,0E0,0E0,0E0,0E0,0E0,0E0,0E0,0E0,0E0],"parents":[2147483647,0,0,1,1,3,3,4,4,5,5,6,6,7,7,9,9,10,10,12,12,15,15,16,16,17,17,19,19],"right_children":[2,4,-1,6,8,10,12,14,-1,16,18,-1,20,-1,-1,22,24,26,-1,28,-1,-1,-1,-1,-1,-1,-1,-1,-1],"split_conditions":[3.5E2,6E0,9.376469E1,4E1,1E0,1.5E2,5E1,1.9E1,5.735152E0,1.3E1,1E0,9.044374E1,1E0,3.5574875E1,8.084374E1,1.4E2,4.6E1,1E0,9.4606024E-1,6.5E1,7.5893745E1,-1.1125578E0,2.9323572E1,2.2075708E1,6.772401E1,4.5975113E1,6.8937426E0,2.5490614E1,-1.0284387E1],"split_indices":[53,0,0,37,35,50,37,0,0,4,1,0,88,0,0,14,4,86,0,37,0,0,0,0,0,0,0,0,0],"split_type":[0,0,0,0,0,0,0,0,0,0,0,0,0,0,0,0,0,0,0,0,0,0,0,0,0,0,0,0,0],"sum_hessian":[1.675E3,1.674E3,1E0,1.668E3,6E0,1.66E3,8E0,5E0,1E0,1.65E3,1E1,1E0,7E0,4E0,1E0,1.635E3,1.5E1,9E0,1E0,6E0,1E0,1.618E3,1.7E1,1.3E1,2E0,8E0,1E0,3E0,3E0],"tree_param":{"num_deleted":"0","num_feature":"95","num_nodes":"29","size_leaf_vector":"1"}},{"base_weights":[1.1754643E0,1.22691646E-1,9.814071E1,-1.1935979E0,7.9729294E1,1.3000685E2,-1.07126465E1,-1.9067295E0,1.4389957E2,4.7346878E1,1.5071916E2,1.4104602E1,1.7495729E2,-2.6004774E1,6.882816E1,-2.5783718E0,1.538029E2,1.8794904E2,-2.4667004E1,3.1123972E1,8.979081E1,2.0468054E2,7.7406235E1,7.775812E0,-4.973172E0,2.2163408E2,-7.8332314E0,2.4521421E1,6.4512544E0,-3.5693333E0,1.0369246E2,1.9006439E2,1.2629834E1,2.120751E1,2.5040414E2,-2.4643429E1,4.415154E1,3.186689E1,3.6093295E0,7.304647E1,1.3238618E1,8.644348E0,1.0019589E2,2.5995297E2,-6.9897127E0,-1.27874775E1,9.262524E0,-1.3163729E0,3.8254272E1,4.471899E1,9.163595E0,6.637626E1,9.795786E0,-4.0393753E0,1.3582755E1,9.209624E1,3.6106248E0,3.11808E1,6.1632276E0,3.832309E1,6.765065E0,8.739233E1,1.0773656E1],"categories":[],"categories_nodes":[],"categories_segments":[],"categories_sizes":[],"default_left":[0,0,0,0,0,0,0,0,0,0,0,0,0,0,0,0,0,0,0,0,0,0,0,0,0,0,0,0,0,0,0,0,0,0,0,0,0,0,0,0,0,0,0,0,0,0,0,0,0,0,0,0,0,0,0,0,0,0,0,0,0,0,0],"id":16,"left_children":[1,3,5,7,9,11,13,15,17,19,21,23,25,-1,27,29,31,33,-1,35,37,39,41,-1,-1,43,45,-1,-1,47,49,51,-1,53,55,-1,57,-1,-1,-1,-1,-1,59,61,-1,-1,-1,-1,-1,-1,-1,-1,-1,-1,-1,-1,-1,-1,-1,-1,-1,-1,-1],"loss_changes":[1.71078E5,1.7393405E5,6.382997E4,1.692417E5,5.493217E4,7.04703E4,3.617975E4,1.7044558E5,9.513855E4,1.0976633E4,1.5804984E4,2.2421663E3,8.7056875E4,0E0,7.513379E1,1.709728E5,2.0352125E4,6.758656E4,0E0,2.7236672E4,5.1108203E3,1.417775E4,2.6498516E3,0E0,0E0,8.1141125E4,5.3562305E3,0E0,0E0,1.7288638E5,4.5228016E4,1.7323688E4,0E0,3.1131191E3,6.374375E4,0E0,1.9035105E4,0E0,0E0,0E0,0E0,0E0,3.5362402E3,3.871175E4,0E0,0E0,0E0,0E0,0E0,0E0,0E0,0E0,0E0,0E0,0E0,0E0,0E0,0E0,0E0,0E0,0E0,0E0,0E0],"parents":[2147483647,0,0,1,1,2,2,3,3,4,4,5,5,6,6,7,7,8,8,9,9,10,10,11,11,12,12,14,14,15,15,16,16,17,17,19,19,20,20,21,21,22,22,25,25,26,26,29,29,30,30,31,31,33,33,34,34,36,36,42,42,43,43],"right_children":[2,4,6,8,10,12,14,16,18,20,22,24,26,-1,28,30,32,34,-1,36,38,40,42,-1,-1,44,46,-1,-1,48,50,52,-1,54,56,-1,58,-1,-1,-1,-1,-1,60,62,-1,-1,-1,-1,-1,-1,-1,-1,-1,-1,-1,-1,-1,-1,-1,-1,-1,-1,-1],"split_conditions":[5E1,4E1,1E0,1E2,1E0,1E1,1.5E2,4E2,1E0,2E0,1.2E2,3.5E1,1E0,-2.6004774E1,3E0,9E0,1E3,1E1,-2.4667004E1,5E1,1.7E1,5E0,3E2,7.775812E0,-4.973172E0,1E0,7E1,2.4521421E1,6.4512544E0,1E2,1.3E1,1E0,1.2629834E1,1.16E2,1.5E1,-2.4643429E1,6E1,3.186689E1,3.6093295E0,7.304647E1,1.3238618E1,8.644348E0,8E2,1.7E1,-6.9897127E0,-1.27874775E1,9.262524E0,-1.3163729E0,3.8254272E1,4.471899E1,9.163595E0,6.637626E1,9.795786E0,-4.0393753E0,1.3582755E1,9.209624E1,3.6106248E0,3.11808E1,6.1632276E0,3.832309E1,6.765065E0,8.739233E1,1.0773656E1],"split_indices":[38,51,91,36,86,82,38,15,35,80,51,34,88,0,32,2,15,82,0,51,82,46,51,0,0,87,38,0,0,54,82,91,0,36,82,0,51,0,0,0,0,0,51,82,0,0,0,0,0,0,0,0,0,0,0,0,0,0,0,0,0,0,0],"split_type":[0,0,0,0,0,0,0,0,0,0,0,0,0,0,0,0,0,0,0,0,0,0,0,0,0,0,0,0,0,0,0,0,0,0,0,0,0,0,0,0,0,0,0,0,0,0,0,0,0,0,0,0,0,0,0,0,0,0,0,0,0,0,0],"sum_hessian":[1.675E3,1.658E3,1.7E1,1.632E3,2.6E1,1.3E1,4E0,1.625E3,7E0,1.9E1,7E0,4E0,9E0,2E0,2E0,1.619E3,6E0,6E0,1E0,1.5E1,4E0,3E0,4E0,3E0,1E0,7E0,2E0,1E0,1E0,1.605E3,1.4E1,4E0,2E0,2E0,4E0,1E0,1.4E1,3E0,1E0,2E0,1E0,2E0,2E0,6E0,1E0,1E0,1E0,1.596E3,9E0,8E0,6E0,3E0,1E0,1E0,1E0,3E0,1E0,3E0,1.1E1,1E0,1E0,5E0,1E0],"tree_param":{"num_deleted":"0","num_feature":"95","num_nodes":"63","size_leaf_vector":"1"}},{"base_weights":[1.1473001E0,8.0734354E-1,8.558619E1,1.6963124E-1,1.5274084E2,-5.570005E-1,1.342547E2,2.4375278E1,6.629313E1,-1.53869E0,1.0046912E2,1.667535E2,1.3672648E1,-3.2953832E0,5.3465645E1,1.27326775E2,-1.1935562E1,5.730608E1,2.121731E1,-9.3990785E-1,7.0926E0,-5.856541E-1,-2.9792013E1,4.1582726E1,7.114076E0,2.2707222E1,5.8441895E1,-1.2209028E1,1.1152204E1],"categories":[],"categories_nodes":[],"categories_segments":[],"categories_sizes":[],"default_left":[0,0,0,0,0,0,0,0,0,0,0,0,0,0,0,0,0,0,0,0,0,0,0,0,0,0,0,0,0],"id":17,"left_children":[1,3,-1,5,7,9,11,-1,-1,13,15,17,19,21,23,25,27,-1,-1,-1,-1,-1,-1,-1,-1,-1,-1,-1,-1],"loss_changes":[1.6166333E5,1.6226462E5,0E0,1.6268623E5,1.6192828E4,1.6488638E5,3.298897E4,0E0,0E0,1.5922217E5,4.9822547E4,2.8024375E3,5.76696E2,2.056306E5,1.2590591E5,3.0551844E4,7.1626616E3,0E0,0E0,0E0,0E0,0E0,0E0,0E0,0E0,0E0,0E0,0E0,0E0],"parents":[2147483647,0,0,1,1,3,3,4,4,5,5,6,6,9,9,10,10,11,11,12,12,13,13,14,14,15,15,16,16],"right_children":[2,4,-1,6,8,10,12,-1,-1,14,16,18,20,22,24,26,28,-1,-1,-1,-1,-1,-1,-1,-1,-1,-1,-1,-1],"split_conditions":[5E1,5E1,8.558619E1,2E2,2E2,3E1,1E0,2.4375278E1,6.629313E1,3.2E1,3E0,1E0,3E2,1E0,1.1E1,1E0,6E1,5.730608E1,2.121731E1,-9.3990785E-1,7.0926E0,-5.856541E-1,-2.9792013E1,4.1582726E1,7.114076E0,2.2707222E1,5.8441895E1,-1.2209028E1,1.1152204E1],"split_indices":[78,74,0,61,74,62,89,0,0,16,80,86,61,16,82,91,67,0,0,0,0,0,0,0,0,0,0,0,0],"split_type":[0,0,0,0,0,0,0,0,0,0,0,0,0,0,0,0,0,0,0,0,0,0,0,0,0,0,0,0,0],"sum_hessian":[1.675E3,1.674E3,1E0,1.668E3,6E0,1.66E3,8E0,4E0,2E0,1.645E3,1.5E1,6E0,2E0,1.595E3,5E1,1.2E1,3E0,4E0,2E0,1E0,1E0,1.574E3,2.1E1,1.2E1,3.8E1,8E0,4E0,2E0,1E0],"tree_param":{"num_deleted":"0","num_feature":"95","num_nodes":"29","size_leaf_vector":"1"}},{"base_weights":[1.0175157E0,4.4955733E-1,1.5902432E2,-1.6750105E-1,1.4715709E2,7.7916565E1,8.694044E1,-1.2745562E0,8.256732E1,2.1702112E2,-4.080407E1,3.9133514E1,4.3367066E0,-1.802701E0,1.7221185E2,9.577935E1,4.293438E1,8.843857E1,4.0981915E1,-3.463583E0,5.4564293E1,2.7592178E1,7.397453E1,1.7177702E1,7.9846695E1,2.7145931E1,-8.70407E0,-5.431402E-1,-2.6026266E1,6.9021244E0,6.948135E1,-8.072325E0,2.897902E1],"categories":[],"categories_nodes":[],"categories_segments":[],"categories_sizes":[],"default_left":[0,0,0,0,0,0,0,0,0,0,0,0,0,0,0,0,0,0,0,0,0,0,0,0,0,0,0,0,0,0,0,0,0],"id":18,"left_children":[1,3,5,7,9,-1,11,13,15,17,-1,-1,-1,19,21,-1,23,-1,25,27,29,-1,-1,31,-1,-1,-1,-1,-1,-1,-1,-1,-1],"loss_changes":[1.5033489E5,1.5129545E5,2.0971688E4,1.5260594E5,1.6800192E5,0E0,1.388143E4,1.5094348E5,1.9267467E5,7.00665E4,0E0,0E0,0E0,1.5372403E5,7.1573594E3,0E0,1.1041683E5,0E0,1.3020612E4,2.1931931E5,2.5725553E5,0E0,0E0,6.9122445E4,0E0,0E0,0E0,0E0,0E0,0E0,0E0,0E0,0E0],"parents":[2147483647,0,0,1,1,2,2,3,3,4,4,6,6,7,7,8,8,9,9,13,13,14,14,16,16,18,18,19,19,20,20,23,23],"right_children":[2,4,6,8,10,-1,12,14,16,18,-1,-1,-1,20,22,-1,24,-1,26,28,30,-1,-1,32,-1,-1,-1,-1,-1,-1,-1,-1,-1],"split_conditions":[1.5E1,2E1,1.8E1,1.5E1,1E0,7.7916565E1,1E1,6.5E1,2.5E1,1E0,-4.080407E1,3.9133514E1,4.3367066E0,2.1875E1,1.3E1,9.577935E1,1.6E1,8.843857E1,1.24E2,1E1,1E0,2.7592178E1,7.397453E1,8E1,7.9846695E1,2.7145931E1,-8.70407E0,-5.431402E-1,-2.6026266E1,6.9021244E0,6.948135E1,-8.072325E0,2.897902E1],"split_indices":[49,53,49,63,90,0,82,39,63,86,0,0,0,32,82,0,82,0,53,32,90,0,0,63,0,0,0,0,0,0,0,0,0],"split_type":[0,0,0,0,0,0,0,0,0,0,0,0,0,0,0,0,0,0,0,0,0,0,0,0,0,0,0,0,0,0,0,0,0],"sum_hessian":[1.675E3,1.67E3,5E0,1.664E3,6E0,1E0,4E0,1.643E3,2.1E1,5E0,1E0,2E0,2E0,1.639E3,4E0,2E0,1.9E1,3E0,2E0,1.593E3,4.6E1,3E0,1E0,1.8E1,1E0,1E0,1E0,1.563E3,3E1,4E1,6E0,1.2E1,6E0],"tree_param":{"num_deleted":"0","num_feature":"95","num_nodes":"33","size_leaf_vector":"1"}},{"base_weights":[1.031705E0,7.077086E-1,8.155887E1,2.4955025E-1,5.761229E1,-2.0910028E-1,5.746773E1,-7.726655E-1,1.5612119E2,-1.0961772E0,8.058409E1,1.8751744E2,-1.2901612E-1,-6.1185837E-1,2.7108702E1,1.3385985E1,6.362605E1],"categories":[],"categories_nodes":[],"categories_segments":[],"categories_sizes":[],"default_left":[0,0,0,0,0,0,0,0,0,0,0,0,0,0,0,0,0],"id":19,"left_children":[1,3,-1,5,-1,7,-1,9,11,13,-1,15,-1,-1,-1,-1,-1],"loss_changes":[1.4687383E5,1.4678412E5,0E0,1.4674839E5,0E0,1.4716339E5,0E0,1.4531139E5,2.957139E4,1.4366369E5,0E0,8.091203E3,0E0,0E0,0E0,0E0,0E0],"parents":[2147483647,0,0,1,1,3,3,5,5,7,7,8,8,9,9,11,11],"right_children":[2,4,-1,6,-1,8,-1,10,12,14,-1,16,-1,-1,-1,-1,-1],"split_conditions":[1E2,4.5E1,8.155887E1,5E2,5.761229E1,1.5E1,5.746773E1,1E2,1E0,5E1,8.058409E1,1E1,-1.2901612E-1,-6.1185837E-1,2.7108702E1,1.3385985E1,6.362605E1],"split_indices":[58,65,0,12,0,24,0,23,89,17,0,82,0,0,0,0,0],"split_type":[0,0,0,0,0,0,0,0,0,0,0,0,0,0,0,0,0],"sum_hessian":[1.675E3,1.674E3,1E0,1.671E3,3E0,1.668E3,3E0,1.663E3,5E0,1.662E3,1E0,4E0,1E0,1.646E3,1.6E1,1E0,3E0],"tree_param":{"num_deleted":"0","num_feature":"95","num_nodes":"17","size_leaf_vector":"1"}},{"base_weights":[9.492801E-1,3.9344232E0,-2.6973196E1,3.2222204E0,1.3769284E2,-3.118124E1,1.470399E2,2.4899611E0,1.2490738E2,1.758283E2,-1.9388298E1,-3.708674E1,8.492085E1,5.8866116E1,-7.5228885E-2,2.0695698E0,6.3472607E1,7.733573E1,7.6074356E1,2.0782045E2,6.389862E1,-3.9142662E1,4.100369E1,3.904756E1,7.143524E0,7.7127963E-1,6.780809E1,2.5067614E1,6.496824E1,1.1764957E1,7.205019E1,-3.7915604E0,3.254594E1,-5.1076336E1,-6.955829E0,-9.205372E0,1.8094172E1,-2.8759214E-1,1.561204E1,1.4129481E1,6.947815E1,2.0443062E1,-7.2825646E0,-1.5980443E1,2.8174585E1,-5.575446E0,2.4844702E1],"categories":[],"categories_nodes":[],"categories_segments":[],"categories_sizes":[],"default_left":[0,0,0,0,0,0,0,0,0,0,0,0,0,0,0,0,0,0,0,0,0,0,0,0,0,0,0,0,0,0,0,0,0,0,0,0,0,0,0,0,0,0,0,0,0,0,0],"id":20,"left_children":[1,3,5,7,9,11,13,15,17,19,-1,21,23,-1,-1,25,-1,-1,27,29,31,33,-1,-1,35,37,39,41,-1,-1,-1,-1,-1,43,45,-1,-1,-1,-1,-1,-1,-1,-1,-1,-1,-1,-1],"loss_changes":[1.3980506E5,1.4387997E5,1.2321018E5,1.3405944E5,7.308805E4,1.121663E5,2.9024508E4,1.3140864E5,3.878878E4,1.1786672E4,0E0,5.965186E4,2.7217941E4,0E0,0E0,1.2779855E5,0E0,0E0,5.1897387E4,1.78505E4,1.160899E4,5.764489E4,0E0,0E0,9.896043E3,1.3042568E5,8.745956E4,1.6532615E4,0E0,0E0,0E0,0E0,0E0,3.995997E4,4.5385098E4,0E0,0E0,0E0,0E0,0E0,0E0,0E0,0E0,0E0,0E0,0E0,0E0],"parents":[2147483647,0,0,1,1,2,2,3,3,4,4,5,5,6,6,7,7,8,8,9,9,11,11,12,12,15,15,18,18,19,19,20,20,21,21,24,24,25,25,26,26,27,27,33,33,34,34],"right_children":[2,4,6,8,10,12,14,16,18,20,-1,22,24,-1,-1,26,-1,-1,28,30,32,34,-1,-1,36,38,40,42,-1,-1,-1,-1,-1,44,46,-1,-1,-1,-1,-1,-1,-1,-1,-1,-1,-1,-1],"split_conditions":[1E2,4.4E1,3.25E1,4E1,5E0,3E0,3E1,1.5E2,5E1,1E2,-1.9388298E1,7E0,5E1,5.8866116E1,-7.5228885E-2,5E1,6.3472607E1,7.733573E1,1E0,4.5E1,1.1E1,1.5E2,4.100369E1,3.904756E1,1.5E2,7E1,1.7E1,6.5E1,6.496824E1,1.1764957E1,7.205019E1,-3.7915604E0,3.254594E1,1.6E1,1E0,-9.205372E0,1.8094172E1,-2.8759214E-1,1.561204E1,1.4129481E1,6.947815E1,2.0443062E1,-7.2825646E0,-1.5980443E1,2.8174585E1,-5.575446E0,2.4844702E1],"split_indices":[34,47,44,37,29,80,69,40,37,47,0,1,35,0,0,13,0,0,88,47,82,34,0,0,34,15,82,37,0,0,0,0,0,52,86,0,0,0,0,0,0,0,0,0,0,0,0],"split_type":[0,0,0,0,0,0,0,0,0,0,0,0,0,0,0,0,0,0,0,0,0,0,0,0,0,0,0,0,0,0,0,0,0,0,0,0,0,0,0,0,0,0,0,0,0,0,0],"sum_hessian":[1.675E3,1.514E3,1.61E2,1.507E3,7E0,1.58E2,3E0,1.499E3,8E0,6E0,1E0,1.51E2,7E0,2E0,1E0,1.497E3,2E0,1E0,7E0,4E0,2E0,1.5E2,1E0,4E0,3E0,1.469E3,2.8E1,6E0,1E0,1E0,3E0,1E0,1E0,1.09E2,4.1E1,2E0,1E0,1.422E3,4.7E1,2.6E1,2E0,3E0,3E0,1.08E2,1E0,3.7E1,4E0],"tree_param":{"num_deleted":"0","num_feature":"95","num_nodes":"47","size_leaf_vector":"1"}},{"base_weights":[1.0166756E0,4.5097703E-1,1.3583095E2,-2.564033E-2,1.591697E2,8.155958E1,6.921888E1,-5.497016E-1,1.4505626E2,3.8648697E1,9.618806E1,2.7210817E1,5.3765764E0,-1.4108973E0,8.8080154E1,6.9731285E1,-1.98043E1,-1.504655E1,2.9960167E1,-1.9854251E0,1.3339435E2,6.423346E1,6.686709E1,-3.622652E1,2.7314585E1,-1.0761955E1,3.991008E0,-7.536983E-1,4.257791E1,4.6753918E1,-1.9768067E-1,1.4976821E1,3.968755E1],"categories":[],"categories_nodes":[],"categories_segments":[],"categories_sizes":[],"default_left":[0,0,0,0,0,0,0,0,0,0,0,0,0,0,0,0,0,0,0,0,0,0,0,0,0,0,0,0,0,0,0,0,0],"id":21,"left_children":[1,3,5,7,9,11,-1,13,15,17,-1,-1,-1,19,21,-1,23,25,-1,27,29,31,-1,-1,-1,-1,-1,-1,-1,-1,-1,-1,-1],"loss_changes":[1.2775761E5,1.263364E5,1.7233742E4,1.2674872E5,8.490306E4,1.8655234E3,0E0,1.2690449E5,9.103769E4,1.465123E4,0E0,0E0,0E0,1.2774652E5,3.71194E4,0E0,4.456664E4,2.2485334E3,0E0,1.2471359E5,2.1171086E4,8.0051055E3,0E0,0E0,0E0,0E0,0E0,0E0,0E0,0E0,0E0,0E0,0E0],"parents":[2147483647,0,0,1,1,2,2,3,3,4,4,5,5,7,7,8,8,9,9,13,13,14,14,16,16,17,17,19,19,20,20,21,21],"right_children":[2,4,6,8,10,12,-1,14,16,18,-1,-1,-1,20,22,-1,24,26,-1,28,30,32,-1,-1,-1,-1,-1,-1,-1,-1,-1,-1,-1],"split_conditions":[6E0,4E1,4.9E1,3.6E1,1E0,1.9E1,6.921888E1,1.3E1,1E0,4E0,9.618806E1,2.7210817E1,5.3765764E0,2.4E2,1.05E2,6.9731285E1,7E0,1E0,2.9960167E1,4E1,1E0,1E0,6.686709E1,-3.622652E1,2.7314585E1,-1.0761955E1,3.991008E0,-7.536983E-1,4.257791E1,4.6753918E1,-1.9768067E-1,1.4976821E1,3.968755E1],"split_indices":[0,41,0,22,87,0,0,4,87,18,0,0,0,1,4,0,6,35,0,57,87,89,0,0,0,0,0,0,0,0,0,0,0],"split_type":[0,0,0,0,0,0,0,0,0,0,0,0,0,0,0,0,0,0,0,0,0,0,0,0,0,0,0,0,0,0,0,0,0],"sum_hessian":[1.675E3,1.669E3,6E0,1.665E3,4E0,5E0,1E0,1.66E3,5E0,3E0,1E0,4E0,1E0,1.645E3,1.5E1,3E0,2E0,2E0,1E0,1.639E3,6E0,1.4E1,1E0,1E0,1E0,1E0,1E0,1.634E3,5E0,5E0,1E0,1.3E1,1E0],"tree_param":{"num_deleted":"0","num_feature":"95","num_nodes":"33","size_leaf_vector":"1"}},{"base_weights":[1.0051773E0,5.906573E-1,5.223806E1,2.3226541E-1,6.0005417E1,-1.2665321E-1,5.9949974E1,-4.1880634E-1,7.307771E1,-1.5221645E0,6.426082E1,-1.3486226E0,7.3720713E0,1.1368346E1,3.7631958E1],"categories":[],"categories_nodes":[],"categories_segments":[],"categories_sizes":[],"default_left":[0,0,0,0,0,0,0,0,0,0,0,0,0,0,0],"id":22,"left_children":[1,3,-1,5,-1,7,-1,9,-1,11,13,-1,-1,-1,-1],"loss_changes":[1.2017094E5,1.1952813E5,0E0,1.1973659E5,0E0,1.1894028E5,0E0,1.191343E5,0E0,1.27433984E5,4.041239E4,0E0,0E0,0E0,0E0],"parents":[2147483647,0,0,1,1,3,3,5,5,7,7,9,9,10,10],"right_children":[2,4,-1,6,-1,8,-1,10,-1,12,14,-1,-1,-1,-1],"split_conditions":[1.2E2,2.88E2,5.223806E1,7.5E1,6.0005417E1,5E1,5.9949974E1,4E1,7.307771E1,1E0,1E0,-1.3486226E0,7.3720713E0,1.1368346E1,3.7631958E1],"split_indices":[30,17,0,48,0,78,0,51,0,91,86,0,0,0,0],"split_type":[0,0,0,0,0,0,0,0,0,0,0,0,0,0,0],"sum_hessian":[1.675E3,1.672E3,3E0,1.67E3,2E0,1.668E3,2E0,1.667E3,1E0,1.64E3,2.7E1,1.473E3,1.67E2,2E1,7E0],"tree_param":{"num_deleted":"0","num_feature":"95","num_nodes":"15","size_leaf_vector":"1"}},{"base_weights":[8.828033E-1,2.8155988E-2,7.960376E1,-5.035458E-1,1.2558172E2,5.7698166E1,6.779982E1,-7.86443E-1,7.002639E1,7.000649E1,6.8854965E1,3.0559929E1,5.224699E1,-1.3543077E0,1.16079025E2,2.5373196E1,2.7243225E1,1.1085689E1,4.5479893E1,-1.8488622E0,1.3404967E2,4.8521366E1,6.3750404E1,-1.8633225E0,1.4122774E1,-4.501287E0,2.092151E1,-6.400289E-1,6.9683525E1,6.667935E1,2.158614E1,-1.3549003E1,3.1996368E1,6.252566E0,-1.3245032E1],"categories":[],"categories_nodes":[],"categories_segments":[],"categories_sizes":[],"default_left":[0,0,0,0,0,0,0,0,0,0,0,0,0,0,0,0,0,0,0,0,0,0,0,0,0,0,0,0,0,0,0,0,0,0,0],"id":23,"left_children":[1,3,5,7,9,11,-1,13,-1,15,-1,17,-1,19,21,-1,23,25,-1,27,29,31,-1,-1,-1,33,-1,-1,-1,-1,-1,-1,-1,-1,-1],"loss_changes":[1.1275678E5,1.10813195E5,4.4684133E4,1.0957362E5,2.4365766E4,4.8405906E4,0E0,1.0979015E5,0E0,1.434416E3,0E0,3.3676758E4,0E0,1.104047E5,4.1801664E4,0E0,2.2828582E3,1.3112961E4,0E0,1.0976047E5,1.6873883E4,3.7494023E4,0E0,0E0,0E0,1.2978093E4,0E0,0E0,0E0,0E0,0E0,0E0,0E0,0E0,0E0],"parents":[2147483647,0,0,1,1,2,2,3,3,4,4,5,5,7,7,9,9,11,11,13,13,14,14,16,16,17,17,19,19,20,20,21,21,25,25],"right_children":[2,4,6,8,10,12,-1,14,-1,16,-1,18,-1,20,22,-1,24,26,-1,28,30,32,-1,-1,-1,34,-1,-1,-1,-1,-1,-1,-1,-1,-1],"split_conditions":[5E1,1.2E1,1E0,5E2,1E2,1E0,6.779982E1,1.92E2,7.002639E1,5E1,6.8854965E1,2E0,5.224699E1,1.5E1,1E0,2.5373196E1,5.2E1,2E2,4.5479893E1,1E2,1.8E1,2.5E2,6.3750404E1,-1.8633225E0,1.4122774E1,3.5E1,2.092151E1,-6.400289E-1,6.9683525E1,6.667935E1,2.158614E1,-1.3549003E1,3.1996368E1,6.252566E0,-1.3245032E1],"split_indices":[38,23,86,36,23,89,0,14,0,23,0,43,0,49,89,0,23,38,0,58,49,14,0,0,0,34,0,0,0,0,0,0,0,0,0],"split_type":[0,0,0,0,0,0,0,0,0,0,0,0,0,0,0,0,0,0,0,0,0,0,0,0,0,0,0,0,0,0,0,0,0,0,0],"sum_hessian":[1.675E3,1.658E3,1.7E1,1.652E3,6E0,1.6E1,1E0,1.651E3,1E0,5E0,1E0,1.4E1,2E0,1.644E3,7E0,3E0,2E0,1.3E1,1E0,1.639E3,5E0,5E0,2E0,1E0,1E0,1.1E1,2E0,1.638E3,1E0,1E0,4E0,2E0,3E0,7E0,4E0],"tree_param":{"num_deleted":"0","num_feature":"95","num_nodes":"35","size_leaf_vector":"1"}},{"base_weights":[9.732486E-1,6.365175E-1,1.885448E2,1.20696664E-1,1.2345832E2,7.0816025E1,1.4029139E1,-4.5963717E-1,1.0714664E2,1.7099057E2,1.3518449E1,-3.8824608E0,1.8070318E1,1.4123882E2,-2.435199E0,9.724659E0,6.1913124E1,-4.549507E0,1.5207521E2,1.6520235E1,6.2698795E1,6.8480225E1,6.0773907E1,-1.5642413E0,4.5120914E1,6.304972E1,2.1146559E1,4.311311E0,4.482052E1,-5.026962E0,5.5634357E1],"categories":[],"categories_nodes":[],"categories_segments":[],"categories_sizes":[],"default_left":[0,0,0,0,0,0,0,0,0,0,0,0,0,0,0,0,0,0,0,0,0,0,0,0,0,0,0,0,0,0,0],"id":24,"left_children":[1,3,5,7,9,-1,-1,11,13,15,-1,17,19,21,-1,-1,-1,23,25,27,-1,-1,29,-1,-1,-1,-1,-1,-1,-1,-1],"loss_changes":[1.05738125E5,1.06039766E5,9.168695E3,1.0365002E5,1.8379555E4,0E0,0E0,1.0535528E5,3.6512883E4,1.2924922E4,0E0,1.4654331E5,7.319858E4,3.514653E4,0E0,0E0,0E0,1.4465595E5,1.3622203E4,7.15349E4,0E0,0E0,5.143759E4,0E0,0E0,0E0,0E0,0E0,0E0,0E0,0E0],"parents":[2147483647,0,0,1,1,2,2,3,3,4,4,7,7,8,8,9,9,11,11,12,12,13,13,17,17,18,18,19,19,22,22],"right_children":[2,4,6,8,10,-1,-1,12,14,16,-1,18,20,22,-1,-1,-1,24,26,28,-1,-1,30,-1,-1,-1,-1,-1,-1,-1,-1],"split_conditions":[3E2,5E1,9E0,4E1,1E0,7.0816025E1,1.4029139E1,2E0,1.3E1,1E1,1.3518449E1,4.5E1,5E0,6.5E1,-2.435199E0,9.724659E0,6.1913124E1,1E2,5E1,3E0,6.2698795E1,6.8480225E1,1.2E1,-1.5642413E0,4.5120914E1,6.304972E1,2.1146559E1,4.311311E0,4.482052E1,-5.026962E0,5.5634357E1],"split_indices":[32,74,82,37,88,0,0,80,82,82,0,47,7,37,0,0,0,36,47,22,0,0,82,0,0,0,0,0,0,0,0],"split_type":[0,0,0,0,0,0,0,0,0,0,0,0,0,0,0,0,0,0,0,0,0,0,0,0,0,0,0,0,0,0,0],"sum_hessian":[1.675E3,1.673E3,2E0,1.667E3,6E0,1E0,1E0,1.659E3,8E0,3E0,3E0,1.401E3,2.58E2,6E0,2E0,1E0,2E0,1.396E3,5E0,2.57E2,1E0,2E0,4E0,1.391E3,5E0,2E0,3E0,2.54E2,3E0,3E0,1E0],"tree_param":{"num_deleted":"0","num_feature":"95","num_nodes":"31","size_leaf_vector":"1"}},{"base_weights":[9.952556E-1,4.886505E-1,1.2171458E2,-3.0900186E-1,7.806679E1,5.3580284E1,5.841006E1,-5.8142275E-1,6.750041E1,3.7122528E1,1.4694418E2,3.3145845E0,1.8435316E1,-1.6517819E0,5.547581E1,2.2282845E1,2.226419E1,1.0844409E1,5.7991577E1,-2.3833482E0,9.675962E1,7.647256E1,4.0331104E1,1.3320062E1,1.5414204E1,-8.507993E-1,4.309961E1,1.614055E1,4.3842052E1,6.734614E0,5.813692E1,5.5245304E0,-4.1160374E0],"categories":[],"categories_nodes":[],"categories_segments":[],"categories_sizes":[],"default_left":[0,0,0,0,0,0,0,0,0,0,0,0,0,0,0,0,0,0,0,0,0,0,0,0,0,0,0,0,0,0,0,0,0],"id":25,"left_children":[1,3,5,7,9,11,-1,13,-1,15,17,-1,-1,19,21,-1,23,-1,-1,25,27,-1,29,31,-1,-1,-1,-1,-1,-1,-1,-1,-1],"loss_changes":[1.0243969E5,1.03364375E5,2.4377672E4,1.016521E5,4.2487344E4,9.9483496E2,0E0,9.927391E4,0E0,4.970791E3,2.3832172E4,0E0,0E0,1.1707765E5,8.335012E4,0E0,1.9198223E3,0E0,0E0,1.0697491E5,1.7592734E4,0E0,7.797589E4,1.4925945E3,0E0,0E0,0E0,0E0,0E0,0E0,0E0,0E0,0E0],"parents":[2147483647,0,0,1,1,2,2,3,3,4,4,5,5,7,7,9,9,10,10,13,13,14,14,16,16,19,19,20,20,22,22,23,23],"right_children":[2,4,6,8,10,12,-1,14,-1,16,18,-1,-1,20,22,-1,24,-1,-1,26,28,-1,30,32,-1,-1,-1,-1,-1,-1,-1,-1,-1],"split_conditions":[2.5E1,1.2E2,1E0,3.5E2,1.5E1,9E0,5.841006E1,4E1,6.750041E1,2E2,1.3E2,3.3145845E0,1.8435316E1,4E1,9E0,2.2282845E1,5E2,1.0844409E1,5.7991577E1,1.5E1,1E0,7.647256E1,1E0,4E2,1.5414204E1,-8.507993E-1,4.309961E1,1.614055E1,4.3842052E1,6.734614E0,5.813692E1,5.5245304E0,-4.1160374E0],"split_indices":[2,12,86,53,82,82,0,61,0,12,12,0,0,62,82,0,12,0,0,67,91,0,88,12,0,0,0,0,0,0,0,0,0],"split_type":[0,0,0,0,0,0,0,0,0,0,0,0,0,0,0,0,0,0,0,0,0,0,0,0,0,0,0,0,0,0,0,0,0],"sum_hessian":[1.675E3,1.669E3,6E0,1.653E3,1.6E1,4E0,2E0,1.652E3,1E0,1.1E1,5E0,1E0,3E0,1.622E3,3E1,2E0,9E0,2E0,3E0,1.611E3,1.1E1,1E0,2.9E1,8E0,1E0,1.607E3,4E0,7E0,4E0,2.7E1,2E0,7E0,1E0],"tree_param":{"num_deleted":"0","num_feature":"95","num_nodes":"33","size_leaf_vector":"1"}},{"base_weights":[9.9451375E-1,5.7918805E-1,1.3968051E2,1.3565453E0,-7.517862E1,2.0486755E1,6.378688E1,9.0043736E-1,1.2663615E2,-1.09641556E2,6.2770286E0,4.8833475E-1,1.3646695E2,1.510206E2,7.0708466E-1,-1.3999876E2,-3.9141724E1,-1.4147565E1,1.626E1,-9.349126E-2,9.57426E1,3.3216377E1,8.242039E1,1.2194834E1,5.053531E1,-1.5735596E2,-1.7585432E1,-1.4946111E1,5.359268E-1,3.5921345E1,-5.950062E1,8.1988454E-2,-6.002491E1,1.5378888E1,7.440891E1,-3.5436862E0,2.5245356E1,-1.7085432E1,-5.7996113E1,1.9607048E1,-3.4424424E0,-2.7648108E1,8.728272E-1],"categories":[],"categories_nodes":[],"categories_segments":[],"categories_sizes":[],"default_left":[0,0,0,0,0,0,0,0,0,0,0,0,0,0,0,0,0,0,0,0,0,0,0,0,0,0,0,0,0,0,0,0,0,0,0,0,0,0,0,0,0,0,0],"id":26,"left_children":[1,3,5,7,9,-1,-1,11,13,15,17,19,21,23,-1,25,27,29,-1,31,33,35,-1,-1,-1,37,-1,-1,-1,39,41,-1,-1,-1,-1,-1,-1,-1,-1,-1,-1,-1,-1],"loss_changes":[9.645646E4,9.856753E4,1.151743E4,9.451149E4,4.841065E4,0E0,0E0,9.217029E4,1.7826938E4,2.0202328E4,6.6396406E3,9.128802E4,6.225539E4,2.7716406E3,0E0,2.0764219E3,2.2742856E3,1.3491233E4,0E0,1.2020752E5,5.5022023E4,1.0168123E4,0E0,0E0,0E0,1.0656078E4,0E0,0E0,0E0,4.935343E3,6.3830205E3,0E0,0E0,0E0,0E0,0E0,0E0,0E0,0E0,0E0,0E0,0E0,0E0],"parents":[2147483647,0,0,1,1,2,2,3,3,4,4,7,7,8,8,9,9,10,10,11,11,12,12,13,13,15,15,16,16,17,17,19,19,20,20,21,21,25,25,29,29,30,30],"right_children":[2,4,6,8,10,-1,-1,12,14,16,18,20,22,24,-1,26,28,30,-1,32,34,36,-1,-1,-1,38,-1,-1,-1,40,42,-1,-1,-1,-1,-1,-1,-1,-1,-1,-1,-1,-1],"split_conditions":[6.5E1,1E1,1.3E1,1.5E1,2E0,2.0486755E1,6.378688E1,4E1,1E0,3E1,3.5E1,1E2,1E0,1E1,7.0708466E-1,1E0,1.5E1,1E0,1.626E1,3E1,1E0,4E0,8.242039E1,1.2194834E1,5.053531E1,1.9E1,-1.7585432E1,-1.4946111E1,5.359268E-1,2E1,4E0,8.1988454E-2,-6.002491E1,1.5378888E1,7.440891E1,-3.5436862E0,2.5245356E1,-1.7085432E1,-5.7996113E1,1.9607048E1,-3.4424424E0,-2.7648108E1,8.728272E-1],"split_indices":[39,39,82,24,80,0,0,41,89,39,34,54,87,82,0,88,82,34,0,54,89,18,0,0,0,39,0,0,0,35,38,0,0,0,0,0,0,0,0,0,0,0,0],"split_type":[0,0,0,0,0,0,0,0,0,0,0,0,0,0,0,0,0,0,0,0,0,0,0,0,0,0,0,0,0,0,0,0,0,0,0,0,0,0,0,0,0,0,0],"sum_hessian":[1.675E3,1.671E3,4E0,1.655E3,1.6E1,3E0,1E0,1.65E3,5E0,1.1E1,5E0,1.646E3,4E0,4E0,1E0,7E0,4E0,4E0,1E0,1.637E3,9E0,3E0,1E0,1E0,3E0,5E0,2E0,3E0,1E0,2E0,2E0,1.635E3,2E0,8E0,1E0,2E0,1E0,2E0,3E0,1E0,1E0,1E0,1E0],"tree_param":{"num_deleted":"0","num_feature":"95","num_nodes":"43","size_leaf_vector":"1"}},{"base_weights":[8.037038E-1,4.952664E-1,5.1793163E1,-2.4002574E-1,7.217874E1,-9.374065E-1,7.620891E1,8.971872E1,-3.958073E1,-2.6895478E0,3.0450794E1,1.0606591E2,-7.857441E1,1.8447577E2,5.0656483E1,-2.7190704E0,-1.5092258E1,-1.7070636E0,-7.451675E1,5.0752796E1,2.172698E1,1.4838678E2,8.675171E0,4.483443E0,-3.984193E1,6.3234135E1,1.5834261E1,-2.1249693E1,8.203747E1,-6.552525E-1,3.6143837E1,-5.192067E1,-1.6510185E1,4.02916E0,3.2965218E1,7.4191957E0,4.822574E1,9.34499E0,-1.21836E1,4.80209E1,1.6674515E1],"categories":[],"categories_nodes":[],"categories_segments":[],"categories_sizes":[],"default_left":[0,0,0,0,0,0,0,0,0,0,0,0,0,0,0,0,0,0,0,0,0,0,0,0,0,0,0,0,0,0,0,0,0,0,0,0,0,0,0,0,0],"id":27,"left_children":[1,3,-1,5,7,9,11,13,15,17,19,21,23,25,27,-1,-1,29,31,-1,33,35,37,-1,-1,-1,-1,-1,39,-1,-1,-1,-1,-1,-1,-1,-1,-1,-1,-1,-1],"loss_changes":[8.874574E4,8.825101E4,0E0,8.846608E4,3.687554E4,9.049625E4,7.765456E4,4.6176438E4,5.260884E2,1.09819445E5,1.0161283E5,5.2294297E4,1.7199975E4,2.7315938E3,5.1560156E4,0E0,0E0,8.9923305E4,3.0796836E4,0E0,5.9229605E4,9.7863125E3,6.8036567E3,0E0,0E0,0E0,0E0,0E0,1.174707E4,0E0,0E0,0E0,0E0,0E0,0E0,0E0,0E0,0E0,0E0,0E0,0E0],"parents":[2147483647,0,0,1,1,3,3,4,4,5,5,6,6,7,7,8,8,9,9,10,10,11,11,12,12,13,13,14,14,17,17,18,18,20,20,21,21,22,22,28,28],"right_children":[2,4,-1,6,8,10,12,14,16,18,20,22,24,26,28,-1,-1,30,32,-1,34,36,38,-1,-1,-1,-1,-1,40,-1,-1,-1,-1,-1,-1,-1,-1,-1,-1,-1,-1],"split_conditions":[1.5E2,1.5E2,5.1793163E1,5E1,5.5E0,2.2E1,1E0,1.1E1,1E0,4E0,3E1,1E0,5.2E1,1.8E2,1.7E2,-2.7190704E0,-1.5092258E1,9E0,5E0,5.0752796E1,4E2,5.2E1,4E0,4.483443E0,-3.984193E1,6.3234135E1,1.5834261E1,-2.1249693E1,1.8E2,-6.552525E-1,3.6143837E1,-5.192067E1,-1.6510185E1,4.02916E0,3.2965218E1,7.4191957E0,4.822574E1,9.34499E0,-1.21836E1,4.80209E1,1.6674515E1],"split_indices":[40,16,0,17,17,15,90,82,1,15,15,89,17,16,16,0,0,0,15,0,15,17,15,0,0,0,0,0,16,0,0,0,0,0,0,0,0,0,0,0,0],"split_type":[0,0,0,0,0,0,0,0,0,0,0,0,0,0,0,0,0,0,0,0,0,0,0,0,0,0,0,0,0,0,0,0,0,0,0,0,0,0,0,0,0],"sum_hessian":[1.675E3,1.673E3,2E0,1.657E3,1.6E1,1.643E3,1.4E1,1.4E1,2E0,1.557E3,8.6E1,1.2E1,2E0,3E0,1.1E1,1E0,1E0,1.537E3,2E1,4E0,8.2E1,8E0,4E0,1E0,1E0,2E0,1E0,2E0,9E0,1.532E3,5E0,2E0,1.8E1,7.6E1,6E0,1E0,7E0,3E0,1E0,1E0,8E0],"tree_param":{"num_deleted":"0","num_feature":"95","num_nodes":"41","size_leaf_vector":"1"}},{"base_weights":[6.990751E-1,4.5009822E-1,6.2660313E1,-1.2811413E-2,1.10756676E2,-5.3573257E-1,9.649661E1,1.343707E2,-4.639119E0,-1.7620105E0,4.1612663E1,1.19204056E2,1.1347046E1,1.8237262E2,2.5577911E1,-6.8906486E-1,-5.6563847E1,-9.176802E0,1.1063728E2,3.9995808E1,5.1768403E0,-8.607331E-1,5.9669037E0,6.269724E1,1.537772E1,1.447783E0,1.0062278E1,-4.2081344E-1,2.222984E1,-2.5196459E1,2.151069E1,-1.1472097E1,3.9649036E1,9.407403E1,1.691339E1],"categories":[],"categories_nodes":[],"categories_segments":[],"categories_sizes":[],"default_left":[0,0,0,0,0,0,0,0,0,0,0,0,0,0,0,0,0,0,0,0,0,0,0,0,0,0,0,0,0,0,0,0,0,0,0],"id":28,"left_children":[1,3,-1,5,7,9,11,13,-1,15,17,19,21,23,25,27,29,31,33,-1,-1,-1,-1,-1,-1,-1,-1,-1,-1,-1,-1,-1,-1,-1,-1],"loss_changes":[8.67717E4,8.5530234E4,0E0,8.428082E4,2.2941867E4,8.592319E4,1.6049141E4,2.6668867E4,0E0,9.492204E4,1.657843E5,7.7726016E3,4.2139587E2,3.2473281E3,3.338778E2,8.469948E4,1.1506823E5,1.2007364E5,2.0255178E5,0E0,0E0,0E0,0E0,0E0,0E0,0E0,0E0,0E0,0E0,0E0,0E0,0E0,0E0,0E0,0E0],"parents":[2147483647,0,0,1,1,3,3,4,4,5,5,6,6,7,7,9,9,10,10,11,11,12,12,13,13,14,14,15,15,16,16,17,17,18,18],"right_children":[2,4,-1,6,8,10,12,14,-1,16,18,20,22,24,26,28,30,32,34,-1,-1,-1,-1,-1,-1,-1,-1,-1,-1,-1,-1,-1,-1,-1,-1],"split_conditions":[5E1,3.1E1,6.2660313E1,2E2,1E0,2.1875E1,1E0,1.2E1,-4.639119E0,1E1,1.4E1,1E3,3E2,1E0,3.5E1,5.5E1,1.5E1,1.5E2,3E1,3.9995808E1,5.1768403E0,-8.607331E-1,5.9669037E0,6.269724E1,1.537772E1,1.447783E0,1.0062278E1,-4.2081344E-1,2.222984E1,-2.5196459E1,2.151069E1,-1.1472097E1,3.9649036E1,9.407403E1,1.691339E1],"split_indices":[78,4,0,61,86,32,89,82,0,32,82,61,61,34,4,1,82,32,32,0,0,0,0,0,0,0,0,0,0,0,0,0,0,0,0],"split_type":[0,0,0,0,0,0,0,0,0,0,0,0,0,0,0,0,0,0,0,0,0,0,0,0,0,0,0,0,0,0,0,0,0,0,0],"sum_hessian":[1.675E3,1.674E3,1E0,1.668E3,6E0,1.66E3,8E0,5E0,1E0,1.614E3,4.6E1,6E0,2E0,3E0,2E0,1.584E3,3E1,2.7E1,1.9E1,5E0,1E0,1E0,1E0,2E0,1E0,1E0,1E0,1.57E3,1.4E1,2.5E1,5E0,2.3E1,4E0,3E0,1.6E1],"tree_param":{"num_deleted":"0","num_feature":"95","num_nodes":"35","size_leaf_vector":"1"}},{"base_weights":[7.012683E-1,3.5598946E-1,1.4493883E2,-9.929808E-2,1.0872861E2,5.317414E1,7.202088E0,-8.997636E-1,5.979459E1,1.6421207E2,-3.3625828E1,-1.282922E0,1.5670749E2,7.744612E1,2.7050991E1,6.5000015E1,3.9535206E1,-2.2176614E0,5.2710716E1,1.4424729E0,6.1721355E1,4.289705E0,6.8927315E1,2.4131672E1,-6.3408284E0,-8.43806E-1,2.5457293E1,8.713779E0,4.6727867E1,6.096681E0,-4.264447E1],"categories":[],"categories_nodes":[],"categories_segments":[],"categories_sizes":[],"default_left":[0,0,0,0,0,0,0,0,0,0,0,0,0,0,0,0,0,0,0,0,0,0,0,0,0,0,0,0,0,0,0],"id":29,"left_children":[1,3,5,7,9,-1,-1,11,13,15,-1,17,19,-1,21,-1,23,25,27,-1,-1,29,-1,-1,-1,-1,-1,-1,-1,-1,-1],"loss_changes":[8.341685E4,8.255779E4,1.137325E4,7.997477E4,1.04166836E5,0E0,0E0,9.960059E4,1.3590653E5,3.0673312E4,0E0,8.303908E4,2.8801445E4,0E0,9.129171E4,0E0,9.145206E3,8.396687E4,6.375742E4,0E0,0E0,4.7496508E4,0E0,0E0,0E0,0E0,0E0,0E0,0E0,0E0,0E0],"parents":[2147483647,0,0,1,1,2,2,3,3,4,4,7,7,8,8,9,9,11,11,12,12,14,14,16,16,17,17,18,18,21,21],"right_children":[2,4,6,8,10,-1,-1,12,14,16,-1,18,20,-1,22,-1,24,26,28,-1,-1,30,-1,-1,-1,-1,-1,-1,-1,-1,-1],"split_conditions":[4.5E1,2E1,5E0,1.5E1,1E0,5.317414E1,7.202088E0,1.5E1,2.5E1,1E0,-3.3625828E1,5E1,2E0,7.744612E1,1.6E1,6.5000015E1,1.24E2,1.5E2,1.4E1,1.4424729E0,6.1721355E1,1E0,6.8927315E1,2.4131672E1,-6.3408284E0,-8.43806E-1,2.5457293E1,8.713779E0,4.6727867E1,6.096681E0,-4.264447E1],"split_indices":[65,53,13,63,90,0,0,67,63,86,0,13,80,0,82,0,53,50,82,0,0,1,0,0,0,0,0,0,0,0,0],"split_type":[0,0,0,0,0,0,0,0,0,0,0,0,0,0,0,0,0,0,0,0,0,0,0,0,0,0,0,0,0,0,0],"sum_hessian":[1.675E3,1.672E3,3E0,1.666E3,6E0,2E0,1E0,1.645E3,2.1E1,5E0,1E0,1.642E3,3E0,2E0,1.9E1,3E0,2E0,1.615E3,2.7E1,1E0,2E0,1.8E1,1E0,1E0,1E0,1.605E3,1E1,2.3E1,4E0,1.7E1,1E0],"tree_param":{"num_deleted":"0","num_feature":"95","num_nodes":"31","size_leaf_vector":"1"}},{"base_weights":[7.072319E-1,2.0031628E-1,9.4577E1,-3.899144E-2,5.9868946E1,6.02756E1,3.549101E1,-7.6073086E-1,6.612262E1,5.3457844E1,-1.08465E1,-1.4935479E0,6.576432E1,1.1960015E1,1.0825671E2,-4.4383945E0,2.1020184E1,-1.9547904E0,1.0592573E2,4.6782696E1,5.8267796E1,-6.5997086E0,2.4065672E1,1.3521729E2,2.7624512E-1,-6.5951216E-1,5.9116817E1,1.735245E1,5.9164665E1,7.4939923E0,4.2060627E1,2.3582924E1,-9.000735E0,4.840707E1,-7.163988E0,-2.7121317E1,2.7245628E1],"categories":[],"categories_nodes":[],"categories_segments":[],"categories_sizes":[],"default_left":[0,0,0,0,0,0,0,0,0,0,0,0,0,0,0,0,0,0,0,0,0,0,0,0,0,0,0,0,0,0,0,0,0,0,0,0,0],"id":30,"left_children":[1,3,5,7,-1,-1,9,11,13,15,-1,17,19,21,23,-1,-1,25,27,29,-1,31,-1,33,35,-1,-1,-1,-1,-1,-1,-1,-1,-1,-1,-1,-1],"loss_changes":[7.973192E4,7.958649E4,4.941892E4,7.965197E4,0E0,0E0,1.0943531E4,8.053687E4,3.97829E4,7.8384297E3,0E0,8.11162E4,3.4804984E4,1.1931216E4,2.907482E4,0E0,0E0,7.930328E4,1.9319969E4,3.1123309E4,0E0,1.8311562E4,0E0,3.712311E4,3.284177E4,0E0,0E0,0E0,0E0,0E0,0E0,0E0,0E0,0E0,0E0,0E0,0E0],"parents":[2147483647,0,0,1,1,2,2,3,3,6,6,7,7,8,8,9,9,11,11,12,12,13,13,14,14,17,17,18,18,19,19,21,21,23,23,24,24],"right_children":[2,4,6,8,-1,-1,10,12,14,16,-1,18,20,22,24,-1,-1,26,28,30,-1,32,-1,34,36,-1,-1,-1,-1,-1,-1,-1,-1,-1,-1,-1,-1],"split_conditions":[5.5E1,1E2,6.5E1,1.4E2,5.9868946E1,6.02756E1,1E0,5E1,1.2E1,7E1,-1.08465E1,1.2E1,1E0,2.95E2,1.6E1,-4.4383945E0,2.1020184E1,7.5E1,1E2,1E0,5.8267796E1,1.5E2,2.4065672E1,1E0,1.92E2,-6.5951216E-1,5.9116817E1,1.735245E1,5.9164665E1,7.4939923E0,4.2060627E1,2.3582924E1,-9.000735E0,4.840707E1,-7.163988E0,-2.7121317E1,2.7245628E1],"split_indices":[45,58,45,14,0,0,91,38,82,45,0,23,86,14,82,0,0,48,23,89,0,14,0,16,14,0,0,0,0,0,0,0,0,0,0,0,0],"split_type":[0,0,0,0,0,0,0,0,0,0,0,0,0,0,0,0,0,0,0,0,0,0,0,0,0,0,0,0,0,0,0,0,0,0,0,0,0],"sum_hessian":[1.675E3,1.667E3,8E0,1.666E3,1E0,2E0,6E0,1.649E3,1.7E1,5E0,1E0,1.632E3,1.7E1,8E0,9E0,1E0,4E0,1.626E3,6E0,1.6E1,1E0,7E0,1E0,7E0,2E0,1.625E3,1E0,5E0,1E0,1.4E1,2E0,1E0,6E0,6E0,1E0,1E0,1E0],"tree_param":{"num_deleted":"0","num_feature":"95","num_nodes":"37","size_leaf_vector":"1"}},{"base_weights":[7.6277727E-1,2.3646247E-1,8.842317E1,-9.7516604E-2,4.1733795E1,1.756744E2,9.766286E-1,-5.076491E-1,1.1332037E2,1.0360534E1,6.0697636E1,-4.262276E1,3.284604E1,-9.177909E-1,1.1263938E2,1.4819545E2,2.9046814E1,-1.9813803E1,7.6605334E0,-1.5707206E0,7.0530365E1,4.474063E1,2.6431519E1,5.110533E0,5.5871162E1,1.6053315E-1,1.2910534E1,-2.6340201E-1,-2.6459698E1,2.9609272E1,3.548987E0,1.7442902E0,1.0149894E1],"categories":[],"categories_nodes":[],"categories_segments":[],"categories_sizes":[],"default_left":[0,0,0,0,0,0,0,0,0,0,0,0,0,0,0,0,0,0,0,0,0,0,0,0,0,0,0,0,0,0,0,0,0],"id":31,"left_children":[1,3,5,7,-1,9,11,13,15,-1,-1,17,-1,19,21,23,25,-1,-1,27,29,-1,31,-1,-1,-1,-1,-1,-1,-1,-1,-1,-1],"loss_changes":[7.730464E4,7.7331914E4,7.612661E4,7.746076E4,0E0,1.1820203E4,3.305249E4,7.7091484E4,1.3329672E4,0E0,0E0,9.668885E3,0E0,7.72709E4,1.4935602E4,1.6785703E4,1.1734622E3,0E0,0E0,9.8336664E4,2.3633812E4,0E0,2.6107764E2,0E0,0E0,0E0,0E0,0E0,0E0,0E0,0E0,0E0,0E0],"parents":[2147483647,0,0,1,1,2,2,3,3,5,5,6,6,7,7,8,8,11,11,13,13,14,14,15,15,16,16,19,19,20,20,22,22],"right_children":[2,4,6,8,-1,10,12,14,16,-1,-1,18,-1,20,22,24,26,-1,-1,28,30,-1,32,-1,-1,-1,-1,-1,-1,-1,-1,-1,-1],"split_conditions":[1.3E1,1.2E2,3E1,5E0,4.1733795E1,1.5E1,1E0,1.5E1,1E0,1.0360534E1,6.0697636E1,5E1,3.284604E1,9E0,3.5E1,1E1,1.3E1,-1.9813803E1,7.6605334E0,1E0,1.4E1,4.474063E1,7.5E1,5.110533E0,5.5871162E1,1.6053315E-1,1.2910534E1,-2.6340201E-1,-2.6459698E1,2.9609272E1,3.548987E0,1.7442902E0,1.0149894E1],"split_indices":[43,30,43,7,0,43,34,49,90,0,0,43,0,2,49,82,7,0,0,2,82,0,49,0,0,0,0,0,0,0,0,0,0],"split_type":[0,0,0,0,0,0,0,0,0,0,0,0,0,0,0,0,0,0,0,0,0,0,0,0,0,0,0,0,0,0,0,0,0],"sum_hessian":[1.675E3,1.666E3,9E0,1.663E3,3E0,4E0,5E0,1.658E3,5E0,1E0,3E0,4E0,1E0,1.653E3,5E0,3E0,2E0,3E0,1E0,1.639E3,1.4E1,3E0,2E0,1E0,2E0,1E0,1E0,1.627E3,1.2E1,9E0,5E0,1E0,1E0],"tree_param":{"num_deleted":"0","num_feature":"95","num_nodes":"33","size_leaf_vector":"1"}},{"base_weights":[6.9540465E-1,2.0679216E-1,9.117432E1,-1.9463983E-1,1.1143589E2,1.1897533E2,-4.086141E0,-4.781413E-1,1.5683556E2,1.5640283E2,1.4334676E1,5.5506493E1,5.555248E1,-1.6938172E-1,-1.6693817E0,-1.3741027E0,4.8278095E1,1.4432054E1,5.6143948E1,5.300041E1,1.4341096E1,-2.849698E0,9.3003025E0,-1.0277649E1,4.7830948E1,-1.7418079E0,1.18625534E2,2.978971E1,9.5397446E1,4.4944706E0,-7.1073737E0,-8.816219E-1,1.0598045E1,9.242695E0,7.0483765E1,1.2257242E1,-2.5135589E0,4.2040295E1,1.2158543E1],"categories":[],"categories_nodes":[],"categories_segments":[],"categories_sizes":[],"default_left":[0,0,0,0,0,0,0,0,0,0,0,0,0,0,0,0,0,0,0,0,0,0,0,0,0,0,0,0,0,0,0,0,0,0,0,0,0,0,0],"id":32,"left_children":[1,3,5,7,9,11,13,15,17,19,21,-1,23,-1,-1,25,27,-1,-1,-1,-1,-1,-1,29,-1,31,33,35,37,-1,-1,-1,-1,-1,-1,-1,-1,-1,-1],"loss_changes":[7.407565E4,7.449942E4,2.4321172E4,7.410891E4,2.3956078E4,1.9043516E4,1.2477585E1,7.2624984E4,8.8397656E2,3.5775E2,1.486138E3,0E0,3.5832125E4,0E0,0E0,7.221778E4,2.329296E4,0E0,0E0,0E0,0E0,0E0,0E0,1.7101995E3,0E0,7.233591E4,4.3835812E4,1.0058377E4,1.3957898E4,0E0,0E0,0E0,0E0,0E0,0E0,0E0,0E0,0E0,0E0],"parents":[2147483647,0,0,1,1,2,2,3,3,4,4,5,5,6,6,7,7,8,8,9,9,10,10,12,12,15,15,16,16,23,23,25,25,26,26,27,27,28,28],"right_children":[2,4,6,8,10,12,14,16,18,20,22,-1,24,-1,-1,26,28,-1,-1,-1,-1,-1,-1,30,-1,32,34,36,38,-1,-1,-1,-1,-1,-1,-1,-1,-1,-1],"split_conditions":[4E1,4E1,1.3E1,2E2,1.3E1,6.5E1,6E1,3E1,5E2,3E0,7.5E1,5.5506493E1,1.2E1,-1.6938172E-1,-1.6693817E0,4E1,1E0,1.4432054E1,5.6143948E1,5.300041E1,1.4341096E1,-2.849698E0,9.3003025E0,1E2,4.7830948E1,3.2E1,1E0,1E0,1.2E2,4.4944706E0,-7.1073737E0,-8.816219E-1,1.0598045E1,9.242695E0,7.0483765E1,1.2257242E1,-2.5135589E0,4.2040295E1,1.2158543E1],"split_indices":[37,57,82,74,82,37,37,51,74,61,57,0,82,0,0,41,86,0,0,0,0,0,0,37,0,16,87,88,51,0,0,0,0,0,0,0,0,0,0],"split_type":[0,0,0,0,0,0,0,0,0,0,0,0,0,0,0,0,0,0,0,0,0,0,0,0,0,0,0,0,0,0,0,0,0,0,0,0,0,0,0],"sum_hessian":[1.675E3,1.667E3,8E0,1.662E3,5E0,6E0,2E0,1.66E3,2E0,3E0,2E0,2E0,4E0,1E0,1E0,1.631E3,2.9E1,1E0,1E0,2E0,1E0,1E0,1E0,3E0,1E0,1.627E3,4E0,2.2E1,7E0,1E0,2E0,1.577E3,5E1,3E0,1E0,1.7E1,5E0,3E0,4E0],"tree_param":{"num_deleted":"0","num_feature":"95","num_nodes":"39","size_leaf_vector":"1"}},{"base_weights":[7.234384E-1,3.7346268E-1,1.1761062E2,-2.5461686E-1,6.539561E1,1.6715227E1,5.4777515E1,-9.1285825E-1,6.3300014E1,4.816588E1,4.8576237E1,-1.1874671E0,4.4825832E1,3.0990545E1,1.1736895E2,3.496757E1,3.4941326E1,-1.4101013E0,5.4523098E1,4.2827362E1,5.853528E0,9.404004E0,4.5763023E1,1.6136925E1,5.1492943E1,-4.8884594E-1,5.3658512E1,1.5366435E1,3.5290225E0,-1.471193E0,7.332532E0,1.1999954E1,-1.1090369E1,5.25774E0,2.728216E1],"categories":[],"categories_nodes":[],"categories_segments":[],"categories_sizes":[],"default_left":[0,0,0,0,0,0,0,0,0,0,0,0,0,0,0,0,0,0,0,0,0,0,0,0,0,0,0,0,0,0,0,0,0,0,0],"id":33,"left_children":[1,3,5,7,9,-1,-1,11,13,15,-1,17,-1,19,21,23,-1,25,-1,27,29,-1,-1,31,33,-1,-1,-1,-1,-1,-1,-1,-1,-1,-1],"loss_changes":[6.8517336E4,6.8299586E4,9.935898E3,6.9377195E4,1.8810586E4,0E0,0E0,6.792216E4,2.6060633E4,9.449988E3,0E0,6.700737E4,0E0,3.3198174E3,1.3372992E4,3.5256309E3,0E0,6.507264E4,0E0,1.4834883E3,1.1196775E3,0E0,0E0,1.16166E4,7.7856465E3,0E0,0E0,0E0,0E0,0E0,0E0,0E0,0E0,0E0,0E0],"parents":[2147483647,0,0,1,1,2,2,3,3,4,4,7,7,8,8,9,9,11,11,13,13,14,14,15,15,17,17,19,19,20,20,23,23,24,24],"right_children":[2,4,6,8,10,-1,-1,12,14,16,-1,18,-1,20,22,24,-1,26,-1,28,30,-1,-1,32,34,-1,-1,-1,-1,-1,-1,-1,-1,-1,-1],"split_conditions":[6.5E1,1.3E1,1.3E1,1.2E2,1.05E2,1.6715227E1,5.4777515E1,9E1,1.5E1,1E0,4.8576237E1,4.9E1,4.4825832E1,1.2E1,1.3E2,3E1,3.4941326E1,5E1,5.4523098E1,2E0,5E0,9.404004E0,4.5763023E1,2.4E1,1E0,-4.8884594E-1,5.3658512E1,1.5366435E1,3.5290225E0,-1.471193E0,7.332532E0,1.1999954E1,-1.1090369E1,5.25774E0,2.728216E1],"split_indices":[39,4,82,12,4,0,0,22,82,89,0,0,0,82,12,4,0,78,0,80,13,0,0,4,87,0,0,0,0,0,0,0,0,0,0],"split_type":[0,0,0,0,0,0,0,0,0,0,0,0,0,0,0,0,0,0,0,0,0,0,0,0,0,0,0,0,0,0,0,0,0,0,0],"sum_hessian":[1.675E3,1.671E3,4E0,1.656E3,1.5E1,3E0,1E0,1.64E3,1.6E1,1.4E1,1E0,1.638E3,2E0,1.1E1,5E0,1.3E1,1E0,1.637E3,1E0,7E0,4E0,2E0,3E0,7E0,6E0,1.636E3,1E0,5E0,2E0,3E0,1E0,5E0,2E0,4E0,2E0],"tree_param":{"num_deleted":"0","num_feature":"95","num_nodes":"35","size_leaf_vector":"1"}},{"base_weights":[7.575485E-1,5.450591E-1,5.3501606E1,1.7760396E-1,1.02729225E2,-8.1984796E-2,1.4444975E2,1.2163106E2,1.2330093E0,-8.346238E-1,4.9414837E1,5.4930443E1,1.0071945E1,1.0997599E1,4.0112846E1,-1.7547584E0,4.031346E1,7.652969E1,-1.1207059E2,-5.9221584E-1,5.2630604E1,1.619931E1,-1.65985E1,4.5539993E1,1.3638592E1,-7.094385E0,-4.0098648E1],"categories":[],"categories_nodes":[],"categories_segments":[],"categories_sizes":[],"default_left":[0,0,0,0,0,0,0,0,0,0,0,0,0,0,0,0,0,0,0,0,0,0,0,0,0,0,0],"id":34,"left_children":[1,3,-1,5,7,9,11,13,-1,15,17,-1,-1,-1,-1,19,21,23,25,-1,-1,-1,-1,-1,-1,-1,-1],"loss_changes":[6.314517E4,6.2874812E4,0E0,6.2555723E4,1.068459E4,6.2179652E4,6.709422E3,2.3005469E2,0E0,6.23155E4,1.1804309E5,0E0,0E0,0E0,0E0,6.286691E4,5.010386E4,4.454535E4,4.4758984E3,0E0,0E0,0E0,0E0,0E0,0E0,0E0,0E0],"parents":[2147483647,0,0,1,1,3,3,4,4,5,5,6,6,7,7,9,9,10,10,15,15,16,16,17,17,18,18],"right_children":[2,4,-1,6,8,10,12,14,-1,16,18,-1,-1,-1,-1,20,22,24,26,-1,-1,-1,-1,-1,-1,-1,-1],"split_conditions":[5E2,1.5E1,5.3501606E1,3E2,1E0,1E1,9E0,1E1,1.2330093E0,1E2,1.6E1,5.4930443E1,1.0071945E1,1.0997599E1,4.0112846E1,1.65E2,1E0,2E1,1.7E1,-5.9221584E-1,5.2630604E1,1.619931E1,-1.65985E1,4.5539993E1,1.3638592E1,-7.094385E0,-4.0098648E1],"split_indices":[36,24,0,32,89,44,82,82,0,15,82,0,0,0,0,65,90,44,44,0,0,0,0,0,0,0,0],"split_type":[0,0,0,0,0,0,0,0,0,0,0,0,0,0,0,0,0,0,0,0,0,0,0,0,0,0,0],"sum_hessian":[1.675E3,1.674E3,1E0,1.669E3,5E0,1.667E3,2E0,4E0,1E0,1.643E3,2.4E1,1E0,1E0,1E0,3E0,1.608E3,3.5E1,2.1E1,3E0,1.607E3,1E0,3.1E1,4E0,5E0,1.6E1,1E0,2E0],"tree_param":{"num_deleted":"0","num_feature":"95","num_nodes":"27","size_leaf_vector":"1"}},{"base_weights":[6.701878E-1,2.8265047E-1,9.302978E1,2.9604703E-2,4.2264565E1,1.2752716E2,1.0582485E1,-1.752266E-1,5.122251E1,9.1021E0,4.49428E1,-4.262065E-1,4.1753105E1,-8.8180375E-1,7.506332E1,-1.7950642E-1,-4.705883E1,1.0805909E1,6.396839E1],"categories":[],"categories_nodes":[],"categories_segments":[],"categories_sizes":[],"default_left":[0,0,0,0,0,0,0,0,0,0,0,0,0,0,0,0,0,0,0],"id":35,"left_children":[1,3,5,7,-1,9,-1,11,-1,-1,-1,13,-1,15,17,-1,-1,-1,-1],"loss_changes":[5.9962418E4,5.9411152E4,9.448215E3,5.835518E4,0E0,4.116871E3,0E0,5.8361996E4,0E0,0E0,0E0,5.733024E4,0E0,7.312229E4,4.6264074E4,0E0,0E0,0E0,0E0],"parents":[2147483647,0,0,1,1,2,2,3,3,5,5,7,7,11,11,13,13,14,14],"right_children":[2,4,6,8,-1,10,-1,12,-1,-1,-1,14,-1,16,18,-1,-1,-1,-1],"split_conditions":[5E1,1.5E2,1E0,1E2,4.2264565E1,1E1,1.0582485E1,4E1,5.122251E1,9.1021E0,4.49428E1,1E2,4.1753105E1,3E1,1E0,-1.7950642E-1,-4.705883E1,1.0805909E1,6.396839E1],"split_indices":[74,40,88,58,0,82,0,26,0,0,0,54,0,54,89,0,0,0,0],"split_type":[0,0,0,0,0,0,0,0,0,0,0,0,0,0,0,0,0,0,0],"sum_hessian":[1.675E3,1.669E3,6E0,1.667E3,2E0,3E0,3E0,1.666E3,1E0,1E0,2E0,1.664E3,2E0,1.655E3,9E0,1.653E3,2E0,8E0,1E0],"tree_param":{"num_deleted":"0","num_feature":"95","num_nodes":"19","size_leaf_vector":"1"}},{"base_weights":[6.048118E-1,4.0357766E-1,5.0650803E1,2.0226505E-1,5.0610134E1,-3.3100593E-1,6.345661E1,-1.3314881E0,3.405431E1,7.646729E1,-1.5852329E1,-3.3035622E0,1.8836737E1,1.3118871E1,1.5181126E2,8.979991E1,-1.2528626E1,-7.9577595E-1,-2.4685371E1,4.1286864E0,4.714619E1,7.587225E1,2.4044038E-1,1.8689306E1,6.101161E1,2.979456E1,-2.2302246E0],"categories":[],"categories_nodes":[],"categories_segments":[],"categories_sizes":[],"default_left":[0,0,0,0,0,0,0,0,0,0,0,0,0,0,0,0,0,0,0,0,0,0,0,0,0,0,0],"id":36,"left_children":[1,3,-1,5,-1,7,9,11,13,15,-1,17,19,21,23,25,-1,-1,-1,-1,-1,-1,-1,-1,-1,-1,-1],"loss_changes":[5.6670926E4,5.6715344E4,0E0,5.6487887E4,0E0,5.7186895E4,2.522418E4,6.4295992E4,1.13877195E5,2.4242227E4,0E0,7.54642E4,9.890846E4,1.20893805E5,1.963811E4,1.184082E4,0E0,0E0,0E0,0E0,0E0,0E0,0E0,0E0,0E0,0E0,0E0],"parents":[2147483647,0,0,1,1,3,3,5,5,6,6,7,7,8,8,9,9,11,11,12,12,13,13,14,14,15,15],"right_children":[2,4,-1,6,-1,8,10,12,14,16,-1,18,20,22,24,26,-1,-1,-1,-1,-1,-1,-1,-1,-1,-1,-1],"split_conditions":[1E2,1.5E2,5.0650803E1,1.7E1,5.0610134E1,2.1875E1,5E0,1E0,1E0,1E0,-1.5852329E1,5E0,2.7E1,2.4E1,7.5E1,1E0,-1.2528626E1,-7.9577595E-1,-2.4685371E1,4.1286864E0,4.714619E1,7.587225E1,2.4044038E-1,1.8689306E1,6.101161E1,2.979456E1,-2.2302246E0],"split_indices":[23,48,0,47,0,32,29,85,90,88,0,46,16,32,32,34,0,0,0,0,0,0,0,0,0,0,0],"split_type":[0,0,0,0,0,0,0,0,0,0,0,0,0,0,0,0,0,0,0,0,0,0,0,0,0,0,0],"sum_hessian":[1.675E3,1.674E3,1E0,1.673E3,1E0,1.66E3,1.3E1,1.614E3,4.6E1,1.2E1,1E0,1.471E3,1.43E2,4E1,6E0,1.1E1,1E0,1.46E3,1.1E1,1.39E2,4E0,1E0,3.9E1,3E0,3E0,1E1,1E0],"tree_param":{"num_deleted":"0","num_feature":"95","num_nodes":"27","size_leaf_vector":"1"}},{"base_weights":[5.9165704E-1,2.0858658E-2,5.9810688E1,7.1661294E-1,-7.155617E1,8.131712E1,-2.5037903E1,2.600594E-1,8.372974E1,-1.3059401E2,3.8059387E0,4.8513847E1,1.24099594E2,-1.169458E1,2.5191286E0,7.821304E-1,-1.21494225E2,-4.1045677E1,1.662892E2,-1.646573E2,-7.581665E0,8.3256714E1,-6.051587E1,-9.38031E0,9.670524E1,1.262359E1,4.9426212E1,3.7972948E-1,9.414239E1,-1.5306868E2,1.0192878E1,1.8715427E2,6.1648135E0,-5.3387867E1,-1.2726572E1,1.990741E0,-5.4024906E0,3.1551191E1,2.627243E0,4.2124786E0,-2.4799692E1,7.1812057E0,-1.1343956E1,4.6546295E1,4.460115E1,-1.1708567E-1,1.3798856E1,3.39508E1,-3.0028887E0,-5.2301025E1,-7.009259E0,6.36274E1,9.370354E0,5.1878815E0,-5.8610535E-1,1.6023102E1,3.8931246E0],"categories":[],"categories_nodes":[],"categories_segments":[],"categories_sizes":[],"default_left":[0,0,0,0,0,0,0,0,0,0,0,0,0,0,0,0,0,0,0,0,0,0,0,0,0,0,0,0,0,0,0,0,0,0,0,0,0,0,0,0,0,0,0,0,0,0,0,0,0,0,0,0,0,0,0,0,0],"id":37,"left_children":[1,3,5,7,9,11,13,15,17,19,21,23,25,-1,-1,27,29,-1,31,33,35,37,39,41,43,-1,-1,45,47,49,-1,51,-1,-1,-1,-1,-1,-1,-1,-1,-1,53,-1,55,-1,-1,-1,-1,-1,-1,-1,-1,-1,-1,-1,-1,-1],"loss_changes":[5.6651117E4,8.27691E4,3.1232664E4,6.236152E4,7.168449E4,1.2223719E4,2.1922095E3,1.0421349E5,1.8662692E5,3.646347E4,4.5921688E4,2.6017123E4,9.739961E3,0E0,0E0,6.127565E4,3.9562977E4,0E0,1.7440203E4,3.8326562E3,5.642206E2,5.609252E3,9.417908E3,2.6260017E3,6.112551E3,0E0,0E0,5.7131777E4,1.5004645E4,1.2478125E4,0E0,1.6704516E4,0E0,0E0,0E0,0E0,0E0,0E0,0E0,0E0,0E0,4.0326318E2,0E0,2.2857227E2,0E0,0E0,0E0,0E0,0E0,0E0,0E0,0E0,0E0,0E0,0E0,0E0,0E0],"parents":[2147483647,0,0,1,1,2,2,3,3,4,4,5,5,6,6,7,7,8,8,9,9,10,10,11,11,12,12,15,15,16,16,18,18,19,19,20,20,21,21,22,22,23,23,24,24,27,27,28,28,29,29,31,31,41,41,43,43],"right_children":[2,4,6,8,10,12,14,16,18,20,22,24,26,-1,-1,28,30,-1,32,34,36,38,40,42,44,-1,-1,46,48,50,-1,52,-1,-1,-1,-1,-1,-1,-1,-1,-1,54,-1,56,-1,-1,-1,-1,-1,-1,-1,-1,-1,-1,-1,-1,-1],"split_conditions":[3E1,1E0,3E0,3E1,8E0,1E0,6E1,5E0,1.1E1,1E0,1.3E1,2E0,4.5E1,-1.169458E1,2.5191286E0,4E0,3E0,-4.1045677E1,1E0,3E0,4E0,1E0,9E0,1E2,8E1,1.262359E1,4.9426212E1,4E1,1E1,1E0,1.0192878E1,3.2E1,6.1648135E0,-5.3387867E1,-1.2726572E1,1.990741E0,-5.4024906E0,3.1551191E1,2.627243E0,4.2124786E0,-2.4799692E1,9E0,-1.1343956E1,2E0,4.460115E1,-1.1708567E-1,1.3798856E1,3.39508E1,-3.0028887E0,-5.2301025E1,-7.009259E0,6.36274E1,9.370354E0,5.1878815E0,-5.8610535E-1,1.6023102E1,3.8931246E0],"split_indices":[62,62,80,64,62,91,67,64,82,87,82,80,62,0,0,80,61,0,34,61,15,86,62,62,63,0,0,61,14,87,0,63,0,0,0,0,0,0,0,0,0,82,0,63,0,0,0,0,0,0,0,0,0,0,0,0,0],"split_type":[0,0,0,0,0,0,0,0,0,0,0,0,0,0,0,0,0,0,0,0,0,0,0,0,0,0,0,0,0,0,0,0,0,0,0,0,0,0,0,0,0,0,0,0,0,0,0,0,0,0,0,0,0,0,0,0,0],"sum_hessian":[1.675E3,1.66E3,1.5E1,1.645E3,1.5E1,1.2E1,3E0,1.637E3,8E0,8E0,7E0,8E0,4E0,2E0,1E0,1.631E3,6E0,2E0,6E0,6E0,2E0,3E0,4E0,4E0,4E0,2E0,2E0,1.625E3,6E0,5E0,1E0,5E0,1E0,5E0,1E0,1E0,1E0,2E0,1E0,1E0,3E0,3E0,1E0,3E0,1E0,1.599E3,2.6E1,5E0,1E0,4E0,1E0,4E0,1E0,1E0,2E0,2E0,1E0],"tree_param":{"num_deleted":"0","num_feature":"95","num_nodes":"57","size_leaf_vector":"1"}},{"base_weights":[4.668733E-1,2.4522042E-2,7.416014E1,-4.6441245E-1,6.749544E1,4.411822E1,3.75524E1,-9.151644E-1,7.382088E1,5.2395496E1,4.187654E1,8.06485E1,-2.5705826E1,-1.2011687E0,1.1686135E2,1.17751495E2,-2.1512917E1,3.5900066E0,4.283319E1,8.218829E0,3.2105423E1,-9.890228E0,-5.881531E-1,-1.980479E0,4.226665E1,5.560567E1,-1.3291696E1,1.4788689E2,-9.459133E0,-1.3251645E1,6.9697175E0,-4.5474506E1,7.6289276E1,-6.921485E-2,-2.1818338E1,1.5679359E1,-3.56511E1,9.264716E0,4.9533398E1,-1.677602E1,1.0129944E0,1.1634339E0,2.974009E1],"categories":[],"categories_nodes":[],"categories_segments":[],"categories_sizes":[],"default_left":[0,0,0,0,0,0,0,0,0,0,0,0,0,0,0,0,0,0,0,0,0,0,0,0,0,0,0,0,0,0,0,0,0,0,0,0,0,0,0,0,0,0,0],"id":38,"left_children":[1,3,5,7,9,-1,11,13,15,-1,17,19,21,23,25,27,29,31,-1,-1,-1,-1,-1,33,35,-1,-1,37,-1,-1,-1,39,41,-1,-1,-1,-1,-1,-1,-1,-1,-1,-1],"loss_changes":[5.4632945E4,5.502377E4,2.116477E4,5.551747E4,2.5628875E4,0E0,2.3882598E4,5.5618867E4,4.441389E4,0E0,4.1981977E4,4.089332E3,6.25083E2,5.5774086E4,5.2366035E4,3.615365E4,5.0818022E3,3.557181E4,0E0,0E0,0E0,0E0,0E0,2.0002952E5,5.292111E4,0E0,0E0,6.9929688E3,0E0,0E0,0E0,3.2504893E3,6.232293E3,0E0,0E0,0E0,0E0,0E0,0E0,0E0,0E0,0E0,0E0],"parents":[2147483647,0,0,1,1,2,2,3,3,4,4,6,6,7,7,8,8,10,10,11,11,12,12,13,13,14,14,15,15,16,16,17,17,23,23,24,24,27,27,31,31,32,32],"right_children":[2,4,6,8,10,-1,12,14,16,-1,18,20,22,24,26,28,30,32,-1,-1,-1,-1,-1,34,36,-1,-1,38,-1,-1,-1,40,42,-1,-1,-1,-1,-1,-1,-1,-1,-1,-1],"split_conditions":[1.3E2,1.75E2,2E2,1.3E1,1.8E2,4.411822E1,1E0,2E2,3.5E1,5.2395496E1,1E0,2.96E2,1E0,4E1,1E0,1E0,5E1,2.5E2,4.283319E1,8.218829E0,3.2105423E1,-9.890228E0,-5.881531E-1,1E0,2E0,5.560567E1,-1.3291696E1,1.5E1,-9.459133E0,-1.3251645E1,6.9697175E0,1E0,9E0,-6.921485E-2,-2.1818338E1,1.5679359E1,-3.56511E1,9.264716E0,4.9533398E1,-1.677602E1,1.0129944E0,1.1634339E0,2.974009E1],"split_indices":[13,14,13,43,14,0,87,56,43,0,89,13,16,1,89,90,43,14,0,0,0,0,0,1,63,0,0,43,0,0,0,91,82,0,0,0,0,0,0,0,0,0,0],"split_type":[0,0,0,0,0,0,0,0,0,0,0,0,0,0,0,0,0,0,0,0,0,0,0,0,0,0,0,0,0,0,0,0,0,0,0,0,0,0,0,0,0,0,0],"sum_hessian":[1.675E3,1.666E3,9E0,1.655E3,1.1E1,2E0,7E0,1.646E3,9E0,1E0,1E1,4E0,3E0,1.643E3,3E0,6E0,3E0,8E0,2E0,2E0,2E0,2E0,1E0,1.615E3,2.8E1,2E0,1E0,5E0,1E0,2E0,1E0,5E0,3E0,1.577E3,3.8E1,2.7E1,1E0,1E0,4E0,4E0,1E0,1E0,2E0],"tree_param":{"num_deleted":"0","num_feature":"95","num_nodes":"43","size_leaf_vector":"1"}},{"base_weights":[4.6275586E-1,2.6634082E-1,4.941869E1,5.055889E-1,-3.997294E1,2.6671976E-1,4.001615E1,-6.9031544E-2,9.344921E1,-4.8329756E-1,7.6255646E1,1.2009432E2,2.6772665E1,-2.5470966E-1,2.5769735E1,4.8426857E1,1.3629566E1,4.0739274E0,4.5321777E1,6.050995E-1,1.14426E1],"categories":[],"categories_nodes":[],"categories_segments":[],"categories_sizes":[],"default_left":[0,0,0,0,0,0,0,0,0,0,0,0,0,0,0,0,0,0,0,0,0],"id":39,"left_children":[1,3,-1,5,-1,7,-1,9,11,13,15,17,19,-1,-1,-1,-1,-1,-1,-1,-1],"loss_changes":[5.4031176E4,5.3570016E4,0E0,5.306763E4,0E0,5.2285594E4,0E0,5.2713637E4,7.444383E3,5.24542E4,1.629282E4,1.1147016E4,7.6743384E2,0E0,0E0,0E0,0E0,0E0,0E0,0E0,0E0],"parents":[2147483647,0,0,1,1,3,3,5,5,7,7,8,8,9,9,10,10,11,11,12,12],"right_children":[2,4,-1,6,-1,8,-1,10,12,14,16,18,20,-1,-1,-1,-1,-1,-1,-1,-1],"split_conditions":[1.3E2,1E0,4.941869E1,2.88E2,-3.997294E1,5E0,4.001615E1,4E1,1E0,2E1,5E1,1E1,1.3E1,-2.5470966E-1,2.5769735E1,4.8426857E1,1.3629566E1,4.0739274E0,4.5321777E1,6.050995E-1,1.14426E1],"split_indices":[42,25,0,17,0,7,0,37,90,53,37,82,7,0,0,0,0,0,0,0,0],"split_type":[0,0,0,0,0,0,0,0,0,0,0,0,0,0,0,0,0,0,0,0,0],"sum_hessian":[1.675E3,1.674E3,1E0,1.672E3,2E0,1.67E3,2E0,1.665E3,5E0,1.657E3,8E0,3E0,2E0,1.651E3,6E0,1E0,7E0,1E0,2E0,1E0,1E0],"tree_param":{"num_deleted":"0","num_feature":"95","num_nodes":"21","size_leaf_vector":"1"}},{"base_weights":[4.4234598E-1,2.5173685E-1,4.7956894E1,-4.9818043E-2,1.0098103E2,-3.7973058E-1,9.15642E1,2.5749977E1,6.0285793E1,-1.0603993E0,4.4341778E1,5.287485E1,3.937724E1,-8.540936E0,5.331316E1,-1.3479891E0,1.17044624E2,7.767305E1,1.2604843E1,-2.0476365E0,1.5790284E1,3.1177506E0,2.0873173E1,-5.696961E-1,1.6398766E1,4.1257633E1,8.340331E0,3.88499E1,1.0671687E1,2.1350126E1,-5.3810287E0],"categories":[],"categories_nodes":[],"categories_segments":[],"categories_sizes":[],"default_left":[0,0,0,0,0,0,0,0,0,0,0,0,0,0,0,0,0,0,0,0,0,0,0,0,0,0,0,0,0,0,0],"id":40,"left_children":[1,3,-1,5,7,9,11,13,-1,15,17,-1,19,-1,21,23,25,27,29,-1,-1,-1,-1,-1,-1,-1,-1,-1,-1,-1,-1],"loss_changes":[5.0886285E4,5.088385E4,0E0,5.0540098E4,3.2430312E4,5.0760938E4,1.9576586E4,7.4956924E3,0E0,5.592962E4,2.5466758E4,0E0,3.4218076E3,0E0,1.3711123E3,5.068612E4,3.4877578E3,2.1576672E4,2.6316693E4,0E0,0E0,0E0,0E0,0E0,0E0,0E0,0E0,0E0,0E0,0E0,0E0],"parents":[2147483647,0,0,1,1,3,3,4,4,5,5,6,6,7,7,9,9,10,10,12,12,14,14,15,15,16,16,17,17,18,18],"right_children":[2,4,-1,6,8,10,12,14,-1,16,18,-1,20,-1,22,24,26,28,30,-1,-1,-1,-1,-1,-1,-1,-1,-1,-1,-1,-1],"split_conditions":[1.08E2,4E1,4.7956894E1,4E1,1E0,5E1,6.3333332E1,5E1,6.0285793E1,8E1,1.2E1,5.287485E1,7.5E1,-8.540936E0,4E0,1.3E1,1E1,1.2E2,6E1,-2.0476365E0,1.5790284E1,3.1177506E0,2.0873173E1,-5.696961E-1,1.6398766E1,4.1257633E1,8.340331E0,3.88499E1,1.0671687E1,2.1350126E1,-5.3810287E0],"split_indices":[27,41,0,57,87,51,57,41,0,46,82,0,57,0,18,4,82,51,51,0,0,0,0,0,0,0,0,0,0,0,0],"split_type":[0,0,0,0,0,0,0,0,0,0,0,0,0,0,0,0,0,0,0,0,0,0,0,0,0,0,0,0,0,0,0],"sum_hessian":[1.675E3,1.674E3,1E0,1.67E3,4E0,1.665E3,5E0,3E0,1E0,1.641E3,2.4E1,1E0,4E0,1E0,2E0,1.638E3,3E0,1.1E1,1.3E1,1E0,3E0,1E0,1E0,1.623E3,1.5E1,2E0,1E0,4E0,7E0,4E0,9E0],"tree_param":{"num_deleted":"0","num_feature":"95","num_nodes":"31","size_leaf_vector":"1"}},{"base_weights":[5.0131106E-1,2.7257895E-1,1.2796671E2,-7.7027105E-2,8.353977E1,4.6947613E1,1.0637412E1,-4.017412E-1,8.993574E1,3.2764854E1,